float w3[8192] = {0.13527739,-0.0010612662,0.14416663,-0.028335582,0.058539834,-0.03422181,0.044232693,0.14588459,-0.104127765,0.011792631,0.16635676,0.056892898,-0.14708392,-0.1841965,-0.10863537,-0.041304626,-0.24124695,0.1619179,-0.16773702,-0.17726877,0.092501305,-0.0026160264,0.04499871,0.17529303,0.120172285,-0.13775237,0.13834383,-0.19200994,-0.036133144,-0.14574297,0.018823091,0.19200656,-0.011980035,-0.016282964,0.06559452,-0.017042534,0.072522715,0.15550248,-0.059668276,0.14827411,-0.20935836,-0.1809844,-0.031221757,-0.06134012,0.022976952,0.014576179,-0.22577898,0.14701423,-0.147044,-0.11642843,0.09847882,-0.11848647,-0.16094697,-0.06007781,0.17952149,0.028108252,0.20430374,-0.019572172,-0.09531067,-0.050426565,-0.21215041,-0.1479823,0.063228115,-0.19922672,0.23087782,-0.08397527,-0.1528986,-0.070274785,-0.09090971,0.14816687,0.10887973,0.07797736,-0.18991269,-0.097261764,0.03540272,0.08422415,0.09493356,-0.13250066,-0.121450566,-0.117465615,-0.038454298,-0.06878822,0.07083538,-0.19702408,-0.18197262,0.10903941,0.22165944,0.2058453,-0.039132997,-0.0701676,-0.1920681,-0.031827156,-0.009990943,-0.17692353,0.061520193,0.018624604,-0.101609886,-0.12606947,-0.18215464,-0.03222516,-0.122566216,0.058975093,-0.16134937,0.14284536,0.070100285,-0.019834662,-0.033164226,0.026337938,0.02342739,0.21910165,0.091322124,-0.00067543413,0.10796666,0.027306387,-0.23183887,-0.20003016,-0.021398932,-0.017895654,-0.18152201,-0.067337014,-0.041045308,0.14916684,0.15416543,0.19533272,-0.037522234,0.05510316,-0.15674882,0.093325414,0.12360718,-0.20592324,-0.01835156,0.23966847,-0.18627019,-0.09856584,0.17247857,0.28012568,-0.07640413,0.11202076,0.11066131,0.11185044,0.21216872,-0.123435535,0.0879344,0.076511115,0.04973857,-0.11848704,-0.17561531,0.12892348,0.06864765,0.21181467,-0.18752924,0.0007224726,0.2203837,0.20114507,0.0046322444,-0.053820495,0.052548032,-0.040940512,-0.06619831,-0.016947344,0.048928842,0.05560898,-0.05339377,0.19913717,-0.06535378,-0.04463086,-0.107652776,0.0939617,0.03497629,0.17001197,0.103285745,0.21985593,0.07726308,0.108385265,-0.10531626,-0.14319491,-0.04260809,0.1663293,0.0562532,0.0024519945,0.071998216,0.14188936,0.21276948,0.08038994,-0.16529529,0.060951337,0.055891935,-0.026801025,-0.15920363,0.061503205,0.13318689,0.09946062,0.104119115,0.14357072,0.055749435,0.0822367,-0.13352484,0.112759404,0.077993594,-0.021913003,0.028054075,0.20834185,-0.13951291,-0.13813336,-0.164525,0.09399083,0.22226939,0.126138,0.031367607,0.07996627,0.11166235,0.07389496,-0.056644592,0.04496345,0.17941086,-0.04481915,0.26426938,0.2096812,0.1856988,-0.008998253,0.008452754,0.13785878,0.1562095,0.1065387,0.15113206,-0.12251154,-0.17068638,0.084998704,-0.018792566,-0.0395626,0.096404694,0.069380015,0.015606736,0.013577329,0.073741265,0.049441967,-0.095384344,-0.12819105,-0.073494755,-0.14746124,0.17783208,-0.10656817,-0.11411428,-0.06291416,-0.10051718,0.10994268,-0.019020155,0.20937422,-0.1615803,0.028494492,-0.17146736,-0.20814268,0.063690744,0.14078882,0.19174324,0.019929528,-0.23114601,-0.08452773,0.17086194,-0.1157423,0.03397177,-0.011417977,-0.089772575,0.045330822,0.14277226,0.17212553,0.045703884,0.014087492,0.04426439,0.023010124,0.06863387,-0.07267128,0.21782608,0.030212255,0.13019449,0.23737155,0.039208956,0.017415876,0.059262786,0.02191631,0.03911153,0.1620993,0.1586093,0.08353773,0.2065637,-0.05467642,-0.085103564,-0.15466708,-0.017298277,0.21462125,-0.037313543,0.15451452,0.014787195,-0.12095662,-0.06770781,0.035889138,0.0819396,-0.06852975,0.000386389,0.17264633,0.15710196,0.14459874,-0.08846347,-0.076376304,-0.05557937,0.020643558,0.08332275,0.016385851,0.025359387,0.2342378,0.03817952,-0.0527235,-0.094020225,0.12865761,0.012179675,0.024955936,0.20363133,0.07503072,0.0028267577,0.1681993,-0.17697284,-0.07510028,0.06772986,-0.2296601,0.12068148,-0.18075666,0.072239034,-0.10196554,0.074664176,0.18021223,-0.009080119,-0.08658926,0.23824485,-0.081810996,0.17335102,-0.024670566,-0.18037196,0.16115454,-0.20950103,0.060565274,0.20939721,0.062641144,0.04066422,-0.09132255,-0.10299769,-0.10264552,-0.1375537,0.0065226685,-0.040096603,0.12340308,-0.21254928,-0.11608863,0.058412034,-0.024244927,0.004127196,0.19725916,-0.12672918,0.17062806,0.12932633,0.14204785,-0.08212191,0.07034047,-0.0556344,0.08853828,-0.08639558,-0.06254542,-0.17738733,-0.06770017,0.011379677,0.059696943,-0.078825474,-0.08891451,-0.009435714,0.1457808,0.20117912,-0.026942687,0.14161623,-0.26022685,0.15566038,0.21269758,-0.04744035,0.06300268,0.05378493,0.2024433,0.088214405,-0.022469562,0.118437685,-0.114574015,0.12126565,-0.033377238,-0.2473941,-0.15916756,0.0692627,-0.21166565,-0.03066049,-0.06361855,-0.06328361,-0.18601131,0.19453019,-0.028574862,0.048229266,0.113930315,0.12246002,-0.027278086,-0.14408514,-0.084894985,-0.020072551,0.012517619,-0.17850268,0.15395327,-0.208619,0.053595137,0.11483186,0.11300734,-0.052044682,0.18332134,0.08022561,-0.21460795,-0.015619342,0.015095375,0.17524093,-0.121044956,-0.08986725,0.16684735,-0.09943273,-0.003869822,0.031028576,-0.15353277,-0.05894432,-0.13340269,-0.20283358,0.28763282,0.02092491,0.062263478,0.00186809,-0.23964356,0.13705091,-0.07682812,0.092177756,-0.1921809,0.09061599,-0.17788886,-0.114547245,0.19414417,-0.22481383,0.016660023,-0.19028617,-0.04985547,-0.01857586,0.1615033,0.021774886,-0.06684402,-0.021633938,-0.108356446,0.023533218,-0.20152086,0.1465516,0.24477689,-0.19887868,-0.04306325,0.025127027,0.051928546,0.092879936,0.0024056686,-0.028212342,0.18141972,0.09648044,0.059148915,0.19139598,-0.21049388,0.038507722,0.12100564,0.08915143,-0.109847836,-0.18768996,-0.056134935,-0.21213984,-0.20386676,0.115014285,0.09193109,-0.013049457,-0.063336596,0.020477766,-0.06220875,0.07661387,0.26751122,-0.03132443,0.14968511,0.03959293,-0.1770897,0.03806677,-0.06257535,-0.046621293,0.11633773,0.19606441,0.053684272,-0.13561694,-0.0012022678,-0.04830596,0.14639194,0.12874508,0.15735129,0.0716002,0.09208385,-0.005143595,-0.06154742,0.09833384,-0.12779444,-0.09573851,-0.12336991,0.02466388,-0.03467968,-0.13319305,-0.16499071,0.07131319,0.13286974,0.037373975,-0.01235857,0.07204287,0.19893888,0.10691997,-0.30261278,-0.015490262,-0.061688878,-0.107566774,0.09048724,0.040158145,-0.1448487,0.12303139,-0.18075618,0.053749215,-0.13116069,-0.1919473,0.12005797,-0.101437315,-0.12401464,-0.117751114,0.1041794,0.110725425,0.22203901,-0.068707354,0.053703923,-0.06710417,-0.18163869,0.026594486,0.14122528,-0.07159597,0.07134759,0.11503243,-0.32081136,0.050282,0.070318714,0.29679278,0.16898128,-0.16579051,0.28691715,-0.15798146,0.061704464,0.037228506,0.02577954,-0.07728903,0.1324188,-0.031023143,-0.102781825,-0.0166435,0.097542726,-0.054215312,0.11702996,0.02791353,0.14364503,0.015190344,-0.0952622,-0.22460727,0.25118107,0.12791298,0.050803587,0.07985481,-0.10663136,0.04209003,0.19170943,0.058144867,-0.029873151,-0.12459514,-0.05466353,0.16489582,-0.2023002,-0.11761501,-0.09797752,-0.02530196,-0.038920622,-0.17981845,-0.08361049,-0.20286514,-0.08885364,-0.13571483,-0.10109311,0.0873794,0.03469254,0.020308802,0.20231503,-0.21081056,0.023915108,-0.106631905,-0.006736408,0.13225834,0.018695002,-0.12429134,-0.09947012,-0.07419207,0.1631501,0.21461158,-0.0813977,-0.040618043,-0.11287006,0.08826768,-0.26455295,-0.16032222,-0.18885253,0.025948476,0.16317946,0.2234131,0.21575147,-0.16700901,-0.20853306,-0.16916007,-0.16737568,-0.10451245,-0.21145712,-0.090901285,-0.17808205,0.032403458,0.032526825,-0.1158298,0.18250774,0.12882511,-0.048949502,0.17838037,-0.032702014,-0.078090556,-0.0090008015,-0.06880143,0.063330896,-0.02739402,-0.109255284,-0.030419972,0.17688851,0.024337765,-0.17039523,0.043680746,-0.14276285,0.03010525,-0.1040584,0.06852899,0.06499513,0.037554633,-0.07780964,0.16222836,-0.16622631,-0.10667044,0.11155647,-0.15343398,-0.020596055,0.06535765,-0.055829853,-0.14079256,0.09281227,0.022765797,0.1824785,-0.13328755,-0.006919559,0.023185793,-0.059789464,0.07321083,0.19516328,0.114358544,0.17611313,-0.02263276,0.035163894,0.16387181,0.08874797,0.054763265,-0.092939146,0.039755512,0.017990196,0.006321642,0.12218915,0.16702798,-0.10388526,-0.13057192,-0.1935913,0.18887591,0.15482931,-0.1040788,0.10285076,-0.17586002,-0.15284039,0.04415836,0.08436531,-0.17105937,0.099907815,-0.021096513,0.18088818,0.09461954,0.05715343,-0.087584406,-0.11572136,-0.10243149,0.09771553,-0.011726525,-0.17238547,0.034168247,0.05624617,0.15023491,0.031148493,0.12325268,0.0063368627,0.10014508,-0.01401471,0.05250161,-0.10417363,0.07152114,0.20615818,0.060134165,-0.24305968,0.038437158,0.16662629,-0.11022907,-0.21025474,-0.11980511,-0.19247581,0.13311413,0.071472645,0.19943547,0.17413996,0.002796659,0.099800736,-0.052295122,-0.1545204,0.064216904,0.0066934307,0.0017776479,-0.1760777,0.07728619,0.10496119,-0.1913476,0.025879264,0.023333073,0.14768909,0.11646452,0.18530992,-0.107907675,0.15541723,0.026239289,0.14139776,0.028457982,0.1330395,-0.120207496,0.15097111,-0.0022891467,0.18797961,-0.04594377,-0.021519111,-0.04096885,0.15201111,-0.2312413,0.05023203,0.016096571,0.22833876,-0.117871225,-0.012685141,-0.061015602,-0.023428688,0.058244,0.1795597,-0.12883437,0.033849776,-0.062460754,0.12499228,0.17080969,0.04445425,0.15269008,0.17967157,0.15115821,0.09230851,-0.016643908,0.031543147,0.047344208,0.15735896,0.21277258,-0.040340863,-0.0794687,-0.1171884,-0.060075767,0.16628306,0.114259765,0.21717462,-0.11976802,0.1618854,0.053416934,0.14018299,0.046370927,-0.12655205,-0.19977261,0.14323393,0.12230602,0.02051396,-0.10136101,-0.26532224,0.14496362,0.108261965,0.08852384,-0.062589854,0.056067742,-0.047280405,-0.18208836,-0.09284849,-0.15347001,0.15495376,-0.03318725,-0.24133705,0.009283514,0.021100415,-0.043157533,0.011550446,0.11946644,0.10627419,-0.14509457,0.07183025,0.047931317,0.24622546,-0.05755056,-0.23366763,-0.16784123,-0.31617814,-0.105664104,0.23412174,0.033397682,-0.23059547,0.33097428,0.19901018,0.14258459,0.07802347,0.03785518,-0.0013561641,-0.058641225,0.031068217,-0.19209655,0.1893662,-0.11049781,-0.06959495,-0.0629342,-0.13860832,-0.05183234,-0.013687826,-0.19239755,-0.16354524,0.0856224,0.026122699,-0.046664707,-0.13756259,-0.14524096,0.24967463,0.21051547,0.1515596,0.089784764,0.06997359,0.007626087,-0.16649655,0.24675353,-0.10652079,0.013547123,0.053707168,0.09335557,-0.024535026,-0.13247205,0.048608758,0.12504858,0.14926034,0.07780759,-0.21434031,-0.22367004,0.012038416,-0.025733363,0.08475474,-0.35715845,-0.0847306,0.05401716,0.27492508,0.011875367,0.1336827,0.025270294,-0.110713504,-0.14911233,0.19974224,0.16479081,-0.17532003,-0.18920824,0.050064348,0.19009677,0.091015145,-0.069376945,-0.116071135,0.022718526,-0.15346071,-0.028290471,0.11427178,-0.07211103,-0.017934138,-0.092401914,0.022979131,0.009033209,-0.1705464,0.027213698,0.26628357,0.1370695,-0.012309348,-0.10518904,-0.2801064,-0.0029723214,-0.02098696,0.13661014,-0.09648572,0.18363822,0.1069172,-0.077415705,0.099398315,0.07573618,-0.03734728,-0.007705891,0.14113517,0.009508529,-0.15836053,-0.06296384,0.14328076,0.095405005,0.19985922,-0.07029015,0.36978358,-0.024592174,0.1410607,-0.09530875,-0.320046,0.043806806,0.121912666,-0.21291861,-0.0441255,-0.11312438,0.22499771,-0.081184566,-0.23420793,0.1638759,-0.1695666,0.16247718,0.21666299,0.14895068,0.08738665,-0.010164918,0.22531347,0.16265206,0.1641533,-0.015683018,-0.08970561,-0.102499224,0.04727635,-0.018713128,-0.2533793,0.19717701,0.036459208,0.19822381,0.028573453,-0.1914756,0.032150883,0.102810755,-0.20172647,-0.18449616,0.21675065,-0.10018047,0.13544084,-0.22975461,0.09073443,0.12243936,-0.053769477,0.044985004,-0.037130803,-0.14635687,-0.066355735,-0.054741718,0.01140127,0.014535718,-0.023091208,0.071506776,0.026426181,0.16214687,-0.098397195,0.03884346,0.052753177,-0.049786676,-0.10611481,-0.016511157,-0.20716612,0.15604535,0.086298406,-0.029994968,0.20960285,-0.041935317,0.054457046,-0.28919008,-0.02298994,0.22826236,0.23649384,-0.14217131,0.1358561,0.02284975,0.027114687,-0.1385695,0.18868928,-0.034010593,-0.15070789,0.010188782,-0.08641166,-0.08734342,0.0038621915,-0.0408906,-0.062224403,0.06952083,0.092943326,0.25228924,0.08206941,0.1868366,-0.13240144,-0.031848535,-0.110006124,0.020125756,-0.23967917,-0.031386945,0.026656087,0.15474398,0.25676423,-0.1816225,0.13175239,-0.23758933,0.019401854,-0.046572693,-0.072270885,-0.13387959,-0.02940894,-0.15695177,-0.2120518,-0.15248208,-0.006636218,0.056716386,0.0809348,0.14630438,0.014097984,0.06250339,0.040801995,0.0012782144,0.14873847,0.11613813,0.004454773,-0.07007649,-0.2604695,0.06747435,-0.06390657,0.0026623537,0.05440555,0.004474463,0.30249953,0.192725,-0.0072565475,-0.12032018,-0.09143494,0.003453713,-0.12598562,0.15339139,-0.13338229,0.1375259,-0.09604273,-0.11486255,0.07405595,0.09968054,0.13317536,0.013685135,-0.0046549574,0.053657416,-0.004853352,0.08950311,-0.008900144,-0.019663638,-0.23285685,-0.108222485,0.21650465,0.110825464,-0.287113,0.15397702,0.25854483,-0.031070953,-0.29369152,-0.023344986,0.15305008,-0.0839736,0.11447537,-0.021655258,0.23523477,-0.30265868,-0.17963457,0.27375874,-0.14870557,0.03554176,-0.116488986,-0.3614007,-0.17584379,-0.22869088,0.21616997,-0.058606256,0.14811756,0.14605528,0.033030357,0.13536826,0.23751947,0.17357151,0.04944953,-0.18754914,0.048918474,0.09967785,-0.14828542,0.14851634,-0.23004226,-0.08713714,-0.15644075,-0.10186094,0.113679744,0.05359549,-0.059900478,0.1323101,-0.24621333,0.12167821,-0.020434413,0.05179449,0.120500036,-0.062441442,-0.030200211,0.027655207,0.0871309,0.1446023,0.12508313,-0.07301938,-0.2513774,0.13213019,0.13310063,0.20954688,-0.09082669,0.13911209,-0.031098478,0.061794613,-0.18882273,-0.05765335,0.008376743,0.10556502,-0.028809069,-0.08920883,-0.18867996,-0.046749625,0.050756507,-0.105596274,-0.0047992673,0.05790057,0.12376483,0.104124434,0.13886791,0.11893523,0.10672526,-0.05596916,0.13125254,0.05699125,-0.15480676,0.073588036,-0.23617738,-0.0760969,0.035171013,0.1597243,-0.17267969,0.20242189,0.04768061,-0.09927988,-0.15179998,0.14271863,-0.15994763,0.11815504,0.038057093,-0.1602248,0.05167347,-0.15580587,-0.05141241,-0.0045223464,-0.13111702,-0.10784831,0.010107913,-0.059979726,0.109347165,-0.058182787,-0.086643696,-0.12027577,0.25809544,-0.068548165,-0.11512701,-0.09144602,0.10941408,-0.1555908,-0.13658023,0.1757082,0.1624964,-0.13152097,0.052844584,-0.036286525,-0.15026009,-0.20537923,-0.005215688,-0.15016164,-0.07731235,0.033571705,0.10391827,0.017496001,0.03741543,0.11851784,-0.12707286,0.04965602,-0.04211818,0.02119113,0.06821657,-0.056053825,-0.029025562,0.18205765,0.06311405,-0.10212244,0.19952855,0.11999926,0.0070626684,0.051568408,-0.26810768,0.11697799,-0.07526521,0.16339317,0.07909501,-0.13590987,-0.07201111,0.14314389,0.22733523,-0.18054385,0.15171282,-0.042711165,-0.23817001,0.24242699,-0.030246891,0.14569402,-0.10001682,-0.059557136,0.00451843,0.15274662,-0.22162728,0.028404895,-0.050488174,0.05206919,0.07517539,-0.03623249,0.036976967,-0.14187947,0.13092577,-0.11647153,-0.06054367,-0.13428324,-0.091926254,0.09022764,0.21792367,0.009156155,-0.11328086,0.26000994,0.040271223,0.060229514,-0.085093096,-0.19764887,0.15538885,0.089644924,-0.22661895,-0.07134097,0.14259836,0.024474414,-0.069608666,-0.06148419,-0.022333626,0.022150654,0.093134746,0.122480184,0.17168787,-0.08654689,0.09451829,0.057813082,0.12638259,0.12262209,-0.025453541,0.07675465,-0.2898574,-0.019226361,-0.06307377,-0.13213801,-0.16171044,0.15080167,0.07405192,-0.02595129,0.042666268,-0.044254452,-0.08562972,0.03535002,-0.053835075,0.1977478,-0.23038766,0.16026697,-0.11634637,0.12194874,0.056288004,-0.19216001,0.1069343,0.12713568,-0.064204715,0.045972083,0.011004122,0.22212893,0.18549997,-0.19890922,-0.10566798,0.03720275,-0.0740796,-0.14280933,0.1446191,-0.14171234,-0.27872023,0.14423017,0.17981938,0.19296469,0.055935312,0.16750318,0.20748387,0.07780568,0.016722448,-0.0005302474,-0.06964457,0.12505181,-0.15869892,-0.0820763,0.03685946,0.046493195,-0.26234853,-0.13857765,-0.024066413,0.12509833,-0.07325693,0.14674404,-0.15421718,0.2034398,-0.18912259,0.054528773,0.1344077,-0.14791912,-0.08483971,0.066301,0.0012257146,-0.070541106,0.056604236,0.20802283,0.06464059,-0.18300736,-0.0150878355,-0.2236522,0.08121829,0.00849116,0.116826855,0.15425608,-0.20386136,-0.28217974,-0.123553276,-0.16392778,0.20441572,0.1777139,0.11150853,-0.25837445,-0.20831892,0.11929976,0.05960946,0.16077271,-0.2234484,-0.1647111,-0.07414723,-0.28451663,-0.008637291,0.07818469,0.074243024,0.042016774,-0.22458364,0.14457563,0.02254499,0.17139947,-0.042668898,-0.039010752,0.053805348,-0.04358721,-0.13880499,-0.22508846,0.18889338,0.03354539,-0.16899668,-0.10344391,-0.07793168,-0.17602956,0.12439311,0.32267103,-0.04852012,0.1601579,-0.0032437968,-0.07689137,0.1482105,-0.095264286,-0.11785993,-0.098946474,0.2011571,0.17152524,0.051797535,-0.1576672,-0.27036023,-0.24426006,-0.121956535,-0.058043636,0.103102006,-0.07728668,-0.12823269,-0.043299638,-0.08232205,-0.12729612,0.28055787,0.104327545,-0.18074687,-0.038455013,-0.011051941,0.06949183,-0.024638658,-0.047333617,0.005463654,0.12548964,-0.011220916,0.014620901,-0.09290145,-0.004023528,0.085822746,-0.01282313,0.20196275,0.22092949,-0.009358036,-0.12700252,0.006378309,-0.18436094,-0.12428327,-0.15102276,-0.07280418,-0.038907655,0.18088712,-0.05102266,-0.059014533,0.031513497,0.19929093,0.011447484,0.26720205,0.18277958,0.024088653,0.042869516,-0.06397589,-0.06626614,-0.03690207,-0.04371434,-0.106665224,-0.07306148,0.21497735,0.0020040204,-0.07851575,-0.053298593,-0.22173841,0.14653124,-0.06448041,-0.21638782,0.00044473496,0.042952538,0.1009868,0.1661371,0.084232286,-0.11064856,0.08068535,0.13533658,-0.042531066,-0.19967547,-0.104448065,-0.011010859,-0.17554882,-0.008023726,0.062272638,0.01449377,-0.14067686,-0.018568696,0.20194831,-0.15582971,-0.10385184,-0.10749825,0.023569992,-0.09961182,0.0536348,0.20113483,-0.08756439,0.0698287,0.021371925,-0.08574805,0.09828645,-0.17385784,-0.03450514,0.07761642,0.086931475,0.13065651,0.030552695,0.04959858,-0.014737182,0.0074477596,-0.12883383,0.16034488,0.026870813,0.05238035,0.0050359527,0.049400557,-0.03862633,-0.15756828,-0.07426572,-0.19139203,0.040828176,0.042173736,0.1370409,0.10017488,-0.07396926,-0.00403924,0.019080808,-0.110131614,0.12634298,0.00883453,-0.09023714,0.15408328,-0.23335293,0.13213633,0.022284588,-0.04997698,0.1397699,-0.18213561,-0.079399884,0.062028162,0.03255813,-0.025552465,0.14987734,0.23000732,-0.0011217338,-0.035630994,0.17246985,-0.07315335,0.06868837,-0.09946666,-0.058076482,0.115243256,0.014045896,-0.21650381,0.11095289,0.0052673533,-0.01677274,-0.07886621,0.04678042,0.14945494,-0.17457205,0.046355292,0.16026501,-0.16846982,0.089197055,-0.13386606,-0.024446912,0.1375387,0.07024017,0.102901675,-0.1826514,-0.0024691392,0.034146022,0.010525086,0.084917076,0.06045252,-0.16657169,0.054113105,0.1326619,-0.0947596,0.13343771,-0.15460294,0.03552234,-0.31406614,0.14262906,-0.0054471525,0.04103945,-0.025677325,-0.035393417,-0.028175391,0.091851674,-0.122323304,0.017723015,-0.021200042,0.10101069,-0.19366172,-0.04219844,-0.13182849,0.20863195,0.1582721,0.021890089,0.07916478,0.23200609,0.12722732,-0.06938736,0.03924254,-0.026275616,-0.05296091,0.056065366,0.006012638,0.080505796,0.08755828,0.1451992,-0.004891215,-0.09607209,-0.052663736,0.053680323,0.14323634,-0.16949573,-0.0013824989,0.0027319212,-0.16954362,-0.043102376,0.0729743,0.012963478,0.042282082,-0.040827535,-0.18145443,-0.07984689,-0.07062481,0.0925634,-0.17828971,-0.101037614,-0.04163337,0.0035316548,-0.12711464,0.14572196,-0.18328662,-0.11350723,0.13188371,0.057997517,0.14605,-0.09244883,-0.13023727,0.27197054,-0.046501007,0.1551325,0.149618,-0.029910846,-0.25056756,0.015282958,-0.06738855,0.036218174,0.050114546,-0.23129913,-0.20958185,-0.04124971,-0.045252357,0.17131896,-0.14430214,0.1243429,0.10568434,0.11882326,0.18246165,-0.06764517,0.10513399,-0.14823814,-0.056465384,-0.04407172,0.13144949,-0.07047042,-0.16135791,0.0640855,0.031930972,-0.21516255,0.13538635,0.08305908,0.16125615,0.19007304,0.025358114,-0.09592385,0.04765667,-0.23754261,0.21002202,0.047479693,-0.11447866,0.1253847,0.013268287,0.0063271434,0.26891,-0.14364953,0.14112033,0.18707274,0.081059866,-0.117335275,0.0123615265,-0.27277476,-0.18943255,-0.10658943,0.044648405,-0.0068385145,-0.11224933,0.025669904,-0.09032591,0.12705208,0.18607944,-0.16196084,0.023363892,0.09783852,0.009610245,-0.17665872,-0.010051966,0.091048546,0.1660923,-0.13731131,0.056296863,-0.18339065,0.05385843,0.10069479,0.009685544,-0.003555732,0.22713678,0.169658,0.18181267,0.09119588,-0.25416744,-0.05083412,-0.08992296,-0.16432746,0.0036434566,0.027249726,-0.08066277,-0.09438553,-0.17925578,-0.087832555,-0.15705614,-0.06491882,0.2403779,-0.08801279,0.008218357,-0.04656896,0.029923527,-0.022159664,0.081805155,0.17802143,0.18446326,0.054376006,0.12139286,-0.095471695,-0.009748892,0.07417486,0.24589758,0.09642784,0.019524647,0.22746515,0.07798304,0.16690975,-0.112772174,-0.01848336,0.050123077,-0.08585225,-0.05672707,0.109545946,-0.08221646,0.21059589,0.14633209,0.09074419,0.08519273,-0.17141792,0.04633179,-0.009002361,-0.05937268,0.0759212,0.0373386,0.094077,0.10508529,-0.1159016,-0.194548,-0.00836701,-0.17423986,-0.082157694,0.09419978,0.16070655,0.12283583,0.13038467,-0.2036939,-0.1180502,0.0446364,0.097529255,-0.23979503,0.27922583,0.14583784,0.16097218,-0.08357556,0.04213892,-0.16616827,0.17189953,0.0380312,0.062712364,0.16248302,-0.078828275,0.014620968,-0.080033265,0.08948751,-0.048158046,0.01497883,0.12033451,0.100984976,0.039312188,0.21969539,-0.1632196,-0.0023249346,0.09340228,0.2178492,0.09000466,-0.031695817,-0.020188872,0.10991946,0.127173,0.15772353,-0.08704101,0.0054113087,-0.2897037,0.24935538,0.061441887,0.18700644,0.158367,-0.22563402,0.08397454,0.047164775,0.30181304,-0.12456706,0.14466582,0.002445235,0.20460832,0.09438277,-0.055035707,0.06252973,-0.049421415,-0.0206783,-0.0031587828,-0.14572076,0.10763789,0.0010698909,0.069335744,0.0074073253,-0.0050758193,-0.06996056,0.15324973,-0.16063765,-0.11077191,0.041685868,-0.099539705,0.15861908,-0.010205431,-0.103251405,0.11490581,-0.13474736,-0.07830157,-0.0953345,0.15025407,0.2080477,0.060876317,0.10313821,-0.14943644,-0.29116365,0.08405975,0.1488706,-0.1301702,0.021563258,-0.017106274,0.102314286,-0.046894446,-0.0693237,0.0004854931,-0.22916092,-0.06681407,-0.18157335,-0.0052905465,0.23736662,-0.061382696,-0.058510784,-0.01033204,0.0990078,0.0029047634,-0.17353621,-0.050187845,0.30302182,0.128028,0.0050180224,-0.14096172,0.097506866,0.115257174,-0.074562445,0.23648204,-0.20686954,-0.2006996,-0.21237803,0.12017181,-0.29866874,-0.057819396,-0.16498162,-0.062072396,0.04788775,0.20061886,0.030400192,0.13061522,0.07876464,-0.13170859,0.079119265,-0.09329006,-0.075086825,-0.29790828,0.07494958,-0.10413146,-0.24441217,0.1280933,-0.17380898,-0.15594015,-0.011316105,-0.18669869,0.12350591,-0.09842752,-0.15024193,-0.072279535,-0.19285405,-0.030441547,-0.0206847,-0.10454709,0.043165036,0.18897402,-0.0115231825,0.19163372,0.117174044,-0.13540399,-0.13742882,0.09376891,0.21729577,0.19257489,-0.016946992,-0.21280727,-0.24241322,-0.10765252,0.23246613,0.035288293,0.2364753,0.31576738,0.046121154,0.19025749,0.11231434,0.119647585,0.009317683,0.1429426,-0.110497236,-0.16443697,-0.0915325,-0.100667,-0.03730097,-0.0015805253,0.07070647,0.012743771,0.019013045,-0.046604417,-0.02029799,0.22462428,0.10320249,-0.10527983,0.02580694,-0.16836792,0.11739805,0.075374246,0.0131212305,-0.19484727,0.22921972,0.17267056,0.14544359,-0.06640016,0.12476258,0.17924279,0.1404122,-0.03307438,0.035101317,0.20287754,-0.068521395,-0.20625764,0.060057066,0.20065318,-0.027291974,0.050219305,-0.17578216,-0.12555073,0.107334934,-0.011381002,0.1113167,0.05792855,-0.17717996,0.08014067,-0.057496134,0.067815386,0.21556951,0.07756251,-0.24339525,0.12939443,0.26570305,0.14074898,0.033747423,-0.05781664,0.102115475,-0.14565223,-0.27412453,0.17669877,-0.114529476,-0.12460229,0.099227436,0.106726624,-0.06538272,0.00035289515,0.2784595,0.12727688,0.063585915,-0.024082066,-0.17281102,0.1535172,0.12198247,-0.107917115,-0.09953387,-0.1626803,-0.043277,-0.14429143,0.079168126,-0.00044563808,-0.14392878,0.09133939,-0.048453614,0.083559066,-0.049899925,0.020804772,-0.1484573,-0.04766528,0.10881105,-0.04675471,0.16418351,-0.119993106,0.144423,0.1523197,0.17540956,0.07546598,0.11611706,0.23364936,0.0024671026,-0.2765411,-0.104028225,-0.038902856,-0.23029642,-0.1773201,-0.0843763,-0.099808894,0.21452732,-0.016209412,0.1679591,0.13132177,0.17074078,0.11824942,-0.058641206,0.18090962,-0.049731337,-0.054330766,-0.05538928,0.099452294,0.22617647,-0.1299566,-0.102787815,-0.06859434,-0.15945686,0.08135347,-0.11485558,0.02673033,-0.1280356,0.08173633,-0.18588585,0.1169677,0.20559676,-0.03455693,-0.08960954,-0.23233625,0.12779053,0.15946195,0.11562584,0.14855373,-0.10376948,0.078312635,0.087685995,0.015802778,0.1617369,0.11153621,0.25596458,0.0913613,0.008625565,-0.11502317,-0.02056903,-0.020071313,0.025217185,-0.15728548,-0.004652591,0.057239287,-0.05443049,0.051421843,0.062473517,-0.15878724,-0.17990926,-0.017368736,-0.0298686,0.09675298,0.15608887,-0.01043901,0.11127457,0.08548901,0.2941093,0.2760515,-0.05591557,-0.16454682,-0.21986064,-0.030899657,0.13500224,0.092788465,-0.17616202,-0.021451969,-0.15774737,-0.00335146,-0.06620855,-0.10381288,-0.009116252,-0.07790344,0.0075634066,0.17573898,-0.0038347922,0.018690078,-0.048163265,-0.08743501,0.098661624,0.18149288,-0.06534233,0.13406293,-0.12750512,-0.044826053,0.086708464,-0.06934186,-0.07605319,0.09490312,0.05337489,0.032491546,0.16049027,0.081738934,-0.097161934,0.12161515,-0.08412136,0.007776586,0.039393574,-0.1022482,0.17241913,-0.049388926,-0.12162571,-0.04603489,-0.13730341,-0.15180667,-0.068744585,0.20919672,0.18662712,-0.08541218,0.077851914,-0.09424977,-0.082065135,0.054473076,-0.10822631,0.17626071,-0.07568382,-0.040698007,-0.13200265,0.09395729,0.16930564,0.23188291,-0.014670776,-0.11640797,-0.1000888,-0.14879109,-0.23892592,0.01555402,0.16931218,0.036384933,-0.14502218,-0.23175506,0.15639547,0.21955512,-0.13377202,0.1496501,-0.20795758,0.10606298,-0.27372876,-0.094925106,0.25252417,-0.04779078,-0.19888571,0.12631653,-0.11529966,0.061953925,-0.002976489,0.18431059,0.44742584,-0.005832249,-0.013454932,-0.04613768,0.060691908,0.0535253,-0.002664922,0.26458564,-0.21805078,0.03746511,0.0524843,0.17446528,-0.2730925,-0.07920429,-0.17412095,-0.17153895,-0.102500565,-0.08429175,0.013826561,0.011383635,-0.052295353,-0.027537312,0.0066529564,-0.051730923,-0.013353818,0.12249674,-0.19498335,-0.24245097,0.09531611,0.04349097,0.12325948,-0.103352465,0.009175257,0.15799682,-0.023386488,0.27051973,-0.07583055,-0.059771013,-0.14445628,-0.16667625,0.20602833,0.19853172,-0.037931222,0.055189867,0.15697393,-0.23927596,0.002424941,-0.093764424,0.06292108,0.11346534,-0.053616855,0.18316981,0.008889466,0.2451627,0.00096409954,-0.025362998,-0.24544188,-0.1174185,0.08240391,-0.16171728,0.07959496,-0.01097247,0.06797489,-0.15352982,0.012741806,0.095405445,0.23659821,0.14211802,0.039534427,-0.018690258,-0.084139526,-0.04836744,0.19566688,-0.030133557,0.073223256,-0.038886968,0.11822718,0.06600749,0.038715698,0.22245455,-0.012298712,0.24547736,-0.2734078,-0.017758466,-0.099352315,-0.08488253,0.030388607,0.16771866,0.14871666,0.14567667,0.041988596,0.12031983,-0.0264871,-0.034012858,0.112097204,0.17015547,-0.072772905,-0.29029328,-0.15169632,0.08897308,-0.025883839,-0.11095613,-0.13327071,0.037487354,-0.078493774,0.09208919,0.10455051,-0.1385325,-0.12923694,0.060243282,-0.11655527,0.1298624,0.031507853,0.059824422,0.037341837,-0.15331827,0.2563142,0.11983584,0.018225206,0.20725335,0.19794029,0.1281231,-0.032373145,-0.13010845,-0.05243739,0.099209026,0.17183977,0.013792504,-0.19149409,-0.3184734,-0.14841935,-0.13882527,-0.11874304,0.037651427,-0.01775164,-0.14577925,0.03225302,0.06591589,0.13997065,0.12998958,-0.030654065,-0.03071876,0.07124661,-0.08697394,-0.045273755,-0.14470819,0.18473926,0.15517096,0.14571768,0.045494135,-0.041948628,-0.16619581,0.056652382,-0.1800251,0.0760807,0.17999774,-0.044013306,0.21577512,-0.057904206,-0.13897635,0.047099516,-0.051050123,-0.07467249,-0.15454173,-0.1723253,0.13260859,0.20699868,0.06844043,-0.11677695,-0.019722361,0.14261512,0.08706434,-0.032659087,-0.012983832,0.02273502,-0.008689029,-0.017436745,0.09955255,-0.0351113,0.054925624,0.20508568,-0.20027678,0.057152897,0.11127314,-0.2217935,-0.08102269,0.16675879,-0.15257302,0.08743711,-0.10972151,0.05814324,-0.09191719,-0.19584541,-0.058928408,0.044627912,-0.0040683625,0.072105475,0.09457341,-0.19228558,0.019659624,0.09486633,0.0028217975,0.11415191,-0.15096873,0.12998313,0.14312084,-0.07130428,0.18513782,0.052557897,0.007716853,-0.028773565,0.16988264,-0.058610357,-0.06344555,-0.05229208,-0.0066769184,-0.12960084,0.05815784,-0.027181108,-0.15835895,-0.091257006,0.025977112,-0.00792153,0.15487859,0.21084176,0.032673646,0.04033333,-0.21674569,-0.09580447,0.035878874,-0.019234482,-0.23547226,0.09861669,-0.124418676,0.21810868,0.15597741,-0.12431277,0.14955008,0.029773362,0.21287748,0.013641157,0.16764583,0.06778372,0.108352505,-0.07107673,-0.09475186,0.19877219,-0.112733275,-0.049380716,0.20683958,0.04072405,0.00123475,0.053667653,-0.023421945,-0.038845796,-0.1117195,0.10987656,-0.12675752,0.09472987,0.19070667,0.11895005,0.033131044,-0.06037929,-0.0028368048,0.102503955,0.078209944,-0.1798674,-0.041781075,-0.082215376,-0.020841284,0.23432474,0.028607398,0.15355468,0.051715795,0.044809416,0.17261648,-0.15646967,-0.016533252,-0.104125515,-0.19772387,0.12939085,0.08228504,-0.06430959,-0.096164,-0.17333649,0.011001837,-0.018493075,-0.029155208,0.047474086,0.014367969,-0.11625148,-0.23615436,0.20445164,0.12606147,-0.062442034,0.136413,0.1211465,0.09914973,-0.07641242,0.16427232,0.14782906,0.21332741,-0.03939567,0.02379885,-0.13547513,0.15373673,0.12370337,-0.24637768,-0.06472147,0.09285113,-0.10307946,-0.24066101,0.06908814,0.08920712,0.16819787,-0.07023063,0.13451383,-0.019249136,-0.074593715,-0.07582049,-0.1957084,0.049031354,0.20766616,-0.18445605,0.12282169,-0.08265479,0.108671896,-0.098505326,0.17778945,0.2813019,0.09593442,0.07417647,-0.009882446,-0.037175667,-0.015823958,0.17068924,0.15602411,0.012529832,-0.19025783,0.04561321,-0.079944104,0.04580138,-0.0699782,-0.01811497,0.028538622,-0.093401365,-0.09377164,0.08222607,-0.11642143,0.12551974,0.16233972,-0.08341409,-0.17161076,-0.103311144,-0.1645486,0.029025605,0.13747753,-0.01859953,0.2108695,0.056596767,-0.013542931,0.13794704,-0.19636038,-0.13668029,0.08789053,-0.098517865,-0.13850966,-0.01521937,0.057517998,-0.23339495,-0.2272458,-0.034836955,-0.21094865,0.15850411,-0.17929363,0.07364238,-0.06286212,-0.28625697,-0.041036546,-0.22343388,-0.0025722662,0.016928943,-0.20399672,0.15333886,-0.032830242,-0.03187133,-0.02488024,-0.32107246,0.045411702,0.11371364,0.29734135,0.14598751,-0.055009898,0.09778228,-0.037844237,0.05433635,0.07216599,0.16434547,-0.26602378,0.13216625,0.1488835,0.050006445,-0.11813932,-0.083597116,0.04969159,-0.11337343,-0.2746124,0.01288657,-0.1689449,-0.15503503,0.23655769,-0.016080532,-0.067462295,-0.13129167,0.10247923,-0.09570204,-0.043858785,-0.20111842,-0.20114923,-0.1902641,0.09692779,0.22359602,0.2062423,0.122049846,0.08763068,-0.21551143,0.16552983,0.15976197,-0.12636347,-0.057441626,-0.04889022,-0.08771503,-0.30681518,-0.016271189,-0.062370453,0.10272414,-0.09845791,-0.025450336,0.07190065,-0.0150929345,0.0857803,0.021887708,0.22889404,0.23941119,0.05452326,-0.11079134,-0.20176248,-0.1834671,0.07347698,0.0019502068,-0.1333059,0.10717009,0.11805834,-0.241011,-0.10961055,-0.07868103,0.026260568,-0.11018486,0.08027946,0.03744326,-0.21512459,0.0047360817,0.021454165,0.15307938,-5.248007e-05,-0.042169742,0.09823469,0.015350125,-0.06523149,-0.09008883,-0.0040984238,-0.1488921,0.18131065,0.065941334,-0.16824105,0.11032542,-0.13428274,0.22949965,-0.0027628317,-0.005157164,-0.12329888,0.07243875,-0.25626904,0.09002532,0.16348898,-0.022508848,-0.016354304,0.0052691894,-0.13645238,-0.09311697,0.04098041,-0.061395373,-0.06313871,-0.038159125,-0.24376972,-0.022425104,-0.13952471,0.24296786,0.060480576,0.12933674,-0.22395614,0.066796266,-0.049101193,-0.05408276,-0.17198701,0.08137921,-0.033244707,-0.1496243,0.25526065,0.19713733,-0.14504048,-0.0030789622,0.13369656,-0.12759672,-0.03388735,-0.12537317,-0.12042394,-0.25071034,-0.12691033,0.01947371,0.11076146,0.13545169,-0.0010982493,-0.023986574,-0.0205746,-0.2977619,-0.26506352,-0.06633217,-0.041035354,0.17525911,0.06564174,0.03055556,0.016176468,0.15511419,0.12331443,-0.11388034,-0.25363335,-0.06936467,0.13541034,0.036333676,-0.1276224,-0.25503144,-0.13715708,-0.05808047,-0.16398348,-0.18251534,0.10769271,-0.002401125,-0.021453276,0.08701043,-0.07512651,-0.03460623,-0.04205599,0.041790243,0.14045282,0.06318949,0.17100202,-0.036491565,0.15599807,-0.25897253,-0.13083759,-0.22060356,0.03592359,0.13663661,-0.08785142,-0.12367489,-0.2167033,-0.13168296,0.0666104,-0.072870076,0.16746354,0.23780383,-0.1442529,-0.0543572,0.04685083,-0.20878778,0.26978293,0.15390009,-0.18029964,0.16665184,-0.19335347,0.14184809,-0.20798002,-0.063571736,-0.24318756,-0.049592596,0.13776994,-0.054847836,-0.02670075,0.063360035,0.15023343,-0.04150127,0.1803345,0.16860229,-0.10317924,0.15482041,-0.029811673,0.14620216,0.089992024,0.25028062,-0.11432559,0.12110286,0.08554081,0.10218017,0.015890887,0.030136123,0.28446296,-0.09999044,-0.032158293,-0.093614355,0.0045136665,-0.3046601,-0.010161006,-0.029799016,0.07102856,-0.05849866,0.17095025,0.013092395,-0.23067962,0.14089188,-0.18389621,0.2318497,0.008052628,0.20253874,0.18223137,0.085052855,0.12938257,-0.057382796,0.18942796,-0.1098765,-0.12544796,-0.17771311,0.09761008,0.03086551,0.06875006,-0.19992451,0.15589397,0.101008184,-0.08712378,-0.013699853,-0.18253532,0.007358723,-0.016327789,-0.29660797,0.038721625,-0.18106762,0.09502761,0.26812005,-0.24699628,0.22281867,-0.17934167,-0.05297855,-0.21558142,0.18317811,-0.11741105,-0.29266903,0.13159902,0.11257192,-0.10489174,0.025278091,0.13261124,0.19156584,0.024733797,-0.12683119,-0.13321453,0.14015709,-0.043513138,-0.06601018,-0.045586172,0.1847246,0.09301937,0.1902672,0.122171566,0.25892466,-0.027718497,0.0073397267,-0.19576584,0.10692753,-0.1555514,-0.15658341,-0.1145581,-0.000943438,0.095717706,0.06376294,-0.03625298,-0.2043793,-0.03985519,-0.25565472,-0.17557459,-0.08422868,0.11431651,0.13590227,-0.036745176,0.12736724,0.03305305,0.17179696,0.13269646,0.22716361,-0.18053065,-0.017253604,-0.10382506,0.016994866,0.059055302,-0.2235243,0.23319481,0.14188762,-0.08919732,0.11789434,-0.11257448,-0.2852982,0.08696812,-0.010852614,-0.059423346,0.15514715,-0.004098136,-0.12659878,0.13852511,0.0102403695,0.032733895,0.10286997,-0.11861732,-0.0059553166,0.055337667,0.050076716,-0.20279363,0.049523313,-0.06032582,-0.08687838,0.28873017,0.03397659,-0.16900562,-0.074943095,0.013755052,0.13277297,-0.12770568,0.09048613,-0.1259564,-0.04006838,-0.109122895,-0.0799441,0.124317914,-0.15455846,-0.19812042,-0.062343437,-0.05404874,0.08737861,0.05959259,-0.27009958,-0.022036854,0.1972933,-0.18596742,-0.038030535,-0.10704285,0.10791034,0.078201406,-0.14962661,-0.09630875,-0.017768642,-0.09208674,0.14085451,-0.12024692,-0.034765128,-0.10242126,-0.047814567,0.1233176,-0.095590495,0.022571824,-0.20762761,-0.055240743,-0.17781729,0.02132625,-0.13034782,-0.11701215,0.015976815,-0.077455826,-0.0012848539,-0.03178112,-0.17017804,0.21142173,-0.015835572,0.0949637,-0.24945639,0.18009481,-0.16141647,-0.039822154,-0.037937693,0.08619635,-0.20003983,0.14277832,-0.14283189,-0.006493904,-0.1351285,0.008040999,-0.16556904,0.10883572,0.14287882,-0.0749446,0.07545339,-0.15317474,-0.024359524,0.031415157,-0.12239861,-0.13066114,-0.12980455,-0.07958017,-0.10903685,-0.063508585,-0.14756924,-0.052284546,0.026247492,-0.005211035,0.0412005,-0.13170986,0.009824382,0.025128474,-0.04166202,-0.18515359,-0.19929765,0.1662654,0.032924708,-0.09169956,-0.17619249,0.044591933,0.06915581,-0.10112392,0.16725886,0.15508395,0.15603974,-0.19808125,0.01006171,0.2104446,-0.17876804,-0.22916974,-0.08976708,0.06723315,0.20654629,0.0623429,-0.15559807,0.07537317,-0.20971437,-0.0071547986,0.1384322,-0.059316978,0.081102744,-0.07595419,0.17098705,-0.030267788,0.2168601,-0.009558969,0.1860278,0.059199512,-0.15910831,0.20962428,0.22409914,-0.03997118,-0.22446944,0.11442484,-0.116922766,-0.053789254,0.071580075,-0.18862912,0.017549163,-0.017342096,-0.09692845,-0.17406169,0.06606223,0.026304625,0.16299942,-0.010790361,-0.20315742,0.042290296,0.19663502,0.035778128,-0.06404454,-0.029592857,0.104144864,-0.071273565,-0.11825608,-0.07422304,0.05148684,0.09741312,-0.18669486,-0.10716553,0.16210587,-0.049614318,0.10216531,0.02570392,-0.15419684,-0.16084872,0.15901881,0.16624707,0.029354049,-0.11281678,0.0688605,-0.010879794,0.18684486,0.05472775,-0.096529186,-0.099014744,-0.14733149,0.2405707,-0.1601003,0.07345256,-0.08725552,0.1046292,0.08495515,-0.016788559,-0.09583444,0.056590557,0.1362309,0.024004942,0.021713883,-0.00990696,0.031190949,0.093350224,-0.15813994,0.10821474,-0.018720137,-0.017698782,-0.0048883758,0.067981645,0.0026071025,0.033238128,0.07374767,0.13153495,0.21126497,-0.04418255,0.06998478,-0.029860007,0.08480759,0.10498721,-0.16075617,-0.1948086,-0.13983525,0.028905902,0.1307139,-0.043586507,-0.021121118,0.27387896,-0.10713259,-0.11696715,0.01060717,0.32820058,0.18362807,0.14408669,-0.1358782,-0.08477619,-0.05367938,0.11210885,-0.083329365,-0.07921939,-0.12292171,0.0054005277,0.16496879,0.07685515,-0.15228227,-0.07999304,-0.24320835,0.029503543,0.19725074,-0.38567328,-0.34891555,0.25120535,0.1585061,0.10712183,0.013418629,-0.014609632,-0.050828498,0.28057995,0.041344423,-0.12769236,-0.04989214,0.16396882,-0.013429452,0.06286154,0.10660981,-0.10302399,-0.08864661,-0.14187329,-0.10012251,0.022229888,-0.0398964,-0.15604255,-0.08185547,0.024705548,-0.1711388,-0.21641444,-0.10176722,-0.21106198,0.202714,0.15733832,0.039241508,0.012959549,0.044837844,0.1544759,-0.0311452,-0.16970631,-0.17813799,0.23715374,0.024044462,-0.11649252,0.020817898,0.1230767,-0.0044337157,0.17567861,0.065584354,0.016977074,0.004069168,0.16202508,-0.10205526,0.3026952,-0.115892954,-0.0044598253,0.17166854,0.07536492,0.028608678,-0.107511945,-0.07891494,0.29239985,-0.13500056,-0.04115846,-0.021429883,0.026348244,0.18058595,0.049553283,-0.066684,0.09781214,-0.11620265,-0.110989176,0.03327331,0.119791515,-0.09141358,0.21484822,0.15340303,-0.15793328,0.028996596,-0.010106978,0.13278738,0.17295232,0.09760066,-0.012678218,-0.0143249985,-0.14807183,-0.17745638,-0.19409934,0.2014908,-0.010818522,0.06188497,0.14411764,0.08203403,0.0044676913,0.087007746,-0.077703975,0.17089462,-0.033956107,0.17313397,0.24285775,0.11614342,-0.040725116,0.19711228,-0.057891622,0.15461256,-0.27234992,-0.18850623,0.20580964,-0.06484813,0.07481651,-0.095858805,-0.098099805,0.19095942,0.140792,0.13325772,-0.031006927,0.05282968,0.06405701,-0.11770519,-0.13696264,0.06438784,0.19360144,-0.10819255,-0.08832035,-0.07762276,-0.0075067324,0.07921412,0.11746196,-0.07633506,0.011688788,-0.020015119,0.16774508,0.060616754,-0.055221576,0.06043508,0.07609136,-0.12561238,0.07099679,0.02188061,-0.14798926,0.0951942,-0.13582292,-0.014528677,0.20215367,-0.0016104649,0.010780487,0.06481364,0.012421639,0.07868205,-0.114731304,-0.087072924,-0.16090025,0.0573789,0.03090727,-0.15005991,-0.07558151,-0.028984604,-0.130103,-0.04862379,-0.13296697,0.060644805,0.032057665,-0.06503271,0.16862054,-0.10542205,-0.18077157,-0.016889209,-0.054465085,0.16026232,0.16383426,-0.061746098,0.09763269,0.08840653,-0.1591301,-0.073421076,-0.12444146,-0.09216287,-0.17572224,-0.1160913,-0.034770224,-0.19832146,-0.11560429,-0.07029844,-0.20563824,0.14997351,-0.09073079,0.048822418,-0.085556075,-0.18933435,0.2746478,-0.1896204,0.025918696,-0.015642928,-0.14077163,0.008580291,0.03473265,0.07531019,0.026915973,-0.086219095,0.062796295,0.0526503,-0.04536162,-0.02710796,0.01157406,-0.04864546,-0.083247885,0.2812692,0.07369736,0.05388749,-0.17812473,-0.17121023,0.13779733,-0.06354145,0.09967971,0.016825454,0.10390871,0.14900269,-0.082370564,-0.20814738,-0.14571697,-0.0043550697,0.045529485,0.13680053,-0.010504087,0.00081430364,0.041303694,0.026312886,-0.081521325,0.12496775,-0.13405292,0.05691373,-0.10319989,-0.16228709,0.27115154,0.009433012,-0.15411447,-0.20284145,-0.0004516008,-0.14300573,-0.09509951,-0.17041074,0.13496248,0.017975388,0.12480108,-0.029519668,0.055436064,-0.16771086,-0.02646439,-0.032989394,-0.15223822,0.1199628,-0.12547943,-0.070273586,0.08725236,-0.094777115,-0.0990343,0.17122734,0.093245804,0.018348424,-0.14776815,-0.06479203,0.06549088,0.0018451989,-0.2042493,-0.09695538,-0.118650645,-0.021904267,0.06187427,-0.10584305,0.10511252,-0.06794912,-0.0070741223,0.03686606,-0.15138146,-0.15183051,0.2156374,-0.14367379,0.03362294,-0.058331594,-0.25124285,0.15436296,0.32714418,0.06686102,0.16038282,-0.28215662,-0.096611485,-0.06460816,-0.2054475,0.14664352,0.035667706,0.14419305,-0.38718548,-0.08738404,0.24134319,-0.12051236,-0.17415805,-0.051327486,0.058033437,-0.19639947,-0.24477755,-0.2854905,0.015554232,0.049384926,0.31740737,0.10491212,0.19220984,-0.007617068,-0.19404867,-0.015183137,-0.06720728,-0.04892956,-0.15196282,-0.023533162,-0.14691181,0.1661122,-0.034735985,0.008726028,-0.23537084,-0.13764086,-0.27237436,0.26270482,0.15231124,-0.17613424,0.3454365,-0.26249835,-0.14756288,0.11393031,-0.016700104,-0.098372035,0.06674698,0.15508325,-0.07632173,-0.052836053,-0.087738514,-0.0067820316,-0.19321348,-0.16479705,0.22086392,0.10402395,-0.18475707,0.045810584,-0.12998745,0.012451138,0.04428609,0.07432584,0.051936526,-0.0075117806,0.10553726,0.14296925,-0.032115262,-0.03711547,-0.036350943,-0.02887879,-0.13975249,0.11144889,-0.10513225,0.20952086,-0.14176972,0.19080399,0.1555145,0.04059984,-0.15390445,-0.26632443,0.22044115,-0.12834926,0.024246236,-0.1685658,0.06319622,0.10959422,-0.011675083,-0.119652726,0.036564812,-0.110405,0.07163645,0.089849085,-0.061436515,-0.11053807,0.039527565,-0.23989376,0.19715728,-0.014448178,-0.054726608,0.16805145,-0.03300274,-0.21058896,0.09072986,-0.18594848,0.020260038,-0.1313615,-0.040773593,0.13514149,0.1835405,0.19695498,0.103553936,0.081595145,-0.1499025,-0.03834016,-0.13814072,0.15345313,0.17781289,0.06383736,0.13808548,0.17772304,-0.0909679,-0.020787798,0.10946829,0.10522256,0.08474399,-0.10445076,-0.077641815,0.22260655,-0.15629144,0.29250738,-0.09381527,0.04346431,0.072636835,-0.11202973,-0.15019573,0.14152524,-0.025885377,0.21445574,-0.22178744,-0.028447883,0.023116624,-0.0592286,-0.20635593,0.06687122,0.15171197,-0.0348788,0.21828122,-0.21365024,0.059987515,-0.17585073,-0.23711495,-0.055888474,0.15297571,0.19942917,0.14936589,-0.11056795,-0.12829727,0.24586478,0.22489926,0.05438353,-0.07550602,-0.03697447,0.038840774,0.11172134,0.2308654,-0.21903065,-0.1458077,-0.01109604,-0.09297808,0.1648291,-0.09356088,0.09841239,-0.1860726,-0.15510693,0.20494163,0.031895887,0.0785765,-0.1861092,-0.15264767,-0.078964695,0.056893084,0.06538738,0.117451854,-0.16419052,-0.054021917,-0.11466945,0.17253806,0.15553483,0.1274502,0.042386975,0.10603392,-0.21187717,0.18908621,0.18832344,0.18877771,-0.1505232,0.17250247,0.008608007,0.012383951,0.0312007,0.07587108,0.1504286,-0.10009335,-0.06610606,0.20017637,-0.078464836,0.111211695,-0.02341155,0.22142448,0.1374994,-0.06861427,0.17763603,-0.016288534,0.08713514,-0.067045994,-0.058707144,0.2874314,-0.042942137,-0.10434538,-0.14585032,-0.15044124,0.2579324,0.03971048,0.22857195,-0.05392074,-0.1964227,-0.15902643,-0.08031878,-0.10832277,-0.006357912,0.07813891,0.18823376,-0.11307814,0.1518561,0.25356013,0.023846839,0.12551904,0.18702702,0.2732268,0.02406551,-0.024171311,-0.16136387,0.017405123,0.093244836,-0.16259219,-0.1454516,-0.043558124,0.16794966,0.029405506,-0.24491869,0.15569307,-0.2912889,0.1708747,0.01861153,0.061025366,0.124305665,0.2594634,-0.14266196,-0.0036340759,0.01689463,0.28557435,0.1839343,-0.12361489,0.05323757,0.11405757,-0.065946124,-0.009701457,-0.054520182,0.14338335,-0.10168955,-0.049717147,0.17345592,-0.008393157,-0.16461545,0.1906572,0.063907295,-0.15325499,0.007112429,-0.16279027,-0.19076703,0.21422869,-0.20157382,0.0077232067,0.091555804,-0.06416151,0.040356025,0.06618696,0.087848395,-0.11256552,0.15264013,-0.031484738,-0.122711055,-0.037078336,0.16021901,-0.009525345,0.10169289,-0.16016367,-0.19873683,-0.09882012,0.0020576725,0.08461078,0.058442783,0.1370237,-0.1595917,0.19722557,-0.26719233,-0.031414263,0.27697054,-0.14825253,-0.08291592,-0.16928504,0.03572935,0.2234749,-0.14330612,-0.21397029,0.038308185,0.0022437077,0.010416757,-0.017532762,-0.1228269,0.16011336,0.052037537,-0.12460068,0.12967955,-0.016360113,0.15871102,-0.025108783,-0.06398309,-0.11044824,-0.10677756,-0.010950858,-0.037873216,0.18030368,0.18451558,0.05348284,0.04278164,-0.035899628,-0.15524456,-0.15955569,-0.08463356,-0.026860401,0.14875114,-0.11083685,0.16543129,0.044496823,-0.10017963,0.11176022,-0.06873317,-0.23579605,-0.1378448,-0.07473676,-0.26647177,-0.10337366,-0.25879377,0.20205282,0.06593383,-0.051116493,0.14379577,-0.2981601,-0.127875,-0.04127163,0.04285561,-0.17156327,-0.2715383,-0.057403672,0.01589373,0.11708344,0.16884229,-0.042759676,-0.11279858,-0.049872413,0.1234211,-0.1380635,0.12347058,-0.19640572,0.072502784,-0.0019566345,-0.07966344,-0.14668979,0.019972531,-0.0134544615,0.18396844,-0.20005214,-0.20260328,-0.001694795,0.06932696,0.0024219863,-0.045806043,0.055310942,0.18474813,0.1097259,0.017921837,-0.03669527,0.0057456754,-0.036513478,-0.04907289,-0.027393887,0.14801382,0.15268198,0.05161919,-0.16823271,-0.01801742,0.07172292,0.069375776,-0.05211534,0.1303832,0.16357842,-0.025152225,-0.040742762,-0.0717326,0.1618901,-0.1892738,-0.017551094,-0.13351999,-0.114887744,0.018512763,-0.12168455,-0.20201801,0.09069682,0.09554078,-0.14667152,0.09638403,-0.2069097,-0.0074225795,-0.0750605,0.037756804,-0.16280659,-0.17537218,-0.05959948,0.013457388,0.13892174,0.13033028,-0.029409252,-0.054927405,-0.08842645,-0.05120929,-0.1566035,0.06917905,-0.20969999,-0.021045294,-0.12601471,0.17353268,-0.07189991,-0.22021064,0.085616305,-0.060777783,-0.2307011,-0.20855746,-0.23987925,-0.021361705,-0.034628045,0.079154454,0.10293924,-0.101638794,-0.124897756,-0.24534546,0.22576658,-0.0138067715,-0.1718107,0.10214024,-0.09033771,0.09265122,-0.021819182,-0.090465814,-0.053065654,-0.1522598,0.16140743,0.23623039,-0.041273404,-0.159733,0.17219257,0.019150402,-0.13711844,-0.30104947,0.05507974,-0.043124735,0.03508761,-0.1483742,0.080301814,0.05086764,0.008529023,-0.14297312,0.01729793,-0.117596656,-0.2510663,-0.1527775,-0.06693908,-0.034667313,0.02341828,0.06447592,-0.22757879,-0.17890164,0.14757001,-0.17950283,-0.15425223,-0.18495207,0.15163292,0.0717533,-0.15267849,-0.037375722,-0.00726957,0.16709477,0.0515991,0.026736034,-0.19616297,0.012449701,-0.044939246,0.06938215,0.0508784,-0.02169278,0.08553216,-0.022383364,-0.08163214,0.09375302,0.11537583,0.1459736,0.17262217,0.12025002,0.17431653,0.17172639,0.21775523,0.15026379,0.022634193,0.07016381,0.07130709,-0.13090451,-0.21844418,0.043158367,0.20803873,0.05808516,-0.08573092,-0.05930595,-0.016004192,0.088697724,-0.048177607,0.12756689,0.03819636,-0.066587076,0.077712245,-0.12392579,0.12847619,0.16123396,0.0112131825,-0.072928235,0.07821799,-0.011087133,0.054848436,-0.056246877,0.030712068,0.06660094,-0.0020429555,0.13908146,0.039467927,-0.0522223,0.099450596,0.021017442,0.19751322,0.2249281,-0.023448624,0.014760286,0.0018256943,0.15954329,-0.0389326,-0.14557797,-0.09877443,-0.029991506,0.07325979,0.074882545,-0.028913938,-0.040921424,0.15837082,0.03504815,0.188812,-0.1918522,0.091938116,0.15157539,-0.0041934466,0.118811645,-0.026761707,-0.11108387,-0.0081745405,-0.1672618,0.055103738,-0.005302218,0.041812524,0.07998855,0.10287921,0.16203988,0.11368418,-0.05039955,-0.12733518,-0.19676578,0.2396716,0.22676913,0.2010183,0.04896731,-0.04812157,0.14162207,0.09397807,-0.026532834,0.04995862,-0.1490435,-0.044935964,-0.045905218,-0.12865569,0.14244324,0.10398248,0.13838921,0.12733157,-0.079498544,-0.1906973,0.022135096,0.11412064,-0.025391506,-0.13312452,-0.039849583,0.17111385,-0.067964844,0.05314664,-0.063983336,0.0033808178,0.16023937,0.15823749,0.06806103,-0.033624817,-0.20590346,-0.21543618,0.08885485,-0.16130221,0.14528225,-0.09050148,-0.1659265,-0.0575423,0.09302816,-0.18891549,0.24025206,-0.17929007,-0.060319666,0.19811201,0.26212826,-0.2085153,-0.029418461,-0.16515465,0.06557363,-0.023227733,-0.27127242,-0.01917983,-0.12410733,0.0025363264,0.040146098,-0.08489162,0.04946413,0.057587974,0.21274456,-0.1062318,0.019417116,0.031550486,0.15442236,0.0015678698,-0.04040213,-0.1796758,0.023180407,-0.12568586,0.10488816,0.011857839,-0.043075286,0.06720742,0.13276632,0.011950791,0.1535933,-0.070896305,0.058527127,0.19221877,-0.012225027,-0.1705283,-0.07423844,0.025442846,0.06409278,-0.07972033,-0.14637595,0.05355049,0.121831946,-0.05729739,-0.13975203,-0.22560328,-0.21881667,0.156068,-0.06584761,-0.14158812,-0.088384375,0.113042206,0.1512351,-0.0860454,0.03763484,0.030812737,-0.1736012,0.19135076,0.04605968,-0.17743488,0.0385156,-0.11287369,0.19251597,0.15554193,-0.13491835,0.20186025,-0.13664517,-0.0717691,-0.14573401,0.1419834,0.11392922,-0.019753015,0.035214774,0.13811517,-0.08787168,0.04713087,0.102574125,-0.12816319,0.025602298,0.14151953,-0.0571178,-0.030373875,-0.20034954,-0.21850067,-0.17519075,-0.067658916,0.23102146,-0.020661619,-0.1142807,-0.08173416,0.10646826,0.19463585,-0.20240009,-0.09933176,-0.04171352,-0.05991166,0.33335856,-0.15600626,0.19110927,-0.17141637,-0.04278213,-0.033995125,-0.12784675,0.061511334,0.00019138237,0.13245186,0.0014944099,0.04450576,-0.053243898,-0.17122659,-0.043653417,-0.16661611,0.058343224,0.19434673,-0.0073331073,0.21100686,-0.008199254,0.052662183,-0.14543247,0.055058222,0.18921682,0.08724364,-0.10042647,0.15990691,-0.0067416313,-0.17164913,-0.22861764,0.19352397,0.14155468,0.15559249,-0.061522864,-0.13151512,0.11395957,0.06427219,0.09546131,-0.17448887,0.25291806,-0.09748519,-0.037658077,0.07406436,-0.12420599,-0.21694465,-0.0035799309,-0.1835004,-0.015373654,-0.27135953,-0.06940865,0.15334265,-0.20391397,0.08158473,0.23426245,-0.024688898,-0.035398196,0.09915064,-0.01458473,-0.13716355,0.08399482,0.13019139,0.046987653,-0.10028587,0.14136127,-0.062996514,-0.024077985,-0.07271975,0.022177514,-0.21678078,0.16458665,0.001633027,-0.1308178,-0.17745194,-0.031250007,-0.06487146,0.047150716,-0.2031739,0.23904546,0.05887991,0.059690412,0.040727198,-0.058618356,-0.080249585,-0.045180276,0.0033118154,-0.05341215,0.08883343,0.08565452,0.07579946,-0.17123485,-0.10016358,-0.019772995,-0.17128143,0.078362636,0.02747686,0.034718752,0.056818876,0.00251207,-0.06774062,-0.063852526,-0.044886973,0.1548518,-0.14194861,0.09219288,-0.09963647,-0.043155756,0.055677272,0.029694684,-0.011952498,-0.0050268313,0.02368913,-0.23625675,0.00064240326,-0.12579101,-0.22687554,0.1834458,0.24135107,0.043597903,0.16894156,-0.021067813,-0.051388178,0.25523213,0.22750935,0.11140211,-0.052518222,-0.14097327,-0.26010853,0.09394292,0.23193182,-0.24714652,-0.15160058,-0.08186457,0.11518578,-0.097751915,0.16215011,0.108222425,0.12854788,0.008978851,0.15616715,0.11215258,-0.008577758,-0.014941175,-0.050828297,0.25442615,-0.09140677,0.08722884,-0.25057736,0.067232996,-0.061691325,0.11364953,0.10983871,0.13524944,0.14266767,-0.010566121,-0.04685602,-0.08886362,-0.14548746,0.1498022,0.1735067,0.046943612,-0.055127162,0.07056017,0.03756848,-0.041366987,-0.05553745,0.05639912,-0.15279302,0.15540229,-0.19515158,-0.051609997,0.15150067,-0.1055167,-0.22002219,-0.25488642,0.09914081,0.075380586,-0.12678464,-0.062012687,-0.115088955,0.08855455,0.060058214,-0.058557145,0.24084966,0.2525367,-0.15173833,0.107319444,0.024281794,-0.23504962,0.122138694,0.07697365,0.036435165,0.057392266,0.0063315076,-0.18217753,0.10384693,-0.028655816,-0.08091322,0.06195425,0.22509423,-0.079212055,-0.2489904,-0.24669182,-0.08475839,-0.015977321,-0.068084046,-0.18153453,0.028785512,-0.007205562,-0.08670058,0.2515688,0.1948587,-0.054878782,-0.022905743,0.04834458,0.1741545,-0.1263171,-0.107961826,-0.14835963,-0.26086447,0.0031245835,-0.038172983,-0.114003904,0.21686547,-0.07235264,-0.024949186,0.053438853,0.073485926,0.10341953,0.04121199,0.07509017,0.0990203,0.10357035,0.023481699,0.16198686,0.25878617,0.09656814,-0.20966768,-0.11048661,0.07384159,0.10385223,0.078167364,-0.16201872,-0.09791379,-0.1438057,-0.16637044,0.119670026,-0.07152372,0.058033407,-0.069408536,0.03617181,0.011044257,-0.02803562,-0.0010704559,0.25006437,-0.17767203,0.3432489,-0.26778364,0.07389276,-0.021463368,-0.123564154,-0.1543831,-0.16429564,0.12652543,-0.0682687,-0.27465522,-0.14427955,0.038986433,0.0831021,-0.21293722,-0.12896381,0.16280301,0.0077471947,-0.10228643,0.10017811,-0.06504495,-0.10130817,0.26372287,-0.17549926,0.20612791,0.068539,0.20631,0.09821486,0.0328942,-0.14002585,-0.08494833,0.045782577,0.2678515,0.012685691,-0.017053135,-0.03668647,-0.038979717,0.076557994,-0.2612025,0.12754712,-0.17978634,-0.1166107,-0.037243098,-0.047295034,0.16990428,-0.141986,-0.1682151,0.21601431,0.06706276,0.08993396,0.060093403,-0.1792798,0.14992118,0.0085242735,0.11493929,-0.1542835,0.045427438,0.13499126,-0.10715006,0.048561092,0.09915897,-0.21748358,-0.0034483387,-0.16239265,0.01671818,0.14110483,0.14002784,-0.002042359,-0.0070890025,0.089613184,0.054298718,0.18927073,0.20624079,0.010710284,-0.026885554,-0.12600853,-0.17593695,0.0019994695,-0.079742715,-0.04712543,-0.21861006,-0.045811646,-0.0094631575,0.20248255,0.21949008,-0.114970215,-0.06096482,0.17827857,0.13878593,0.17677736,-0.16719043,0.07267514,-0.07489859,0.033581153,-0.19214743,0.2013488,0.21085697,0.15848596,-0.0648598,0.08484016,0.0017191864,-0.07077913,0.15025578,0.12315258,0.10042345,0.09995819,0.22929823,-0.03946622,-0.030512305,0.17084983,0.110972896,0.09311985,-0.05712078,-0.23113516,0.2285059,-0.08021307,0.008322416,0.16055739,0.16748637,0.15674691,0.16588481,0.10276994,-0.16280107,-0.17482466,-0.01835088,-0.18325815,-0.058123503,0.013538679,0.07533939,-0.12579085,0.12802301,-0.21734543,0.1304347,0.009017041,-0.13012996,0.107106276,0.12011999,-0.13287632,0.13941577,-0.18250199,-0.15405412,0.057450484,-0.0474561,-0.024545543,-0.12600756,0.08410671,0.11083616,0.087761976,0.07526888,-0.10178459,0.0027352236,0.21000224,0.04295542,-0.20839038,0.15842149,0.052226663,-0.08183701,0.16669238,-0.2613185,0.016756186,-0.008850453,-0.024675738,0.23612857,-0.034736585,0.17142174,0.037467472,0.16320613,0.15388238,-0.1176084,-0.04095822,0.1256052,0.07713997,-0.15379699,-0.28458297,0.14022054,-0.0006690591,0.109951384,-0.009095095,0.01930961,0.10592421,-0.2308288,0.08842553,0.107871346,0.046752095,-0.09685471,0.10225809,0.16403803,-0.09334839,0.086891845,-0.11625321,-0.042623326,0.084278926,0.106831625,0.10710655,0.20959832,-0.28838784,-0.014418067,-0.06733617,0.06659712,0.097271904,0.0077838856,0.051781844,-0.07821185,-0.112630464,0.12693404,-0.14181422,-0.025424661,0.008316843,0.10948329,0.13313007,0.022819592,0.23351717,-0.05024292,0.20253102,-0.2006753,0.024569176,-0.007400868,-0.035797954,-0.04453536,-0.046474822,-0.100274935,0.1578235,-0.12467536,0.04700047,-0.22430411,0.10196894,0.14381924,0.040623475,0.12501007,-0.13369271,-0.031532444,0.1394713,0.010555084,0.11084092,-0.10351484,-0.17751345,0.020916507,0.16503394,0.21829014,0.104521,-0.13315521,-0.068132415,-0.109906,0.08888305,-0.14769961,-0.07755437,-0.06349298,0.20862056,-0.009868108,0.1246362,-0.006393557,0.120767795,-0.098617606,0.06250304,0.14335701,-0.07186066,0.10460663,0.047537994,0.17886871,-0.007826423,-0.15831551,0.0035424791,0.051322807,0.1030879,0.0141335,-0.042330477,0.19539067,0.03530367,-0.10234911,-0.035492517,-0.16091315,0.17551146,-0.109028414,0.16036944,-0.18398954,0.05681543,-0.27851847,0.12894565,-0.054110713,-0.06674856,-0.19325198,0.05320809,-0.0015890007,-0.15533964,0.15752128,-0.012920647,0.14843686,0.15536046,0.089419164,0.20347345,0.098994054,0.07420813,0.14663579,-0.03254385,-0.0140268495,-0.09971755,0.1625801,0.0075241798,-0.0066364165,0.08192009,0.0372831,-0.16120131,-0.043859955,0.08882136,0.21984236,-0.16206175,-0.14216706,-0.036504112,0.11696306,0.058819123,-0.17976977,0.13240165,0.0346093,0.025421081,-0.015335013,-0.031638827,0.037466444,0.16480134,-0.22429757,-0.14307214,0.34226492,-0.104461364,0.13078542,0.113783516,0.0011427674,-0.03329955,0.19211502,-0.080514856,-0.22462215,-0.08948581,-0.2112084,0.1637005,0.16409422,-0.07563123,0.15079802,-0.26856852,0.13076034,-0.04761147,0.039672945,-0.11229673,0.21690743,-0.049357075,0.09861757,-0.060545307,-0.23291208,0.06390975,-0.08474288,0.038923163,-0.25721538,-0.19442645,-0.11723587,0.0038071128,0.021692226,-0.20086025,-0.078386255,-0.044214364,-0.030428857,-0.033377677,-0.15046096,-0.009535131,-0.0632535,0.068523645,-0.031826045,0.13726734,0.014065226,0.13509727,0.055112988,0.06921778,0.23360536,0.15016408,0.19380093,0.063965194,-0.035573877,-0.050330967,0.10052953,0.12288317,-0.014445084,0.033221982,-0.043293096,-0.04760931,-0.05550499,-0.221084,0.12080733,0.22583726,-0.0035970032,0.1063555,0.045287635,-0.16986553,0.116014294,-0.00853878,-0.10161917,-0.145615,0.076768935,-0.1976767,-0.054068934,-0.314922,0.08335613,0.23644626,0.098937735,-0.23051442,-0.13073891,-0.018250456,0.022078834,0.045012847,0.061986938,0.09555848,-0.041548714,-0.10141886,0.12526833,-0.023899347,0.10207276,-0.12272226,0.1941764,-0.13093448,0.2557492,0.13895269,-0.2030122,0.043392636,0.14055103,-0.121148825,0.17427976,-0.0027724176,0.07660877,-0.19259219,-0.07053275,0.059046794,0.0993868,-0.055586323,-0.052314043,0.19552276,0.021291506,0.024319556,0.16181068,0.2777668,0.13141923,-0.16251063,-0.007625283,0.0015595608,0.07529476,-0.16602258,-0.051115505,-0.19465776,0.09044265,-0.14922377,-0.025948334,-0.08806103,0.08892057,0.1431415,-0.0153469285,0.10013672,0.057495683,-0.1370569,-0.04059212,-0.15496793,-0.21945031,-0.046940044,-0.14271422,-0.11153432,0.026372634,0.019448087,-0.06927696,-0.096614346,-0.044913456,-0.1384267,0.19795899,-0.2336418,0.0027773408,-0.041776385,-0.052553132,-0.117425196,-0.11332357,0.113157645,-0.115778126,0.12078903,-0.10448694,-0.25020495,0.00454357,-0.029395724,-0.12616833,0.032068968,0.060117245,-0.0341888,0.041382,-0.095120326,-0.008034827,0.031820208,0.013693208,0.092346124,0.13240694,-0.20013155,0.113640144,0.10365265,0.18444858,0.05968475,0.04322778,-0.21469867,0.07155255,0.004836455,-0.13035676,0.0043964162,0.16115429,0.22057588,-0.20315762,0.10573315,0.23925778,0.13889483,-0.16588123,-0.0699997,-0.17914854,-0.1743278,-0.07350948,0.05102945,0.06870003,0.09600719,-0.21636303,0.24607599,-0.036363155,-0.16359787,-0.15853551,0.0779252,-0.12071067,-0.011096723,-0.37192988,-0.13018583,0.13221589,-0.11501691,0.16049032,-0.2433269,0.08187553,0.1810086,0.25349393,-0.09436424,-0.079100765,-0.14815113,0.077277325,0.121562116,-0.17195271,0.029949635,0.075314015,-0.023701107,0.0017008206,0.021335544,-0.15118676,0.10054885,-0.12881485,0.0049409717,0.20506528,-0.14115806,-0.13014038,0.09499324,0.01738056,-0.044621933,0.1391382,-0.07456956,0.076900385,0.18300594,0.10666842,-0.09363516,-0.1667778,-0.27931473,-0.021622213,-0.10178639,-0.05935281,-0.06639144,-0.13869311,-0.3006134,-0.2497442,0.10223228,0.09350104,-0.055863485,0.1982684,-0.18821602,0.102608904,-0.1373271,0.076300666,0.15593676,0.049332015,0.21478027,0.09385143,0.0896257,0.19732377,0.060860302,-0.19201322,0.12236119,0.0005951777,-0.082885586,0.007498206,-0.326968,-0.098045714,-0.14515331,-0.18254158,0.17233321,-0.048417628,-0.13881162,-0.083534464,-0.008658436,-0.025692515,0.021091407,0.19539112,0.21187128,0.050340604,0.1775073,-0.1745187,0.21729988,0.2154478,0.066495046,0.11276849,0.06074581,0.14788564,0.11728203,-0.10790646,-0.1784976,-0.0421537,-0.1430901,-0.10862639,-0.035073232,0.25579312,-0.09928603,0.038988315,0.14110775,0.106176175,-0.04238555,0.05313042,0.07294707,0.110352434,0.2139689,0.22260123,0.14869192,0.17189372,0.27044424,-0.037906643,0.16513,0.114756316,0.14929771,-0.08256898,-0.17139499,-0.2791395,0.1696192,-0.13587624,0.014455597,0.08272385,-0.15999787,-0.061607197,0.111137345,-0.041899376,-0.0937777,-0.07457666,-0.010464616,-0.0046272427,0.024609692,-0.07931734,-0.12881789,0.2069423,0.081170455,0.22621664,0.055084582,0.097124204,-0.0045998436,0.00823559,-0.08324863,-0.07275435,-0.08425671,-0.2816463,0.22733976,-0.0029165735,0.046774585,-0.014972714,-0.09596419,0.0013773735,0.16072375,0.04315861,0.14832327,0.12897149,0.10364421,0.1910894,0.05970449,0.08466675,0.007164653,0.17908731,0.042108223,0.015632689,0.014843548,0.21342671,-0.06181512,0.10613859,-0.0019759403,-0.09416003,0.15505604,0.052321646,0.017199067,0.014838563,0.0248751,-0.037477747,0.07836536,-0.14427002,0.1039716,0.103836566,0.17887132,0.13932441,0.05802739,0.037985686,-0.08518874,0.20766054,0.036982324,-0.07416187,0.020159595,0.20295161,0.018356096,0.051532973,0.022639886,0.14685746,0.11808568,0.047700044,-0.03982423,-0.052710682,0.13101234,0.1533214,-0.054051362,-0.166512,0.108506955,0.17653407,-0.14401414,0.10076253,0.023572866,-0.2349195,0.15279311,-0.008614516,0.1352932,-0.073026456,0.05719613,0.13417593,-0.013595033,-0.044477906,-0.17807478,-0.024098255,0.07222804,0.09891079,-0.022351936,-0.028959343,0.034198634,0.057214074,-0.09395911,0.020890549,-0.07911894,-0.19312122,-0.16280057,-0.18422984,-0.0014096906,0.1899793,-0.15580592,-0.2914372,0.043776672,-0.18360958,-0.173795,0.11451197,-0.0558903,-0.10736403,-0.015424679,0.100877464,-0.013809434,-0.090459816,0.2073582,0.08207307,-0.025436018,0.015541844,-0.26643994,0.10931568,-0.16301729,-0.04070101,0.028340474,-0.02839113,0.016027886,0.0058094794,0.0141442325,-0.25967428,-0.013009927,0.15624811,-0.0457169,-0.09515109,0.083295256,0.025152853,0.100403965,0.04537636,0.047461078,0.01988887,-0.17356698,-0.08996378,0.15556271,0.03977457,0.07853191,-0.012152244,0.039996143,0.26707673,-0.07271235,0.1581127,0.13973485,-0.057450753,-0.20025411,0.10086245,0.17712224,0.035257883,-0.05181119,0.0054431623,-0.1238969,0.15622461,0.21710975,-0.06602724,0.047108453,0.09057191,-0.16705558,-0.0950771,0.018461818,-0.04602213,0.15363045,-0.032635804,-0.079509154,0.11971085,0.009592259,0.02652625,-0.06913868,0.05929587,-0.15142643,-0.11575957,-0.07517098,0.024017654,0.16954517,0.100276254,-0.16948648,-0.10010915,-0.104747586,0.019644523,0.013406429,-0.0334091,0.059249096,0.017296871,-0.14027946,0.078459114,-0.18181598,-0.014995958,0.040088464,-0.06728158,-0.016346198,-0.18153289,0.08267731,-0.08828188,0.085083835,-0.039734036,-0.03699311,-0.019599607,-0.07657431,-0.08253053,-0.1950028,-0.09116462,-0.07201849,0.052293047,0.1835979,-0.17869605,-0.101172686,0.20956883,0.030772459,0.21803881,-0.07168014,0.13646114,-0.13215856,0.060078554,-0.031481,-0.06903592,-0.18579906,-0.03386869,0.119421735,0.13667636,0.037341557,0.14340052,-0.110040456,-0.1680973,-0.04099833,0.1653793,-0.16723949,-0.109169245,-0.02952394,0.10425473,0.08278167,-0.08916183,-0.1846424,-0.016642064,0.06998308,0.095355146,-0.12709302,-0.096424885,0.060589842,-0.012587399,-0.11714766,0.09766192,0.17620917,0.08713381,-0.15266629,-0.152898,-0.013902259,-0.19343087,0.12232091,-0.07649468,-0.1940752,-0.2063568,0.009467854,-0.05839015,0.23484622,-0.13073942,-0.16436547,0.11303645,-0.034631234,0.13680238,-0.16775663,-0.09884034,-0.20928802,0.27427176,-0.14892216,0.16005208,-0.11998826,-0.16347472,0.05428525,0.034746934,0.27983272,0.12595282,-0.053993706,-0.024820458,-0.19576839,-0.11746355,0.010257167,0.16866423,-0.07864015,0.22010681,-0.21246608,0.01766837,0.18110932,0.108977266,-0.061038394,-0.12645014,-0.150426,-0.22761966,0.054876752,-0.014027329,-0.1539887,-0.16344997,-0.21990892,-0.22140688,0.06396914,-0.24904859,0.12955031,0.124806836,-0.094186746,-0.18864301,0.008728393,-0.12454849,-0.06013172,-0.037349965,0.11978243,-0.07431649,0.11965845,-0.113660686,-0.017355125,0.04275663,-0.025114631,0.096066706,0.120017916,-0.028529426,0.17518787,-0.14174312,-0.0808897,-0.06550119,0.19353977,-0.039061476,-0.03384583,0.16641079,-0.0369962,-0.017436957,0.13422032,0.05196184,-0.025479676,0.22684379,-0.02478026,0.09537189,-0.0069011794,-0.15271203,-0.12867199,0.14360404,0.10945271,0.047093224,-0.23864734,0.012660923,0.3116446,-0.38165316,-0.09507034,0.09852387,0.23449191,0.011014349,-0.14693543,-0.060171876,0.07748034,-0.008050753,-0.00971303,0.05307234,-0.023354514,-0.029137079,0.0470761,0.22768536,-0.24792288,-0.051597383,0.10336652,0.035148583,-0.19435807,-0.168353,-0.07379126,-0.30722955,-0.17992893,0.24091919,0.19437255,-0.107955806,-0.18366882,0.16565661,0.26447758,0.076813735,-0.13268027,0.14035498,0.16071339,-0.16459903,0.14796247,0.1436265,-0.23205642,-0.19760437,-0.006991473,0.15774184,0.19313279,-0.25668776,0.17301027,0.025921967,0.04545448,0.037297662,-0.25384435,0.0037745312,-0.06557211,0.018813455,0.12132633,0.05822326,0.083560504,-0.13053475,0.02211831,-0.059251256,-0.025849992,-0.0077550597,-0.023294387,-0.11046202,0.030895134,0.1721465,-0.12361384,-0.0037851518,0.1320717,-0.016994007,-0.04616295,0.20849873,0.051315155,-0.006026602,0.15792476,0.08651343,0.21216542,-0.046377618,0.07551851,-0.009562114,0.0051969476,-0.08278003,-0.15819317,0.094470404,-0.17365204,0.13418223,-0.005263109,-0.13202861,-0.13680664,0.064742245,0.07929959,-0.057737667,0.035488695,-0.11432753,0.13396263,0.016484253,0.05135201,-0.12290231,0.010885275,0.173798,-0.19712238,-0.03434548,-0.23010534,0.12829544,0.118302956,0.127964,0.0075225676,0.09820853,-0.015410789,-0.029041335,0.25259286,-0.068055265,-0.090613015,0.055102468,-0.02711588,0.0952381,0.011742581,0.000936889,-0.14779872,0.11757728,0.12404844,0.10504647,0.039773002,0.1773682,-0.18847181,-0.088599116,-0.09929183,0.14180349,-0.15828931,-0.2288823,0.14567399,-0.055313744,-0.008746513,-0.21340308,0.18638018,-0.008595549,0.05266141,0.1312073,0.06035117,-0.1764615,0.05795144,-0.024970366,0.1323174,0.12793373,-0.12439495,-0.18773626,-0.01909616,0.12219413,0.026236432,0.011074187,-0.15557866,-0.17021137,-0.17300718,-0.18654081,0.0342486,-0.060952023,-0.13302034,-0.053871755,-0.1855428,0.27371144,0.21376613,0.12299718,0.097454235,-0.0066882237,-0.093015075,-0.0313561,-0.00055044715,0.14847513,-0.15019146,0.1865315,-0.17395385,-0.01338254,0.12342732,-0.12360115,0.14431831,0.07695029,-0.07068203,-0.080004275,-0.22170521,0.07450279,-0.041778814,-0.07195289,0.11316701,-0.102725066,0.118394464,-0.110369265,0.1737134,-0.028959593,-0.06376655,-0.15831594,-0.10570457,0.05032321,-0.091369666,-0.015042777,-0.17207652,0.19316643,-0.08877886,-0.12541334,-0.21136186,-0.078788556,0.010447953,0.16862825,-0.1213812,0.11499845,-0.07129564,0.10926525,0.051630545,0.06968714,-0.207281,0.11916631,0.09924841,-0.18292107,-0.2798329,-0.2525943,-0.1744005,0.09070982,-0.15439884,0.020546665,0.17888895,0.15384592,-0.16056721,0.10200456,0.090748765,-0.15846846,-0.092934825,-0.014774813,-0.11135818,0.019124113,-0.03547191,-0.19011001,-0.21342003,0.1523255,0.080269165,0.19922777,0.011482773,0.09277292,-0.075145476,0.19740325,0.17640689,-0.060215235,-0.2926568,-0.1753711,0.040406257,0.14718291,0.21545228,-0.1552954,-0.07635285,0.021096846,0.075706266,-0.0040609413,-0.22746852,-0.12382366,0.09187104,-0.0022886747,-0.008229866,-0.05066059,0.12224892,-0.043895762,0.047578443,0.02511733,-0.07530085,0.09624918,-0.023907708,-0.027535072,0.18420897,-0.116810046,-0.13083354,-0.07925211,0.067665115,-0.068539254,0.2741704,-0.06728438,0.18328825,-0.1763157,-0.0039421846,0.14356725,0.15574926,-0.15902281,-0.3415976,0.0420695,0.058508296,-0.04630862,-0.2051978,0.05167608,0.18374728,-0.065430045,-0.06931918,0.22014247,-0.0039647897,-0.00084716285,-0.08553438,0.106641896,0.24891296,0.036397208,0.078770615,0.013061235,-0.21354493,-0.05832633,-0.10845961,0.15834199,0.07595045,0.0021136054,-0.036723487,0.06579142,0.14648756,0.050463766,-0.13462085,-0.21414831,0.22325774,0.11395248,0.0547776,0.10788943,0.048746448,-0.16534092,0.102017894,-0.026627183,-0.021444261,0.11733701,0.16740084,0.10835108,0.11914614,-0.019472575,-0.12607612,-0.061274514,0.010267441,-0.122581065,-0.034912314,-0.1618968,0.010938321,-0.027822519,-0.01115339,-0.06603344,0.13275263,-0.035561897,0.09718306,0.04890437,-0.15609834,-0.20107543,0.11081651,0.050356142,-0.21807179,-0.047781117,0.10583591,0.1430137,-0.05247137,-0.123295404,-0.21066533,-0.070376284,-0.21312219,-0.21929011,-0.0816522,0.09571011,-0.16131414,-0.11274414,-0.07210261,-0.20302954,-0.13904324,-0.09024466,0.015739275,-0.117968336,-0.114956,-0.15203014,-0.028427243,-0.12842825,0.17914625,0.045735955,-0.18350281,-0.024742091,-0.15488479,0.07189344,0.12647726,0.008813116,-0.1868981,-0.054113362,0.0063192886,-0.017764471,-0.024489302,0.033659182,-0.10216066,-0.13424328,-0.17774428,-0.048974052,-0.049017325,0.0744267,0.102203645,0.09506026,0.0023923973,0.057048395,-0.035286736,0.08053511,-0.07664555,-0.10275877,0.026549596,0.096749164,0.061614327,-0.061647207,-0.12666766,-0.17230439,-0.17254074,-0.12275394,-0.20244275,-0.10201272,0.24127607,-0.011140531,0.14871421,0.15292156,0.12135667,0.076911874,0.05444439,-0.012666972,-0.05447746,0.020977585,-0.16943538,-0.009162085,0.124819815,-0.195631,-0.24491853,-0.10550145,0.15970485,0.004741177,-0.13466148,-0.23994353,-0.099767126,-0.049971793,-0.10190337,-0.057733845,-0.19429958,-0.108866215,-0.001505236,-0.08929965,-0.03929714,0.09813224,-0.16965859,-0.030310092,0.013063001,0.0067378217,-0.11729569,0.07677587,-0.27908185,-0.13123891,-0.065713294,0.05293354,-0.16725786,-0.12460658,0.028311148,0.0252224,0.025952125,-0.025564842,-0.13032965,-0.21442072,-0.04838386,-0.24900699,0.08884384,0.13486369,0.028258005,-0.15296617,0.049385335,0.16804181,0.28055874,0.0013585802,-0.11120504,-0.1682586,-0.055288535,-0.27596903,-0.052537076,0.13536689,0.017079642,-0.23297854,-0.084367,-0.0546459,0.046038836,-0.078420095,-0.11525143,-0.06932384,-0.13758267,0.18550803,0.018578967,0.047637086,0.14275157,-0.21845862,0.12106088,-0.059660275,-0.08191681,-0.044105683,-0.035355814,-0.024745125,0.14535286,-0.15994647,-0.15815654,-0.09308513,-0.1614508,-0.20435229,-0.103935055,0.07661481,0.088926576,-0.12362449,0.026381394,-0.057856493,-0.036590908,-0.18665534,-0.090915665,-0.028103622,0.17596906,-0.14718711,-0.09380066,0.023101132,0.10548163,-0.11485752,0.08919161,0.13909861,-0.10160326,0.15773907,-0.036841597,0.06714485,-0.05263145,-0.008478527,-0.24717583,-0.14161494,-0.09095899,0.042895555,0.13354091,0.06504958,-0.069232576,0.13459274,-0.09507932,-0.12731764,-0.0008300756,0.06383849,-0.18266515,-0.23195004,0.06393159,0.044881057,0.0686968,-0.11646791,0.10247835,0.10088895,0.080661215,-0.19198103,-0.05744963,0.08588554,-0.016003475,-0.15964708,-0.20132926,0.23346184,-0.09761248,-0.2746458,-0.060162053,-0.1352044,0.10378537,-0.18672822,-0.064126536,0.036086675,-0.11608877,0.07361742,-0.29768494,-0.13126208,-0.019597856,0.2142729,0.0101470575,-0.11824635,-0.00033408127,0.066253945,-0.2168588,0.024180055,0.264968,-0.010642979,-0.060879845,0.0972142,-0.10106879,0.012377222,-0.052094765,0.006540199,-0.21977507,0.13203321,0.08154121,0.15703638,-0.13449892,0.23951074,-0.13418624,-0.13231623,-0.029560968,0.08630247,-0.123207286,-0.09255125,0.0035341848,0.13411477,-0.05924472,0.23333004,-0.028100945,-0.061361827,-0.08102707,-0.13119753,0.2182291,-0.109382875,-0.2340446,-0.09134085,-0.0040609566,0.12416533,0.022737889,0.13660681,-0.061379056,-0.09012219,-0.08259025,-0.18441145,0.008320703,-0.05932518,-0.10988408,-0.16940019,-0.11553509,-0.23354281,-0.035723623,0.060085326,-0.14103915,-0.13023503,0.18354347,0.065507375,-0.10296634,-0.0455602,-0.020070316,-0.048452254,0.0078221075,-0.09702783,0.07917563,0.06227894,0.12893912,-0.09107768,0.05864591,-0.026962474,0.00679385,0.032577146,-0.039880704,-0.15244958,-0.18577187,-0.109594844,0.0022793985,-0.16149655,-0.12982312,-0.12117153,0.12818998,-0.045742,0.10299007,-0.11526713,0.110900804,-0.11194282,-0.060800478,0.08199161,-0.0842817,-0.007552629,-0.22635083,-0.015903324,0.07034747,0.026648976,-0.03272955,0.05700806,0.09418979,0.10566886,-0.15529884,0.027262202,-0.004396804,-0.21374513,0.10251989,0.14466275,0.01249478,-0.206736,-0.18998116,0.015178724,0.09783371,-0.096009515,-0.11540183,-0.066020235,-0.06442697,0.067447655,-0.15323691,0.09931318,-0.1986553,0.078672625,-0.08834489,-0.05968659,0.07962871,0.1128263,0.14008673,-0.099601686,-0.050091352,0.081476055,0.19224443,0.117894344,0.041598998,-0.00876145,-0.14438117,-0.12884852,0.00039175,-0.16918045,-0.20614423,-0.06934633,-0.051880356,0.057826713,0.18747373,0.13146201,0.16378383,-0.010561854,-0.0068593062,0.03838959,0.0992643,-0.23110774,0.08852062,-0.18755269,-0.1536618,0.18498825,0.19694869,0.033792194,0.10370095,0.10958187,0.13730545,0.029575791,0.09353511,0.17025371,0.17315707,0.17604983,0.034363966,0.11641004,0.086262316,0.26070234,0.15500763,-0.14233395,0.07025912,0.1131128,-0.06755242,0.0884119,-0.18074475,0.04032244,0.2363732,-0.082456276,0.2033704,0.21352331,0.1733328,0.18802561,-0.21676682,0.09824084,0.11369177,0.07696401,0.020570913,-0.12649924,0.032205038,-0.021316295,-0.17030303,-0.11893727,-0.22795607,-0.22823575,-0.17723283,-0.17289323,0.026599968,-0.11273501,-0.20577578,0.07491713,-0.012322514,0.1854135,0.14894791,0.19553635,0.007262947,0.13602777,0.0056681354,0.174679,-0.062963,-0.09163005,0.01693835,-0.003269768,0.018503187,-0.023797734,-0.27709445,0.05691182,0.11080393,-0.23866953,-0.06408037,0.08421076,0.14455804,0.017948713,0.029124605,-0.14156084,0.16211408,-0.20160626,0.024700852,-0.14355728,-0.14691938,-0.12730852,0.21772629,0.07208005,-0.11115628,-0.0040592,0.14539975,-0.015311795,-0.026422752,0.19509007,0.063425146,0.12905946,0.14218372,-0.1532454,-0.18684925,-0.058293927,-0.07452038,0.054411065,0.07739463,-0.12640567,-0.13370864,-0.09479105,-0.047995873,0.17405789,-0.061274197,-0.30012435,0.15810013,-0.08363649,-0.047126245,-0.008243043,-0.22092423,-0.13274096,-0.18429016,-0.036905356,0.08853074,0.15445958,0.112501085,-0.2406706,-0.20967452,-0.03830021,0.07492044,-0.1099392,-0.026520556,-0.14860162,-0.07868189,-0.17523572,0.007727393,-0.08217782,-0.09874349,-0.008790037,0.020053906,0.04564598,-0.21246675,-0.19219881,-0.08106014,-0.12826695,-0.1622051,0.18849646,-0.19997379,-0.0030659514,0.15105067,-0.20372893,-0.088563,0.02386792,-0.031863626,-0.16741364,-0.16514494,-0.04207063,-0.08969757,-0.07234686,0.07890564,0.020007892,0.116433896,-0.07956182,-0.05903473,0.1760702,0.14135608,-0.06112134,0.11403248,0.015203754,-0.12315616,0.12902978,0.12918124,0.16593398,-0.21124949,-0.094314,-0.019493872,0.14091775,0.17057247,0.017292773,0.026442558,-0.12548596,0.0013313664,0.043152664,-0.26551333,0.14945644,0.12804821,-0.08299029,-0.21681304,-0.012898653,0.12224815,0.13604832,-0.15049265,0.037788663,-0.18683237,0.06874884,0.21138987,0.22469625,0.06285892,0.08092704,0.16715208,0.15768719,0.20394212,0.12802774,-0.17816775,-0.08556246,0.10109403,0.07774216,-0.14523683,-0.22761343,-0.1315095,-0.11178544,-0.08084891,0.08286803,0.20674524,-0.096620545,-0.11799971,0.10814583,0.08048691,0.086411454,-0.061643504,-0.071477406,-0.08217996,0.06004292,-0.080545165,-0.017339095,0.14033228,0.03190763,-0.13033403,-0.09199036,0.17083202,-0.24008259,-0.10645978,-0.055561814,0.15354416,-0.15912065,-0.041916225,-0.22806947,-0.08482444,-0.15245743,-0.1349486,-0.17537689,-0.038750827,-0.19772783,0.17089011,-0.09883788,0.18348551,-0.02128884,-0.0780291,-0.045682292,0.16729032,-0.25720292,-0.13961019,-0.01900333,-0.14948413,0.08015491,0.04260719,0.07975223,-0.19957955,-0.12692279,-0.18000057,-0.032141495,0.13461688,-0.13030286,0.10364905,-0.18970379,-0.011663991,-0.07759278,-0.18452542,0.037875965,0.04193497,0.019027673,-0.13024211,0.00094987726,0.0204575,0.10852147,-0.13562591,0.21218684,0.009814348,-0.09807758,-0.22877799,0.04922448,-0.052541975,-0.21704274,0.009654048,0.12954468,-0.2016249,0.048716173,0.009234005,0.13085903,0.2836923,-0.005958427,-0.010230748,-0.19775774,0.11851264,0.0741681,-0.15011248,0.054233063,0.1838391,0.15483057,-0.069114245,-0.01989077,0.06954021,-0.10836869,-0.030901121,0.16388686,0.1252967,-0.116918825,0.06697924,-0.08216505,0.15763536,-0.08252674,-0.1181989,-0.18610737,0.15465975,-0.2667666,0.07625044,-0.0992753,0.0018756824,0.12454714,-0.039648864,0.06957465,0.075835556,-0.06420728,-0.23833962,-0.06237639,0.045312807,-0.27954715,0.023315046,-0.17299636,-0.060548257,-0.0939611,0.095029876,-0.14272238,-0.074729495,0.014765608,-0.0916417,0.27899593,0.17314552,0.040895056,0.3130742,-0.055094946,-0.026021134,-0.11346659,-0.09940964,-0.13085945,0.20307897,0.17759791,0.21362895,0.083656736,0.033294797,0.28393447,0.13710389,0.115737,-0.14214882,0.13843468,0.0434008,0.20523857,0.036107175,-0.21063459,-0.032571804,-0.081656046,0.034676444,0.18321472,0.10714568,-0.073558286,-0.06683181,-0.020772368,0.07172507,0.10387218,0.081051536,-0.067543626,-0.11425411,0.060830098,-0.068267986,0.23848474,0.06791041,-0.0020045612,-0.09093329,0.18928747,0.2315748,-0.14602019,0.19549774,-0.24205947,-0.18591374,0.17444175,-0.0729701,-0.21930957,0.044537596,-0.049838718,0.10047459,-0.0730226,0.11323294,-0.18847424,0.12525111,-0.19399284,-0.2039796,0.08260518,0.039786506,0.029715644,0.2410564,0.20247291,0.23240072,0.019623362,0.11935462,-0.13778229,0.047455706,-0.0952738,-0.14296348,0.06969048,0.005295542,-0.0822133,0.277392,-0.038661934,-0.2682605,-0.22774184,0.19342883,0.19945736,-0.13992886,-0.08017194,-0.21616429,0.041300975,-0.07630107,0.2407514,0.13708155,0.043135624,-0.03185514,-0.29687014,0.099829935,0.12052061,0.09851133,-0.21819758,-0.11063615,0.18218803,0.1224516,-0.16663441,0.088063225,-0.06739995,-0.014524992,0.04814586,0.0782243,0.076710366,0.03145894,0.12353043,0.13826294,-0.17739785,-0.0399301,0.14287484,-0.31490743,-0.13026439,0.1618058,-0.18390675,0.18005045,-0.014007547,0.1197602,-0.040324908,0.20078777,0.15175891,0.14592248,0.1468455,-0.23737219,0.041825403,0.015084316,-0.04417,0.026981855,-0.017215513,0.12125298,0.09100247,0.030044837,-0.112525545,0.030266952,-0.1392097,0.014602707,-0.06583646,-0.18278745,-0.056191556,-0.1614235,0.037749723,0.06001367,-0.038547836,0.12432102,-0.06975112,-0.13998777,0.0015666414,0.0059191687,0.10317024,0.16701035,0.10889833,0.13278739,0.10507228,0.004080447,-0.097485706,-0.19315359,-0.079993196,-0.20234531,0.12545186,-0.15280737,-0.18536925,-0.19865812,0.121853605,-0.15061292,0.024225824,-0.011707653,0.0949363,-0.061410177,0.07986947,-0.051047165,-0.021970602,0.060514703,0.0991462,-0.22433755,-0.07058393,-0.09679331,0.045800284,-0.18754752,0.05845136,0.052605934,-0.10219437,0.10435529,-0.16609995,0.08412975,-0.10127897,-0.06554642,0.028759541,0.10927008,-0.07200445,0.034167185,-0.020219848,-0.0785225,0.06941386,-0.2586813,0.10866476,-0.09892218,0.13235766,0.25039747,-0.13395573,0.16004355,0.07196252,0.016097736,0.060990658,-0.13489875,-0.011318332,-0.13256301,-0.18538514,-0.08581205,-0.020153545,0.21680261,-0.21475744,0.07628741,0.07386864,0.09695165,-0.045146547,0.08842084,0.0651952,0.31727937,-0.066688605,0.034954987,0.09728539,0.012632504,0.23886469,-0.25673303,0.17795032,-0.018461667,-0.06785041,0.10613536,0.13696942,-0.15670411,-0.17994572,-0.047251973,0.012157714,0.15055384,-0.10584,0.016356407,-0.023192829,-0.03274845,0.08815335,-0.12857087,-0.010701927,-0.16598575,0.30114907,0.15578167,0.13545246,-0.22490661,-0.032755163,0.21387374,0.064413115,0.094420426,0.07879541,0.012435087,-0.021745164,-0.07887765,0.3029272,0.070016935,0.1376171,-0.21508043,0.014819023,0.08290001,0.088344336,-0.014132889,-0.0012563682,0.12894753,-0.26000813,-0.029793683,0.13561527,-0.20785773,-0.12752703,0.24589553,0.00045945344,-0.039611313,0.17481294,0.006549526,0.21365024,-0.1101087,0.16340412,-0.10029725,-0.042141482,-0.23380329,0.06970001,-0.025025755,-0.2017362,-0.20743865,-0.07527981,0.09648221,-0.06684533,0.04211161,0.11885827,0.05893905,-0.070483394,0.10408002,0.12493528,0.16625054,0.07212958,0.029924339,0.23254365,0.06863627,-0.106609516,-0.15145457,-0.22903283,0.21170796,0.014136808,-0.04164611,-0.11365488,-0.19706954,-0.18856409,-0.25177267,0.2624604,-0.22525702,-0.029369034,0.16705754,-0.042069145,-0.021840034,0.055350173,0.07804318,-0.11632178,-0.22900134,-0.17047179,-0.172554,-0.17495154,-0.07633714,0.107567884,0.0016610245,0.05579755,0.07810799,0.22455823,-0.15615794,0.20796269,0.075566456,0.048129696,-0.22323796,0.09701751,-0.08333642,-0.014871509,0.1330784,0.07574662,-0.033917904,-0.21764305,0.13013002,-0.20886314,-0.12865119,0.08149909,-0.07594093,0.0065969476,0.17074591,0.105324775,-0.016947389,0.13011396,0.1876052,0.165617,-0.14037728,-0.15063997,-0.14038703,0.2836234,0.10237886,0.13660711,-0.11626928,-0.19756784,0.25460985,0.033562753,0.065713674,0.017848432,-0.117177404,-0.21595566,0.026164979,0.0036931224,0.025265401,0.123520814,-0.15196402,-0.011959913,-0.06862889,-0.034785137,0.25704828,0.0023941777,-0.11331425,-0.14125526,-0.12583606,0.06006536,0.1744398,-0.19281928,-0.06829126,-0.34000492,0.16418108,0.025572613,-0.23636991,0.05889764,0.14985882,0.021620985,0.0009789958,-0.1677769,0.112465106,0.22798367,0.17567542,-0.1383336,-0.038030773,0.02556573,0.21523033,0.028238347,0.055128846,-0.2105273,-0.05774953,-0.031973235,-0.072201975,-0.014220576,0.106805295,0.20400262,0.1112423,-0.0068553803,-0.030229015,-0.014825702,-0.06046994,0.14261396,-0.21644567,-0.09637238,0.17449787,-0.20206481,-0.13752909,-0.069252186,-0.290254,0.22070847,-0.14328355,0.16946883,-0.21625173,0.23997198,-0.11535576,0.2445639,-0.11119088,-0.109186426,0.1503705,-0.0144277895,0.13006273,-0.08130597,0.19252042,-0.1646837,0.25398532,0.08294669,0.016287992,0.105763175,0.026252227,-0.0608462,-0.03601675,-0.193273,0.0767098,-0.0062138387,-0.1546408,0.09851189,0.04661191,0.016839607,0.000830631,0.006977975,-0.054665014,0.10313083,0.10170652,0.19986425,0.054886788,0.111441575,0.2015534,-0.045391478,0.032685693,0.08646682,0.042798262,0.16819468,-0.103778556,-0.027163984,-0.029026667,0.21055484,-0.018843554,-0.048246354,-0.30812988,-0.14286314,0.13216454,-0.24990688,-0.180182,0.17762569,0.056700546,-0.06373838,-0.16209698,-0.18418524,0.07003458,0.083185345,0.02704317,0.11191128,-0.022566164,0.040509693,0.084319726,0.06430524,-0.011858716,0.01912325,0.08070776,-0.16076651,-0.17652655,-0.24510063,0.29087573,-0.089781806,-0.011374119,-0.03742971,0.12241403,-0.27384388,-0.033519037,0.06863221,0.20517339,0.16388996,-0.1735608,0.23333222,0.0719089,0.059695117,0.10132069,0.045823086,-0.027428767,0.030444331,-0.16016902,-0.07109443,-0.17502056,0.15606812,0.002806799,-0.06579747,-0.113357306,0.09831836,-0.036570285,-0.07157447,0.027708694,0.19206604,0.28879678,-0.057074048,0.0538967,0.061900087,-0.03649498,0.12343497,-0.08160301,-0.13773037,-0.07381535,0.16583152,0.03862291,-0.09040605,-0.14082968,-0.20795852,-0.13316153,0.13350827,-0.0024267368,-0.033170894,0.05889564,-0.06887651,0.05414008,0.23609187,0.0917284,-0.0354549,-0.08006677,0.16623805,0.1671853,0.1964805,-0.22285779,-0.17087002,-0.13954084,-0.09945056,-0.07502869,0.011304826,0.09740281,-0.058785245,-0.07854338,0.2562418,-0.008491798,-0.10457499,0.15049991,-0.11624353,0.25271866,0.20722333,0.034061715,-0.24018367,0.16391526,0.16834663,0.040411085,0.14156872,-0.0055719395,-0.11479328,0.02919059,-0.07830954,-0.093385026,-0.13071066,0.00093081675,-0.02335318,-0.037859976,0.07582522,-0.22091979,0.031903464,0.04890272,-0.14167322,-0.14748977,0.09413364,-0.16282284,0.07267978,-0.06993722,0.12384325,0.121790245,0.02153843,0.012843791,0.088126935,-0.012915437,-0.17825212,-0.18961218,-0.0674944,-0.22768465,-0.2484791,0.046408053,-0.08912894,0.17929307,0.11243797,-0.072218694,0.1779176,-0.06284375,-0.18050422,0.24011488,-0.16180511,0.087263346,0.07682017,-0.05000967,0.0006564285,0.048623476,0.017637052,-0.04879439,-0.18564743,0.2162849,0.048755582,-0.1515436,-0.04032863,0.18016042,-0.14019966,0.08504779,0.033516295,-0.14975704,-0.10991191,0.051865783,-0.13826439,-0.18143746,0.09173584,-0.10377687,0.15220119,0.19200607,0.02959244,-0.035213243,0.044691455,0.1485036,-0.17724842,-0.17740573,0.15290786,0.15437724,0.13910457,-0.2063915,-0.16866922,0.0636043,0.015819488,0.06055102,-0.13968658,-0.18833748,-0.16574755,0.012832483,-0.07939884,0.14510237,-0.10584093,0.028089533,-0.002697783,-0.026087487,0.040088993,-0.025097117,-0.20445676,-0.053400658,0.034916837,-0.06651503,-0.20437035,-0.05358933,-0.19186026,-0.20565659,-0.17637873,0.031399116,0.12834762,-0.0011509657,-0.04628403,-0.1116326,0.08129405,0.032651182,-0.08675432,0.004297878,-0.14815582,0.21991013,-0.2693173,0.054685753,-0.1777866,-0.047979195,-0.022988932,0.028820183,-0.13496654,-0.005177324,0.15069641,-0.027311938,-0.23103112,-0.16006702,-0.04402771,-0.16067842,-0.025859758,-0.06013484,-0.23383747,0.16555575,-0.16736217,0.17672066,-0.0148405,-0.18313485,0.00767555,0.039557964,-0.059596613,0.14669006,-0.06255145,-0.09673337,-0.032968882,-0.096184574,0.0137563525,0.18010804,0.117869,0.07381706,-0.10514007,-0.12976179,0.057789218,-0.036946647,-0.010413434,-0.013630935,-0.15038168,0.24892126,0.08320781,-0.07332567,0.008055135,0.019610994,0.1789561,0.09847446,-0.070265554,-0.22426496,0.22053891,0.22708464,-0.090212755,0.0380296,0.037490696,-0.117778495,-0.12008944,-0.100319386,-0.018449727,-0.19551551,0.09204175,-0.14715175,0.115515135,-0.14388919,-0.022622114,-0.12294698,0.10620564,0.16951956,-0.11559433,0.13854998,-0.04169592,0.21577786,-0.20111577,-0.13505721,0.18127283,0.0575488,0.18712322,0.05844349,0.19618571,0.002746124,0.1587625,0.048632756,-0.03757379,-0.20137525,0.115965,-0.02294312,-0.14189595,-0.095083565,0.0655715,0.047615077,-0.10999291,-0.16156194,-0.23736356,0.19020584,-0.2519168,-0.18749213,-0.0594314,0.2132407,0.02223087,0.119136594,0.15172654,0.0071623633,0.025771061,0.30308717,0.028995145,-0.053548098,-0.07657821,-0.052064765,-0.10764683,-0.26296538,0.2549335,0.13222113,-0.018254112,0.07539661,0.13601114,0.26726112,-0.08639187,0.29742986,0.12665738,-0.08911893,-0.0678272,-0.07856797,-0.13317272,-0.05954738,0.014415956,-0.059210468,0.13894774,0.11822349,0.19666258,-0.15771912,0.054694057,0.18172917,0.027859496,0.029498516,0.16615844,-0.20153621,0.017637644,-0.082956925,0.27028936,-0.097379334,0.105603725,-0.07726669,-0.10271203,0.09682409,0.15314654,0.10013573,-0.023720918,-0.003986822,-0.123810075,0.18404944,0.21044157,-0.06668222,0.097055174,-0.1079282,-0.0054119793,0.18467021,0.14428926,0.1186951,-0.2154495,0.1319833,0.040147033,-0.1790954,0.061207045,0.027171703,-0.049922407,-0.059599973,-0.017559525,0.0800198,0.13495699,-0.13618805,-0.16054395,0.080868736,-0.18622807,0.05433912,-0.16397753,0.08716343,-0.045932032,0.095660776,0.09568942,-0.02885947,0.06792763,0.16556285,0.123607226,-0.091748595,-0.19364296,0.20482929,0.17175806,0.10178005,-0.23530102,-0.1697695,-0.13365269,0.05369999,-0.08105479,-0.12956582,0.02322637,-0.16658603,0.05321294,-0.0796297,0.16157582,0.16153143,0.08487096,-0.12339756,0.10840684,-0.0026523983,-0.13156386,0.037624758,-0.17875306,0.016556462,-0.0032950265,-0.10160221,-0.36579788,0.021133583,0.037052594,0.21447365,0.15376368,0.11177072,0.11346684,0.21715936,-0.053422328,-0.22535275,-0.09114515,0.10322719,0.20071611,0.009380268,-0.040103663,-0.07829019,-0.009101169,-0.24672873,0.055013455,0.14419022,-0.100896105,0.27593705,0.093373306,-0.029535502,-0.28821436,0.17373998,0.19614089,0.21597044,0.033744328,-0.02747567,-0.19963783,-0.22853759,0.3024773,-0.0012433922,-0.14728399,-0.046485335,0.12446507,-0.037478793,-0.13410649,-0.10338618,0.058925744,0.082281,0.0666077,0.13120311,-0.12188798,0.012327533,0.13833542,-0.04065038,-0.00706079,0.30452743,0.008554135,0.060973287,-0.106431745,-0.037313867,0.040194646,0.12649384,-0.18840139,0.004511356,0.30282262,-0.25471926,-0.06050466,0.09608612,0.12413002,0.027083034,-0.21701153,-0.032110468,0.065195896,0.15432125,0.115061,0.14344354,0.12070228,0.017696297,0.058358252,-0.13662702,-0.09941672,-0.14970982,0.11821795,0.17096235,0.07829099,0.15832072,0.13255209,0.2626846,0.019639466,0.16714191,0.0772646,0.07774776,-0.1487485,0.20594403,0.043354545,0.044498995,0.11129246,-0.04533163,-0.106698275,-0.24798547,-0.07100592,-0.018849257,0.0033059227,0.1608607,-0.08581666,-0.056811217,0.17458783,-0.070404746,0.0046939314,-0.17653997,-0.17238252,-0.16876179,-0.0074339584,-0.1593441,0.025834417,-0.0147149395,-0.212876,-0.07325049,0.044360116,0.071436495,-0.054586165,0.054057892,-0.19522813,0.07042248,-0.12843011,0.15248927,-0.13768725,0.19540985,0.10344773,-0.20025393,0.02219627,0.05775709,0.044813663,0.005618495,0.14520979,0.0776919,-0.043562952,-0.057515334,0.13153873,0.096402586,-0.10288614,0.17444737,-0.026975606,-0.10193128,-0.14914837,-0.17497844,-0.0056709223,0.042059835,-0.022535661,-0.049573716,0.009643449,0.1852085,0.17165236,-0.03790191,0.021339903,-0.29389063,-0.22498049,-0.20305307,0.12669809,0.18288921,-0.06992362,-0.112160444,0.07466614,-0.10953126,0.081607714,0.0043857875,-0.24159043,-0.22328094,-0.21476625,0.07175148,-0.020477245,-0.11806535,0.08810124,0.077337496,-0.26254252,0.123726346,0.040363632,0.102618985,0.0017638458,-0.05980714,-0.2656343,0.08072278,-0.104416385,0.013892154,0.06530693,-0.049939346,0.04712189,-0.22062685,-0.12128769,0.18875235,-0.21974587,0.055295296,-0.07210278,-0.04453762,0.09876588,-0.001845846,-0.20971929,0.024492763,0.092611946,0.03940884,0.23959029,-0.025833031,-0.033735733,-0.0040511885,0.01716631,0.115111195,-0.07849882,-0.2301957,-0.009982892,-0.04884264,-0.19160898,0.25240898,-0.092495374,-0.22274172,0.051264893,0.071580134,-0.14276819,-0.20341258,0.23159775,-0.18118738,0.001162111,-0.009887036,0.1970291,-0.18813045,-0.11510065,0.10225478,0.032891773,-0.07412528,-0.020535395,-0.13127409,-0.16521548,-0.0015643964,-0.028790778,-0.051315427,-0.209834,-0.1748733,-0.12147877,0.027435549,0.066254996,-0.16085757,0.061016347,-0.13765192,0.072131015,0.25438374,0.08693924,-0.046516586,-0.12428849,-0.11987496,-0.019317579,0.11248913,-0.20427199,-0.10400028,0.09386047,-0.047311764,-0.16000444,-0.18004243,0.020398822,-0.08532128,-0.16453087,-0.014473096,-0.008299777,-0.012329795,0.02703958,-0.01983441,0.11529035,0.15455635,-0.20018265,-0.048917048,0.08202533,-0.037558638,-0.12463071,-0.17396896,-0.012944684,-0.02857825,0.18230627,-0.12857926,-0.019411523,-0.030380964,-0.012622086,-0.04685719,0.03100048,-0.122544914,0.19575824,0.25876632,-0.10382079,0.099806786,-0.06294299,0.24068755,0.10589567,-0.14978543,-0.055911623,-0.19371943,-0.089928485,0.0071360758,0.12075921,0.16236834,-0.13842468,-0.094413914,0.17447689,-0.042889774,0.11599185,-0.20401427,0.061016984,-0.20167893,-0.035318527,0.03570749,0.14345169,-0.08208765,-0.12060244,-0.23711906,-0.13651778,0.26779193,-0.09207945,-0.047751386,0.00050882756,-0.03718731,-0.22485341,-0.1411526,0.053405132,0.17560208,0.049258187,-0.13395871,0.08568831,-0.06443832,-0.0055339504,0.06799995,-0.007917299,-0.0055414964,0.052356422,-0.07625843,-0.10728614,-0.12152628,-0.043857098,-0.1257235,-0.080167934,-0.16400848,-0.14272273,-0.07176161,0.09165025,0.05929445,0.012597239,-0.039856967,0.17779155,0.12434071,0.15202683,0.23908901,-0.07110412,-0.09071979,-0.066128105,-0.12534377,-0.10077478,0.0071218484,-0.15639982,-0.171715,-0.100041404,-0.17393231,-0.24077968,-0.17549475,-0.027901128,-0.1011262,-0.20373538,-0.09009425,0.08955302,-0.0017900389,0.08583006,-0.038301446,-0.07290978,-0.1358046,-0.2163673,-0.19563842,-0.05555877,0.12101975,-0.059525087,-0.06524332,-0.06970233,0.07958614,0.2155405,0.060702603,-0.059149954,-0.10595398,0.18007788,0.02801784,-0.047118157,-0.062199287,-0.120509036,-0.050781194,0.12064674,0.110053435,0.15318277,0.1597137,0.27473617,-0.035142854,-0.16687655,0.16562103,-0.010735432,0.1370238,-0.06056881,0.012196762,0.099898964,-0.1223701,0.28980702,-0.072294846,0.22567326,-0.14757276,-0.026281796,-0.08035437,0.2968853,0.17509314,0.017349485,0.03144158,0.18354066,-0.07514675,0.20565268,0.16465412,0.13717481,-0.10550014,-0.21027328,-0.033952754,-0.19715282,0.112833,0.06437567,0.2282911,0.09157216,-0.09820634,0.029019814,-0.13301225,0.1522585,0.06920283,0.14888571,0.10192307,-0.09259387,-0.088434994,-0.22648785,-0.1570977,-0.05397948,0.15088923,0.14329568,0.111573115,0.148121,0.09501624,0.002084134,0.083821885,-0.030197943,0.015321339,-0.030496601,-0.13208441,-0.146293,0.007826542,-0.15124503,0.0020608234,0.020360285,-0.021862585,0.028194165,-0.05328412,0.1012713,0.10765269,-0.10471292,0.0140089905,-0.021516807,-0.03477579,0.064192526,0.15328303,0.22525547,-0.17920372,-0.10425993,0.055102274,-0.027483918,-0.072873235,-0.16848293,0.09714606,0.07483739,-0.1182509,0.011851188,0.22047007,0.1677504,0.11390016,0.19390322,-0.0788738,-0.051523745,-0.12921044,-0.14873797,-0.23638707,0.023948694,-0.026899396,-0.16030458,-0.11533188,-0.091456786,-0.07202069,0.053865768,0.1915057,0.22468722,-0.026393464,0.042638876,0.1493303,-0.0028569852,0.08207705,-0.038782507,-0.0044530225,0.03131131,0.123593815,-0.3197129,0.17900756,0.018665299,0.17046179,0.038132474,0.012665828,-0.079303354,-0.11965874,0.034156565,0.008315984,-0.18101425,-0.10967592,-0.04044022,-0.09152582,-0.063338675,-0.1472493,-0.11875406,0.285116,-0.06134623,-0.095569454,0.1203469,0.04940859,-0.26105046,-0.023653716,-0.18297422,-0.17176232,-0.030461764,0.08253824,-0.20100902,-0.22877307,0.12656137,0.15712711,-0.07002516,-0.18128504,-0.059012577,0.20857058,-0.0892546,0.11116708,-0.102672786,0.20299174,0.04353743,-0.08850855,-0.11493904,-0.16295409,0.20763916,-0.08522251,-0.18611278,-0.16408803,-0.20532171,-0.22984779,-0.06741933,-0.05190044,0.19058904,0.1034326,-0.06798434,-0.21035832,-0.025349805,-0.01462712,-0.14669162,-0.19649263,-0.057868525,-0.14850408,-0.17371716,0.16724904,0.13087736,-0.05922132,-0.1684821,-0.24786007,-0.2151737,-0.02493869,-0.004885815,0.007866296,-0.01391107,0.009354111,-0.07806954,0.09559684,-0.2065357,0.03551246,0.098896556,0.09743164,0.290775,-0.1998692,0.006944976,-0.17631185,0.079387486,0.18814474,-0.0017432247,-0.23321384,-0.061330136,-0.0537358,0.16906878,-0.059088472,-0.0915181,0.1090948,0.035524324,0.006082393,-0.0486599,0.23743767,-0.10107697,0.16864158,-0.2844717,-0.11080496,-0.04444226,0.116584696,0.096650876,0.21982072,0.17962319,-0.19282693,-0.12946524,0.024517559,-0.24670586,-0.13819796,0.08218642,0.21885875,0.0226352,-0.24616268,-0.06105999,-0.00251375,0.24745998,0.017647622,-0.109608576,0.22605358,0.039367083,0.034129996,-0.052016404,0.142968,0.12727231,0.27393815,0.04537017,0.2190706,-0.03478264,0.18429418,-0.014811755,0.08451129,0.114773266,-0.123076625,0.17226216,0.08976738,-0.13086578,-0.05199871,0.014435834,0.11202985,-0.07000699,0.099882685,0.11937074,-0.029448168,-0.28164065,0.024230208,0.14581524,0.13047928,0.0596673,0.15462825,-0.12039542,0.027935501,0.1928043,0.111492395,0.19297785,-0.022166088,-0.07761384,0.054077376,0.1031633,0.14486644,0.12545271,-0.11437372,0.085675776,0.110383496,0.13181442,0.15220365,0.08829507,0.04564219,-0.119515225,0.15997657,0.019797092,-0.033567872,0.024294263,0.057718545,-0.046019834,-0.11598239,-0.13140811,-0.015649887,-0.13767692,0.091889404,0.19417037,-0.06305905,-0.15407473,-0.14555177,0.090074055,-0.012318413,-0.16349256,0.081184015,-0.14685555,-0.20323654,-0.17444476,0.030369747,-0.11753093,0.21972965,0.089959666,0.13180971,-0.1022658,-0.19423653,0.05234466,0.1286412,-0.1386494,0.03100135,0.17928672,-0.09420848,-0.1478447,-0.12362085,0.1218562,-0.16247907,0.015872085,0.0024882841,0.09962933,0.11423455,0.14522031,0.20232011,0.059979323,-0.28702992,-0.07839929,0.071326256,-0.07130852,0.22293015,0.12029774,0.027555862,-0.041880835,-0.025370695,0.12470598,0.16868693,-0.024539629,-0.17672035,0.018534716,-0.07663804,0.04233133,0.14232273,-0.14523678,-0.038237028,-0.19049574,-0.2765899,0.060443364,0.20914131,0.008446138,0.17525727,-0.23730926,0.2215328,-0.12966932,0.12565131,0.010639615,0.070115454,-0.1366201,0.10786116,0.112153135,0.13539842,0.08713247,-0.101511836,0.10114747,0.0043056575,0.089955345,0.124476194,0.1258584,0.1446904,-0.112347044,0.15219624,-0.1785629,-0.23417655,-0.010185084,0.19568373,-0.05650982,-0.17085199,-0.16549096,-0.0873549,-0.0015571951,-0.044607274,-0.026919289,-0.1324543,0.020476185,0.15572992,-0.13423759,-0.11681109,0.12485473,0.1026311,-0.102304265,0.017356206,-0.13435988,0.011334607,0.15149695,-0.098322846,0.030351443,-0.097995676,-0.14442255,0.09307727,-0.118264265,-0.023294102,0.0490691,0.124296494,0.07877144,-0.20571175,-0.26776835,-0.08417748,-0.054024674,-0.12828864,0.06779986,-0.19034716,-0.056627747,-0.1906444,0.034042712,0.04082436,-0.17036864,0.07910485,-0.17180899,0.25263783,0.17542876,0.06522684,0.13925835,-0.07163604,-0.14271557,-0.075035624,0.17762601,0.14975905,-0.11056997,0.022757484,-0.11672579,-0.18594576,0.08049288,-0.028918171,0.024254566,0.101690695,-0.22239396,-0.06989287,-0.032675263,-0.04548883,0.10289405,-0.13178313,0.12791868,0.17281069};
//shape = (128, 64)