float w1[10240] = {0.057756267,-0.011535184,-0.0059398296,0.044870492,0.04102835,-0.02230176,0.035381902,0.0047754403,0.045684535,-0.076474875,-0.07249165,-0.010785534,0.12973745,0.016070252,-0.14597441,-0.1487863,-0.110308945,0.1421446,-0.036992867,-0.20764746,-0.020626506,0.07381808,0.10322038,0.06361402,-0.075964116,-0.029045627,-0.067993656,-0.057470404,-0.07552802,-0.080573685,0.03654772,-0.058310263,0.065363444,-0.06679979,0.07517037,-0.049815435,0.049642384,-0.035136085,0.08992972,0.054260753,-0.10844429,-0.08621544,0.015622571,0.11465652,-0.09046047,-0.112834066,-0.12123501,0.06766404,-0.07510566,-0.1207105,-0.02454578,0.061523337,0.079967,0.084783465,-0.14830813,-0.13422929,-0.077009596,-0.039712217,-0.028254528,-0.02073787,-0.06935911,-0.098898016,-0.012750659,-0.013308741,-0.119445436,0.038916666,0.12123354,-0.108578786,-0.038033918,0.09079144,0.04548762,-0.07201669,0.036050934,-0.059669543,0.082894064,0.10082644,-0.014860568,-0.018315686,0.003180333,-0.01608456,0.07517911,-0.11349197,0.041000593,0.12432177,-0.03262734,0.07173331,-0.04426995,-0.028626928,-0.012664971,0.07724122,0.017183831,0.07985517,-0.031083029,-0.044170413,-0.02732189,0.06770842,-0.052065723,0.062067915,-0.0021518911,0.069619946,0.022442501,-0.06346928,0.023909306,-0.20644245,0.04901092,0.14854327,0.13482049,-0.02418752,0.04056175,0.016247224,-0.046531025,-0.029506277,0.0021041394,0.07130264,-0.03754414,0.019307112,-0.08749617,-0.058297273,-0.049675025,-0.06680385,-0.08552616,-0.0013622488,0.06513702,-0.015473967,-0.10062563,-0.022143893,-0.049103424,-0.01190408,0.03268662,0.041085362,-0.19893351,-0.10291596,0.053679485,0.10433605,0.039323192,-0.12367248,0.0341591,-0.011824509,-0.012653754,0.03248714,-0.08202029,-0.072641976,-0.040500194,0.058638953,-0.11655195,0.05546683,-0.076456875,-0.051024504,0.062566206,0.076945156,0.034064956,-0.07735018,0.025172997,-0.0017025165,0.061830275,-0.041106343,-0.06634249,-0.025572125,-0.029698655,-0.020190166,0.013227947,-0.10522168,0.10665068,-0.02021847,-0.10755675,0.04101254,0.04542481,0.01820401,0.015588039,0.07114315,0.03420401,0.06310402,-0.04031451,0.04332624,-0.08592855,-0.052898236,0.008082974,0.105906315,-0.054500744,-0.10485351,0.016823458,0.023069272,0.024639258,-0.05342754,0.09541662,-0.034221746,0.0058968375,-0.027017958,0.03505932,-0.07990184,-0.029234381,0.016707784,-0.057543434,-0.008433775,0.061775364,0.07956597,-0.021825025,-0.09990873,0.07202394,0.07258972,0.08335075,-0.19683038,-0.12436011,-0.04480397,-0.020719692,0.058899302,0.09636476,-0.090100914,0.10866752,0.08790071,0.047305033,0.003250631,0.065181285,0.046750892,0.082606345,-0.09405289,0.091038674,0.020221604,-0.0905656,0.0054217884,0.055401143,0.0033000426,0.058862276,-0.054272596,0.042977277,0.0014403552,-0.071706004,-0.003387038,0.020499406,-0.019664492,-0.06375718,-0.047502644,-0.01566305,-0.007758547,-0.0963855,-0.11670981,-0.08559789,0.03734514,0.043688066,0.044039473,0.05811271,0.061518237,-0.024459425,0.067576185,-0.104427114,-0.04581352,-0.023440674,0.015155117,0.0006189669,0.04265835,-0.035108313,0.12184269,-0.06549357,-0.12707734,-0.010747542,0.08523528,-0.026522689,-0.06587167,-0.03523329,0.008924227,-0.0002348008,-0.028275855,0.08842738,0.03422767,-0.08781799,-0.11249147,-0.0074977735,0.13689303,-0.031200701,-0.057591584,-0.0673192,-0.06950241,-0.06037596,0.016821895,0.011185818,-0.08569987,-0.10726428,0.08792615,0.057892457,0.03283356,0.023926197,0.036711022,-0.024177723,-0.028445771,-0.07109333,0.03740511,0.017020658,-0.064226486,-0.024477903,0.04889795,0.04040554,-0.031782728,-0.074311525,0.0453386,-0.043773726,-0.07324339,-0.11700425,0.12076699,0.06712985,0.009114308,-0.05871248,0.12118761,0.040632945,0.018235367,0.036570754,-0.0371497,-0.106107384,0.043896317,-0.0071748677,-0.046020184,0.08507874,0.07164878,0.034355033,0.019523434,0.13913536,-0.035633065,-0.0047539985,0.16590172,-0.13185067,-0.26741397,0.03341433,-0.086553805,0.058748405,0.03944587,0.053602755,-0.05092922,0.032409932,0.018386925,0.008172548,-0.021063592,-0.033202305,-0.020515073,-0.032872926,0.028868727,0.0016876208,-0.073849075,0.025752839,-0.04106421,-0.015445858,-0.023013167,-0.1003864,0.07040393,-0.032285225,0.0042097005,-0.050130684,-0.071699776,-0.10386538,0.10828439,-0.09432097,-0.116254106,-0.10866284,0.00090712425,0.08343801,0.15509202,-0.14472543,-0.02911795,0.016201656,0.14639764,-0.099261716,-0.03264086,0.061850116,-0.012715522,-0.030354561,-0.14293966,0.0471564,0.12504128,0.035781097,0.036907762,-0.010336295,-0.034471262,-0.0060176044,0.001695104,0.017290711,0.0223481,0.0054909377,0.038515147,-0.13446438,0.096827775,-0.04657933,-0.117894866,-0.032141753,-0.04357677,0.04451709,0.0508137,-0.11999166,-0.055571564,-0.18192403,0.12847704,0.0222147,-0.20200273,-0.034448538,-0.0009348184,-0.026731323,-0.040371485,-0.043424964,-0.05450111,-0.058973115,0.04161558,0.02016842,0.024630724,0.05725102,-0.056740385,-0.04586329,-0.010818945,0.036884513,0.0314724,-0.026184278,0.09635816,-0.0029944044,-0.078246444,-0.042243645,-0.03739232,-0.06650555,0.05787329,0.049919304,0.033311397,-0.03315375,0.0005955396,-0.027351284,0.044617496,-0.09786881,0.13459879,-0.014377687,-0.09467997,0.08401778,0.026530404,0.011340524,0.17572238,-0.084889725,-0.22037819,-0.047880672,0.01820874,-0.010278279,-0.04264838,-0.05070594,-0.031438846,-0.11508556,-0.04694236,0.04360369,-0.07152591,-0.027471432,-0.08221097,0.07475244,0.08799566,0.010639339,-0.00253243,-0.031390205,-0.030365966,0.004588801,0.04405767,0.051396955,-0.047205362,-0.0072273593,-0.06646152,-0.030257294,0.003945396,0.0934922,0.04139459,0.028172785,0.11588493,-0.014090182,-0.0036616337,0.0008177773,-0.11243858,0.03743618,0.004760622,-0.0008559745,0.041165188,0.043634206,-0.07301139,0.021628223,0.029543733,-0.060210954,-0.05275889,-0.08859189,-0.059837937,-0.10496363,-0.022770405,-0.012913578,0.07283949,-0.006113923,-0.013179353,0.036910284,-0.098300666,0.0003529773,-0.008562453,-0.002031711,0.09376785,0.05406396,-0.09822905,0.051004935,-0.056310866,0.0275433,-0.008711349,0.054460637,0.058602426,-0.061660074,-0.010123151,0.06908674,-0.06598981,0.0077784,-0.04411852,0.039746888,0.014464861,-0.025794853,-0.065469466,-0.07652998,0.035934772,-0.020172281,0.008186805,0.028900074,-0.042090405,-0.0036649795,-0.027578956,-0.1086148,-0.08041592,-0.12898038,0.032543622,-0.051434215,0.042546548,-0.061934736,-0.13305908,0.03256328,-0.040059563,-0.010112969,0.0113116,0.032684457,0.052658852,0.020463154,0.036859315,-0.040911503,-0.028417274,-0.1287425,-0.20922333,0.10656083,0.06351367,0.098972864,-0.011132602,0.039263867,0.012928019,-0.05416981,0.0022866225,0.075674765,0.0022956454,-0.027364021,-0.030030819,0.033610042,0.046060164,-0.0071709324,0.0741466,0.01237383,-0.05854961,-0.064847544,0.040411193,0.06774031,-0.030871907,0.054197896,-0.0064210882,-0.056249727,0.014422514,-0.047720503,-0.058877066,-0.0919669,-0.113476224,0.027528943,0.01967943,0.1460582,0.04095958,-0.049824614,-0.05150644,0.0014803576,0.04104293,0.026633842,0.051187437,-0.02112687,-0.06593074,-0.08180234,0.09426208,0.074130796,-0.025610056,-0.10910687,0.043751854,0.109069,-0.012007484,0.09685721,0.07606525,-0.08696056,-0.07411593,0.008826776,-0.14397283,-0.07740051,-0.047672324,0.02829953,-0.17868534,0.030102802,0.04008836,-0.03945396,0.13618107,0.0659008,-0.10388999,-0.07348324,0.051668685,0.014551065,0.05693042,0.08572657,-0.0029948342,-0.033230737,-0.043791555,0.07847597,-0.013900697,0.07524108,0.08185938,-0.07053859,-0.07363165,0.027634453,0.022622924,-0.011399468,-0.03521549,-0.01894605,-0.071804315,0.041158628,0.077413216,0.029712832,0.052113604,0.0016569805,-0.062200807,0.026670532,0.07683543,-0.109424144,-0.12483414,0.03420765,-0.12039851,0.031106913,0.058744144,-0.11178071,-0.012088235,-0.03967408,0.06271645,0.11067783,0.054533683,-0.04087715,0.014358582,0.091700725,-0.035562836,-0.0823499,0.04508013,-0.06133118,-0.021736894,0.09961402,0.02447551,-0.07691218,-0.022901936,0.09988604,0.021696871,-0.18628557,-0.011918496,-0.16308053,0.1450347,-0.011448843,-0.007101474,-0.024730412,0.020404845,0.0809265,-0.022543889,0.020166522,0.123735264,0.008487397,-0.05551042,-0.06968218,0.057639267,0.03313769,0.023594638,-0.08795792,0.03126287,0.055878546,0.059511486,0.076649174,-0.022421572,0.05504722,0.038852368,0.077153526,-0.10143944,0.002648248,-0.016526556,-0.13012148,0.024437334,-0.11843314,0.11567779,-0.15442003,-0.06906436,-0.026891189,-0.13032426,0.056054134,0.14997298,-0.049015973,-0.09252131,0.026259057,-0.026594682,-0.005947255,-0.014110362,-0.08315186,0.06488239,0.04289546,-0.04726423,-0.042640194,0.07020972,0.07785568,-0.053710017,0.02560938,0.068422765,0.06686131,0.08170615,-0.062034924,-0.015109473,0.09188973,-0.042980913,0.09225206,-0.07615771,-0.020591745,0.046675544,0.036143932,0.0065544765,-0.008815866,-0.029511377,-0.013737751,-0.054009113,-0.06539017,0.06867744,-0.042452857,0.037911836,0.01979241,0.04174711,0.030594153,-0.110259145,0.051888645,-0.016954217,-0.044417575,0.0005555996,0.028562183,-0.019373477,0.033028256,0.17859878,-0.06245509,-0.09389834,0.010444037,0.10513274,0.087279625,-0.015774535,0.010642194,-0.07668509,-0.05394659,-0.02841044,0.081956044,-0.012032595,-0.14003175,-0.050024282,0.019379942,-0.02164157,0.0007299602,-0.07739951,0.07832899,-0.052262235,0.012885372,-0.02926937,-0.08073927,0.08314929,0.032476265,-0.017084107,0.07332151,0.08087706,-0.004267388,-0.04120045,0.005013382,-0.1126427,-0.033040803,0.06358966,-0.0070358017,-0.011445047,-0.07104798,-0.03237017,0.05246244,-0.0331904,-0.04816023,-0.03554475,-0.06909662,0.021400876,0.0016676768,0.03218594,0.10393053,-0.017869454,-0.03667116,-0.004533853,0.0307718,0.03665965,-0.08667952,-0.13084209,0.04930938,-0.015148208,-0.06849214,-0.04687103,-0.028727202,0.01362406,0.08995069,0.015537362,0.018595884,-0.0034368378,0.015802111,-0.051499836,-0.003135282,0.057146136,-0.064144276,0.044040654,0.0110713,0.08227253,-0.077178255,-0.037950315,-0.013956799,0.031371653,-0.032055203,-0.021606533,-0.05950891,0.08693138,0.031037064,0.00273005,-0.0020443164,-0.06884766,0.0405703,0.017554047,-0.055090424,-0.0018522504,0.002216613,0.021233102,-0.067215785,0.06444094,-0.007319232,-0.01619977,0.028813388,-0.04775867,0.010178006,-0.008574795,-0.094475165,-0.05185082,-0.035402983,-0.12450928,0.06469248,0.085318334,-0.023809956,-0.032291677,0.06514956,0.025194451,0.053425197,-0.08645918,0.021480082,0.097537346,-0.053018805,0.041150652,0.102511495,-0.11913889,-0.0719019,-0.0815079,0.062311064,0.034298956,0.020289117,-0.055578507,-0.0733275,0.06423552,-0.039081223,0.014366404,0.016715556,0.049157284,-0.008457664,-0.0016840666,0.02206161,-0.027874826,-0.23188993,0.0046861195,-0.14826378,0.002329134,-0.05077462,0.06041126,-0.073152386,-0.060656108,-0.013787024,0.055533454,-0.080169246,-0.06700054,-0.063736714,0.09435695,-0.08768826,0.037921026,-0.022282867,0.09015976,-0.049514372,-0.15020299,-0.007874102,0.11008282,0.2036088,-0.13499054,-0.08996881,0.0018811948,0.049302697,-0.058766495,0.08322455,-0.018643104,-0.09280888,-0.045855604,0.06169271,-0.029314263,0.09352738,-0.061263677,-0.031142274,-0.06357255,-0.08202675,0.035183676,-0.012880435,0.020157183,0.039340112,0.021734957,0.051286057,0.06703923,-0.042957984,0.06087791,0.022294942,-0.026298039,0.027745824,0.07917808,-0.10124575,-0.10590525,0.065416984,-0.022424284,0.057497896,-0.039122697,-0.06638231,-0.009448851,-0.10672273,0.023382837,0.0058500823,0.03711943,0.085206,-0.048442382,-0.07989015,-0.0068891677,0.06179787,-0.04905232,-0.008948157,-0.03573507,-0.06777703,-0.10641618,0.046020344,0.06114208,0.021377493,0.08278279,0.11637156,-0.040418264,0.08853692,-0.006656864,-0.19626334,0.038894854,-0.0690141,-0.06974759,0.010698922,-0.00433431,-0.052244015,0.0049426155,-0.013016446,0.03750935,-0.037883185,-0.047150113,0.03545783,0.0007307491,0.012961236,0.025225407,0.038644433,-0.051827606,-0.0017007075,0.005251336,0.0072126705,-0.12874123,0.025597753,0.021373069,-0.0826287,0.0052179834,0.09504647,0.0914461,-0.102519214,-0.021084325,-0.08953867,0.07458345,-0.030208984,-0.067170024,-0.0010303463,-0.103777945,-0.08394219,0.084440805,-0.120516054,0.036207434,-0.038677726,0.11494162,-0.08674338,-0.07481628,0.008889409,0.0125443265,-0.0884532,-0.015005524,-0.0035920774,0.094460376,0.06375062,0.030536396,0.0480555,0.0269348,0.0057009975,-0.06998455,0.06536896,0.056604296,-0.14384983,-0.075207196,-0.12814166,0.074249275,0.061583478,0.02513638,-0.055610236,-0.030727373,0.01708529,0.033098266,-0.05105485,-0.14747643,-0.13153775,0.059185613,-0.087233424,-0.12822722,0.06290028,-0.03880628,-0.02621007,-0.018396033,-0.019406049,0.07883471,0.006860312,-0.06456456,-0.024044832,-0.029589994,-0.024184406,0.08159823,-0.022084448,0.08710254,-0.09264025,-0.030657599,-0.01309914,0.0135938,-0.040820125,0.064045146,-0.017205983,-0.06436131,-0.026187276,0.010392549,-0.09413684,-0.065705776,0.010592625,0.050797675,-0.027015323,0.030432733,-0.07610692,0.12002092,0.011275818,0.07838606,0.12182516,-0.10746722,0.07788176,0.069492795,-0.064927615,-0.22047585,0.05554691,0.039539244,-0.04608664,0.08769528,-0.016553303,-0.010224532,-0.0587589,0.10261301,-0.018202806,-0.04031097,0.048938178,0.03281584,0.022403626,0.010041537,-0.12763742,-0.02338465,-0.12101496,0.12788105,-0.068992525,-0.017846053,-0.0021507486,0.024899416,0.027205497,-0.18544205,-0.038544975,0.022659365,0.03630694,-0.043120116,0.025489368,-0.060826838,-0.07834936,-0.029389735,-0.038420115,-0.09552963,0.09983656,-0.041988224,-0.016230231,0.0053153117,0.08400673,-0.061811488,-0.03237344,0.03419732,-0.027620962,-0.031803057,-0.03955046,0.031455267,-0.016604278,0.04613204,-0.0013973084,0.07536035,0.0011211447,0.1298864,0.04582038,0.049001474,0.054770093,0.029428244,0.03541891,-0.026140325,-0.04226885,-0.16737093,-0.025104448,-0.05749274,0.03058843,0.041804533,0.0151667,-0.100138366,-0.0017393909,0.08033769,-0.0008209176,-0.036798723,-0.0049535767,-0.11522886,0.06625661,0.04319835,-0.1795104,-0.04108241,-0.0007888152,0.00062598265,0.079285115,0.051632214,0.021715282,0.0129985325,0.02927442,-0.06550712,-0.07297341,0.051671088,-0.060540155,0.09777716,-0.10997698,-0.012157678,-0.000695809,0.011724106,0.070024125,0.11635944,-0.041959442,-0.07877242,0.062325973,-0.024885312,-0.062072687,-0.06210392,0.032309555,0.019540282,0.0048128385,-0.18528438,0.1393498,0.0010048519,0.041025814,0.09615409,-0.054875474,-0.0144111,0.011640427,0.083656035,-0.00093800045,0.03998482,-0.018216847,-0.004054179,-0.048195753,0.018087255,0.040589377,0.03342988,0.06518775,0.12052421,-0.028637994,-0.04683959,0.004523113,0.08662973,-0.060798615,0.03569169,-0.073387474,-0.049172446,-0.068774275,-0.03481984,-0.17004052,-0.08048594,0.08486232,-0.07302651,0.15034279,0.040024668,-0.0038645163,-0.12699407,0.0062435027,-0.037648886,-0.05733816,-0.06650588,-0.03400097,-0.030641798,-0.1610875,0.06470181,-0.016952476,0.061048493,0.08185891,0.029303866,0.04440086,-0.0858056,0.018432157,0.07492911,0.052961823,0.0576175,-0.09334125,-0.0060614017,-0.026557097,0.039822243,-0.086127356,-0.22412102,-0.11452811,0.087519124,0.08698008,0.1707529,-0.088332586,0.021517526,0.066172004,-0.047299642,0.006605903,0.02346675,0.034592908,0.014906352,0.07957049,-0.015393812,-0.02656805,0.029476352,0.0010495617,-0.026823085,0.013555822,-0.016574034,-0.035417844,-0.023924123,0.06496396,-0.10883354,0.028806824,0.055576973,-0.11333724,0.013255522,-0.049253907,0.122031294,0.0043324614,-0.08879253,-0.012276963,0.049560316,-0.010137609,-0.018512607,-0.003937404,-0.074917585,0.0659083,-0.047533847,0.039868798,-0.037346482,-0.03206493,-0.054178726,-0.0064812284,-0.004327466,0.03771562,-0.0032402482,-0.05532895,-0.059572414,-0.08104705,0.014815812,-0.09071568,-0.042798538,0.104091376,0.078480534,0.027955959,0.0266351,-0.01600465,-0.017985253,-0.18596332,0.103915304,0.09511465,0.013724149,0.026408767,0.011835687,-0.031371243,0.0059089577,0.022401659,-0.104178935,-0.06082067,2.5397361e-05,-0.023326704,-0.00761074,-0.11958893,0.0079741655,-0.005327983,-0.011924828,-0.048858114,0.0031447136,-0.031038897,0.045298766,-0.021986548,-0.0027024231,0.061409328,0.03138708,0.019282829,0.08917613,-0.020902162,0.0069381464,-0.030016297,0.13074586,-0.05866053,0.026768059,-0.13299944,0.056024186,-0.024390897,0.059736904,-0.058520485,-0.053737644,-0.17599465,0.07303541,0.019304713,0.025320191,0.016467271,-0.015485031,-0.027163295,0.046620384,-0.19742726,-0.15511744,-0.019597836,0.15601273,0.087082915,-0.05926742,-0.015513214,7.587721e-05,-0.09810414,-0.02496058,-0.015251561,0.08897867,-0.0061693573,-0.060500577,0.028577017,0.045063477,-0.011516545,0.024329215,-0.0074415975,-0.053510606,-0.046801705,-0.028592221,-0.012144894,0.105163924,0.029868715,0.04496521,-0.047836788,-0.017801264,0.034161378,-0.08619403,0.086542465,-0.012753182,0.103693895,-0.07386529,-0.0655182,-0.051341534,-0.07247016,0.04648763,-0.06512912,-0.015332076,-0.023237908,0.013745083,-0.07085548,0.075771496,0.016096553,-0.068172365,0.06280914,0.0713984,0.02697223,0.075156584,0.01603627,0.065651864,-0.13569859,0.034007937,-0.13979115,0.10836243,-0.09573303,0.024224276,0.015011711,-0.0012396793,-0.013906781,-0.0045622196,-0.060485903,0.036446232,-0.04375615,0.055598263,-0.017783465,-0.041294232,-0.045481265,0.111826114,-0.0036359823,-0.036128227,-0.07932918,-0.00040484994,0.0129822465,-0.025633447,-0.046365842,-0.002245916,0.04999095,0.022191463,-0.08102377,-0.038753964,-0.08449619,-0.026384605,-0.04304455,-0.05467707,0.035851702,-0.025240391,-0.09724792,0.086651005,-0.04271227,0.053658143,-0.040176388,-0.17897002,0.057170935,0.033871427,0.021084925,-0.0059092245,-0.0020487737,-0.059786174,-0.04615006,-0.012058008,-0.021803597,0.085574806,-0.075012706,-0.051969387,-0.05121334,0.030918168,-0.0021102154,-0.08513439,-0.048265867,-0.0072963834,0.0306477,-0.0116723385,-0.026638316,0.07658949,-0.020738278,-0.024345772,0.049670763,-0.04442483,-0.08229128,-0.020231495,0.09757519,-0.10443092,-0.06232286,0.071955495,0.057490516,0.021862503,-0.0027550617,0.021689853,-0.032957375,0.051575854,0.04845598,-0.021161782,0.10284435,0.034060884,-0.023705257,0.06579325,0.045584433,0.0612323,-0.0534801,-0.04121396,-0.058786094,-0.022635318,0.01878986,0.043531522,-0.060086623,0.032136098,-0.14222,0.12953544,0.030032968,0.07144262,-0.004868739,-0.09161827,0.13232301,-0.0843153,-0.072812065,0.027243156,-0.07018519,-0.01276763,-0.03839286,0.034348678,0.0034315973,0.050442487,-0.10366591,-0.009705182,0.036203016,-0.03632584,-0.018958358,-0.14692685,-0.017405886,-0.0079760095,-0.21277872,0.114197746,0.08318725,0.009450864,0.01018042,0.11400215,-0.026462907,-0.10305307,-0.04705146,0.047626913,-0.117844775,0.09738723,0.020429982,-0.02106433,-0.047507532,0.06632587,0.061312847,0.1858424,-0.09579715,0.07555094,-0.009355433,0.0440856,0.046684437,-0.16203125,-0.04249586,-0.118518546,0.057150465,-0.0074547743,-0.1187401,0.040524997,-0.050877687,-0.042018875,0.06360727,-0.053520706,-0.037149355,-0.06962246,0.0052644513,-0.011187582,-0.08668569,-0.06519394,-0.10485046,0.063393205,0.012475524,-0.022166725,0.035509787,-0.04284509,-0.031196859,-0.008356818,0.059250135,-0.0416952,-0.01393786,0.051214542,-0.16953571,-0.048783105,0.045837846,-0.039194237,0.064018615,-0.06919581,-0.013501787,-0.057342697,-0.119598806,-0.03196337,-0.07814365,-0.012255892,-0.04023969,-0.02070932,0.056633614,0.00097525195,-0.053426597,0.039601218,-0.012517759,0.056398474,0.02130985,-0.059538163,-0.046725873,0.023815565,0.08129123,-0.097403646,0.012146119,0.005052589,-0.081939094,-0.11641892,-0.030692775,0.019657137,0.01973559,0.049321357,-0.015031888,0.0018461687,-0.04896088,0.034666844,-0.0013947714,0.025519138,-0.09183538,-0.033252742,-0.033069305,-0.03502943,0.0809189,-0.026804648,0.057892665,-0.048194245,-0.10888617,0.038617812,-0.04406442,-0.008208837,0.0032590427,0.010769215,0.046169814,0.011729698,-0.05072413,0.07403478,-0.06770315,0.077526025,0.054181837,-0.014381127,0.025442157,-0.07167616,-0.09393442,-0.020090558,-0.014801345,0.001255922,-0.14542073,0.1249864,0.08198443,0.09146507,0.0077788057,0.05729444,-0.006199078,0.065352224,-0.07681013,-0.012272517,0.119015045,-0.033063065,-0.017130973,0.08744056,-0.08156463,0.012256101,0.05524652,-0.077115744,0.100786515,0.032672,-0.12349966,-0.054909527,-0.13551907,0.024421703,0.0752574,0.01221875,0.058618445,-0.012716164,0.058474656,0.04289305,-0.08990374,-0.1171669,0.03221921,0.14719327,-0.11277712,0.0035922837,-0.090246476,-0.04625919,0.045271844,-0.04629404,-0.01123802,0.08492985,0.017210852,-0.078876086,0.061118096,0.007512365,0.042281114,-0.050383594,0.098325044,0.070082515,0.027895484,-0.01701103,-0.0974091,0.051882457,-0.04050174,-0.033105407,0.053257167,-0.10111204,-0.05451912,-0.016219102,-0.05375618,0.02657343,0.057931185,-0.031215038,0.006456719,-0.0143779125,-0.034536537,0.08092011,-0.059644293,0.08555327,-0.022232486,-0.012547053,-0.06541019,-0.02235917,-0.03245558,0.006427926,-0.0938196,-0.07467132,0.047168154,0.064073004,0.06252838,0.08183833,-0.06588483,-0.01034208,-0.01068846,0.02816613,0.07474193,-0.046088453,0.10019969,0.07450571,-0.09951777,-0.042759556,-0.06634482,0.013673146,-0.03270469,0.082209356,0.006614945,0.0787257,-0.08512128,-0.11259025,0.12585722,-0.014342316,0.11636171,-0.016484644,-0.10004422,-0.08387892,0.06721885,0.038370132,-0.032122143,-0.047380734,-0.08220031,-0.028745813,-0.02650813,-0.06030194,-0.049715977,0.06648944,0.054474253,0.058283247,-0.008999601,0.012271463,0.06609112,-0.044390924,0.011505454,0.07754213,-0.014881128,0.041132428,-0.008510558,0.12443373,-0.008668475,-0.05209543,0.068450235,-0.01565762,0.00085378514,0.0032008046,-0.056547478,-0.23879175,0.030192688,-0.054657657,-0.039568055,-0.019481713,0.043604456,0.047919694,-0.09260962,0.052876394,-0.026204007,0.041206386,-0.00093827,-0.092915036,0.0007295716,-0.028021945,-0.0041207466,-0.019981464,0.16644393,-0.05036562,0.0060190777,-0.01583227,0.0357576,-0.097803116,-0.09009653,-0.09045539,-0.1004101,0.023797464,-0.01923678,0.02479535,-0.082689255,-0.012811185,0.0044884714,0.021230109,-0.053289067,0.07905854,0.00587474,-0.028039193,-0.04485501,-0.056015696,0.07715109,-0.030320644,-0.074892186,0.14431351,0.017987242,-0.019126559,0.14938244,-0.057624046,0.019468576,-0.0087487735,-0.09432269,-0.15844588,-0.026630418,-0.026450917,-0.018113911,-0.019243639,0.045916587,0.03171557,0.041514862,-0.0018177188,-0.029851487,-0.024511082,0.05510451,0.00021267196,-0.008606661,0.011479934,-0.03355414,-0.041811503,0.04483904,0.02804004,-0.06743361,-0.022485321,-0.03353255,0.049139477,-0.0991312,0.08551831,0.04141638,-0.10127469,0.04590837,0.119770944,-0.076046824,-0.04628641,0.08933582,-0.081767775,0.004824526,0.03799212,-0.036797334,0.04345829,-0.055692628,0.10694077,-0.03152316,0.075854205,0.0047522783,0.0905049,-0.04419669,-0.070044175,-0.045581248,0.06758001,0.0038512105,-0.1019684,-0.059145,-0.10096031,-0.06824107,0.018481309,0.034390137,-0.032766096,-0.033976052,0.014420847,0.102960035,-0.091960296,-0.044937544,0.058977753,-0.03618673,0.061148763,0.051120713,-0.005312336,0.054418005,-0.014775023,0.046798676,-0.0852706,0.082757264,-0.012990493,0.049802426,-0.010008248,0.025318831,-0.01940688,0.096851766,-0.03655911,0.11595588,-0.03627386,-0.08425934,0.012040392,0.040769804,0.09424511,0.0071803015,0.08146629,-0.065897584,-0.19641137,-0.123554856,0.03521431,-0.10238548,-0.022160532,0.017798739,0.054013822,-0.037731897,-0.04081116,-0.0077428883,0.062409516,-0.012481302,-0.03167442,0.051943265,-0.0320962,0.042444225,0.039607633,-0.04625785,0.08484441,0.060984,-0.018287042,0.039690975,-0.012658442,0.0049644867,-0.075673446,0.003801134,-0.04748222,-0.057734907,-0.023415057,-0.13190332,0.09025426,0.13631165,-0.037372697,-0.025456944,-0.0801513,-0.06983636,0.0012238254,0.0013401628,-0.09632376,-0.041156814,0.1192588,0.073589794,-0.10184609,-0.09271425,-0.026505632,0.056846756,-0.07269002,0.045653563,0.10341775,0.057463102,0.0331482,0.0016419499,0.03433683,0.06663868,-0.035970524,-0.058668654,-0.06310075,0.047932323,-0.12890914,-0.04907449,0.024719112,0.13081811,0.0047816066,-0.043116476,-0.03992309,-0.07770145,0.12738314,-0.1261162,-0.062498868,-0.017544728,0.077922165,0.12100679,-0.05682149,-0.0056007705,-0.044597227,-0.109270245,0.09984048,-0.2711647,-0.15129049,0.033517983,0.16969056,0.06816166,-0.043986775,-0.006765464,-0.10587803,-0.060796287,0.10557295,0.032109443,0.1534006,0.09860539,-0.23376818,-0.06192547,0.022638202,0.054270975,-0.093576744,-0.06468167,-0.025647463,-0.242563,0.0024263796,0.082616135,0.077448465,0.009689956,0.033089507,-0.0520116,-0.039043173,0.082898125,-0.10956933,-0.04109921,0.0345089,-0.07216013,-0.04783369,-0.01948376,0.031088497,0.020539688,-0.0005407839,-0.07207488,-0.027272623,0.009116571,0.07796679,0.031981155,-0.046986874,-0.053961895,0.07477517,0.059838753,0.044468436,-0.022065245,-0.057097487,-0.0680737,-0.14592214,-0.09985014,0.14508508,0.078345284,0.089872785,-0.021904264,0.09442934,-0.069550365,0.06389939,-0.11414649,0.027109595,0.07543295,-0.0013339062,-0.06315398,0.0645589,-0.09916938,0.069399916,-0.012215309,0.06792706,0.023098325,0.056659527,-0.014306375,-0.013296572,0.020781131,-0.025299111,0.019130992,-0.049832802,0.089472845,0.027418034,-0.08412218,0.03085105,-0.013817488,0.07197849,-0.0126109915,0.034334835,-0.043197624,0.038199585,-0.028696505,-0.03910633,0.054096147,-0.0144163305,0.06119981,-0.13359165,-0.09354931,-0.039224986,0.11157392,-0.1315887,-0.08717375,0.046784777,-0.08245823,0.07690652,0.009582427,0.0677794,-0.07330875,0.06503027,0.05551441,-0.041672014,-0.009350735,-0.106945746,-0.01620978,-0.065733545,-0.07249205,-0.017481415,-0.053485837,-0.000969507,0.0811643,0.052393246,0.04505324,-0.09182478,-0.095346116,-0.046454713,0.09941113,-0.050575823,-0.08045466,0.016824007,0.102815375,0.025325136,-0.07766467,-0.004748066,0.0144133195,-4.132542e-05,0.10477843,-0.032245334,-0.0761684,-0.029788883,-0.03948769,-0.11108959,0.009512931,-0.08185691,-0.051261872,-0.055277847,0.023600018,0.013052054,-0.05140678,0.08904355,-0.06450237,-0.07506278,-0.026568145,-0.06600171,-0.030028772,0.0884948,0.024968391,-0.04476592,0.057831146,-0.0073715583,0.040406074,0.0005943141,-0.034749288,-0.11347941,-0.009128989,0.06895612,-0.013224205,0.008333115,-0.06883958,0.0062359106,0.015602265,0.0922584,-0.06614377,-0.02553162,-0.005436654,0.03849826,-0.17504595,0.0688271,0.030265868,-0.0054082973,-0.07749464,-0.036054686,0.08153494,-0.10699494,-0.02723515,0.004833923,-0.02624108,0.11016405,0.011556862,0.030980902,0.10163112,0.0018410174,-0.08085016,0.115726545,-0.0048698913,0.02658635,0.08129725,-0.03744892,0.02951713,0.09363061,0.029663125,-0.0481667,0.0069002667,-0.056176834,-0.017085433,-0.07754643,-0.08744644,0.08781157,0.028577592,0.09583066,-0.042173065,0.024588197,-0.025618102,0.019753212,0.0026882528,0.039960947,-0.03170366,0.066938646,-0.02803271,-0.031956147,0.07180321,-0.055255488,0.008115162,-0.056819268,0.041451316,-0.13897713,0.16495004,-0.12486522,-0.033210818,-0.101671495,-0.017342867,0.08921126,-0.054235213,0.062626824,0.058577366,0.0051811337,-0.07482552,-0.020555858,-0.086926065,0.08804184,0.025910074,-0.0007795525,0.00949887,0.105648555,-0.10758172,0.06435613,0.09423526,0.07905608,0.0173687,-0.042658404,0.04316487,-0.025005482,-0.01434399,-0.06708763,0.0025649576,-0.00968348,-0.103223756,-0.062483802,-0.020589499,-0.050694287,-0.04878621,0.083697975,0.07844859,0.022301976,-0.02751247,-0.07239818,0.007426357,-0.002875622,-0.08496243,0.08501849,0.005513775,0.04242333,0.03604222,0.05773823,0.010440606,-0.04939464,-0.10424652,-0.015494127,0.0024291507,-0.055888824,-0.03548946,0.09034712,0.0029805189,-0.15846965,0.08241891,0.07278256,-0.14573744,0.037231304,-0.06365759,-0.034078993,0.05453507,0.042120773,-0.03684358,-0.11920042,-0.103109494,-0.046447743,-0.14932992,0.1766776,0.04783982,0.07753477,0.00014628023,0.007793286,0.09534825,0.112065434,-0.06335963,-0.06862674,0.07323731,0.009927982,-0.00022381824,-0.019139243,-0.06542377,0.03892534,0.06843104,-0.14155261,0.076459385,-0.060754895,-0.1552052,0.010509571,0.04132026,6.0094535e-05,0.08396877,0.11757932,-0.012101506,-0.067567095,0.0051675066,-0.16617268,-0.1817113,0.058462128,0.14683126,-0.025993606,-0.03158203,0.01781771,0.03245287,0.016090307,-0.0203241,0.0055905553,-0.014976222,-0.0934498,-0.06619519,0.02641,0.030953912,0.008338378,0.072677955,0.049297404,0.040931433,0.09281465,-0.1286048,-0.08764296,-0.101801634,-0.053461667,0.0027459217,0.042310476,0.09624541,-0.09684993,-0.052027028,-0.113540515,-0.113348976,0.08283801,0.04715225,-0.018671975,0.051799357,0.049000982,0.03271719,0.07052361,0.02430093,0.109464645,-0.10599348,-0.11068747,-0.06234937,0.060051426,0.046523742,0.085492335,-0.041628506,-0.029711936,-0.08313854,0.018598197,-0.065833285,0.12577438,-0.0038174521,0.0859677,0.00417971,0.026594868,0.13905509,-0.17709816,-0.05502182,-0.08989215,0.02294645,-0.048893917,0.0332833,0.028791139,0.04220054,0.051813494,0.038198803,0.15080054,-0.039504148,-0.064046845,0.08740816,-0.045876622,0.11703747,0.09255219,-0.015044468,-0.08199595,0.06021429,-0.062335543,-0.040683363,0.07806954,0.017441267,-0.15306705,-0.053984545,-0.0050481246,0.07667322,0.018324537,-0.024225479,0.00032661483,-0.070431024,-0.029624114,0.020590264,-0.02193478,0.060409147,0.010750332,-0.044585306,-0.10123437,0.1244,0.1505254,0.107425734,0.09663237,0.07746218,-0.3070433,-0.021790903,0.08225462,-0.0132623045,-0.25703844,0.08683501,-0.037359007,-0.03411034,0.06677002,-0.07104986,-0.014944366,0.023039455,0.044800952,0.051944647,0.040953707,-0.07356474,0.009806935,-0.12676257,-0.14114709,-0.037499733,0.062076207,0.19485031,-0.045532983,0.061756067,-0.07630511,-0.03317548,-0.021321459,-0.06563481,-0.017753247,-0.0929922,0.06092049,-0.024463352,0.060486373,-0.042444143,-0.052075148,-0.07936935,0.039049685,0.054439943,0.06418013,0.069257796,-0.0046906867,0.028932894,0.08546424,0.002677862,0.0024120086,-0.058675487,-0.001712317,0.06521567,0.07945392,0.06616482,-0.097588584,-0.09126883,0.055041976,0.030710109,0.069616616,0.039714713,-0.011792344,-0.06318789,-0.08062868,-0.005945899,0.06750336,0.043746993,-0.06738192,0.012613364,-0.04993401,-0.028862556,-0.0067800335,-0.04834328,0.0017510015,-0.0123493755,0.07041927,0.056261636,0.06685553,0.054967612,-0.1028237,-0.057641424,0.029394789,-0.08369272,0.12110793,-0.01637303,-0.17474163,-0.1025965,-0.021011006,0.0639154,-0.04460956,0.05239111,0.047631998,-0.053873055,0.07187664,-0.13738441,-0.099568225,-0.07014212,-0.026732944,0.057820506,0.07092196,0.057312787,0.018381162,0.0141881695,-0.0035680165,0.032129295,-0.037354924,0.043319814,0.036388434,-0.09501592,0.039577443,0.0081279585,-0.038083326,0.03870063,0.02064112,-0.042768255,0.047244173,0.0505718,-0.032522824,-0.014459234,0.012550022,0.00636856,-0.026675029,-0.008104147,0.0637869,-0.023334445,-0.1166234,-0.06457324,-0.0011575824,0.03938167,0.06289502,7.1187396e-06,0.032261405,-0.093602255,-0.054255445,0.107721485,-0.011312437,-0.053486492,-0.10651103,0.05171482,-0.07985649,0.08864905,-0.016618706,0.08103408,0.10479588,-0.02490592,0.09504777,-0.094066985,0.14975797,-0.100553215,-0.039025307,-0.08732357,0.06881291,-0.13202599,0.054937538,0.0044862744,-0.08656611,-0.07161941,0.01093226,0.06652049,-0.09144219,0.046846043,-0.06402756,-0.071506694,-3.8896924e-05,-0.03312098,-0.027356729,-0.069799274,0.064858474,0.033658877,-0.015525385,0.03060623,-0.03811037,0.026408752,0.09251745,-0.11014812,-0.07085019,-0.1627287,0.09051308,0.01836142,0.06204999,-0.025529526,0.025208855,-0.009788567,0.062967025,0.019525383,0.03679585,-0.010628854,0.04442706,-0.06527607,0.070549816,-0.009299492,-0.06682635,0.07295831,-0.09361359,0.0045508817,-0.026810013,0.009558699,0.022331966,-0.023622591,-0.037754744,-0.10799167,-0.038094167,0.06098742,0.056794092,-0.016880369,0.018848253,-0.089957274,0.051509496,0.029998925,-0.00057733257,-0.039117567,0.10924586,0.06506381,0.05017083,0.02086557,0.014448888,-0.11339683,0.087103575,-0.08999459,-0.24078947,0.085147165,0.03598416,0.036809783,-0.06413232,-0.04916927,-0.033805422,0.090142794,-0.020784345,-0.09390733,0.026174733,0.10098803,-0.07940569,-0.060906637,-0.097059675,0.0533771,-0.003618737,0.02697939,-0.061159335,0.06559738,-0.049829885,0.09861451,0.032480564,0.17537247,-0.046038393,-0.026746428,-0.08461863,-0.0697826,0.06308116,0.041161682,-0.15925916,-0.09330059,-0.06116573,-0.08925643,-0.04611655,0.045242894,0.10575315,0.036781758,-0.1040951,-0.0039499127,0.108322345,0.10289914,-0.041184634,-0.16334277,-0.1682711,-0.031152971,-0.05147703,0.08526951,0.022953963,0.052892175,0.009143078,0.045926824,-0.0501531,0.011782296,0.029684735,-0.025324125,0.05099316,0.025677778,0.0066358694,-0.0153269265,-0.019990435,0.07135055,-0.013459261,-0.020989101,-0.077001765,-0.029348524,-0.011832323,0.06625096,0.0346382,0.054148868,0.09425721,0.025490247,0.02996617,0.061061703,0.10402683,-0.07173351,-0.08105767,0.10547604,-0.019137295,-0.1367655,0.022839569,-0.08292748,-0.084239654,0.06495005,-0.05343045,-0.0014300656,-0.055023253,-0.07892783,-0.022113778,-0.023193045,0.084633015,0.042269245,0.06608947,0.0153201325,-0.030232344,-0.0023758109,0.031845093,-0.1296891,0.09933929,0.0058714757,-0.12695016,0.055639837,-0.04171148,-0.02061245,0.039095327,0.06661828,-0.04768334,0.023262175,0.061046086,-0.060349472,-0.0051058303,-0.06978834,-0.018942447,-0.047314905,-0.100509174,0.008989132,0.033249952,-0.08761565,0.034860298,0.0034944548,0.06995031,0.07652445,-0.008231974,0.021531064,-0.123896815,-0.012437309,-0.027150247,0.011742432,-0.10381175,-0.018232826,-0.04653826,0.08881997,-0.032257706,-0.0046617645,-0.059287574,0.08093938,-0.040906306,-0.010611166,-0.07817394,0.070225894,-0.037466023,-0.01708217,-0.04254174,-0.043526135,0.03429621,0.084487446,-0.097496994,0.015659027,-0.047794484,0.01940312,0.026637238,0.019696657,-0.026828675,0.07379516,0.10286052,-0.038085807,-0.1383232,-0.03817413,0.08462543,-0.0266619,-0.008121268,-0.0275539,-0.010989427,0.04754515,-0.09439392,0.08430876,-0.047985975,-0.0638105,0.07171178,-0.019804979,-0.022996588,0.0039984626,0.07405098,0.03174541,0.1036741,-0.044983763,-0.03788991,-0.067327,-0.01875945,-0.09025278,-0.024160374,-0.08790112,-0.005034682,0.09308167,0.07442958,0.08764113,-0.006913284,-0.075947866,0.04589304,0.007932576,0.0063025933,0.019109994,-0.07449322,0.08839294,-0.11114795,-0.053085867,0.060930006,0.039387856,-0.13467601,0.031411305,0.0049849045,-0.088087834,-0.062176038,0.03294709,0.06749066,0.042489164,0.081599794,0.01919992,0.025836486,-0.10280681,-0.09466508,0.06124434,0.0121442955,0.014496159,0.012521087,-0.016761323,0.04091783,-0.07110916,-0.011576026,0.055998992,-0.015220777,-0.10074282,0.0036806082,-0.01680486,0.09852531,-0.06520848,0.06725372,-0.06092737,0.07339419,0.058217965,0.04686026,-0.07902227,0.024311287,0.040087555,-0.10051431,0.0027150789,0.011077513,-0.04255398,0.10702995,-0.008864611,0.012978252,-0.04501279,-0.05444265,0.0420832,0.013885375,-0.06480459,0.015309213,-0.007885375,0.041106477,0.04822782,-0.061984207,-0.033520766,-0.11042967,-0.045467388,-0.102133326,0.036708593,-0.011266891,0.07116096,-0.020720355,0.065454826,-0.12638648,-0.03270576,0.0134113915,-0.0011804142,-0.08470929,-0.06659809,0.06272039,0.005246858,0.006104181,0.030975746,0.08687118,0.048343353,0.060686834,-0.01006979,0.05176836,0.036307693,-0.013084067,-0.12709232,-0.04319278,0.06511681,-0.074856915,-0.05468001,-0.079891674,-0.019747496,-0.028599137,-0.0023444328,0.057482965,-0.13569124,0.034134015,-0.03527734,-0.021561796,-0.09501113,0.06309521,0.030618941,0.066649154,-0.105499946,-0.018301016,-0.10429136,0.101583,-0.12590027,-0.113623194,-0.0056536263,-0.10359308,-0.06641469,-0.11511352,-0.040857352,0.083946,-0.027065545,-0.10107565,0.1199516,0.112800516,0.03408686,-0.06196189,0.0523185,0.06231778,0.045551687,0.027610924,-0.13945217,0.017476166,0.034276724,-0.032369908,-0.18607932,0.031134823,0.006615061,0.023866571,0.06288012,0.045217875,-0.2466613,0.040530536,0.1005096,-0.047396746,0.036795657,-0.031260278,0.005910316,-0.019067885,-0.056662347,0.08900644,0.061409883,0.014501326,-0.021066483,0.10754304,-0.01876604,0.004554679,-0.07467174,0.0063488916,0.040422495,0.08962282,0.052978177,0.11572878,0.006083134,0.0073906374,0.009086942,0.0065759458,0.06378649,-0.095620096,0.013633558,0.0666096,-0.09494853,-0.09779432,0.11397826,0.076212086,-0.06655651,-0.028257636,-0.13415408,0.053941093,0.061316166,-0.01780577,0.023363646,0.10655314,0.09018563,0.0039893724,0.06961748,0.06614049,-0.019011147,-0.01368379,-0.05889395,-0.032594725,0.03631464,0.020586547,0.017390043,-0.029067768,-0.05300876,0.013802164,0.052429084,-0.0026141708,-0.08290589,0.019000934,0.022680588,0.00971769,-0.014394254,-0.058453083,0.0630853,0.041204162,0.007184091,-0.16424824,0.0460014,0.0491007,0.08522052,-0.09040067,0.05544543,0.07056588,-0.022284403,-0.15332435,0.0034565188,-0.15654825,0.06208979,0.07389156,-0.030740855,-0.0787936,0.07841988,0.13527347,-0.06461349,0.03588589,-0.008918532,-0.09185849,0.0016745902,0.06247059,0.019643813,-0.051689785,0.042214982,-0.030102953,-0.06625696,-0.015298112,0.026915181,-0.0013817127,-0.06397311,0.030381564,0.013592517,-0.008035606,-0.015116838,-0.08599087,-0.013178558,-0.09957429,-0.010687521,-0.07169896,-0.052059814,0.0013906271,0.049844213,0.004404771,0.14240474,0.04788068,-0.105686925,-0.013687209,0.048441272,0.03963359,-0.08650793,0.017618282,-0.005843688,-0.0049711443,0.11754967,0.064788215,0.0739607,0.012294426,0.21515962,0.030218923,-0.06568908,0.008128769,-0.06869748,0.0806907,-0.08694301,-0.06403606,0.011956735,0.009576616,-0.08938882,-0.02932269,-0.029559575,-0.033205952,0.021274695,0.11427969,0.04598477,0.030033734,0.1224865,-0.07991654,-0.16151607,-0.07510782,-0.015928263,-0.097310714,0.012956498,0.114996865,-0.004946993,-0.0015360899,0.017849745,-0.010104495,-0.023360291,-0.053008027,0.04462013,0.044957444,-0.061839495,-0.09299787,0.014179136,-0.01953399,0.09819332,-0.02496336,0.031578004,-0.06472661,-0.022797678,0.055667065,0.07070407,0.011347969,-0.027969483,0.07785616,-0.04553928,0.05993344,-0.14741626,-0.052711356,0.078342296,-0.12513895,0.089386724,-0.08511706,-0.09348693,0.017656505,0.07136209,-0.0054146,0.030313898,-0.03830215,0.04112532,0.05329328,-0.030939788,0.044431154,0.08528989,0.006790562,-0.04494544,0.09273497,0.01185259,0.09795141,-0.07160228,-0.059544224,0.043567643,-0.03188488,0.0011657632,-0.12215288,0.08080215,0.09128598,-0.008291046,-0.27339247,0.0009272155,0.091374695,0.051150348,-0.11342381,0.04078257,0.054425716,0.01656872,-0.076163806,-0.00984586,0.0118501345,-0.0013425106,-0.0020622825,-0.04875119,-0.06389905,-0.077801324,-0.06330793,0.070137545,0.014182317,-0.08595109,-0.042711914,0.02498021,-0.006704061,-0.004428961,-0.03675798,0.025813866,0.073397994,-0.03309113,-0.0035487409,0.0795662,0.06358033,-0.028286392,-0.06017933,-0.12649298,0.079886705,-0.02351757,-0.016468663,0.053602625,0.0028532154,-0.038062662,-0.006877895,0.10477486,-0.11574212,0.05029997,0.005043326,0.018853541,-0.06997047,-0.018922327,0.010897275,-0.053781003,-0.04535001,-0.025112232,0.01787445,-0.078618534,-0.010780887,0.08012948,0.057366297,0.07113454,0.0190015,0.038030386,-0.07277193,0.0081371665,0.035733376,-0.084649265,0.08807887,0.048010305,-0.0011882614,0.033823363,0.096736714,0.01974262,0.016923938,0.09897202,-0.013574791,-0.14609025,0.0802851,0.0131283775,-0.024639295,0.065874144,0.003772387,-0.01152841,0.032758974,0.05511637,0.038834963,0.044941306,0.035748165,0.0679771,0.078368604,-0.045404404,-0.020572815,0.07158159,-0.06946562,-0.022133332,0.04525073,-0.07656093,0.09077619,-0.097961776,-0.053382855,0.09056186,0.06318337,0.03245727,0.097356476,-0.10831834,0.038115006,0.03653931,0.0625746,-0.085428275,-0.08036195,-0.07121135,0.027545096,0.010186346,0.11629629,-0.05592272,-0.054357857,-0.051938336,0.10312919,-0.017768443,-0.12629296,0.07769264,0.027755372,-0.072496824,0.063311696,-0.015467866,0.06358292,0.059634015,-0.052498274,-0.060247574,-0.08027229,-0.04061423,0.066423364,0.0036307848,0.014467001,-0.041941438,-0.06322203,-0.09491759,0.16854113,-0.029069778,-0.14795643,-0.0116871325,-0.016269863,-0.014239699,-0.114848524,-0.01140011,0.06553803,0.0039325636,-0.08751668,0.076356634,0.07096126,0.009250559,0.013017257,0.0013309721,-0.12808816,-0.11143432,0.12377198,-0.06393856,0.02855351,0.028274916,-0.0878097,-0.044320483,-0.015080142,0.07284235,-0.057489965,-0.023630846,-0.032609727,-0.020196542,0.07081244,-0.013495584,-0.0040508495,-0.021409433,-0.008221021,-0.07704606,-0.10961101,-0.019272342,-0.03505863,0.04158744,-0.09557272,-0.018591652,-0.00755356,0.0457594,0.014812119,-0.052978277,-0.023933694,-0.07011122,0.14209786,-0.027956141,0.09763238,0.04659007,0.032084297,0.059691623,-0.030103967,0.029901948,-0.020506954,-0.025444673,0.035197288,0.027333762,0.015996628,0.032750674,0.025911523,-0.09966239,-0.026181228,0.072611324,-0.030239921,0.02199547,0.018933319,0.03408252,0.083075374,0.055584982,-0.003144181,-0.021764088,0.046807557,0.029294357,0.042667314,-0.0459938,0.013605925,0.036183175,0.04109873,0.09178901,-0.034232732,0.0016499545,0.008722968,0.0070368266,-0.002581674,0.034830425,0.0020413992,-0.057293084,-0.05932217,-0.06419537,0.01950351,0.05577178,0.08078454,0.010306565,-0.05680529,-0.00590426,-0.044440575,0.024511218,0.0013383814,-0.054616146,0.0019510931,0.0015918817,0.029315308,0.043318857,0.05767982,0.06479502,0.015648369,0.06064869,-0.03609248,-0.079852544,0.0014393933,0.03987045,-0.117129914,-0.09232693,-0.10927749,0.04754168,-0.0571745,0.08248577,0.047438346,0.11369413,-0.06666618,-0.010622995,0.096338384,-0.019960908,0.014572597,0.008239821,-0.0024621496,0.027148861,0.13143641,-0.106653295,-0.07718711,0.0029497053,-0.009937426,0.05542683,-0.091042496,-0.018805113,0.04277431,0.084056415,-0.06932124,0.0406235,-0.008962853,-0.017866863,0.038924683,-0.037329685,0.1203603,-0.13338855,-0.040660325,-0.029548267,0.009521463,0.03988612,-0.099511966,-0.027414478,-0.08917143,0.08171676,-0.037284248,0.0023597865,0.07305037,0.0136765065,0.08529978,-0.08106946,0.024092887,-0.07115144,-0.07760809,-0.06571365,-0.11851459,-0.030218687,0.06375748,0.09128034,0.08061914,-0.018175362,-0.062148023,0.039057903,-0.07884285,0.10240333,0.01356084,0.005215292,-0.01818256,0.05970304,0.037684206,-0.012234186,0.05302452,-0.07491727,-0.09873287,-0.020979563,-0.03671629,-0.015790664,-0.059617173,0.0885695,-0.04750092,0.06331198,-0.056053657,-0.051270116,0.031584922,-0.021813178,0.061621033,-0.05052573,-0.005192471,-0.14585638,0.034925137,0.03257377,0.0015310901,0.021229563,-0.123476505,0.07846648,-0.049342602,-0.0018493802,0.044613045,0.1071205,-0.06451405,0.0094160475,0.0044750283,0.026295103,-0.031878073,-0.024302758,-0.013293739,-0.039696116,-0.005241781,-0.030958215,-0.0072396398,-0.061811425,0.003411812,0.048917353,0.10179233,0.13912605,-0.009901752,0.035748053,0.04461737,0.039954875,-0.0008225257,0.13642652,-0.17060111,-0.0847699,-0.09042303,0.0350607,0.03894511,0.027553024,0.017837107,-0.041424055,-0.060723543,0.1022895,0.10289059,-0.023807151,0.10895241,-0.034476936,-0.07172466,-0.03603411,0.014332927,0.0356755,-0.04337142,-0.060833324,-0.030574052,-0.04345047,-0.061460063,-0.03137519,-0.049132273,-0.027572718,0.053650305,-0.12357098,-0.026280379,-0.025113849,-0.016618794,-0.012309613,0.03915054,0.097024485,-0.027066875,-0.039551698,-0.04759779,-0.07940822,0.107274905,-0.15356459,0.03886725,0.008966515,0.036746815,-0.03257803,-0.07985799,-0.009843312,0.05976924,0.0706894,-0.10828024,0.06273116,0.041503858,0.0021348358,0.078232765,0.008761145,0.065198414,0.0008307288,0.030694628,-0.16975847,0.083676085,-0.011787217,0.049951375,0.026994593,-0.0399866,0.03659758,0.1043405,0.002617628,0.03200917,-0.20243476,-0.04385442,-0.0015502597,0.10151837,-0.044635717,-0.107929565,-0.07756222,-0.077268094,0.0465011,0.015477947,0.09964147,-0.024887756,-0.013477181,-0.007618772,0.029041477,0.063461326,-0.070016235,-0.07772475,-0.021575792,-0.015926596,0.033741076,-0.034683507,-0.014439145,0.030595407,-0.11638515,-0.18196619,-0.04026177,-0.041851964,0.12624939,-0.08845337,-0.010527488,0.010597973,0.09274124,0.06849028,-0.0105294185,0.0336484,0.039269794,0.014223663,0.10278807,0.029588576,-0.10239507,-0.047766678,-0.06926213,0.0016050104,-0.09892165,0.045963254,-0.021173727,0.044971243,-0.01751986,-0.008134573,0.0040230136,-0.057879947,-0.046082973,-0.026333975,-0.121186696,0.058977988,-0.041640855,-0.052490767,-0.042789485,-0.05058317,0.027360993,0.030818593,-0.035605423,-0.06959576,0.03164854,0.0010246236,-0.0043513114,-0.108902395,0.037071034,0.09003276,0.09769778,0.027722608,-0.14807118,-0.004310137,0.036673065,-0.031530432,-0.099318914,-0.028056843,0.030250596,-0.030668609,0.08451519,-0.12943073,-0.019067382,-0.017246353,-0.045100775,-0.0015541621,0.014767933,0.062960126,0.074088775,0.053643215,-0.031694133,0.010152909,0.05727462,-0.027134726,-0.0076418114,-0.06415777,0.04878956,-0.09458042,-0.0327724,-0.0438781,-0.019668657,-0.017462756,0.04578935,-0.14100145,0.023756243,0.054055512,0.048941378,-0.10488205,0.04711225,-0.024687937,0.0102962935,0.056622054,0.05053335,0.038622312,0.04844767,-0.067605264,0.07686619,-0.027784701,-0.0061492473,-0.019156972,0.016932182,0.07228784,0.041540418,-0.08851817,-0.014909081,0.100554354,0.026957026,0.0007223873,-0.08155164,0.09403866,0.12674609,0.12681979,-0.12511216,-0.18527278,-0.0619238,0.04786715,-0.026418047,-0.03194542,0.06385291,0.014283042,-0.036543705,-0.01836048,0.027425084,0.0774358,0.059843913,-0.13604596,-0.16669229,0.029782169,0.07819323,-0.07850358,0.06370363,0.14254041,-0.038233124,-0.06235572,-0.08161661,0.06609366,0.026004177,-0.06369021,0.07578019,0.06518157,-0.09202207,0.026151806,0.0328349,0.08841427,-0.058749687,0.03744239,0.049997848,0.045268785,0.030221641,-0.048199605,0.03611038,0.039101616,0.010377713,-0.093664415,-0.069247305,-0.1816108,-0.15913932,0.023130791,0.020159641,-0.0066218707,0.018447945,0.021415405,-0.017962793,0.0067599607,0.022881899,-0.013148682,0.09787826,-0.0051529994,0.049438912,-0.004966408,0.11343591,-0.043472733,-0.07419037,-0.068075195,0.09115235,-0.008883485,-0.029136099,-0.08369696,-0.09949269,-0.050783955,-0.12642933,0.15843353,0.009354393,-0.068194754,0.029503219,-0.014136784,-0.097415596,-0.073257916,0.114769004,0.11852015,0.10590601,-0.17729078,0.035554897,0.03788858,-0.044607382,0.08872477,-0.07814947,0.008063283,-0.0643033,0.018697634,-0.040518176,-0.02436508,-0.016736804,0.012328941,0.08208593,0.09070507,0.01032782,-0.033594415,-0.075069204,0.005836962,-0.051196422,0.004833054,-0.09065712,0.03645288,-0.047584664,0.061012316,0.0674789,-0.041716572,-0.112181686,-0.050175734,-0.15120836,-0.03178853,0.03985211,-0.031219402,0.06568444,-0.024030441,0.036508758,-0.019012934,0.021477783,0.031430956,0.028698172,-0.02583185,0.03537831,-0.037136436,0.0050688162,-0.059231408,-0.07504698,-0.017796898,-0.048476875,0.05632266,-0.08383001,-0.08182204,-0.056144956,0.02009501,0.0086423205,-0.14380297,-0.0041809976,0.039752316,-0.02520729,0.03646409,0.10571757,-0.007875055,-0.07451801,-0.046410777,-0.018010672,-0.04745325,0.010728128,-0.019731676,0.045601945,0.002609683,0.025633886,-0.048349667,-0.019754376,-0.013925688,-0.041081727,-0.030020896,0.059879724,-0.036965247,-0.04459999,-0.08176002,-0.049423706,0.051804587,0.026344,-0.02567951,-0.07892726,0.050889146,0.02980867,-0.077691,-0.07929482,0.050314732,0.004199943,0.055163205,-0.006227965,0.04798897,-0.18738998,0.0464512,-0.05812748,0.032920886,-0.11493606,0.019183556,0.07625446,0.01732785,0.04549796,0.09244671,0.012420955,0.048158485,0.05141795,-0.030843921,0.017602377,0.05382821,0.031638853,-0.023154411,-0.020425599,-0.0029028635,0.08326721,0.02489029,0.033148184,-0.016056735,0.03560419,-0.11173274,-0.10660774,0.122798234,-0.040477797,0.037060086,-0.06725876,-0.017696477,-0.020633392,0.094373204,-0.15124826,0.06672581,0.07683743,0.05017319,0.059113327,-0.012138694,-0.0021571363,-0.037793484,-0.025546314,-0.017768353,0.10520766,-0.032350138,-0.023009347,-0.05968554,0.04260425,0.02887719,-0.03252016,0.06266179,-0.08413418,0.09557102,-0.050080124,0.013616604,-0.018752268,0.06587875,-0.04091854,0.022551646,0.012084823,0.031118449,0.07761305,-0.06029457,-0.08657636,-0.065945536,-0.06588963,-0.0035585593,-0.030700548,-0.048373684,0.06489235,0.07809333,0.0008741107,0.0017480147,-0.0684739,0.0073890975,0.043712486,0.06725958,-0.05354302,-0.063870095,0.011111042,-0.03711761,-0.05405096,-0.13672729,-0.13146204,0.13716878,0.033393122,0.016764348,-0.034314364,0.002017771,-0.019898407,0.043052237,-0.029651793,0.031338923,0.04171834,0.072129816,0.09816791,0.037493184,0.004741883,0.07258112,0.0868205,-0.10283671,0.029715002,0.09212833,-0.031062292,-0.07746894,-0.010199132,-0.07132631,0.021339027,0.0296759,-0.045700286,0.038615342,-0.029876577,0.005306118,-0.002632608,-0.048162326,-0.054153405,0.075792074,-0.035068184,0.010491403,-0.030849328,-0.07818931,-0.03585167,-0.040413707,0.055434432,0.040575802,-0.04717536,-0.086059116,-0.00055476057,0.048873845,0.08206079,-0.019570617,0.021928309,-0.035295673,0.07949459,0.006645256,0.060718022,-0.030410448,-0.07565865,0.068422124,-0.054074436,0.070363045,0.038200315,0.0795748,0.0015226434,-0.13126509,0.055214662,0.071563885,-0.028927263,-0.08542186,-0.05443933,0.02637159,-0.057043113,-0.007154522,0.011663744,0.0009279264,-0.011094813,-0.11282858,0.08636713,0.08649696,0.04979825,-0.010989327,0.043237157,0.09754723,-0.11144213,-0.07227968,-0.0023345423,0.046962053,-0.036050923,-0.009148889,-0.041406017,0.0021061173,0.03476906,-0.045329593,0.058011986,-0.025063606,-0.010671445,0.06476182,0.0049951994,-0.073781855,-0.037340757,-0.117801644,-0.045341276,-0.011433296,-0.13412495,0.0065089376,0.112834685,0.019230854,0.015311284,-0.024174606,-0.021090157,0.050196413,-0.08724138,0.0792874,-0.05186001,0.084252775,0.07784731,0.10831958,-0.042242493,-0.08183244,-0.019623328,-0.03934154,0.0402845,-0.06268202,-0.048303008,0.017872585,-0.11973224,0.030653402,-0.015154013,-0.091034375,-0.0878179,0.00046111076,0.076532476,0.002723942,-0.057351153,-0.016085483,0.02147719,-0.036938775,-0.07423985,-0.03762817,-0.037237745,-0.09993175,-0.011332813,-0.060171884,-0.0015233585,-0.049236953,0.045998175,-0.06600225,0.052367862,0.079143785,-0.034517158,-0.046107072,-0.056461096,0.061305042,-0.10359193,-0.044636242,-0.060598865,0.03956733,0.011918783,0.036379527,0.020546896,0.013399118,-0.057503156,-0.050263647,-0.022097154,-0.045363057,0.057754625,0.023094477,-0.040640287,0.113647886,0.004625536,-0.07786925,0.0586576,-0.034608748,0.020838669,0.10356948,0.0647694,-0.05224422,0.05176453,0.054803267,0.030548172,-0.04373302,0.09133598,-0.04613164,0.012330633,0.012290265,-0.027473416,-0.008722204,-0.085868,-0.05871555,-0.09842884,-0.011875459,-0.040692177,-0.053466238,-0.02363545,-0.060025297,0.0858901,-0.05943271,0.060298976,0.04507725,0.04087093,0.0938574,0.02947053,-0.05208106,-0.09724358,0.014543119,-0.015670782,-0.06910526,0.022879489,0.10414277,-0.04999852,-0.062026884,0.0014051624,0.048865158,-0.023993969,0.06147548,-0.04008553,-0.038709767,-0.015010219,0.06710691,-0.087432474,-0.054345455,-0.02863729,0.05925071,-0.089839816,0.1013813,0.104668684,-0.070204206,-0.02011758,-0.073672384,-0.017836431,0.019930962,0.043431867,-0.09602709,-0.055735376,0.028490923,-0.016636102,0.066276446,-0.012013371,-0.055462927,-0.0010429549,-0.05157227,0.011886456,0.011905881,-0.06466768,0.055239953,0.024257177,0.09794573,0.027619444,0.03743293,-0.030872284,-0.060214773,-0.015708474,0.0082298145,0.0071728784,0.0057041408,0.041683514,0.13561781,-0.13993146,-0.07713682,-0.027110156,-0.017266484,-0.045196123,-0.009162961,-0.06169299,0.07335497,-0.025929995,0.009080386,-0.003501496,-0.0044229412,0.018350987,0.09063588,0.0056363777,-0.0549501,-0.026775312,0.017701918,0.021524515,0.0058322423,-0.026711492,0.09591633,0.0785088,-0.014899932,-0.063798234,0.05818812,-0.02418549,0.0070944447,0.093066856,-0.053396028,0.024000717,-0.03948252,0.04367453,-0.007731233,0.044164937,-0.0011352764,0.037238866,-0.10338317,-0.048169453,0.0350762,-0.012568469,-0.008322365,0.012557402,-0.11653954,-0.08008571,0.008938056,-0.009174404,0.0050328565,0.019023955,0.04075574,-0.012240455,0.014576646,0.0062896376,-0.056003958,-0.061397552,0.012139326,0.030275807,0.049139306,-0.09774924,0.016244406,-0.011721009,-0.062101346,-0.002189214,0.2157299,-0.04482775,-0.12596162,0.109023064,0.030899862,0.13170503,-0.09852961,-0.09629846,-0.117974184,-0.022527436,-0.012571602,0.058434848,-0.086848184,-0.047637306,0.062258918,-0.026609102,-0.05127214,0.0020285521,-0.008688442,-0.10095156,-0.093040645,-0.049987815,-0.038068425,0.022200724,-0.053495135,0.05996248,-0.06570288,-0.008901919,0.024041815,0.08514681,0.07975204,0.070707135,-0.044979036,0.08399879,-0.20852749,-0.0146189425,0.13939805,-0.08827669,-0.10505876,0.08587847,-0.02387061,0.04939404,0.03985081,-0.01832259,-0.03199565,0.046514656,-0.09451349,0.004919313,-0.058224563,0.049321637,-0.070538975,-0.01311856,-0.0107159605,-0.08129706,0.07950176,0.07192942,0.012062482,-0.055486772,0.04616257,-0.13874352,-0.14445607,-0.034127288,0.054703873,-0.012590286,0.045473862,0.09461811,0.06111769,-0.053966008,-0.17128822,-0.06533196,-0.005117793,0.063078105,0.12481316,-0.03801686,-0.01812711,0.006913914,0.027612433,0.06360313,-0.032732196,-0.06980679,0.049786936,0.020829542,-0.098499745,-0.07022696,0.0009192296,0.06598316,0.05563041,-0.04813055,-0.046204854,0.059930082,-0.06347956,-0.09064298,0.085966,0.09887688,-0.0035373936,-0.03548204,-0.014331725,-0.009406538,-0.000457576,-0.06583217,0.09337657,-0.00024468297,0.084774174,0.017693719,-0.06540241,-0.0014797575,0.040847484,-0.023473883,0.00024640342,0.012452414,0.042540595,-0.0017069789,-0.034586303,-0.022037622,-0.06966999,-0.014482283,0.05693547,-0.0012011578,-0.074709825,-0.022577599,-0.091070585,0.050404593,-0.046462074,-0.050334606,0.012654922,0.11752802,0.03395256,-0.020684194,-0.061597757,0.04061757,0.017429736,0.03256945,-0.04066424,-0.0056896885,0.10170012,-0.07723565,-0.05058881,0.003228012,0.010884252,-0.087711066,-0.047413208,-0.069826774,-0.011337282,-0.062118344,0.053124703,0.050320793,-0.06980719,0.06277261,-0.03987925,-0.09528688,-0.074675046,0.078567214,-0.046107866,0.04850058,-0.05172674,-0.047109533,0.01820119,0.01789582,-0.043317176,0.034676116,0.03723119,0.045834076,0.054664753,-0.058834296,-0.06608072,-0.054678682,0.07710001,-0.04143918,0.07080904,-0.08957232,0.03399733,0.08120674,-0.00039793045,-0.03997324,-0.18248297,-0.120900154,0.014711808,-0.06986185,-0.028834883,-0.07093149,-0.08949748,-0.028690241,0.117622435,-0.090900585,-0.14471373,0.043182734,-0.07650041,0.08485635,0.04759747,-0.039347038,-0.032718778,-0.05092528,0.09358648,0.015812295,0.03680864,0.038981423,0.017802479,-0.017048404,-0.0070683607,-0.11753635,-0.16792412,-0.1432848,0.0717862,-0.0076536285,0.06685032,0.07367587,0.055627547,0.047870606,-0.11245616,-0.02573444,0.052581236,-0.047128502,-0.09636488,0.018381774,0.051622078,-0.04871935,-0.011015143,-0.059909534,-0.07719455,0.038898204,-0.11169976,0.041448977,0.018704783,0.02783209,-0.03904087,-0.081078775,0.06182362,0.045636613,-0.0488396,0.05247981,-0.07965568,-0.032474626,-0.028046397,-0.08036153,0.10193486,0.03964508,0.061212733,-0.0072788023,-0.12999313,-0.10851476,-0.11799048,-0.012057452,-0.12815773,-0.003019206,-0.0027447243,-0.08648893,0.0076142773,0.037000474,0.075233564,-0.13526835,0.080569595,-0.099277586,0.121729635,0.078503475,-0.047765717,-0.07771006,-0.015981387,0.021784114,-0.044852275,0.077715315,-0.09988211,0.035878614,-0.08309988,0.11222367,-0.30239603,-0.01969011,-0.03961872,0.01988723,0.022746874,-0.0950539,-0.08608318,-0.09342557,0.022565177,0.0026366627,0.048027124,0.056015506,-0.05877671,0.019946193,0.07938562,0.030950926,0.08852055,-0.004069201,-0.019776018,0.042353727,-0.06341765,0.07684366,0.042198498,-0.07952655,-0.06478107,-0.05478733,-0.023092797,0.04833008,-0.028815875,0.026107024,0.06504305,-0.10985915,0.020235565,-0.01230298,0.041900948,-0.04657304,-0.015503202,-0.033219922,0.029374506,-0.18286324,0.054575168,0.12059238,-0.028101085,-0.042369325,0.007690778,-0.030494392,0.03025892,-0.10401441,-0.0061574387,-0.02066861,0.030577313,-0.035163216,0.041175235,0.009051285,0.01657477,-0.088002205,0.057987273,-0.03692676,-0.022832602,0.0805324,0.055901278,-0.042324077,0.03945498,-0.04252504,-0.03272946,-0.040052615,0.067891374,-0.02526676,0.050874356,0.10472503,0.04263014,0.015981684,0.038046237,-0.06532816,0.04133023,0.11827691,0.055835698,0.004689987,-0.024465362,0.0015419697,-0.09342294,-0.073966146,-0.0068101143,0.055813733,0.043920174,0.01228332,0.017770657,0.03365759,0.07259268,0.076337226,-0.07282294,-0.080498174,-0.023850104,0.09671583,0.047068767,-0.049267486,0.016793462,-0.060953442,-0.078094795,-0.056646124,-0.013252916,0.021599893,-0.07170173,0.0039523905,0.020824466,-0.008843412,-0.04587043,0.027695999,-0.03688329,-0.045425836,-0.11316076,0.08991285,-0.035240185,-0.07709615,-0.07304255,0.01803026,0.019991146,0.036212448,-0.03505849,0.0014552474,-0.036924817,-0.0954151,0.0061748307,0.057505418,-0.024319218,-0.048099536,0.07852868,-0.028794572,0.07385756,0.010130922,-0.007821142,0.037716553,-0.076084845,-0.060966995,0.059460312,-0.033952158,0.025788324,0.006871143,0.027567329,-0.08229307,0.0061485143,-0.12072779,0.052051295,0.06311036,0.073937796,0.06589944,0.043438282,-0.01544923,-0.06025809,0.03948427,-0.08392321,0.07957599,0.06415925,-0.06629238,0.01085643,-0.055549137,0.03570691,-0.104105294,-0.04036877,-0.004942692,0.13914868,0.0816175,0.026919536,0.05971015,0.02218802,-0.0132416235,-0.023603236,0.04970982,0.0063957428,-0.051454686,0.08088852,0.08521291,0.0029422038,-0.04732764,0.012973338,0.02634645,-0.013592829,-0.045455944,-0.0091658365,-0.11129088,-0.0384698,-0.063307375,-0.01778276,-0.0069333143,0.0781119,-0.07842255,-0.041298892,-0.024070276,0.048104584,-0.05399734,0.015338611,-0.046945777,0.03322565,-0.07737602,0.061346464,-0.025567295,-0.057972956,0.032450534,0.05769501,-0.046665322,0.022407195,0.028791059,-0.010977738,-0.052079145,0.05967412,0.011087168,-0.0054300567,-0.072042815,-0.08267776,0.024987165,0.06583176,-0.086698346,-0.065418266,-0.071253456,-0.030694958,-0.008704555,0.005793908,-0.07205515,-0.025738565,0.030475909,0.067343965,0.04461911,0.014485159,-0.077964745,0.008055241,0.049704596,0.019352421,0.008141535,0.05242768,0.055069152,-0.06699802,-0.022317288,-0.021665605,0.06485647,0.03828595,0.056166273,-0.015120917,0.008175871,0.056374747,-0.08675552,-0.0799781,0.060056657,-0.05018065,0.044385046,0.057470545,0.025866281,0.041445825,-0.0732236,0.051988814,0.100009024,0.023900818,-0.06972397,0.034590386,-0.012936064,-0.043245755,-0.06665345,0.08356174,0.0061735567,0.022769216,0.038270216,-0.058387913,-0.011856173,0.040626965,-0.056984097,0.049573895,-0.02909061,-0.09195762,0.059944127,-0.04959076,-0.013337821,-0.0015552883,-0.09142401,-0.03568525,0.052332077,0.052452907,-0.0015983216,-0.1540574,0.061658777,-0.036855623,-0.067067035,0.08089227,0.053850867,0.0022721079,-0.058850817,0.07064505,0.098692834,0.07340007,0.05479952,-0.085967965,0.11250737,-0.0010874757,0.008123366,0.075946465,-0.060263503,0.03516827,0.04250777,-0.0071966974,-0.03794952,-0.08308872,-0.061705336,0.06653064,-0.010860109,-0.032314327,0.017073171,0.025471222,0.08631439,-0.13851804,0.07141889,-0.09405794,-0.14170548,0.12246762,0.060247518,0.0009187326,0.0024177132,-0.0371873,0.03104411,0.0188644,-0.03678892,-0.056799095,-0.01930746,-0.07672823,-0.009676057,-0.017510401,-0.07565202,-0.036033828,-0.006920437,0.017213857,0.04450098,0.05170664,-0.03755479,-0.031536695,-0.013922514,-0.009325776,-0.010421054,0.06304171,-0.043302752,0.06146288,0.03698737,0.078163855,-0.08876877,0.08146103,0.015004632,-0.016714418,0.08301598,-0.007116836,-0.0077429283,0.0771357,0.073184304,-0.01646566,0.022108655,-0.13423254,-0.109743886,-0.008122425,-0.021860655,0.04485587,-0.11871934,0.0711454,0.006594503,0.052938666,-0.01033136,-0.06987672,0.06630241,-0.009670221,0.04347338,0.051168565,0.019447068,-0.06538007,-0.015513871,-0.048330605,-0.020297147,0.051915247,-0.0011838089,0.07200811,-0.015119922,0.016508058,-0.064393125,0.10352084,0.10332732,0.073581815,0.062748365,-0.18873489,-0.024830163,0.08576627,-0.13759689,-0.109241486,-0.018345077,-0.04996912,0.017500283,0.049892746,0.06015312,-0.0048289658,0.056465007,0.046166632,-0.04802286,-0.024964374,0.06269745,-0.103747144,-0.03365866,0.06911864,-0.030213945,0.020736968,-0.04458535,0.05215702,0.016173447,-0.017277649,0.03139761,0.04800728,0.11579098,-0.04415705,-0.013977914,-0.21031377,-0.18244582,-0.09596169,0.014691318,0.0034351607,0.09010769,0.05936191,0.057567205,0.019098068,0.057461087,-0.03113399,0.009503962,0.023666494,-0.06221939,-0.04772978,-0.07166131,-0.09574461,-0.0041863816,0.015484185,-0.07871618,0.028928373,-0.04341339,-0.082116164,-0.008425147,-0.043634336,-0.19268046,-0.12522426,0.032271914,0.00820321,0.035644844,0.01126672,0.18138936,0.05334086,-0.118486725,-0.17447747,-0.04902028,0.023923803,-0.05791425,-0.032031305,-0.07601634,-0.011832257,-0.11805205,-0.0474197,0.07923739,0.08279753,0.051419098,0.022508068,0.034123473,-0.02646997,0.08398187,-0.124401346,-0.1512338,0.0066297534,-0.06470024,0.026450714,0.07720814,-0.06565966,-0.07723134,-0.034101725,-0.066212095,-0.08808961,-0.011669676,-0.0410621,0.09978404,0.011607,-0.03491574,-0.08465946,0.028403362,0.06419921,0.017751161,0.0049712295,-0.052740745,0.029524187,-0.010671859,-0.037663467,-0.01711397,-0.017387599,0.037733648,-0.008672438,0.071360484,-0.08950043,-0.16101483,0.024215395,-0.016957976,0.083750255,-0.015016867,-0.03855105,0.036522157,0.06223656,-0.008733524,0.09926509,0.09768642,-0.04424132,0.06655372,-0.041417804,0.033665042,-0.0010435551,-0.026890723,0.025837332,-0.058168113,0.09817636,-0.057093997,-0.05598629,0.06502636,-0.041397177,-0.013003687,-0.013096302,-0.09284958,0.08154136,0.0165521,-0.08986156,-0.031181136,-0.04908576,0.05130334,-0.021232305,0.098106734,-0.046913598,-0.016390057,0.039994586,-0.038048282,-0.08034907,-0.0060585937,-0.038975842,0.028912488,0.05080275,0.09803139,-0.065275796,0.044141043,0.04693902,0.032263584,-0.02221415,-0.15032059,-0.032044828,0.062243834,0.07386348,-0.022311736,-0.09012027,0.08832699,-0.0018776611,-0.016979447,-0.05286295,-0.1095707,-0.021762235,-0.014052737,0.13199481,-0.06572496,-0.04766226,-0.0076750643,-0.03806197,-0.015223212,-0.11819845,0.0047327187,0.06085338,0.031762205,0.08181442,0.09714459,-0.037803706,0.0063055838,0.01878176,0.025312085,0.011085949,0.015373956,-0.0661502,0.009317324,-0.0607272,-0.00611954,0.020886725,0.067845196,0.083443664,0.032492917,0.04514567,-0.13937515,-0.0049079023,-0.09880626,0.040713944,0.017149968,-0.07063027,-0.05307402,-0.028442526,-0.05427516,0.07003316,0.014775812,0.03785722,-0.004997112,0.07643041,-0.0039122915,-0.09501715,-0.021336567,0.009205831,0.07957591,-0.012621727,0.014655622,0.030360691,0.0088120615,-0.06434457,-0.07367725,0.03683257,-0.0001211635,-0.014859607,0.08708634,-0.0066010067,-0.15350029,0.024315013,0.042723678,0.042913716,-0.17826399,0.040084295,0.07562012,0.009342505,0.03305131,0.07462855,-0.1171043,0.0645662,-0.024330031,-0.06748613,0.041266512,-0.01946337,-0.0069240364,-0.09412644,0.029732095,-0.07805684,0.07931305,0.046119846,0.03872947,-0.05763671,-0.00052773417,0.020173967,0.050420154,-0.15302868,0.046917144,-0.055079706,0.07986467,-0.0072173555,0.010639962,-0.0043449965,-0.009175662,0.12981519,0.2178336,-0.050925396,-0.09542302,0.028257286,-0.096614555,0.14047417,-0.016137809,-0.26375735,0.008097253,-0.015825482,0.020366384,-0.010232586,0.028108738,-0.0938746,0.0773222,-0.057792425,0.05876544,0.09737902,-0.0022996715,-0.16146472,-0.004443403,-0.18314129,0.11957581,-0.13377938,0.0029692478,-0.04376163,0.0036016442,0.11834407,-0.0732756,0.048518904,-0.037479896,0.018646516,-0.049711104,0.04459522,-0.03515666,0.0024049361,0.106473975,-0.082713544,0.07658671,0.02163073,0.048692033,-0.0010398035,-0.012091663,-0.040404227,0.059221994,-0.048469808,0.00998824,-0.023726886,-0.015163717,0.09151464,0.033496205,0.0776593,0.04607682,-0.06669773,0.0259497,-0.0018305314,-0.033199575,-0.046303406,0.05716971,-0.050351296,-0.01629215,-0.03822695,0.030860925,-0.035549954,-0.055342622,-0.113979094,0.055819437,0.037463743,-0.07946603,0.06330674,0.013362795,-0.07805753,0.08297467,0.014006102,-0.08357563,-0.04595081,0.09737582,-0.042734418,0.06649758,0.015822353,0.02922495,-0.04387075,0.05239733,0.06517615,-0.056691885,-0.019674426,0.09869036,-0.05432285,-0.0356508,-0.076619156,0.007882127,0.017962448,0.04601867,0.023737634,-0.052725457,-0.04296385,-0.030293014,0.041667935,0.050710168,-0.054167002,0.08560645,-0.091052264,-0.04539275,0.022902645,0.001675246,-0.017009974,-0.021679834,0.055616558,0.003953566,-0.056631587,0.06668957,-0.016416244,-8.341631e-05,-0.07964456,0.06779274,-0.034248702,-0.0017116488,0.060137607,0.103593394,-0.056858335,0.013730631,-0.16914602,0.04247168,-0.13529071,0.1209591,0.002661562,0.19160208,-0.111700095,-0.035062607,-0.019592978,-0.042678613,-0.14997001,0.023318842,0.043007385,-0.055502463,0.108651176,-0.048511576,-0.023796545,0.034412503,-0.07594991,0.053939044,0.04458942,0.016770873,-0.015451718,-0.016655622,-0.03582619,0.08501758,0.022498297,-0.082249604,-0.0036828725,0.053796016,-0.0051256362,0.085483916,0.07404816,-0.07877575,-0.017072767,-0.11118489,-0.083046645,-0.037047043,0.0051663695,0.010905058,0.03216841,0.07559205,0.004559993,-0.037538365,0.0072756293,0.05176682,-0.0020797634,0.03724074,0.034713272,0.034690596,0.05072157,0.053671103,-0.0032151947,0.0033674818,-0.09530402,0.0007566253,-0.055024125,-0.076263726,0.002811833,-0.01242302,0.10960873,-0.045387723,0.11907374,-0.12022344,0.014142732,-0.15460782,-0.0035994905,0.008853748,-0.03507498,0.06271852,0.054758668,0.06133251,-0.01952207,-0.09331606,0.020003272,-0.017559938,0.09332951,-0.009992741,-0.015370569,-0.025700541,-0.055723,0.05160122,0.052661333,-0.012776721,0.0219267,0.042539243,0.060436986,0.0384698,-0.03206582,0.06068665,-0.041907895,0.12645443,0.053324457,-0.1232625,-0.06609769,-0.051351584,0.031385552,0.0030965023,-0.09023012,-0.033317123,-0.054421064,0.01472274,0.08360487,-0.001203956,0.04871813,-0.06348175,0.037709463,-0.037127163,-0.06580137,-0.10888817,0.113672666,0.073885925,0.115767315,-0.046967506,0.06098865,0.003036274,-0.017218824,0.040287524,-0.010204156,0.02649829,-0.04640233,0.038118526,-0.01563967,-0.055166427,-0.03516959,-0.013920659,0.064455524,0.068090685,-0.010642966,0.045680787,0.025509482,0.011248417,0.028436005,0.007899485,0.11016409,0.03180735,-0.07320639,-0.07049224,-0.10252041,-0.16039032,-0.015109856,0.09120488,-0.024492243,-0.039900165,0.00040683427,-0.059182636,-0.02052046,-0.16369605,0.04764395,0.0637526,0.017556343,0.025409747,0.039844934,-0.073177956,0.036692295,-0.02804955,0.025917694,0.050132502,-0.021034723,0.05883796,-0.0861647,0.07412123,-0.045270536,0.109658785,-0.16469517,-0.015898796,0.09317698,-0.06478919,0.031846862,-0.10669864,-0.02330841,0.018967578,-0.024741689,-0.038817663,-0.014412013,0.0735433,0.039467275,-0.08584055,0.054431282,-0.08491221,0.028259762,-0.017485142,0.06638211,-0.16377576,0.034526236,0.037311107,0.05155233,0.09561413,0.029827056,0.009549463,0.051407732,0.0828884,0.0070679947,-0.039840285,-0.030634794,-0.09780593,0.06123763,0.058193423,0.019016305,0.025275392,-0.014054803,0.010964746,0.06263533,0.06676956,0.019697165,0.09238784,-0.03457077,0.0054633063,-0.027793068,1.7728453e-06,-0.008608842,0.017641705,0.031623136,-0.042923037,-0.05545401,0.0011576097,0.091997124,-0.066662386,-0.10079236,-0.23182724,0.1749639,0.028986534,-0.030999366,0.012521368,0.028824644,-0.12396742,0.0040355404,0.05437761,0.0109246075,-0.023486033,-0.05887444,0.0028975077,-0.033105515,-0.05986388,-0.0327633,-0.057573896,-0.027811067,-0.07490252,-0.017299818,-0.07016147,-0.08191225,0.036825944,-0.0024998805,-0.012840903,0.01586135,0.07332046,-0.07485979,-0.006017289,-0.020257944,0.076290116,-0.14209315,-0.0016209511,-0.00021789274,0.049748607,-0.02361318,0.033214495,-0.04547249,0.060888823,0.04896366,-0.010390375,0.03878488,-0.0034207993,-0.069848605,-0.032074753,-0.09014744,-0.034296777,0.09293423,-0.047999173,-0.0485947,-0.015812699,-0.03877034,-0.06219568,-0.00016364409,0.019447163,-0.021312537,0.08537206,0.043603256,-0.10582677,-0.06518839,-0.14660786,0.055584885,0.055752177,0.04482076,-0.007561761,-0.0619076,0.06413535,0.07394471,-0.004360631,0.03209947,-0.08731386,-0.0138939805,0.027943969,-0.046820473,0.044986792,-0.08729634,0.12990017,0.08749537,-0.11807835,-0.07826016,0.013515318,-0.030444758,-0.0064073773,0.058844596,-0.0571847,0.053515784,-0.05553914,0.080398165,-0.15065473,0.005313132,-0.03281565,-0.04123518,0.002205368,0.11891456,-0.08636621,0.10051833,-0.025144737,-0.08077065,0.016030358,-0.063884854,-0.013037174,-0.02646585,0.039690103,0.021884622,0.056594316,0.05473138,0.09421951,-0.10266105,0.06242612,-0.084818654,-0.1945586,-0.0066956906,0.11533292,-0.079685435,0.108667016,-0.021493012,-0.12887998,0.15919709,-0.014524993,-0.034818016,0.020077247,-0.06331795,0.05680329,0.053135894,0.04957988,0.01121296,-0.018929418,0.00020736454,-0.035328455,0.04984536,-0.062366325,-0.07768471,0.046407428,0.06521749,-0.009614069,-0.007937247,0.077595666,-0.015460611,0.021962611,0.04290231,-0.0592091,0.0089960825,-0.040764757,-0.18181567,0.03557764,0.05228938,-0.11521796,-0.0114489095,-0.09652593,0.12281211,0.08615333,0.036261108,0.045606147,0.07772278,0.01875025,0.039148197,0.015736181,-0.08236502,-0.064692,0.052246932,-0.009054912,-0.045066807,-0.043348167,-0.034507357,-0.04814843,0.014284707,-0.03559134,-0.018238446,0.07646357,0.108537644,-0.1433661,-0.07371996,0.09261972,-0.04995876,0.09839424,-0.098994665,-0.13068333,0.062023036,0.046375047,-0.014463488,0.032005537,-0.08654167,-0.044941146,-0.06046744,-0.0025106103,0.05952258,0.060104724,-0.13230762,-0.016280388,-0.049933046,-0.0045797415,-0.08764934,0.0034649845,0.027158516,0.05069631,0.013988318,0.10077257,-0.056848664,-0.08044515,0.017521163,-0.027604084,-0.022953933,0.035975132,-0.061339885,-0.024387185,-0.053488083,0.12716706,-0.0977058,-0.06166721,0.005318348,0.09577088,-0.07733338,0.086012825,-0.03554218,0.015995443,-0.062107474,0.067251496,-0.07809896,-0.023921043,-0.044503294,0.04419084,0.05106983,0.022590764,0.03511854,0.0022107894,-0.025917115,0.011242955,0.03797922,-0.074928276,0.04148333,-0.0996472,0.054786444,0.055397447,0.003377945,-0.096752636,-0.096490815,-0.04604976,0.1152473,-0.10930275,0.01781322,0.0016451388,0.034940075,0.008163629,-0.033485048,-0.06516108,-0.055797134,-0.10294723,0.06491057,-0.040652618,-0.042661052,-0.0785105,0.07491308,-0.05698508,0.04835505,0.06184744,-0.012815037,0.05881626,0.02801652,-0.016638516,-0.08759042,-0.02616174,-0.041942067,0.10787398,0.074688725,0.0569218,-0.012058326,-0.05194372,0.07571921,-0.08466293,-0.13106936,-0.0008278083,-0.028863596,0.034071106,-0.014366893,-0.093713164,-0.008125957,0.0753612,0.012337634,0.013174617,0.11409119,0.053965896,0.03929435,-0.13116173,-0.031554908,-0.047424283,0.004068884,0.033494234,-0.13193437,-0.07538593,0.035318494,0.027654216,-0.1141197,-0.06034957,-0.044387717,0.028055638,0.06863921,0.09663588,0.04068018,-0.07160365,-0.033721864,0.10173033,0.030428683,-0.14049594,-0.068024166,-0.100574724,0.034787413,0.01375986,-0.10440804,0.07154499,-0.022873836,-0.027151953,-0.0142394975,-0.039832678,-0.06579506,0.093770154,-0.06877593,0.057165362,-0.10573092,-0.045335922,-0.047344908,-0.013600386,0.05333095,0.09913201,-0.058174253,0.01481775,0.060469784,-0.055432875,-0.0058574104,-0.11174763,0.089310564,-0.053756963,-0.06783165,0.07774746,-0.07687525,-0.111016236,0.04931786,-0.0145964315,-0.05306978,0.021186482,-0.0039449856,0.0331866,-0.00903255,0.0015466458,0.027386101,0.038807657,-0.0449626,0.1008213,-0.009997224,0.05462068,-0.021408837,0.016089972,-0.07488617,0.015589333,-0.008051659,-0.018173235,-0.012431081,-0.04902529,0.044170074,0.028394436,-0.052819405,0.056053914,0.030000148,0.05781637,-0.029029178,-0.03150507,-0.11642006,0.026630431,-0.052704923,0.050754093,-0.10231092,0.004829623,0.041866962,-0.026871795,-0.017051872,-0.0073140217,0.042333018,-0.075995624,0.024925599,-0.010944048,-0.09458192,-0.014252123,0.05659927,-0.068858914,-0.04071847,-0.028842065,-0.08823103,0.06482835,0.08691997,-0.047229465,0.11423575,-0.042327587,0.021972766,0.029500023,0.051655877,0.022689402,0.062182125,-0.04551444,0.046256516,0.078466415,0.03184901,0.05807187,0.033665963,-0.011558529,-0.01174882,0.028657114,0.07620675,-0.020452337,0.051675685,0.004095876,0.047742903,0.076983,0.01206221,0.07143788,-0.08857961,-0.028220477,0.016830118,0.03146831,0.039148785,0.05783579,0.006485484,0.036676083,-0.19575308,0.011173181,0.037748426,0.048492115,-0.03648793,0.07882473,-0.096104965,0.038297202,-0.026232937,0.014752776,-0.008887803,-0.025486825,-0.013379435,0.017217435,0.09287331,-0.033971105,0.003804337,-0.013570946,0.09598653,0.012834521,0.033227734,-0.036206488,-0.050058,-0.011205874,-0.028308675,0.016170349,-0.040422335,0.023525048,-0.06578542,-0.0703224,0.04445885,0.115484804,0.033410545,0.042364188,0.02432658,0.032986008,0.09472159,-0.01643231,-0.0872025,-0.059647635,-0.05516115,0.02996696,-0.049519505,-0.008517015,0.08789819,-0.06360371,-0.035402745,-0.08228449,0.11476581,-0.08846189,-0.098502256,0.05737878,-0.084168404,0.07449664,0.13970634,0.041799325,-0.05104813,0.06733314,0.056618895,0.022995338,0.054808445,-0.078226164,0.043521415,0.040022496,-0.057755757,-0.078309946,-0.023766981,-0.06690018,-0.021223202,0.035326283,-0.06185502,-0.03342738,0.023213886,-0.006686673,-0.07921562,-0.004057168,-0.0048844544,0.05394974,-0.05356832,-0.007835867,0.11768373,0.035463993,0.017884014,0.04425616,0.054965694,-0.08859851,0.06876634,0.028330734,-0.013952446,-0.058093283,0.025534479,0.046771985,-0.067599654,-0.05302727,-0.11502002,-0.02721553,0.090808585,0.0899632,-0.09492832,0.024646917,0.047197092,-0.04001334,-0.052378144,-0.027092878,0.004240262,-0.035098754,0.059687674,-0.01150582,0.0061983885,-0.024984784,-0.034010787,-0.028683364,-0.023471942,0.06099558,-0.03835901,0.1721006,-0.13835971,0.06198533,-0.121753134,-0.051998284,0.057478897,-0.025617821,0.049542766,0.0018511316,-0.10821769,-0.04301502,0.00015907397,0.11363884,0.066465646,-0.060589213,-0.06944455,0.08733046,-0.10821132,0.043171626,0.0066001937,0.020957759,0.0376902,0.018187018,-0.007416722,-0.07686922,-0.052653458,0.081014864,0.01892609,-0.007535017,-0.024034256,0.03723817,0.09582674,-0.074093975,-0.041303307,-0.107367836,0.11440389,0.05005769,0.053415146,-0.055061955,-0.06495884,-0.027972817,0.109206475,0.06789614,-0.016461812,-0.03634516,0.016890183,0.047366228,-0.047088407,-0.010563687,-0.101855904,-9.752621e-07,-0.056517217,-0.14855845,0.03367043,-0.00024300415,-0.009936414,0.025051154,0.065447286,-0.040922705,-0.035945766,0.042942334,0.054243065,-0.026547961,0.020497499,0.018511625,0.035863657,0.07925109,-0.02282769,-0.09599348,-0.028666051,-0.056316167,0.10602966,0.085916415,0.011861273,0.047597803,-0.020919831,0.026031842,-0.054255903,-0.015380165,-0.10349997,0.026248394,0.034011837,-0.021901615,-0.026209952,0.041754004,0.04962462,0.05865689,-0.030700123,-0.035830513,0.027484318,0.10668565,0.03553359,-0.041484322,-0.10104546,-0.004038858,0.09780995,0.06454978,0.06713197,-0.025335737,0.0034026455,0.10006764,-0.09930886,0.035785325,0.00016709432,-0.048818536,-0.026660856,0.034209367,-0.039260752,0.08855345,-0.030632304,0.013255636,0.08595481,-0.009407795,0.030910488,-0.03871716,-0.055479545,0.029256662,0.021412212,0.035584863,0.062088728,-0.08712627,-0.0009043788,-0.14601608,0.0037355684,0.0385435,-0.01386056,0.07670201,-0.05468353,-0.112067424,-0.03535646,-0.00022609008,0.094560854,-0.11495764,0.10301896,0.07960764,0.02258675,-0.16567592,0.089972086,0.038260978,-0.026076052,-0.07769433,-0.12901787,0.036180288,-0.050172944,0.069740884,-0.04701139,0.020583212,0.06384269,0.09190982,-0.029226838,0.046994526,-0.08783018,-0.063618675,-0.0016322967,-0.048389386,0.018283816,0.045945182,-0.04875315,-0.08378653,0.036175564,0.043669548,0.044258684,-0.11164099,0.07712186,-0.07843435,0.038229465,0.050613575,0.09145613,-0.05931758,-0.053550616,-0.0060726656,-0.028607696,0.030148491,-0.13084915,-0.056235477,-0.09251073,0.084987596,0.012362917,-0.09191495,-0.07102693,-0.020461665,0.02791769,-0.01499422,-0.05139283,-0.05542624,0.01673034,0.060213316,-0.0049567814,-0.05989126,-0.08469611,-0.07687505,-0.05682664,-0.035708703,0.060527477,-0.0021097623,-0.041635603,0.055826783,0.04199879,-0.035549738,-0.0020219781,-0.107504554,0.0065084663,0.01487138,-0.040824044,0.08583357,-0.020962318,-0.012005337,-0.063982174,-0.01771209,-0.07810586,0.09828204,0.06824782,0.048365403,0.08790878,-0.02220488,-0.12121519,0.14127164,-0.110142365,0.10152757,0.011339191,-0.0669998,0.11940526,-0.10675291,0.00902388,-0.07786461,0.076189384,0.052531205,0.060839772,0.021627566,0.021240989,-0.0029601299,0.013780239,-0.0935015,0.053609874,0.017774621,-0.023328897,0.023683487,0.04495764,-0.059473712,0.06858949,0.09087156,0.029906062,0.08051194,0.040643536,-0.057049993,-0.117901474,-0.000987354,-0.026277622,0.031509914,0.14335793,-0.044271242,-0.019015284,-0.004440265,-0.03364341,-0.022455884,-0.030798756,0.0005585316,0.03969418,-0.0002563039,-0.10879374,-0.08062279,-0.068644956,0.028073916,0.046946093,-0.0025129833,-0.009910832,0.035753947,-0.0073621273,0.026689013,0.038236495,-0.09885149,0.023639843,-0.00095107313,-0.044961594,-0.1343496,-0.019454377,0.015519978,-0.10535131,0.026614504,-0.056455195,-0.05362232,-0.025729978,-0.066480815,0.023332296,0.019174302,-0.09271251,-0.05292697,-0.0048442394,-0.08500713,0.010700106,0.08697354,-0.045271493,0.008259376,-0.054790396,-0.03793946,0.046234902,-0.07710553,-0.09264007,-0.04293589,0.046264816,0.09002915,0.015655238,-0.0971475,-0.031909637,0.054172907,0.05281926,-0.0007977755,0.002392454,-0.070406385,0.05581457,-0.03628135,0.06817072,-0.112130724,-0.04074928,0.06871575,-0.057846144,-0.049646057,0.0019515065,-0.039045326,0.028823486,0.10199951,0.050444957,0.009379552,-0.05781245,-0.059359517,0.113295645,0.013161989,-0.010367312,0.010421584,0.021045987,-0.040297564,0.067386255,-0.11939716,-0.072537854,0.032811698,0.0416174,-0.028636713,0.053818304,0.055386003,0.01851045,0.044167817,0.06306366,0.07730185,-0.0835488,-0.053309552,-0.014613177,0.0030501361,-0.1037226,-0.085745305,0.009266494,0.04576972,0.10113987,0.041695233,-0.075219266,-0.039615806,0.032432035,0.06459683,0.048662722,-0.037507765,0.06892295,0.03362923,0.074696116,-0.0912522,0.0436345,0.017309455,-0.06500014,0.15751356,-0.02878758,-0.1189657,0.005658834,0.043729495,0.083724715,0.034656506,-0.032884616,0.059122175,0.03536626,0.031169582,-0.053305365,0.08620934,-0.03910058,0.03104365,-0.038855467,-0.1061781,0.03257586,0.0019262345,-0.002566192,-0.044016637,-0.084708914,-0.018291451,0.04032692,0.07349395,-0.031837113,0.03989403,0.031132124,0.07666735,-0.11448204,0.06761885,-0.0056716246,0.006836727,0.058404986,-0.08416034,-0.053812455,-0.08906746,0.0453232,-0.025936184,0.014752215,0.016065724,0.017425306,0.08110998,-0.116623275,-0.0069857757,0.10459907,-0.013152646,-0.013216907,-0.018831648,-0.05216082,0.016871113,0.0034094418,0.051812608,-0.09236943,0.037214193,-0.10678037,-0.04663276,0.013052492,-0.022562893,0.09895715,0.05445163,-0.044987604,-0.093927406,-0.06066777,-0.008023769,-0.035526942,-0.0939209,0.112826474,0.013553251,-0.00858226,0.11397383,0.05326825,-0.00088836433,0.08822374,-0.11275251,0.042299967,-0.03657578,0.030707812,0.048708584,0.03563679,0.020529393,-0.0767023,-0.06628788,0.05975653,0.030917136,-0.060005825,-0.010487778,0.014611175,-0.12267609,0.0067248526,-0.030222109,-0.034025602,-0.04385849,0.01060854,0.02278636,-0.034646414,-0.12842324,-0.076168425,0.034791686,0.094608985,-0.07518144,-0.07057332,0.071075864,-0.006419262,0.059772473,0.011286481,0.04413562,0.0005964928,0.016884575,0.089282684,-0.15664142,-0.026912622,-0.07378694,-0.070634894,-0.043437045,-0.009390799,0.05669268,-0.05032022,-0.045472447,-0.017662438,-0.028178217,0.04100452,0.04156978,-0.029517071,0.04330693,-0.07013111,0.068902485,-0.07107603,0.05785157,0.00075014646,0.073723346,-0.027299974,0.052584976,-0.022277204,-0.041952636,0.052928187,0.03987517,-0.039557807,0.059309084,-0.011868642,-0.07365498,0.09699205,0.013388673,-0.059942618,-0.021324912,-0.0041374234,0.07115306,-0.013122532,0.08544124,-0.050283443,-0.05726825,0.016510665,0.02843055,0.07790193,-0.04040992,0.0028620113,-0.084355034,0.10569504,0.01627186,-0.04002305,0.07892365,-0.09968545,-0.059759606,0.027458979,-0.03937791,0.008540683,0.023179917,0.03856585,0.09313182,-0.05982718,-0.070632994,0.035113547,-0.023367578,-0.09641269,-0.051970426,0.021727439,0.02480115,-0.019555194,0.05381481,-0.048132397,0.007332436,-0.047656223,0.020937745,-0.058483493,-0.06810445,0.02572296,-0.06489159,-0.10208215,-0.049485195,0.015242776,0.085999176,0.009923501,0.019054772,-0.11018965,0.04896974,0.094085574,0.05154434,-0.025313793,0.0057026516,0.013650274,0.0700664,-0.021608425,-0.033909388,0.023948658,-0.032737195,-0.05978404,0.030457199,0.016443316,-0.033869173,-0.01398978,-0.08658894,-0.004387804,0.00693839,0.08619221,-0.048663102,-0.080054425,0.010743675,-0.021383297,0.04035887,0.010952426,-0.020251945,-0.03192807,-0.035270903,-0.07078839,0.07519695,0.013103392,0.03142373,-0.03352625,-0.04046995,-0.011921283,0.056134116,-0.032132793,-0.014647876,-0.04191682,0.046251293,-0.009428875,-0.0021796725,0.0849506,-0.015034779,0.051237896,0.0029875827,-0.017333563,-0.035739675,0.06547345,-0.0022865417,-0.007149946,0.004774047,-0.018125787,0.03824506,0.0523338,0.06702535,0.019652195,0.09653377,-0.051515177,0.08177468,-0.09070913,0.027862612,0.031992026,-0.07845497,0.04877424,0.016215958,-0.0005507662,0.047212943,-0.026902687,0.05732956,-0.07822939,-0.01398654,0.052692488,0.05697979,0.032385454,-0.06986639,0.051404934,0.009859998,-0.1531912,0.046897672,0.044764705,-0.008411892,0.079594515,-0.0024532333,-0.027874973,-0.059019387,-0.024011811,0.096192524,-0.06231723,0.014425006,-0.041114237,0.049288973,0.005055474,0.046477597,-0.04644512,0.04020342,-0.027531499,-0.0537879,-0.041484453,-0.0036303499,-0.06248721,-0.05924557,-0.058747336,-0.02312702,-0.0033503494,0.030640319,0.015565961,-0.041163165,0.055055406,-0.034805395,-0.03519795,-0.061115347,0.03622861,-0.019441567,0.020983145,0.08018724,-0.0018573566,0.0047670943,0.05152755,-0.025970807,0.03289992,-0.049915884,0.10377923,-0.021625351,-0.01583402,0.014796769,-0.0076698596,0.044865668,-0.031596072,0.02918537,0.018213049,-0.01174005,-0.112285435,-0.07347361,0.10941166,-0.04575292,0.043608516,0.006344011,-0.061031174,-0.0014598593,-0.029453136,-0.02661683,0.09200109,0.052310005,-0.026241452,0.018722415,0.069309406,-0.031414937,0.09351797,-0.03579238,-0.06669998,-0.0626792,0.046042085,0.05377934,-0.030767405,0.018167054,-0.0016531446,0.035065807,0.039167244,0.063995406,-0.11364994,-0.065552056,-0.070089914,-0.045315515,0.058761097,-0.0062262993,0.05113749,0.0066438406,0.03768385,0.046388026,-0.021032196,0.020144403,-0.024680227,0.06152601,0.054468732,-0.06805363,-0.041720044,-0.004377926,-0.01647485,-0.068066485,-0.107538275,0.010565917,0.02367825,-0.03252982,0.008620671,-0.10026003,-0.06317285,-0.057514664,-0.10344092,0.015472729,0.056425035,-0.0503156,-0.0060082874,0.05205267,-0.005572366,-0.058308236,0.04537728,-0.008438051,0.073119156,-0.038517576,-0.097005896,0.024938224,-0.12269811,-0.009150038,0.018421246,0.04142801,-0.016503062,-0.05312616,0.049100608,0.0239161,0.0673672,0.0011861873,-0.07446837,0.004423966,-0.25957477,-0.050332006,-0.07047668,-0.03282835,-0.0075457823,0.031769708,0.05048996,0.025812807,-0.0624119,0.043151036,-0.0034547457,0.025710765,0.070939735,0.039523263,-0.1288304,0.08645944,-0.11103523,0.04132514,-0.04313161,0.028644837,-0.0029891173,0.0584926,0.021718271,0.056433827,-0.05598016,-0.010362126,0.010305947,0.06252173,0.048943985,-0.038707744,-0.06258662,0.011806028,0.06853647,-0.06886239,0.03909778,-0.018470386,0.05941742,-0.03259136,-0.015470254,-0.06990715,0.07498979,0.056135308,-0.022287216,0.025146289,-0.064140804,0.058783557,-0.084124185,-0.01893949,0.036892913,-0.0034266603,0.009976931,-0.02047403,-0.021208817,-0.017400278,0.074053034,-0.05372429,-0.10293046,-0.04734022,0.001226098,-0.035823,-0.044419646,0.12494455,-0.113776945,0.05925773,0.107259214,0.038322344,-0.017883059,-0.047549125,0.02770917,-0.01860166,0.054753218,0.064562835,-0.00060877734,0.051566463,-0.04827648,-0.04921912,-0.0016191859,-0.050131638,0.020701148,-0.04456154,-0.12066576,-0.008216614,0.043547977,-0.022054587,0.054116264,0.049013454,-0.023378504,-0.049689807,-0.06404081,0.037669644,0.057195075,-0.0148931425,0.07803461,-0.042014893,0.0011886822,0.039922815,-0.02246584,-0.07576291,-0.06962039,-0.013068557,-0.045248598,0.085260436,0.028656254,0.063371204,0.063717164,-0.028015597,0.058718048,0.046247013,0.0798785,0.03070468,-0.091491416,-0.07885891,0.12643997,0.01293598,0.01198754,-0.061866466,0.053480513,0.010773178,-0.04877053,0.10904874,-0.064947985,-0.010894434,0.07163019,0.0872681,0.068359025,0.030067397,-0.03359206,0.03451905,-0.006320887,-0.13495237,0.007870498,-0.030751878,0.018018384,0.055111527,-0.06535398,0.029560653,-0.05170253,0.025554353,0.015210017,0.026684316,0.01877852,-0.040592104,-0.034599055,-0.014697551,-0.08212563,0.0625402,-0.035936024,-0.045791067,-0.050994735,-0.020254942,-0.0013655035,0.050510745,-0.007309852,-0.056669187,0.039149128,0.04422291,0.069229454,-0.05469846,0.082766585,0.008830387,-0.051860224,-0.0366644,0.012315675,-0.039684016,0.057726238,0.017383363,0.016870176,-0.04967717,-0.09878585,-0.07196271,0.0041694203,-0.08671845,0.08510472,-0.087029755,-0.0019467669,-0.041306853,0.029145818,0.07904918,-0.083241194,0.121869996,0.055404786,-0.04176026,-0.046240307,0.06449766,-0.019451872,-0.0655907,-0.070869125,-0.09876433,0.05332738,-0.0595224,0.016909717,-0.05278096,-0.06531815,-0.002318568,-0.027545668,0.071355976,-0.046209097,-0.11852543,-0.041180614,-0.051368397,0.102534056,-0.004249618,0.054376498,0.01170046,-0.0013091599,0.11635789,-0.24551141,0.0713036,0.11034229,0.043587778,-0.032726537,-0.032782223,-0.016960468,-0.0065423404,0.0940869,-0.029478567,0.013089297,-0.012127163,-0.09470706,-0.035507374,0.06917055,-0.09208769,-0.057084017,0.03400457,0.02685434,0.032657575,0.037100174,-0.07761571,-0.059449296,0.06473173,-0.10382452,0.03856804,-0.02559264,-0.005909174,0.044991016,-0.0027120295,-0.035739943,-0.00063525036,-0.08683783,0.09645663,-0.07578432,0.051632736,-0.069543615,0.012063362,0.0937307,-0.13394552,-0.06798738,0.015805414,-0.081019275,0.095180765,-0.040552266,0.08531876,-0.20886637,-0.1788765,0.04562919,0.092137694,-0.03869323,0.05775622,0.05161591,-0.08227369,-0.0072771385,0.019906985,-0.07194112,0.07642592,-0.009167086,-0.04206719,0.08743705,0.060996506,-0.03857414,0.10640353,0.03228715,-0.0059579955,-0.026501045,0.0040886253,-0.08144967,-0.017653935,0.09015672,-0.03575928,-0.011794346,-0.013365765,-0.09162423,-0.078826584,0.03491168,-0.05271191,-0.01724652,-0.050220825,-0.06094603,-0.072988294,-0.025800811,0.028819945,0.043490816,0.08235733,-0.024953434,0.051651068,-0.06307034,-0.053049974,0.04679404,0.008769699,-0.020846741,-0.01038217,0.058987763,0.042225353,-0.004713707,-0.09645029,-0.06527677,0.052026752,0.0038164689,-0.015182996,0.0034587746,0.10028124,0.015001465,0.12649012,-0.09847406,0.05694716,0.024351187,-0.089725405,0.08506078,-0.07755654,0.021746622,-0.018196113,-0.034007628,0.008095238,0.037861638,0.028285116,-0.04607094,0.035657484,0.06786233,0.018018158,0.038290124,0.06559482,-0.05021828,-0.0002850649,-0.1287649,-0.021100422,0.039994672,0.09279383,-0.034108758,0.14018826,-0.055406734,-0.03573929,0.035124492,-0.009309186,-0.067148186,0.010975326,0.0040696086,-0.034315113,-0.06715746,-0.04916756,0.043456957,-0.03860901,-0.033238955,0.0039174096,-0.04396825,0.05266194,0.07372519,0.03095773,0.06754015,0.10744191,0.019744731,0.029591234,0.062893346,0.016318258,-0.075976536,0.075466916,0.022140216,-0.007278079,-0.08251688,-0.055617485,-0.0279515,0.052142065,-0.04475986,0.0049662697,-0.03523075,-0.021869946,-0.061647024,-0.008105295,-0.07941128,0.04481854,-0.109686,0.009319076,-0.04755736,-0.08293059,0.036837168,0.086986,0.05639344,0.021459287,-0.012826648,-0.04483889,0.020073157,-0.028962392,-0.012969265,-0.030534688,-0.07730154,-0.043301575,0.013155024,-0.05213183,0.04441411,0.04785713,0.04931307,-0.046372086,0.02669423,-0.013194996,0.012501279,-0.06508715,0.01932664,-0.0444471,0.107720405,-0.02124652,0.015801944,0.07959256,0.029833427,-0.096254654,0.011279006,0.06546496,-0.0100746555,-0.07159501,-0.067788765,-0.12536816,0.035941176,-0.021397712,0.017531944,0.07327102,0.02729103,0.06444448,-0.0071752816,0.11313297,0.0008176196,-0.027156008,0.028401414,0.12466692,-0.047446754,-0.07045604,0.021352962,-0.099377625,0.058675323,0.018018425,0.023886863,0.09988991,0.022510007,-0.06451598,0.05588855,0.054201752,-0.14372273,-0.115463205,0.0687176,-0.034551516,0.0444118,-0.0023333654,0.08492678,0.044215184,-0.042592056,-0.008258826,-0.029836638,0.06468723,0.020955827,-0.06913796,0.03428502,-0.03529406,0.02107304,0.08255144,0.075107254,0.04080501,-0.0008365713,0.08348713,-0.02651309,0.055864997,-0.017977085,0.0057986625,0.08771679,-0.07806458,-0.13822192,-0.07604346,0.010428481,-0.11484978,-0.0140612675,-0.020684047,-0.03965092,-0.10867888,-0.04396249,0.017939974,0.0630748,0.0006934334,-0.003744755,0.028750718,0.083493404,0.04748627,-0.0388017,-0.00093708624,0.05096742,0.046854205,-0.09658454,-0.021678297,-0.06918462,-0.040266003,0.07680197,0.010964698,0.028987845,-0.015048985,0.060713038,-0.14972237,0.040791582,-0.10833219,0.04038097,-0.042514697,-0.07256891,-0.016804475,-0.083994396,0.07734106,-0.013728104,0.06257238,-0.0034980434,0.050769124,0.034392875,-0.026136441,0.014549965,0.032137267,-0.09129479,-0.009055125,-0.01959807,0.10181701,-0.051152032,-0.07649139,-0.039899178,-0.01809438,-0.0037983996,-0.06438501,0.09198862,0.04008746,-0.00030912683,-0.03782872,-0.06037679,0.06162193,-0.0067591798,-0.023006758,-0.03861462,0.045289632,-0.08783241,0.07857778,-0.03719557,0.117584944,-0.048858736,0.010255097,0.024213685,-0.03144937,0.12255088,0.067092665,-0.05254555,0.06951102,-0.066659175,0.08836335,-0.003592934,0.048474748,0.06709437,-0.094493456,-0.050475992,-0.11080663,-0.0050513563,0.017339371,-0.054849703,0.046264466,-0.0579684,0.06059851,-0.032919366,0.0063205496,0.007561431,0.050389197,-0.08189585,0.079343714,0.069798626,0.025049493,-0.0049283737,-0.034236938,0.08727466,-0.09590398,0.062588446,-0.09008512,-0.1259839,-0.08995423,0.04277477,0.045864552,0.022488713,0.048409555,-0.04221919,0.035580333,-0.028047604,0.052342936,0.033664647,0.03072934,-0.09145641,-0.07173683,0.06527843,0.053471558,-0.03227476,0.09074303,0.092855655,-0.03737278,0.059217434,-0.09266486,0.07627511,0.07611232,0.010955592,0.018331932,0.032726295,-0.067142926,-0.044709586,0.07924074,-0.115440376,-0.07895707,-1.1040043e-05,-0.085975796,-0.048335552,-0.030375218,0.04925853,0.012715326,-0.052720584,0.0036340624,0.09062201,0.040748518,0.079610646,-0.011410734,0.000869205,0.07682845,-0.085407875,-0.08154574,0.12705044,-0.09550783,0.015377933,-0.02284174,-0.098371774,-0.033066187,-0.05700426,0.07951795,0.040287044,-0.06980753,0.025114033,-0.03527942,-0.13860136,-0.035192654,0.12289902,0.09044523,-0.117975526,-0.01988283,-0.07348194,-0.13474767,-0.054429326,-0.15247482,0.06650134,-0.088924736,0.04698872,-0.081770495,0.08641642,0.0073996857,0.06794039,-0.038305208,0.015478046,-0.034098983,0.04311874,0.02467945,0.0001655019,0.0031482861,0.0054731607,0.037174042,-0.038843382,-0.06611282,-0.030987144,0.00021672045,0.0038825122,0.09755519,0.061382167,-0.04265942,-0.18093996,-0.044531945,-0.061219253,-0.06837799,0.12605403,-0.22925265,0.06817441,-0.051035795,0.049249742,-0.051032443,0.039757498,-0.03932655,-0.060438517,0.0043231477,-0.05222062,0.0054891068,0.044224076,0.000538914,0.0067230207,0.014114176,-0.014218268,0.07016948,0.0020237684,-0.018688953,-0.03858881,-0.0020474873,-0.05189974,-0.18931921,0.08916185,0.011974739,0.026580805,0.16716228,0.032537956,-0.09218629,0.13380666,-0.017727818,-0.17536345,-0.03937115,-0.10149701,-0.03746153,-0.020675104,-0.08827834,-0.0071593947,0.045306128,0.077451654,0.022219338,-0.016056271,-0.02861104,-0.02598447,-0.08776384,-0.032727715,0.033386,-0.050299264,-0.08386659,0.047325842,-0.036755912,0.105453186,0.054566976,-0.029061839,0.101109356,-0.029518338,-0.033887114,-0.12255713,0.09282887,0.08069075,0.04767698,0.014573151,0.10424107,-0.043327168,0.06538326,-0.062253505,-0.06983348,-0.107069455,0.019700756,0.06950062,-0.09458599,-0.051138088,0.059481446,0.03953051,0.0352167,-0.008614139,0.037893757,0.086667955,-0.055993296,0.03722699,-0.0035275668,0.029107185,-0.17188305,0.068238206,0.054981664,-0.05177833,0.008358182,0.05364372,0.055976886,0.058171365,0.039060872,-0.019159537,0.031359084,0.040546037,-0.024675632,-0.019977562,-0.058707476,-0.0027022134,-0.006839664,-0.078054324,0.06450282,0.04715042,-0.06605466,-0.006996726,-0.047172323,-0.037539884,0.048934095,0.034060802,-0.114734545,-0.015175435,0.00030859245,-0.06501368,0.09624713,-0.14784497,-0.07159015,0.04198321,-0.06807735,-0.039051075,-0.017133005,-0.027776916,-0.061698474,0.02538879,-0.0046046264,-0.15623519,-0.07966827,-0.007562272,-0.023010956,0.053245794,-0.031135613,-0.06171812,0.10167929,0.03218366,0.005590908,-0.07489484,-0.16029015,-0.054551393,-0.011510093,0.009660184,-0.041369796,0.035777528,0.013852184,-0.0815843,0.037150044,-0.021386525,0.018906035,0.085213855,-0.11217426,0.027004799,0.06017918,0.030044766,-0.06995596,-0.04433954,0.03456925,-0.009032788,0.064103335,-0.07707472,0.037754145,-0.0028480077,-0.05034996,-0.11600323,-0.030009238,0.004119318,-0.015112995,0.021461558,-0.036623664,0.11699106,0.04453583,-0.03291042,-0.005551419,0.015656987,-0.08952511,-0.047349658,0.08127958,-0.038002837,0.100863315,-0.050297488,0.002769588,-0.039853986,-0.02419892,-0.032396566,0.12568066,-0.10668403,0.07644197,-0.029919552,0.05437106,0.047580343,0.024547337,0.041175187,-0.015477526,-0.017390957,0.047469873,0.028316535,-0.014489431,0.006601159,0.0106019685,-0.044417776,0.0004441236,0.09162453,0.012079315,-0.046891194,-0.1536205,0.056022882,-0.045645524,0.12031342,-0.10365544,0.040386353,0.03390242,0.04092902,-0.034603454,-0.053975046,-0.048890624,0.06593777,-0.080375634,0.11096673,0.087076716,-0.021472648,-0.010831046,0.0067969877,-0.030308684,0.006144416,0.01458252,0.00640981,0.030125862,-0.08828035,-0.002343653,-0.06736084,-0.08572551,-0.082515754,0.11202485,0.004108639,0.010236174,-0.04319818,-0.22518462,0.06889446,-0.044662777,0.032911196,0.005299485,0.1291313,-0.17334408,0.012675725,-0.17821746,-0.014826401,0.08191726,-0.13629653,0.06506842,0.062924884,0.0028273053,-0.032916065,0.014544345,-0.0884582,0.089791514,-0.10924994,0.022976516,0.03025568,0.038676,-0.061090812,0.07471871,0.0009941108,-0.04494763,-0.118583,-0.024062384,-0.10580796,0.005731847,-0.035932943,-0.026386147,-0.0715381,-0.024173073,-0.04433683,0.020423839,-0.0039499523,-0.011505683,-0.0057805385,0.07994878,-0.10625738,-0.024692861,0.0017300299,-0.0017663166,0.06192684,0.06896873,-0.10411716,-0.04365923,0.047022726,-0.040255148,-0.05376749,0.08902386,-0.08650154,0.09357947,-0.04580966,-0.19480588,0.08046151,-0.05250778,-0.017440364,0.054802734,0.017521404,0.0879495,-0.01202995,0.07452988,-0.07970698,-0.05667904,-0.058018196,0.07386995,0.0141584305,-0.12355568,-0.053638216,-0.14066325,-0.058768682,0.10384484,0.08817129,0.00047200415,0.021147665,-0.111505054,0.07295599,0.06864803,0.042433083,0.076189555,-0.03982852,-0.048187684,0.0237229,-0.03893721,-0.028490227,-0.10744275,-0.048453864,-0.08975945,0.08898086,-0.020654354,0.051664174,-0.002576078,0.034452602,-0.053084847,-0.041047413,0.09114948,-0.06543804,0.0147688445,-0.011399298,0.10549361,-0.037433315,-0.077004164,0.020704202,0.04928134,0.010110949,0.089719005,-0.07607028,-0.015819859,-0.060059078,-0.07576359,-0.089309536,0.035743278,-0.04469932,-0.047493,0.017887868,0.09668335,0.020806465,-0.020980103,0.078009084,-0.02000916,-0.0459034,0.068152085,0.04585751,-0.20931181,0.08044831,0.041316688,-0.058587458,0.0011155516,-0.04984672,0.006529787,-0.014222217,9.1837115e-05,0.14907232,-0.07601004,0.05285341,-0.13241608,0.022144966,0.0073225247,0.011678634,-0.019628953,0.11682709,-0.039352678,0.049834754,0.006499101,-0.07703263,-0.020824248,-0.062593535,-0.06827782,0.06339811,0.09039757,-0.037175894,-0.023376232,0.024794178,-0.0961016,-0.047139995,-0.027257254,-0.027591657,0.05021473,0.0094433585,-0.055247504,0.05619715,-0.062369894,0.052150145,-0.09547671,-0.115639485,-0.0021027394,-0.012259781,0.023956615,0.10172207,0.17404157,-0.16439763,0.046720244,-0.07745002,-0.020607617,0.07649747,-0.004476406,-0.16698661,0.081115186,0.07261099,0.015686769,0.063974604,0.050811056,0.004042898,-0.15519771,-0.029920967,0.041033942,0.010125607,0.039829757,-0.019971175,0.031394765,0.08349534,-0.01321657,-0.04091207,0.052082192,-0.027512701,0.030347466,-0.043115806,-0.05981311,0.033089668,0.039589033,-0.09236077,0.0490634,-0.068864025,-0.044918124,-0.07785351,0.046362218,-0.024367172,-0.05237577,0.0033439342,0.05061956,0.0398456,0.017789733,0.07841888,-0.013170578,-0.10137821,-0.029253842,-0.019023158,0.061655365,-0.06713094,0.07035788,-0.04409437,-0.05768207,-0.035707064,0.059721727,-0.14132415,0.045847826,0.010608116,-0.03144303,-0.060629036,-0.09686669,0.112791754,-0.0059766467,0.06938945,0.08830886,-0.08372719,-0.057393085,0.046698052,0.09356227,-0.04570996,0.0529165,0.07735712,0.048482325,0.03606924,0.013645247,-0.02876626,-0.01806792,-0.04629761,0.10110843,0.024403904,0.028324982,-0.00565525,-0.029564884,0.022228952,-0.00947895,0.022871532,-0.05406878,0.009456944,0.095016964,0.028459935,-0.02357345,-0.0855389,-0.034189213,-0.007075735,0.08183573,-0.05454343,-0.022553727,-0.00093633134,0.011602047,0.06422698,-0.051047783,0.13327602,0.03255113,0.10231925,-0.07171588,0.0030479806,-0.18607411,0.079319604,0.1359619,-0.061457694,0.10667706,-0.096624814,-0.093520686,-0.021648554,0.02461589,-0.09227266,0.08777288,-0.11617791,-0.024010077,-0.06277234,-0.050905053,-0.032211922,-0.055966556,-0.014840547,-0.00056027126,-0.060819097,0.014735887,-0.003275016,-0.05491271,-0.10995125,0.0011262121,-0.042007208,0.06886894,-0.019755125,0.06682304,0.037561584,-0.053853273,0.06438676,0.0077925744,0.019272566,-0.0044736643,0.07637364,-0.10850987,0.0058798683,-0.04846331,-0.07446516,0.049584925,-0.06042827,0.08129223,0.027959276,0.04677942,-0.003015901,0.033667166,-0.04097638,-0.03727977,-0.07753255,-0.0132240625,-0.07852739,-0.026038954,0.057345275,-0.060012884,0.09273405,-0.07126582,0.09724742,0.020464823,-0.10352026,0.049878236,-0.12173115,0.11200541,-0.12880114,-0.11014225,0.10499463,-0.07631028,0.03015573,0.023791697,-0.05330729,-0.11609704,0.0069620423,0.01927039,0.034385487,-0.051528256,-0.026241487,-0.034738697,-0.037685663,0.008616839,-0.06826102,-0.027075313,-0.02291588,0.032491088,-0.011191714,-0.06266938,-0.045150165,-0.040694617,0.0013049913,0.030860515,0.027626565,-0.03159482,0.085517064,0.048016015,0.042768195,0.09914489,-0.07493297,0.010463977,-0.14103091,-0.07622343,0.049812462,0.11614387,-0.010419712,-0.00077569566,-0.018801102,-0.03382961,-0.0086829895,-0.11112533,0.0046857134,-0.07290609,0.0031514056,-0.006553247,-0.04905765,0.03980246,0.10365265,0.0018151121,0.06848691,-0.021675326,0.027282193,0.009650034,-0.068495266,0.011739244,-7.998033e-05,0.041785643,-0.08192253,-0.025652919,0.051896665,-0.0077916794,0.018488761,0.028580666,0.0010786535,-0.03953765,0.0863216,-0.008098944,0.044474985,-0.09372068,-0.030949993,-0.043682955,-0.026186883,0.026741706,-0.13407262,0.0030340191,-0.029289749,0.027131025,-0.05968398,-0.094068795,0.07418865,-0.04738233,0.05901982,-0.10301294,0.056080613,-0.048534546,0.014019158,-0.012202147,0.06751514,-0.087264545,0.006498955,-0.12983546,0.033693906,-0.07011418,-0.024431212,-0.04098738,-0.0008345801,0.015830496,0.024191357,0.0058864583,0.014069539,0.0032525207,-0.020865232,-0.08507892,0.039946683,-0.093057424,-0.0658136,0.12373711,-0.06702579,0.03152183,-0.14839502,0.0523326,-0.028059099,-0.12896426,-0.114395775,0.032443117,0.006597756,-0.0012188777,-0.12255292,0.024615252,-0.036159266,0.0052734716,-0.0037798604,0.0010719398,0.022042682,0.070030764,0.031159492,0.014081033,-0.02832656,0.065360755,-0.027344171,0.040289056,0.00013055408,0.0021079546,-0.08373505,-0.027073087,-0.018620988,-0.004556177,-0.06917929,-0.011501087,-0.01886987,0.041713055,-0.035517424,-0.015513146,0.16409971,