float w1[784][32] = {{0.0060675815,0.026817217,0.07946905,0.019982532,0.0107780695,-0.015030123,0.044645257,-0.08448363,-0.059596546,0.07719577,0.06395153,-0.07753889,-0.06663163,0.0672664,0.024537668,-0.06750344,0.036537163,-0.034975834,-0.075550936,0.08237613,-0.07526891,-0.047101427,0.04739564,0.04777042,-0.073538184,0.037561007,0.049073063,0.043492608,-0.07852753,-0.04015305,0.06783008,-0.0052049533}, 
{-0.065117165,0.021528035,-0.07806282,-0.0038217604,-0.042764634,0.027740479,0.04938581,0.0076498017,-0.0407942,-0.019535579,-0.07596634,0.052744783,0.02299752,-0.059318632,-0.057492163,-0.034704663,-0.026468992,-0.00799267,-0.057265848,0.08030536,0.058204107,0.051306866,-0.054461982,-0.07486062,0.03250926,0.049144514,-0.012617007,-0.018254176,-0.025526311,-0.010765374,0.028465718,0.0081864}, 
{-0.043522317,-0.001833871,-0.084801905,-0.006005533,-0.019415796,-0.055237185,0.0042610243,-0.047831513,0.036838226,0.07657301,0.018239848,0.059564777,-0.0790655,-0.012129761,-0.049589857,-0.054246683,-0.061826687,0.04167082,-0.0030288696,-0.05771061,-0.029374301,0.009241506,0.026400134,-0.029342469,-0.070403144,0.024796963,0.007875077,-0.061267477,-0.01996573,-0.062198117,0.06990024,-0.032786015}, 
{0.0015812144,-0.021377154,-0.061760325,0.007852219,0.030876257,0.034267955,-0.021408759,0.058439277,-0.084572256,0.012282029,0.07766094,-0.026733093,0.049143843,0.08125072,-0.033562157,-0.04236252,0.04370006,0.08415035,-0.07297486,0.00066202134,-0.055752892,0.059550814,0.04460644,-0.010929689,0.0310634,0.023033403,-0.073209435,-0.06410924,0.048089214,-0.06838742,-0.00075025856,0.017083682}, 
{-0.049581088,0.015869297,-0.058669217,0.066005014,-0.083882,0.012628578,-0.02315513,-0.068352975,-0.048696242,0.078250326,0.017440721,0.069981255,0.043994196,-0.009267077,-0.0657528,0.038243517,0.07553885,0.057297446,0.039050184,0.076486014,-0.02270437,-0.0015363842,-0.07295288,0.062197752,-0.059959106,0.014436893,-0.04359798,-0.0073544383,0.082499005,0.002007559,-0.0015026927,0.0028507188}, 
{0.010219291,-0.0040731207,0.0046328455,0.04698152,-0.034880135,-0.05692406,-0.01084505,-0.06002011,0.015886366,-0.043168817,-0.04977003,0.057729475,-0.0036621764,-0.041596185,-0.049329624,0.054841466,0.062493615,0.065766044,-0.056556225,0.07286354,0.06177012,0.052742355,-0.046035342,-0.060083814,-0.06793677,-0.018287338,0.0063929483,-0.07599378,-0.012855515,0.0044665337,0.033207938,0.06312252}, 
{-0.071514815,0.06798724,-0.01645697,0.0112876445,0.011831276,-0.021761447,-0.026249547,-0.057583917,0.05049319,0.018945664,-0.051206015,0.009520933,0.013751075,0.005001962,-0.0065749884,0.081283845,-0.042954847,-0.008390844,-0.04602612,-0.041743774,-0.048993867,-0.04427949,0.017560996,-0.046370793,0.053760834,-0.0843192,0.03375922,0.009248272,-0.07458155,-0.013907753,0.07200695,-0.06491327}, 
{-0.07500685,0.06060631,-0.059204265,-0.07982734,-0.07056262,-0.044422437,-0.0064387843,-0.038995273,-0.041823648,-0.08290184,-0.016422763,-0.052086547,-0.04824344,-0.06404,0.021177657,-0.010538831,0.0630798,0.026389875,-0.04509358,0.006316267,0.023723543,0.005301088,-0.07121774,-0.009229422,0.03421145,0.060123496,0.07291647,-0.041243546,0.044767164,0.060476653,0.045826204,0.050964795}, 
{0.015092395,-0.057470758,-0.03246316,0.04092499,-0.0056440383,-0.056946427,0.06954213,-0.027170416,0.07983225,-0.044949856,-0.06256953,0.05741491,0.052610986,-0.027332842,0.031658575,0.028631829,0.049528755,-0.07560004,0.032871738,-0.079062924,-0.051549356,0.0033244342,-0.0070891604,-0.006904565,0.078782044,-0.036564413,-0.066168875,-0.04064874,0.0027827024,-0.05200283,0.06150397,-0.009633116}, 
{0.05383911,-0.031187706,-0.030404098,0.01739125,-0.02139742,-0.011167988,0.036005385,0.005240917,0.05406829,0.07429967,0.07952819,-0.04475253,0.034146518,0.06837716,-0.04455046,-0.0006307885,0.012620263,-0.063599646,-0.006159723,0.06280065,-0.02526908,0.03767427,-0.026231267,-0.008653633,-0.054567862,-0.06348643,-0.0693777,-0.07411233,0.07325304,-0.035256904,0.0041201264,0.024634346}, 
{0.06666266,-0.027548019,0.003773205,0.083323516,-0.019157775,0.059047885,-0.08176293,0.036882445,0.0044570044,0.04078246,0.049477495,0.04111164,0.05397915,0.07471023,-0.044429693,0.046730183,0.056348793,0.020346396,-0.038959555,-0.06350125,0.082046784,-0.080730334,-0.0845386,0.04655146,0.017997317,-0.07233968,0.07000714,-0.047334738,-0.07510946,-0.034745328,0.06159716,-0.074104264}, 
{0.080495335,0.0092127025,0.06877994,-0.004520789,-0.06906386,-0.06958343,-0.046619885,0.06814594,0.050746046,0.08134196,0.042634197,-0.06778698,0.035475492,-0.04137075,-0.08134945,0.06946377,0.07524251,-0.035154458,0.073436774,0.014731228,-0.07014044,0.05202589,0.0335152,-0.08130216,0.045516245,0.015668288,-0.07388968,0.054149322,-0.05371094,0.060774304,0.076352574,0.052835338}, 
{0.04910039,0.06310308,-0.04135321,0.009735523,-0.088832416,-0.071208246,0.045649506,0.069163285,0.14271541,0.08478623,-0.023836873,0.016243229,0.023152975,-0.0864912,0.0036867813,-0.0036185468,-0.14382064,0.035745442,-0.10858656,-0.045367643,-0.015211807,-0.0015057549,-0.027663715,0.0046698228,0.0394349,0.076086655,0.069398224,-0.07120652,0.004031092,0.0033013949,-0.027623104,0.08279342}, 
{0.062725365,-0.028831145,0.069558166,0.026758827,-0.03804088,-0.12985316,-0.015147455,0.02336541,0.12436629,0.016981855,0.009759949,-0.0131795695,0.11704504,0.033658415,-0.022146927,-0.04122689,-0.02627147,0.0034185792,-0.03309696,-0.0598248,-0.10510241,-0.07699681,-0.08150084,0.143488,0.09180743,0.10672118,0.048390858,0.073365994,-0.06427008,-0.0239198,-0.008416003,0.06062349}, 
{-0.007924058,0.04008179,0.0774986,0.037210174,-0.008742252,-0.021591747,0.032121003,-0.0096697,0.019783653,-0.04339955,0.031064196,-0.016237415,-0.05791327,-0.059161987,0.10587747,-0.009162038,-0.028951222,0.06410504,0.004800754,-0.042693667,-0.01304504,0.009036548,-0.039761085,-0.04438654,-0.022048417,0.05967639,-0.045181878,0.0141745135,-0.04754603,-0.0054959757,0.08785552,0.041255973}, 
{0.03369333,-0.062433124,0.057116326,0.0018397148,-0.054767694,-0.007635672,0.06457987,-0.06830656,0.021989688,-0.041854396,0.008404188,0.0626931,-0.021296468,0.008130324,0.065129854,-0.072761,0.04798462,0.018187502,-0.09219514,0.035432804,-0.015952174,-0.038157467,0.09130347,-0.038106363,0.028136559,-0.08416127,-0.019093974,-0.05767614,-0.06528969,-0.027656699,-0.0042518,0.083958946}, 
{-0.06311827,-0.06260005,0.021938615,0.0007699728,-0.037427466,0.030211434,0.043695904,-0.028769359,0.05318088,0.0038835853,0.058630414,0.031397343,-0.04471389,-0.050485846,0.0049654543,-0.05969266,0.04142215,0.015126191,0.018576764,-0.06698693,0.064473204,-0.04138412,-0.032479126,-0.03078064,0.050939955,0.08296753,0.051563703,-0.05372689,-0.028496794,0.03946116,0.031054057,-0.035022426}, 
{-0.031279583,0.022331305,-0.07301017,0.003159821,-0.07302718,-0.060990065,0.0071168393,0.08024969,-0.059541024,0.020583063,-0.081095345,-0.045103617,0.006742321,-0.0146687105,-0.073577106,0.010391369,-0.00011814386,-0.017568827,-0.061597303,0.051595174,-0.054243125,0.06053265,0.068273984,-0.03166301,-0.06556013,-0.054296505,0.058136992,-0.034602463,0.07944403,0.038658842,-0.057855457,0.041475825}, 
{-0.04137416,-0.03838524,0.06801065,0.04382921,0.049981244,-0.05064386,0.05177369,0.03294313,-0.024168793,-0.02624425,-0.04152273,0.027701288,0.04152561,-0.07442376,0.00577347,0.015326895,-0.010963991,-0.019667797,0.060832255,0.08427989,0.025013566,-0.008410737,0.050272085,0.04690475,-0.04893924,-0.022815324,-0.080596425,-0.013653204,-0.08133906,-0.051423784,-0.032118406,-0.068041466}, 
{0.032784395,0.03202498,0.07299917,-0.06291644,-2.2873282e-06,0.017606564,-0.001644291,0.05996982,-0.050405458,0.017736264,-0.079511836,0.07677651,0.05498091,-0.07688472,0.07230318,0.049093224,0.07286657,-0.06174352,0.06703996,-0.08435667,-0.07693636,0.04004457,-0.06532412,-0.06865978,-0.032360304,-0.08432098,-0.033001006,0.04777486,0.01788275,0.07317697,-0.045537874,0.023790963}, 
{-0.048305634,-0.041817393,-0.08569513,0.0050975457,0.055389397,0.052971147,-0.08557067,-0.08226079,0.040104337,0.059834547,-0.010032818,-0.009926915,-0.05692494,-0.046998776,-0.078452215,-0.06695594,-0.067866705,-0.01410386,-0.05437086,-0.075810574,0.011664614,-0.010150187,-0.032789286,-0.07997637,0.08407695,0.06584556,-0.028113242,0.04015086,0.05963359,-0.05946955,-0.07398646,0.07751327}, 
{-0.0104212165,0.020744696,0.060700066,-0.03646174,0.05180534,-0.07652557,-0.059702653,-0.03364463,-0.017383292,-0.039718077,0.05278682,-0.056179747,-0.0153884515,-0.041931573,0.018294431,0.040951125,-0.008438908,0.081373505,-0.05481665,0.024915926,0.027775481,-0.031706374,0.06360718,-0.0036176667,0.078896366,-0.056603022,-0.025591098,-0.08196713,0.05149489,-0.037011754,0.040380917,-0.017862938}, 
{0.045140363,0.035531446,0.04177732,-0.05333195,-0.038220663,0.083315514,-0.020365983,-0.05255439,0.035695843,-0.078268096,0.00013245642,0.042765535,-0.069781005,0.021584563,-0.075892374,-0.011147767,-0.07676996,0.07749116,0.0024572313,-0.03432518,0.021727815,-0.0004036501,-0.0016945228,0.036048256,0.07037536,-0.04168651,-0.037850212,-0.018211983,-0.036755566,-0.04480368,-0.030351516,0.010436222}, 
{-0.044609115,-0.07482312,0.0627406,0.038608633,-0.027283777,0.07269529,-0.083201185,-0.07857331,0.063214086,0.041314565,0.080279864,-0.06773229,0.03056714,0.04480613,0.08047981,-0.076883145,0.08481636,0.040201955,0.017401122,0.07505197,-0.04282515,0.037260458,-0.009919189,0.07370881,-0.00046765804,-0.017515525,0.057152517,0.051288,-0.04021982,-0.05454944,0.0063885525,0.07007327}, 
{-0.04832894,-0.026231166,-0.0019358397,0.045517407,-0.056530423,0.04187397,-0.05824083,-0.04589207,0.024771057,-0.048330083,-0.049658388,-0.046241913,-0.07636709,-0.0042809397,0.056519307,-0.00516323,0.08314883,0.068172045,0.0049172267,-0.038468365,0.06579406,-0.016951472,0.00094939023,-0.07964279,-0.0617251,0.06717274,0.080168225,-0.013423122,0.036066435,-0.01685489,-0.04216106,-0.0809486}, 
{0.045928277,-0.023845736,0.058436148,0.056333818,-0.0031212792,-0.011441715,-0.07232545,-0.031298492,0.028468788,0.062346138,-0.04051397,-0.08399783,0.029890291,0.04675933,0.034252338,-0.011276379,-0.06477225,-0.052658904,0.06446559,-0.042431843,-0.07404733,0.012872621,0.060401745,0.03727264,0.06819344,-0.064796105,0.08318988,0.05519376,-0.06218215,0.059406586,-0.06491557,0.06156639}, 
{-0.08261895,0.032985754,0.004725173,0.08007688,-0.07784514,-0.05209084,-0.031078368,0.07487152,-0.029806063,0.06376431,0.0029593632,-0.076646686,0.008560918,-0.07080763,0.07638296,0.029855415,0.061805464,0.056863137,-0.06198926,-0.08125821,0.045177914,-0.03323409,0.0849084,-0.06298463,-0.016011633,-0.022473723,-0.0072854236,-0.0106196925,-0.067444555,0.030789107,-0.040065117,0.05701635}, 
{-0.03954179,0.058983915,0.03304688,-0.03634707,-0.061151907,-0.0008163154,0.033978626,0.018475994,-0.08513143,0.059963785,0.06514902,0.026535891,0.049977787,0.07832324,0.07583196,0.023285396,-0.026491627,0.05386787,0.01685252,-0.07526367,-0.07893754,0.011468902,-0.010526508,-0.07849707,0.06749626,0.0252055,-0.055534586,0.01743614,0.029231437,0.025209524,0.08293719,-0.024895258}, 
{0.01523602,0.07333482,0.027077518,0.029478729,-0.07768687,0.020629123,-0.049300898,-0.071139805,0.05571256,-0.059264578,-0.07179159,-0.020642675,-0.068277,0.021789417,-0.050000764,-0.032454163,0.05654832,0.08235908,-0.015026584,-0.036814936,-0.04932304,-0.02972854,-0.059420317,0.066745766,-0.083079256,-0.05246994,-0.003133364,-0.03373066,0.071816824,0.008338913,-0.06157367,0.04884828}, 
{-0.006480433,-0.013573006,-0.016896412,0.054306097,-0.062030435,-0.031955224,0.057832457,0.039681204,-0.009579226,0.07780752,0.033853285,0.028697617,-0.084971264,0.038389735,0.05415281,-0.02372178,0.06825148,0.043526433,0.027846262,-0.081646934,0.05020372,0.05283376,-0.07451339,-0.0024472773,-0.041265152,0.06671839,0.05144947,0.0066159964,0.065220065,0.036478646,0.05838593,-0.019236602}, 
{-0.06547445,0.018968113,-0.028760895,-0.023426544,-0.073148556,0.028035142,-0.025537454,0.033247627,-0.041035444,0.08073526,-0.042048145,-0.030536432,0.003199257,0.002346918,-0.05244833,-0.032506194,-0.080030166,-0.021822147,-0.0683938,0.02642794,-0.05115558,0.06727747,0.04240609,-0.039234877,-0.06273028,-0.07139358,-0.0031494126,0.0058202073,-0.0119886175,0.0074115023,-0.037815373,-0.050655838}, 
{-0.043127153,0.050031386,-0.00056135654,0.0077145025,-0.04007393,-0.040774286,-0.048512038,-0.045509763,-0.08339007,0.009720594,0.008635007,0.018361837,-0.043793492,-0.05931499,-0.0026854128,0.0713427,-0.033130214,-0.06588795,-0.013774477,-0.036644556,0.018606797,-0.054758873,-0.0048945323,-0.03402336,0.06461886,-0.07464021,0.04256267,0.08086444,-0.061778113,-0.0681417,0.040624313,-0.02269926}, 
{0.013108999,0.041024104,0.07914231,-0.074465334,0.076184124,0.06508445,0.06083443,-0.034475297,0.033846445,-0.018614039,0.0098023685,0.0071713272,-0.0010716431,0.052187435,0.05765072,-0.012963013,-0.058612198,-0.027925983,-0.028565863,-0.0054211747,-0.054675397,0.018132128,0.07714486,-0.039288618,0.00641347,-0.07686712,0.06703979,0.0526646,0.05549001,-0.035995007,-0.044629525,-0.06604875}, 
{-0.028364561,0.09095492,0.08637313,-0.06402103,-0.11150692,-0.13097861,-0.057438273,-0.07151867,0.12363122,-0.07213998,-0.034483973,-0.027811695,-0.057734016,0.031530418,0.023486998,0.06996138,-0.026146464,0.019564113,0.05705201,-0.01590244,0.005220881,-0.052058354,0.07107402,0.031919826,-0.028098542,-0.05237449,-0.06667045,0.07287518,0.0122901015,0.054052226,0.0062489556,0.0075581726}, 
{0.04595688,0.12155057,-0.05802363,-0.11321507,-0.1277192,-0.19507518,-0.07905693,0.062245585,0.17195515,-0.053024754,-0.15440357,0.14754923,0.17840299,-0.11607314,0.14803357,0.16754706,-0.13922624,0.00689175,-0.058108903,-0.12734541,-0.075922124,0.085515775,-0.17704172,0.067326464,0.16574238,0.031748384,0.14464109,0.015073627,-0.022214798,0.0767812,0.13900764,0.0595533}, 
{-0.07661931,0.05315117,-0.11005841,-0.18697175,-0.121999055,-0.2031773,0.044127904,0.059812304,0.08906268,0.019633386,-0.07529473,0.101050735,0.08074055,-0.014869859,0.1854231,0.19261345,-0.061728824,-0.09533493,-0.03910782,-0.10627949,-0.020965183,-0.057693806,-0.18073936,0.13555065,0.18636355,0.06579534,0.117550574,0.0014920023,0.06073286,0.059341006,0.16290444,0.096177645}, 
{0.12802064,-0.0046873363,-0.16199112,-0.06976769,-0.090397865,-0.15930222,-0.033219136,-0.090623006,0.18218553,-0.06136164,-0.11726649,0.04991865,0.15521851,-0.082910754,0.17928292,0.13165455,-0.15294115,-0.0015080345,-0.019701311,-0.0652249,-0.03264156,0.029975548,-0.096902505,0.05991847,0.22470284,0.16156997,0.17355712,0.0180399,0.0933303,0.108452536,0.05460739,0.10889687}, 
{0.095782936,-0.04837514,-0.05164301,-0.06157251,-0.07068065,-0.18684055,-0.025912859,0.0024669669,0.20567542,0.00067716587,-0.19868277,0.1438622,0.12606765,-0.13987204,0.15115514,0.024148066,-0.0832717,-0.067300834,-0.08713084,-0.10684499,-0.048955068,-0.085848846,-0.01245775,0.09150995,0.072478175,0.06670741,0.0873579,-0.005510561,0.07157039,0.05066795,0.18687086,0.07392788}, 
{0.03882364,-0.10093642,0.12633607,-0.09066385,-0.1017077,-0.12919201,-0.11549803,-0.113614075,0.061836503,0.03229579,-0.019133635,0.06253464,0.09567505,-0.09065299,0.069526605,0.088833325,-0.14805658,-0.062064115,0.0082004815,-0.00884033,0.06370337,-0.05534839,-0.0031069566,0.10988795,0.14326619,0.20147257,0.0887318,-0.0047034016,0.028101757,0.051699106,0.11788748,-0.017378142}, 
{0.07471804,-0.00840806,0.01886754,-0.058433417,0.06945218,-0.026376585,-0.10771346,0.038961645,0.1841952,0.019965844,-0.18840204,0.19656049,-0.017897818,-0.01953436,-0.010068191,0.05593958,-0.1711109,0.033113115,-0.06336542,-0.058360934,0.029242903,0.0513392,-0.09036619,-0.0022326664,0.09053119,0.025613124,0.051450927,-0.02795587,0.059509836,0.07320067,0.09368891,0.12299442}, 
{-0.1468728,-0.15286693,0.11351783,-0.17569475,-0.03828785,-0.23103914,-0.0435653,-0.029662492,0.20820342,-0.09026817,-0.069275506,0.2240447,0.08400716,-0.04505871,0.011297824,0.112001665,-0.0996195,0.15067169,0.0072089806,-0.104279615,-0.12792094,0.0064647975,-0.107035585,0.12362398,0.19450998,0.056660283,0.16335835,0.0036198222,-0.03529592,0.1861323,0.11611509,0.07905653}, 
{-0.13418144,-0.054402124,0.1234498,-0.10848035,0.004249725,-0.20071794,-0.028818864,0.04943327,0.29010692,-0.028253777,-0.1076679,0.24090417,0.1752263,-0.026059134,0.059251226,0.10570135,-0.2517516,0.13624449,-0.14558811,-0.115280606,0.011764359,-0.024121866,-0.09707369,0.09007504,0.13008396,0.1603146,0.15241595,0.0127674015,0.097297534,0.055168975,0.19353585,0.0008035735}, 
{0.018306933,0.0519476,-0.06066595,-0.11679275,0.0035186505,-0.08778897,-0.09655754,0.08066455,0.12821403,0.017588742,-0.05270081,0.08024932,0.13625325,-0.12280206,0.16764656,-0.040782157,-0.15993918,0.10347033,-0.1665786,0.10080406,0.15402107,0.004525163,-0.025280911,0.046298232,0.10441093,0.047796246,0.012166817,0.08385527,-0.06623194,0.12631702,0.022722466,-0.04770737}, 
{-0.100755185,0.10580479,0.07441205,-0.21698004,0.1013614,-0.10822163,-0.023753949,0.05055045,0.064553544,-0.0070831417,-0.13086079,0.2467108,0.12476296,0.0036790918,0.062251806,0.069461204,-0.07678424,0.12770128,-0.123633765,0.06577296,0.18865621,-0.039249253,-0.10210742,-0.11623694,-0.008943389,0.011520959,0.09592349,0.107422024,0.045341555,0.03634834,-0.024169091,0.006488052}, 
{-0.038747385,0.10459946,0.10495342,-0.20239602,0.08017166,-0.095403366,-0.01571521,0.077071294,0.14592765,0.021337563,-0.17191866,0.14586918,0.26931536,-0.03526397,0.15201434,-0.04400829,0.16841349,0.26806635,-0.04074858,0.03708804,0.13548853,-0.08405863,-0.14963841,-0.06523355,0.043452844,0.094428435,0.050500173,-0.21464023,-0.020783922,0.06984029,0.22531599,0.07427085}, 
{0.054131687,0.06117052,0.16105878,-0.19723791,0.09097276,-0.19646597,-0.19118398,0.071950175,0.26774168,-0.04854579,-0.1084202,0.10632149,0.20690277,-0.08425565,0.13593692,-0.0058829635,-0.013348985,0.13803037,0.05542613,-0.08326221,0.059633415,-0.00052524346,-0.103728645,-0.057987496,0.10383761,0.17196645,0.06616016,-0.19719385,0.0032506513,0.1773222,0.064350896,0.10711447}, 
{-0.04357403,-0.14666027,0.08773305,-0.089855574,-0.100410834,-0.24326254,0.01225631,-0.058922738,0.14981692,-0.04333073,-0.10734459,0.18000537,0.1628397,-0.06761061,0.2260858,0.09378759,-0.121387675,0.027238317,0.006395072,-0.15581524,0.02239429,0.068744585,-0.06172078,0.21213701,0.12200763,0.2545329,0.091073975,-0.10186865,-0.04853374,0.116218194,0.1305871,0.14357114}, 
{0.04288781,-0.16240913,0.1837496,-0.19054407,-0.18261799,-0.09581657,-0.021213517,-0.09063461,0.13407058,0.00788361,-0.10792724,0.19966763,0.22403234,-0.018274255,0.09248701,0.23099837,-0.1849162,0.027935056,-0.0031750125,-0.14514816,0.04114121,0.07048454,-0.07457461,0.15785654,0.017762253,0.23329176,0.2061355,-0.07717391,-0.053861696,0.18695498,0.19899309,0.17253268}, 
{0.04420242,-0.054853685,0.26594737,-0.2922639,-0.24905813,-0.10054067,-0.07067383,-0.057639144,0.2653134,-0.054456707,-0.18889105,0.20923926,0.10531613,-0.11351248,0.12766628,0.18667543,-0.20123897,0.083670266,-0.08506265,-0.081790365,-0.026544316,0.16469452,-0.13151532,0.099364184,0.013076667,0.2146569,0.15557025,-0.060746063,-0.10752861,0.265322,0.13107812,0.03455601}, 
{-0.007429793,0.0072505763,0.109077394,-0.02031376,-0.080957994,-0.04887508,-0.076805994,0.061143827,0.049911086,-0.11869942,-0.1516553,0.037876423,0.019061321,-0.033850707,0.032562446,0.051638864,-0.050188266,0.0052599628,-0.060494024,-0.06741969,0.059845883,0.039998952,-0.05166419,0.15728982,-0.018114522,0.16303289,0.06604191,-0.011096239,-0.07844596,0.065005444,0.10896148,0.09812274}, 
{0.03296216,0.11274547,0.015706332,-0.14888346,-0.14367115,-0.056555286,0.005386442,0.0111687165,0.07795551,-0.06563765,-0.14933802,0.15659378,0.052643944,0.008331219,0.056697037,0.19961333,-0.17376074,0.13802858,-0.00541275,-0.065253265,0.010267244,0.1289713,-0.15901536,0.13311134,0.09517258,0.09934436,0.09059438,-0.03757941,-0.06509217,0.04820473,0.107929245,0.10136968}, 
{0.004033357,0.076011166,0.047664553,-0.08100313,-0.15423825,-0.1643664,0.008320533,-0.06284833,0.14455341,0.02742123,-0.054796703,0.13049291,0.07513095,0.028106038,0.15022454,0.152842,-0.03099469,0.12376072,-0.096961446,-0.046312556,0.047381602,-0.08348475,-0.15576987,0.07301881,0.037180834,0.019129992,0.1038913,-0.047977995,0.005943581,0.1912117,0.094512284,0.06951412}, 
{-0.084208734,0.030449525,0.020930387,0.0550775,0.023993976,0.055444904,0.0033821687,0.0057999864,-0.047074523,0.03808777,-0.084090486,0.07002952,-0.061634593,-0.07169826,-0.00032381713,0.055942677,-0.051456884,-0.029317059,0.052524783,-0.08229144,0.021678299,0.03926403,-0.040643975,0.059765376,-0.02019877,-0.06096247,0.045352153,0.07812259,0.031491973,-0.01658272,-0.039408244,0.0825113}, 
{-0.0294469,-0.053238396,-0.07636893,0.045770995,-0.01759947,0.0737,-0.0715435,0.04302319,0.05955071,-0.00822062,0.05228404,-0.03683031,0.08130001,-0.0019588396,0.012207143,-0.055046543,-0.029270403,-0.07430414,-0.035258763,-0.044725094,0.054672502,-0.04063251,0.04028345,-0.033194408,-0.04397033,0.045556985,-0.0032500625,-0.0671575,0.03774055,-0.037580695,0.043857522,-0.015328281}, 
{-0.008124083,-0.027634252,-0.05691801,-0.0741889,-0.0062094033,0.08440862,-0.013457023,-0.0022495165,0.033385582,-0.010339871,0.061787315,-0.041987896,-0.008629426,0.049386255,0.00021532178,-0.08477087,0.061492927,0.06816552,0.033037134,-0.046369217,0.0755684,-0.06768903,-0.030679215,0.07564201,-0.07203616,0.052755423,0.042325534,0.05468736,-0.04075591,0.027953938,0.020931475,-0.050044842}, 
{-0.056389485,-0.022264458,-0.08413088,-0.06753508,0.039380305,0.07862996,-0.07004479,0.06311452,0.06295609,0.075563855,0.0034235269,0.027303055,-0.07532049,0.016249724,0.035878144,-0.013339244,0.064371,-0.014299035,-0.021578938,-0.031973377,-0.06418239,0.07326699,-0.061540365,-0.028864507,0.04048664,0.049387835,0.08039542,0.035414524,-0.018184297,-0.045648865,0.074489005,0.03454119}, 
{-0.06034945,0.06152419,-0.081592575,-0.010278009,-0.0637659,-0.06321324,0.07020856,-0.0026248172,-0.054528058,-0.05087071,0.028323978,-0.034610987,-0.07345499,0.001510255,-0.054601043,0.0008780211,0.0509248,0.084924184,-0.027627856,0.037093736,-0.04886092,0.013604894,0.08240176,0.043157928,0.057621308,-0.035340764,-0.04322637,-0.079547144,0.051015027,0.029468082,-0.0029313117,0.05218246}, 
{0.024896055,-0.034048013,0.034228705,-0.004473254,0.058285795,0.027089126,-0.049029194,0.07424889,-0.027621374,-0.06632965,0.03671214,0.040102758,0.047915332,-0.058240645,-0.051161937,0.07397563,-0.08431026,-0.069135435,0.083686955,0.085541435,-0.022335455,0.053273566,-0.053722516,-0.037871026,-0.06698202,-0.021645896,0.035931826,-0.004519321,0.019181587,-0.0019945204,-0.078533724,-0.0105097}, 
{-0.036439165,0.0201259,-0.019133385,-0.08601747,-0.015149228,-0.06967756,-0.038787458,-0.016931824,0.02302841,0.017715454,-0.09764908,0.018074898,0.0881557,-0.003529115,0.02952839,-0.02682272,-0.001126,-0.017919734,0.034300044,-0.08020242,0.010494024,0.02427081,0.010138126,-0.05842672,0.0017654453,-0.044120055,0.058173954,0.0855853,0.06645093,0.087480634,0.04717805,0.05730865}, 
{0.06024342,0.13709824,0.009913936,-0.13050598,0.017956397,-0.016651878,0.114653565,0.027785432,0.13253984,0.02398556,-0.12936762,0.037451517,0.04825694,-0.04419727,0.038431905,0.010967924,-0.04351219,0.07949145,-0.1242768,0.05670289,0.04593008,0.09249065,-0.090362474,-0.11381481,0.044328924,0.07677711,0.058129475,-0.023550868,0.12363568,0.03851908,0.06405661,0.005147084}, 
{0.012184078,-0.050114445,0.072720796,-0.21531713,-0.08519617,-0.22532474,0.037891723,0.029971251,0.03455953,0.06755085,-0.17131685,0.14893034,0.051805235,-0.10311283,0.16418563,0.106815025,-0.2032466,0.20740165,-0.06510452,-0.16911419,0.04635775,0.05485173,-0.10230898,0.118445605,0.042485356,0.07555564,0.19315189,0.056553565,0.0420115,0.13364214,0.09406431,0.24544634}, 
{-0.117043555,-0.14894728,0.129335,-0.17551331,-0.14040719,-0.13753471,0.0041755848,0.035543535,0.08540214,0.081833504,-0.04433747,0.05371959,0.05684018,-0.062660396,0.07338164,0.08694701,-0.14870106,-0.013496801,0.029180303,-0.024258018,-0.1046657,-0.024280665,0.034691423,0.0118574435,0.15290675,0.042197835,0.10022682,-0.04716624,-0.08321408,0.024782013,0.09435406,0.00925186}, 
{-0.093078144,0.0025218104,-0.037890915,-0.1626823,-0.0057636243,-0.22811788,-0.033042457,0.00080931623,0.24473749,-0.016666844,-0.06242454,0.09526225,0.1087125,-0.077306055,0.12607259,0.030093903,-0.09182833,-0.11549767,-0.058812037,-0.1925029,-0.06557472,-0.02762387,0.07216531,0.13405329,0.07424504,0.13294353,0.11188295,-0.06134332,-0.030306544,0.1098015,0.018467756,0.02142682}, 
{-0.084234245,-0.047162317,-0.019360306,-0.1659491,-0.109594,-0.16035411,0.021462796,-0.10236043,0.15848155,-0.0032222106,-0.078615956,0.16337687,0.116128415,-0.08444761,0.25654787,0.08669596,-0.17857885,0.035293423,-0.16043907,-0.118798,-0.1313152,0.004514595,0.004584701,0.17034324,0.1570302,0.122416206,0.07121475,-0.044545628,-0.023625167,0.18148123,0.09855928,0.05677072}, 
{0.030835602,0.07908411,-0.1032633,-0.24566773,-0.176264,-0.18989953,-0.12515031,-0.007815586,0.1502963,0.015170134,-0.10917451,0.112923644,0.1782388,-0.22733772,0.24230574,0.08584911,-0.21043885,0.044065844,-0.10322505,-0.18206702,-0.057249773,-0.019587515,-0.12970918,0.15670668,0.051547453,0.2233154,0.08297299,-0.108383246,-0.0840263,0.032316327,0.21585874,0.04031154}, 
{0.065506324,0.10642183,-0.028143305,-0.20312598,-0.15984611,-0.21415208,-0.0025799156,0.0032696344,-0.09409509,-0.02106123,-0.14334229,0.24118109,0.2623877,-0.070197865,0.3007763,0.013288994,0.009600853,-0.051407546,-0.009334582,-0.16324773,0.07968861,-0.15827598,-0.11769313,0.104183875,0.08535808,0.08956818,0.10655204,-0.10780542,0.009883415,0.01221679,0.24486098,0.019398328}, 
{-0.0824265,0.04868145,0.15164556,-0.3424691,-0.15294221,-0.25438052,-0.13408086,-0.20367622,0.102361836,-0.14175983,-0.21920879,0.27839082,0.18723944,-0.040672533,0.33057573,0.0394272,-0.09317505,0.04547657,-0.06493739,-0.1607627,0.053661514,-0.082796276,-0.042999197,0.11475417,0.1568981,0.1566848,0.21583286,-0.19199361,0.011973946,0.112722926,0.31606176,-0.0067685633}, 
{-0.19253176,0.015448941,0.18403584,-0.14100766,-0.2299829,-0.26319674,-0.112808995,-0.13406484,0.1833628,-0.062053304,-0.26391235,0.27622122,0.14809039,-0.19754946,0.35031322,-0.013225983,-0.0903551,-0.038451992,0.022688089,-0.059576485,0.07675573,-0.07757614,0.012824195,0.11026027,0.10932751,0.16445068,0.057506595,-0.20336518,-0.13489279,0.11915572,0.25334775,0.01201872}, 
{-0.16086741,0.111324534,-0.053017315,-0.25390068,-0.15085547,-0.12195621,-0.06508949,-0.050983865,0.022044763,-0.13241935,-0.21250796,0.32070076,0.07085452,-0.22362149,0.30553177,-0.014385912,-0.100518465,-0.062117882,0.022863887,-0.03787291,0.13063656,-0.026739363,-0.037672453,0.042880848,0.18424006,0.25972328,0.07766163,-0.1475022,-0.12359141,0.071236365,0.22019723,-0.074077964}, 
{-0.16078934,0.117470995,0.03712206,-0.40733808,-0.08429036,-0.16802977,0.02991142,0.062169198,-0.008333924,0.031657953,-0.06542999,0.25465655,0.107264705,-0.2549075,0.27204067,0.039836526,-0.054653045,-0.11402327,-0.020982562,0.03571753,0.2641215,-0.04400751,-0.02286452,0.07081503,0.15852027,0.16768403,0.1093772,0.059864882,-0.14210945,0.0833861,0.091950096,-0.115803584}, 
{-0.28059283,0.0050913603,0.20137508,-0.30103076,-0.13019998,-0.18475392,-0.106365465,-0.008962278,0.030974962,-0.095059246,0.0091576325,0.26683974,0.15130016,-0.20850028,0.34187472,0.043139555,-0.19553846,-0.0279055,0.1222155,0.00095579936,0.08320911,-0.05988026,0.017113987,0.036624745,0.11939906,0.08994573,0.12055423,0.01763902,-0.2646965,0.06033295,-0.0119325565,-0.12336234}, 
{-0.23890913,0.11826543,0.33972988,-0.35401976,-0.22819506,-0.20792797,-0.047363006,0.08836419,0.1410578,0.02614022,0.05945721,0.24843776,-0.041708812,-0.24645853,0.07909754,0.028181974,-0.04728857,-0.07873031,0.016925562,0.15816352,0.11718032,-0.17496732,0.1108616,0.047664702,0.17171589,0.1120831,0.05946155,0.21209763,-0.43226218,0.057614062,0.015697945,-0.13714604}, 
{-0.061342727,-0.026475621,0.17527176,-0.14142312,-0.14933535,-0.20403454,0.065233976,0.20000724,0.14996688,0.014810155,0.06463234,0.022944184,0.1058211,-0.07299402,0.13839844,0.008394105,-0.13906358,-0.016093202,-0.113220915,0.23359843,0.2046036,-0.04654126,0.10545327,0.08372989,-0.01922739,0.12685835,0.052854523,0.122472204,-0.17772868,0.19465934,-0.01101276,-0.12015118}, 
{0.05734439,-0.02078705,0.126316,-0.07598925,-0.16917053,-0.14066316,-0.04960587,0.00838244,0.19527468,-0.121150196,-0.01828399,0.06230676,0.1272328,-0.091146395,0.06267389,-0.021307705,-0.046024825,-0.011657485,-0.111147806,0.0388978,-0.0105826305,0.036121193,0.21730556,0.046491884,-0.09209695,0.08876478,0.12003412,-0.093733385,-0.26228783,0.15784524,0.07900933,-0.12506239}, 
{0.10347411,-0.045319505,0.030251622,-0.09570852,-0.108158536,-0.028482812,-0.025526244,0.018541463,0.16328421,-0.08907098,-0.008692241,0.028641755,0.2664448,-0.017028263,0.10113173,0.040806133,-0.18227507,-0.022009548,-0.07433469,-0.08239719,-0.0907883,0.065657325,0.09330033,0.055173185,-0.026537942,0.11795135,0.10770285,-0.06539046,-0.11188319,0.14917424,0.041794617,-0.038117357}, 
{0.095961615,-0.05510817,0.32602203,-0.03632313,-0.1395097,-0.19862017,0.06596621,-0.05833576,0.115331255,-0.026710514,-0.14073344,0.01618831,0.101165526,-0.017416157,0.08659836,0.038674094,-0.07815437,0.026979657,-0.09557097,-0.07963483,-0.029015524,0.1162667,0.20643848,0.16175352,0.12074529,0.07870646,0.16256404,-0.039102726,-0.2049792,0.21421361,0.084259726,-0.02802442}, 
{-0.00090715307,-0.09106432,0.26758835,0.0070876624,-0.12669052,-0.069392554,0.20599897,-0.061197598,0.10904851,-0.13193221,-0.070861794,0.037259936,0.17604175,-0.13221827,0.20974247,0.05901758,-0.16213004,0.04805,-0.006949906,-0.23302794,-0.04217883,0.025244474,0.04410209,0.09599363,-0.09119738,0.065007046,0.14492893,-0.09833672,-0.122982115,0.102012284,0.10713776,0.083828636}, 
{-0.0122830225,-0.121061064,0.15253979,-0.056420397,-0.20690666,-0.091741875,0.14561471,0.0046121343,0.08051542,0.025690224,-0.16550471,0.15815933,0.08093404,-0.049041808,0.0999123,0.06135738,-0.10637226,0.17110017,0.058489073,-0.1389162,-0.13035895,-0.052892406,0.028273309,0.117762655,-0.011965961,0.075037755,0.1451399,-0.1761536,-0.1590402,0.09825108,0.12689146,0.04501276}, 
{0.022134691,-0.05242869,0.14664628,-0.024372734,-0.23912986,-0.117252134,0.08602446,-0.018765572,0.20708393,-0.019751457,-0.069098465,0.1642554,0.13652937,-0.10415159,0.1843024,0.17606196,-0.12338275,0.24822676,0.03298515,-0.11263246,-0.15046959,0.010721322,0.026344277,0.067745164,0.0296349,0.1189367,0.07776971,-0.036578637,3.4431752e-05,0.1194469,0.102158114,0.019827144}, 
{0.11434007,-0.075495884,0.10891209,-0.09058571,-0.12191947,-0.0896515,-0.037337035,-0.028733436,0.12260093,-0.08444508,-0.29034057,0.006243876,0.14246652,-0.15240858,0.18756367,0.031717826,-0.13114159,0.14057359,-0.054952327,-0.029710641,-0.07870695,0.017221604,-0.0047040503,0.080715,-0.06346256,0.021761434,0.072001465,-0.07163064,-0.013769732,0.06795903,0.27327377,0.030993579}, 
{0.03555223,0.11669632,0.015708106,-0.1619955,0.11229853,0.10130981,-0.06350695,0.09738571,0.08299893,-0.042411115,-0.09255184,0.23372054,0.03256905,0.011464934,0.06360906,-0.08193571,0.1200267,0.08888845,0.026665516,0.014984198,0.028159523,-0.14973098,-0.18105012,-0.063443184,-0.03975972,-0.060723644,-0.12830506,-0.035800993,-0.044998735,-0.036768984,0.08212405,-0.056783527}, 
{0.07159175,0.16111507,0.08647089,-0.039453898,0.053214572,0.13737272,-0.06108852,0.008653979,0.11195748,0.098492816,-0.14867555,0.14724718,-0.051410243,0.026144328,0.13405856,-0.02936844,0.05034886,-0.05245667,0.0023296846,0.12386627,0.06388061,-0.17356023,-0.14735584,-0.14588837,0.000409435,-0.051410194,-0.088583745,0.05626449,0.025388537,-0.10793744,0.13312553,0.0044321856}, 
{0.08428303,-0.073529206,0.04229591,0.010399342,-0.036269117,-0.07988356,0.022673443,0.010930486,-0.01676809,0.07433886,-0.06616287,0.047492303,0.03522045,0.063309275,-0.05610942,-0.02851687,0.041903622,0.012207165,-0.057686098,0.059822403,0.04958611,-0.049351968,0.006040141,-0.07059366,-0.027169924,0.014596745,-0.01385963,-0.06759144,-0.05518487,-0.008102618,0.02122198,-0.045247503}, 
{0.0753127,0.035003312,0.058927752,0.0201495,-0.024255395,0.006420262,-0.07121592,-0.03194731,0.0326097,0.00946492,0.05227334,-0.031690795,0.06090655,0.028728493,-0.052916236,-0.07282846,0.031467505,0.027303077,0.051149122,0.06064666,-0.04338289,-0.083795965,-0.08116228,-0.077078365,-0.012059189,0.007843077,-0.036711775,-0.008456588,-0.06861967,0.035118513,0.07049089,0.042193137}, 
{0.037696168,-0.057549283,0.041855358,0.05548971,-0.009196915,0.05205279,0.07513697,0.06381176,0.036845624,0.02779983,-0.017877616,0.015812747,0.061567478,-0.0093329325,0.012222417,0.05364161,-0.04467838,0.050496392,-0.044358425,0.040279724,0.07327118,0.06378447,0.008806229,-0.04718202,-0.057843782,-0.002020806,0.006220974,0.039203703,-0.079408616,0.008089982,0.08541795,0.035131454}, 
{-0.021475673,-0.063137956,-0.0355919,0.050298296,0.015594795,-0.046702377,0.049821965,-0.034528047,-0.010606296,0.031057656,-0.035853136,-0.03402708,0.044302918,-0.0834807,-0.0624265,0.051213436,0.046844073,-0.006866418,-0.04962543,0.00603313,0.08194431,-0.041653104,-0.047636043,-0.052466318,0.064137585,0.057347216,-0.062551044,-0.061084338,-0.031278294,-0.04049308,0.016930781,-0.043137662}, 
{0.060035415,-0.045537386,0.04448846,-0.036938634,-0.08781021,0.018818572,-0.025280643,0.08159559,0.05452275,-0.073829755,-0.04231834,0.06151215,-0.020727664,0.022163741,-0.024301447,0.0725779,-0.013044144,-0.034668252,-0.04921676,0.04972353,-0.06825555,0.041659657,0.056778397,-0.009261942,0.094955534,0.0043028346,0.074075475,-0.030731123,0.07206207,-0.031418193,0.025769869,0.09273994}, 
{-0.016605325,0.06739372,0.038437624,-0.16213031,0.08579673,-0.16847725,0.028109966,0.08150784,0.036301367,0.046731837,-0.1270904,0.14248805,0.085972354,-0.029347993,0.03204454,0.1902592,-0.06209541,0.07691578,-0.06671165,0.061326567,0.07701936,0.092066534,-0.15009427,0.044096246,0.058396313,0.14786984,0.19941036,0.08088764,0.011877856,0.06323637,0.17048426,0.0942853}, 
{-0.03424227,0.017148055,0.03375196,-0.023934022,-0.03939814,-0.17093527,-0.03095402,-0.056919385,0.02749561,-0.048440993,-0.1428093,0.07235488,0.049111515,-0.09920098,0.0209633,-0.074104644,-0.072597764,0.0835251,-0.10602821,-0.091245286,-0.012338444,0.03249469,0.00829023,0.09513411,0.08453314,0.14748259,0.05946621,0.061196562,-0.0014735581,0.055842746,0.05036425,0.1348685}, 
{-0.014326433,0.03513979,-0.017273659,0.029780226,-0.16273476,0.017868437,0.06858657,-0.12098421,-0.054947477,0.07993107,-0.09380018,0.03449963,-0.033687823,-0.01681067,0.109450236,0.16548198,-0.0035490263,-0.05554501,-0.019636992,-0.052848812,0.0426002,0.0931497,-0.060079236,-0.08289398,0.065588355,0.2161192,-0.067157686,0.08458964,0.06112706,0.022124067,0.072409794,0.15873729}, 
{0.101105474,0.03776164,0.017385976,-0.08954088,-0.10881452,-0.15062532,-0.03181801,-0.067365035,0.14295632,0.10078776,-0.1067071,0.14379373,0.097720936,-0.12736444,0.19272919,0.080422044,-0.06247686,-0.003926128,0.08713841,0.007734253,0.08771575,0.14127943,0.043332346,0.08727392,0.021792283,0.2627885,0.106871165,0.12809022,-0.08100224,0.043430906,0.0020483327,0.12875421}, 
{0.10788149,-0.021892821,-0.105250835,-0.048077866,-0.14359272,-0.16534871,-0.06450287,-0.1397724,0.22540082,-0.06379788,-0.18191642,0.07436915,0.09769585,-0.029718874,0.121477276,0.15220113,-0.21070729,-0.04908682,-0.08027941,-0.004928588,0.1996072,-0.06744286,-0.05030203,0.05691122,0.11153367,0.13680719,0.07368305,0.025974736,-0.04121745,0.013352374,0.03681394,0.008159438}, 
{0.21260719,0.1879525,-0.027475601,-0.053427856,-0.16396871,-0.1341278,-0.018224748,0.010877527,0.10745085,0.07370558,-0.107883476,0.14559826,0.16456984,-0.07884139,0.1429621,0.09875144,0.00011662779,-0.046625357,-0.0156029435,-0.13810866,0.23579423,-0.11508197,-0.09043705,0.031995773,0.031560313,0.23235245,0.12948902,-0.12749359,0.10591058,0.07219269,0.056249037,-0.037553594}, 
{0.17951353,0.15453352,-0.019744117,-0.052337002,-0.05327185,-0.14287974,-0.09293862,-0.1114157,-0.19010998,0.03894946,-0.07697201,0.10499787,0.11961916,-0.1555698,0.24772519,-0.02488849,-0.029778818,0.0214228,-0.13010073,-0.066895634,0.18297866,-0.08941496,-0.0038383456,0.009050375,0.11625868,0.21436407,0.049955815,-0.1200127,0.030549984,-0.077756435,0.18494476,0.005116772}, 
{0.12274376,0.18030159,0.06535355,-0.028829081,-0.072227925,-0.08309442,0.08317922,-0.05527022,-0.032717753,-0.08963584,-0.19600372,0.1405537,0.08315474,-0.05226436,0.2730175,-0.029707227,-0.077884234,-0.0003398431,-0.08257849,-0.10579628,0.21746047,-0.021435086,-0.001688069,0.058477424,0.02946776,0.14069034,0.08500151,-0.17550856,0.04010616,0.040015146,0.17049125,0.039648257}, 
{0.18034379,0.19286273,0.021750996,0.1284138,-0.0162335,-0.08540032,0.06566645,-0.12254033,0.09141289,-0.04542512,-0.14392695,0.100932375,0.08145909,-0.05008906,0.13386974,0.02771539,-0.060389273,-0.043066375,0.18852659,-0.11753269,0.10730321,-0.024936117,-0.11066458,-0.006275029,0.14241962,0.24480185,0.08953116,-0.1366312,0.03321206,0.023704873,0.22355047,0.04242416}, 
{0.17503548,0.22871827,0.17887425,0.13715293,-0.13550802,-0.006538,-0.023399182,0.094823025,0.08463783,-0.12598068,-0.16890389,0.13718657,0.03591351,-0.06190152,0.26605213,0.07696997,-0.07676418,-0.08044834,0.06275711,-0.027423987,0.30595562,-0.10913397,-0.08064109,-0.027713548,0.1786375,0.14998907,-0.065345906,-0.08105038,0.046420258,-0.03808561,0.18161698,0.0022512374}, 
{0.117046796,0.27207205,0.2594028,-0.026391879,-0.114746384,-0.17417498,-0.033276007,-0.059044816,0.19180086,-0.12912573,-0.24243416,0.20381026,0.23217523,-0.10293094,0.24406828,0.12805334,-0.08937822,0.15430006,-0.044424005,-0.08383611,0.30680805,-0.05469142,-0.11929599,0.051671647,0.19217665,0.13717751,0.116450466,-0.010972514,0.06939118,0.07923995,0.030350583,-0.018458933}, 
{-0.03170264,0.113838114,0.29016727,-0.033058163,9.2922084e-05,-0.20716767,0.0962081,-0.08973259,0.21459813,-0.08974676,-0.1828504,0.09860247,0.15871716,-0.05276934,0.09619295,0.019146424,-0.023432378,0.072415166,0.1250145,-0.012741623,0.18402421,-0.0059679244,0.0139083145,-0.022386117,0.103944756,0.13855557,-0.028645765,-0.046098694,0.057664786,0.081802346,0.026404213,-0.092255466}, 
{-0.004469232,0.15606721,0.17196716,0.117735535,-0.081765056,-0.14305098,0.119639456,0.0046476023,0.18900481,-0.065796405,-0.015018143,0.035061,0.17334332,-0.071254015,0.07008682,0.12176222,-0.14389291,0.12754664,-0.0054075667,0.07323206,0.16630365,0.04822781,-0.007265386,-0.024271177,0.14928144,0.17783788,0.12360587,-0.025971062,-0.016036132,-0.020578621,0.0088803135,-0.104592964}, 
{0.05059147,0.20140426,0.18293142,0.021369124,-0.13185316,-0.06705596,0.36395139,0.0072942916,0.20322601,-0.15799265,-0.09132095,0.040497825,0.11753321,-0.019103305,0.12554233,0.04862018,-0.014470574,0.23336588,-0.09794792,0.09837686,0.22345246,0.01243497,-0.013461191,-0.042988714,0.07432882,0.16865145,0.062466234,-0.059680056,-0.009190951,0.054449327,-0.055325415,0.03928786}, 
{0.07682573,0.023982093,0.14016148,0.032935362,-0.04384608,-0.09967975,0.28164288,-0.15756576,0.06114393,-0.08300748,0.005885587,-0.06523739,0.012998717,-0.00025585832,0.077142194,0.079019174,-0.083562545,0.18727121,0.07808997,0.034819268,0.14311291,-0.016544381,0.15699846,-0.09789484,-0.037196178,0.14018895,0.02378666,-0.12478334,-0.07028631,0.0015911218,0.082644954,-0.053630345}, 
{0.15683362,0.043668095,0.1899886,0.09381741,-0.31154457,-0.122709855,0.12148725,-0.076699555,0.037226226,0.0044115838,0.055550553,0.08785582,0.15657763,-0.0685495,0.12690717,0.1888245,-0.2574187,0.027781196,-0.045419417,-0.12007193,0.13676077,0.1445436,0.13231723,0.040307444,0.0471468,0.1074959,0.04072929,-0.05335484,-0.121094756,0.038946915,0.01025756,-0.04136577}, 
{0.12897508,0.042585403,0.22401126,0.089596316,-0.2265856,-0.11294548,0.019126639,-0.033699907,0.029808681,0.03704657,0.045269806,-0.025805369,0.09298885,-0.0011777226,0.14413412,0.021491732,-0.102527335,-0.06746291,-0.08945997,0.0013996372,-0.02670732,0.14178585,0.17378406,0.13521963,0.05346115,0.14614524,0.014787168,-0.08543284,-0.053671937,0.18468504,0.07084754,-0.040375262}, 
{0.19681127,-0.02337227,0.33881074,0.076647975,-0.2224082,-0.14266679,0.11724656,-0.1424943,-0.015432861,0.062353846,-0.06927019,-0.0069232835,0.07337155,-0.002590131,-0.027442615,0.107172675,-0.061145265,-0.15035088,-0.066632025,0.08141715,-0.047185473,0.1551508,0.1465055,0.03180279,-0.01905419,0.17378204,0.08178341,-0.062956944,0.015331762,0.07406147,-0.037405822,0.053145204}, 
{0.08565609,-0.058783937,0.17844968,0.05964932,0.003637279,-0.055527657,0.0767337,-0.13818017,-0.060013663,0.029026167,-0.015814496,-0.009276504,0.16239823,-0.043780528,0.06714282,0.051761106,-0.10818918,-0.10779208,-0.13276573,-0.12231874,-0.26218796,0.0461567,0.2344579,0.20306323,-0.109001316,0.014181089,0.094662294,-0.20304753,-0.022366967,0.048999954,0.09049588,-0.10065403}, 
{0.035911914,-0.23174271,-0.0033559578,0.09076589,-0.14232929,-0.033395212,0.0004905927,-0.061091334,-0.027623497,0.052408043,0.070966244,0.032130517,0.15806095,-0.0912022,0.068322554,0.011119245,-0.12841198,0.10173695,-0.11818286,-0.14837891,-0.20511056,0.03077226,0.2243336,0.16175768,0.00096067035,-0.03508145,0.09284363,-0.22849755,-0.15004587,0.11131561,0.047230717,-0.14947437}, 
{0.06250426,-0.11921794,-0.057907682,-0.11347222,-0.03471944,-0.12973174,0.09909394,-0.18178032,-0.022508964,0.003854489,0.04548918,0.005204926,0.075509705,-0.039633434,0.22404744,0.1268669,-0.14431906,-0.008219627,0.0653378,-0.13468115,-0.21228458,-0.014520911,0.085048966,0.21589316,0.09880648,0.05765102,0.14699772,-0.11983355,-0.07110952,0.11484392,0.04651987,0.040804535}, 
{-0.03712712,0.042071454,0.08067424,-0.07450999,0.021301,-0.11672885,0.11963447,-0.01896542,0.014595128,0.11152598,-0.11490138,0.09858367,0.19388033,-0.016844328,0.15932737,-0.17565824,-0.03378134,0.065449744,0.026842546,-0.10801091,-0.15126096,-0.04486887,-0.11086754,0.126067,0.024827972,0.069694266,0.18210858,-0.22964816,-0.020189235,0.10138933,0.092793345,0.13733226}, 
{-0.1428067,0.0654046,0.002976155,-0.10098164,0.17494011,0.08065449,0.15648174,0.051484104,-0.06533425,0.08910443,-0.0650852,-0.12020628,0.063283004,-0.08986126,0.100254714,-0.05914191,-0.033069786,0.026486801,0.00022447747,0.027106624,0.05600951,-0.095902234,-0.0019974534,-0.031099696,0.121204,-0.13792525,0.08621688,-0.13224915,0.08819244,-0.050993994,0.09106378,0.0042230124}, 
{-0.06685343,-0.114980526,-0.061698623,-0.08406875,-0.083907105,-0.09676973,-0.02983949,-0.02983268,-0.024242576,-0.059757445,-0.031613838,-0.060980342,0.045670707,-0.0041012075,0.018244373,-0.118660316,-0.07577016,-0.07934601,-0.051203355,-0.062370904,-0.053039312,0.09071597,-0.009819682,0.102531634,-0.06315112,0.068762265,0.012686005,-0.046795454,0.010751531,0.123917386,0.058741465,-0.0803734}, 
{-0.07216191,0.018737517,-0.049495365,0.070713155,-0.071848385,0.06835974,0.07365402,0.06361083,0.048246257,0.016226888,-0.001813218,-0.024958491,-0.009195365,-0.019862175,0.011623196,-0.027542807,0.016936794,0.049442746,0.040082924,-0.012793727,-0.04548259,-0.06999724,-0.08204813,0.020657763,0.08409511,-0.060570776,-0.037099622,0.04851351,0.04158277,-0.050481778,0.018448949,0.048189454}, 
{0.07378269,0.081889786,-0.058492236,0.033632077,-0.044157825,0.026253045,0.0024597272,0.012356736,0.03869012,0.058006413,-0.02676253,0.020589419,-0.032717098,0.04780545,0.03133674,-0.06845675,-0.061674744,0.042394407,-0.040231943,0.016259067,-0.017545804,0.028657958,0.0142249465,0.033341773,0.045325227,0.07241375,0.0065070093,-0.039016638,0.0015908703,0.07479525,-0.051314164,0.041915648}, 
{0.027755884,-0.031287707,0.059316464,0.08520366,-0.009017034,0.07780883,0.031448103,0.051516116,0.039497558,0.018811464,0.0041220016,-0.0066364976,-0.06120075,-0.018591987,0.042369395,0.03966739,-0.07020475,0.05218883,0.005207161,0.031919736,0.08262888,-0.052109495,0.07622144,-0.031989895,-0.0151384175,-0.02395229,0.027892156,0.027641453,-0.019885495,0.015749313,0.056430735,0.08133297}, 
{-0.008730606,0.14307964,0.028167315,0.045079056,-0.08849561,0.08863244,0.076517545,-0.053277597,0.039276972,-0.013758697,0.109223835,0.10771921,-0.15474346,-0.020506112,-0.087196305,0.12024011,-0.07784336,0.14900528,0.037673812,0.10943659,0.058986213,-0.0479872,-0.13203791,-0.1458581,0.07037747,0.030750584,-0.056283623,0.0058226543,-0.034380086,-0.057242777,-0.052005686,0.09851968}, 
{0.092074476,0.057404373,-0.0011723846,0.17205359,-0.14536409,0.12141816,0.111667745,-0.111310944,0.0879821,-0.040314846,-0.1333763,0.12922338,-0.0545854,0.09832814,-0.057105917,0.08216824,-0.02959826,0.041827064,-0.0201654,-0.04922154,0.037229862,-0.08976093,-0.12510505,-0.047797456,0.041800644,0.1893854,-0.13109216,-0.044951875,0.056900937,0.032887995,0.04712735,0.054577496}, 
{0.06640602,-0.026367731,-0.088687144,0.13173772,-0.2521815,-0.0038154488,-0.15472029,-0.092770524,-0.07795156,0.00620235,0.09911433,0.0076841665,-0.17050612,0.05629564,-0.046114746,0.06255351,-0.13761194,-0.1401145,0.017855203,0.08350879,0.08944389,-0.104581475,-0.020961383,-0.022590348,0.13638341,0.15335618,-0.072889514,0.043520637,-0.09757573,-0.12529603,-0.0414297,0.122359246}, 
{0.027214712,0.09206406,-0.066501,-0.0034812475,-0.18458566,-0.027921876,-0.04068811,0.050595686,-0.19627412,-0.028048081,0.030898303,0.031253014,-0.03172249,-0.0030731803,-0.011007175,-0.012064098,-0.05135098,-0.07398685,0.03166058,0.02506714,0.16985747,0.035073087,0.011028679,-0.106710404,-0.13983722,0.13556598,-0.18528183,0.11913037,0.042036816,-0.110090725,0.046682544,0.1334442}, 
{-0.026494304,0.18512844,0.025026055,-0.0024644593,-0.055876877,0.008401623,-0.017683433,0.07051216,-0.07262767,-0.03280324,0.035038248,0.14970312,-0.003705181,-0.008718439,0.15145393,0.09090449,0.09266367,0.0035988286,-0.0063563576,0.053886406,0.0736321,0.0023354297,0.033736043,-0.032156818,0.05197774,0.14779352,0.05133054,0.01294595,0.05748292,-0.15601537,0.20189103,-0.0028201065}, 
{0.17584987,0.053378858,-0.05793406,0.031974643,-0.12944332,-0.118147366,-0.09892525,-0.108938195,0.0025710037,-0.004903828,-0.046049137,-0.050725445,0.0669848,0.10915332,0.05096744,0.048307225,-0.026717259,-0.13038993,-0.028550701,0.043970186,0.08801776,0.06090255,0.0016403227,0.061416205,0.040514946,0.1134953,-0.023044338,0.029799633,-0.013852984,-0.19976498,0.042012848,0.09234676}, 
{0.053421304,0.015728645,-0.13704178,-0.04958644,-0.003374254,-0.0017926528,-0.09687697,-0.13739628,-0.13398223,0.05015461,0.045355357,0.16059011,0.02029203,0.059134863,0.057032943,0.08280075,-0.083004236,-0.05620023,0.03127843,-0.12144418,0.18192253,-0.08146277,-0.09432107,-0.08087653,-0.030902874,0.08732526,0.037936527,-0.09375405,0.08516205,-0.11601921,0.05950465,0.0490072}, 
{0.14274825,0.1385152,-0.04681846,0.022422068,-0.044604,0.048340987,-0.0161671,-0.15635747,-0.18581295,0.09316583,-0.10298127,0.13773602,0.10024335,-0.020583492,0.2045633,-0.024773315,-0.114030674,-0.14586022,0.089353435,-0.18809134,0.06122278,-0.11560186,-0.01344548,-0.022289792,0.044178195,0.114575714,0.102461666,-0.12258283,0.087950304,-0.10092481,0.10977915,0.019214522}, 
{0.21793525,0.17131463,0.030997975,-0.054825038,-0.038068444,-0.075249396,-0.032983717,-0.16774912,0.109197065,0.010137007,-0.0719705,0.12677352,0.086546965,-0.04456103,0.14353509,0.10028025,-0.035772264,-0.05124979,0.065918915,-0.1601695,0.21487093,-0.06677957,0.017951472,-0.06321525,0.11477757,0.079001024,0.03303265,0.0009790495,0.081672005,-0.019349478,0.11139235,0.052808695}, 
{0.25115386,0.14241198,-0.045769785,0.0785699,0.07189628,0.13097101,-0.010052726,-0.028385114,0.026525965,-0.044863965,-0.010140514,0.06289881,0.12624249,0.046910718,0.10702362,-0.009083983,0.0033393702,-0.0041097472,-0.026768124,-0.16412914,0.116671406,-0.023997825,-0.030623142,-0.120540515,0.082652114,0.11686746,-0.03686268,0.019855756,0.0035616432,-0.20156008,0.08867642,0.07830729}, 
{0.22728097,0.16375671,-0.25442016,-0.020772342,0.12741786,0.024312722,-0.11332235,-0.033009764,0.024508497,-0.07179549,0.076406784,0.11464199,0.03812489,0.02306082,0.0772463,0.077096395,-0.022551937,-0.053745322,-0.011593645,-0.040897638,0.1815984,-0.02685964,0.005829868,-0.14278029,0.04863921,0.10617285,0.08705496,-0.059249833,0.07169356,-0.10497113,0.10152494,-0.046712864}, 
{0.16181874,0.12721783,-0.27801567,-0.0067060525,0.081370324,-0.020279681,-0.058027785,-0.112183884,0.054588858,0.007998234,0.10730708,0.018036736,0.02039754,0.009405022,0.06937377,0.105914496,-0.053879533,-0.033154685,0.04778281,-0.0029823538,0.20095484,0.0036369427,-0.019996732,-0.12070108,0.09818561,0.10841708,-0.00083404436,0.0641496,0.016715039,-0.07587531,-0.020037046,0.03626827}, 
{0.06297199,0.18642488,-0.20451456,0.07504177,0.21324527,-0.0018320269,-0.09300569,-0.014067398,0.09641903,-0.099408016,0.08891305,0.042841215,0.10372373,-0.08565617,0.03147725,0.054657623,-0.0730979,0.10659935,0.016004166,-0.01776682,0.20787387,0.08796642,0.04651788,-0.007799144,0.022206673,0.028482853,0.131111,0.020605871,0.097250685,-0.006693366,-0.018683124,-0.03920818}, 
{0.08053939,0.1522596,-0.114912875,-0.023661342,0.14447735,0.054097023,0.019566152,-0.11905624,0.073799945,-0.046200506,0.09511705,-0.0052162195,0.11550214,0.07527303,0.032229878,0.07926261,-0.088557795,0.14812471,-0.11172357,-0.018364636,0.20025297,0.059106264,0.097931854,-0.045295533,-0.04175251,0.020991042,0.047925387,0.019744148,0.14463598,0.054978922,0.06349152,-0.07099884}, 
{0.11654729,0.044606358,-0.09575937,-0.00028487731,0.116325855,-0.03484417,0.10420746,-0.11323873,0.19070719,-0.15135653,0.10402799,0.06394452,0.04157382,0.024502644,-0.062393554,0.048759263,-0.11290325,0.23360074,-0.09987906,-0.02775099,0.24320316,0.05995732,0.017044684,-0.022598544,-0.055466257,0.055508986,0.12671356,0.07465006,-0.023460625,0.08862315,-0.018930921,-0.07251356}, 
{0.092639625,0.032902397,-0.08616695,0.015036566,0.096007064,-0.05154605,0.2692995,-0.09046936,-0.019564891,-0.07307931,0.11562185,0.01766407,0.09912797,0.0040732473,-0.029667778,-0.05279504,-0.1529115,0.22299667,-0.008715244,-0.06321873,0.10598632,0.10108357,0.18453704,-0.026219407,-0.066530004,0.15129456,0.04310086,-0.037955966,0.0433465,0.06887433,0.07498436,-0.036090285}, 
{0.20660079,0.06984532,-0.07034884,0.13593203,-0.018924605,-0.08278031,0.21850643,0.03126574,-0.03859441,-0.04745645,-0.0036297329,0.042502344,0.16787934,-0.06278506,-0.010833437,-0.06852002,0.0054409383,0.12734953,0.0019076592,-0.0681172,0.12900274,0.14872633,0.18714333,0.02624885,-0.015570571,0.020568272,-0.022833966,-0.043003373,-0.0163294,0.029551296,0.008251681,0.031387128}, 
{0.1302749,0.03859782,-0.06343665,0.053530004,-0.06468267,-0.02911906,0.18656513,-0.053178698,0.05997187,0.023196587,0.094353765,-0.035573486,0.050083727,-0.021593474,0.084382586,-0.034301814,-0.102364175,0.015778005,-0.019883564,0.050694015,0.02778364,0.009930638,0.083049744,0.05885741,0.054083265,0.11150551,0.12574719,0.03023136,0.041135415,0.1501395,-0.0247556,0.040487047}, 
{0.009232472,-0.09543599,-0.055099435,-0.0141585395,-0.064661756,-0.033976074,0.13483281,-0.106432535,-0.13199042,-0.031611256,0.20121661,0.059212666,-0.014940791,-0.105759285,-0.01734873,-0.03472188,-0.10352162,0.035227153,-0.037681412,-0.063787654,-0.025212865,-0.057399992,0.25140676,0.07914603,-0.09198127,0.07991937,-0.0018079882,0.08171023,-0.055890482,0.0381921,-0.13046707,0.085573}, 
{0.065698884,-0.12097207,-0.14914535,0.034972545,-0.015345678,-0.07324053,0.25015116,-0.1297658,0.031621255,0.0068040686,0.11773817,-0.0571222,0.10985908,-0.058315188,-0.07300545,0.021829978,-0.024528608,-0.08657412,0.10927823,0.048178893,-0.121062495,0.056940865,0.2535361,0.05001458,-0.08442982,0.056747347,0.06218689,-0.07735112,-0.10869198,0.09722907,-0.07076183,-0.03947413}, 
{0.04981897,-0.16146787,-0.28437984,-0.012898063,-0.123717666,-0.0029840416,0.13903938,-0.11391372,-0.02059398,0.033614725,0.16233256,0.07654359,0.06411952,0.03696031,-0.0009963638,-0.004743508,-0.13476276,-0.015693825,-0.0039016763,-0.09473992,-0.15027456,0.09823383,0.19838452,-0.031749025,-0.097874865,0.10818642,0.06750726,0.005941447,0.043575026,0.044750556,-0.074140854,-0.035303622}, 
{-0.025615133,-0.19359307,-0.08486981,-0.054083064,-0.15296312,-0.09658115,0.06995781,-0.094639696,-0.15037405,-0.03774979,0.19373271,-0.09882103,0.116882734,0.0071484684,0.09953459,-0.07491936,-0.21887477,0.026993947,0.12958407,-0.13260618,-0.18449229,0.04080187,0.14598721,0.18882228,-0.0689994,0.121072955,0.1637998,-0.08030724,-0.018213984,0.16875401,-0.045524392,-0.022705082}, 
{0.052110814,-0.132141,-0.137094,0.042779323,-0.095267616,0.050224047,-0.028866006,-0.10153097,-0.04656232,-0.011063509,0.15181357,-0.14992605,-0.023705918,0.10877934,-0.004379634,-0.14963803,-0.17655814,-0.077125885,0.04315907,-0.16783524,-0.16691671,0.063272215,0.21386375,0.16764672,-0.20804586,-0.1500095,0.053380616,-0.22300683,-0.08422267,-0.033682104,0.094645,-0.06792921}, 
{-0.026825702,-0.046245057,-0.08789006,0.01660228,0.011418455,0.09480698,0.0547614,-0.07154055,0.015414774,-0.03153872,0.084161706,-0.15118283,0.018234573,0.1109422,0.034362745,-0.13284235,-0.059317477,-0.1449818,-0.061568122,-0.20985103,-0.1414035,0.026873542,0.05707349,0.11997179,-0.038725793,-0.0894633,0.056336872,-0.26106074,-0.059083033,-0.06073164,0.053092346,-0.15078707}, 
{0.033660304,0.09195252,-0.06992766,0.027072528,0.08523157,0.13320553,-0.08904552,0.022112355,-0.06261236,-0.0602994,0.100512914,0.04192589,-3.8971815e-05,0.105176,0.0025546714,0.025199154,-0.17458923,-0.09706322,-0.17680664,-0.09029411,-0.11052564,0.19671077,0.11215773,-0.0124090975,-0.024601325,0.0070128455,0.014383119,-0.17788129,0.09267924,-0.017589435,-0.049338963,-0.0500827}, 
{-0.054098632,-0.08261488,-0.0026115782,-0.13403176,-0.12875463,-0.0152700795,-0.06060361,-0.083159514,-0.1416187,-0.056500148,-0.1409355,0.03393521,-0.037156947,-0.019402672,0.13402,0.08060374,0.005656006,0.05529798,-0.010162821,-0.10228708,-0.053211886,-0.027418833,-0.06828329,0.13064034,0.029275805,0.070252016,0.13222583,-0.16821395,0.06598588,-0.002333915,0.06375817,0.052912984}, 
{0.067201264,-0.0018210933,0.06324797,0.07274509,-0.05660343,-0.04891025,0.05567562,0.017609961,-0.021547295,0.0038005412,-0.0741007,0.044700332,-0.05077233,-0.03277569,-0.03828498,-0.041247346,0.0688244,-0.06132114,0.028475717,-0.035298157,0.011884719,0.00692448,-0.052367594,-0.06761592,-0.013528779,-0.01209458,0.0645482,-0.024496984,0.030359,-0.008686997,-0.042215563,-0.044287015}, 
{0.026384085,0.014787674,0.05951277,0.0024926811,-0.031657513,0.053638674,0.07358352,-0.084061846,-0.02406453,-0.053094182,0.03886357,-0.0605516,-0.048391867,-0.017390043,-0.046259843,0.0049837083,0.018153101,0.037252747,-0.0099895,0.04302279,0.079913236,0.049189128,-0.026804972,-0.081544876,0.07948365,0.017418355,-0.033371475,-0.076296635,0.02461534,0.07712897,0.05796782,-0.080395825}, 
{0.055512324,0.1091532,-0.04780115,-0.026128184,-0.062831834,0.043182597,0.0075686704,0.03580888,0.02528243,-0.041302066,-0.058866847,0.060824227,0.025842521,0.065823935,0.01973884,0.032057196,-0.12723118,0.058715697,-0.04625723,0.113377646,0.08302453,0.0010986767,0.008589213,-0.083236285,0.006840537,0.001306899,-0.08884487,0.027139595,0.039628655,0.076630436,0.005563683,0.083429754}, 
{0.12603287,0.12431782,-0.08162871,0.0051460243,-0.15798786,0.16698593,0.097653545,0.01284587,-0.10635683,0.058510706,0.044927083,0.1715534,-0.1279326,-0.04034098,-0.068626784,0.025412563,-0.107597046,-0.006929061,0.052231003,0.011653795,0.047478735,-0.026977858,-0.10306909,-0.0403464,-0.03593981,0.09061473,-0.03981154,0.10246841,0.06617159,-0.007028597,-0.091755375,0.13157664}, 
{0.033204645,-0.0014589431,0.030061707,-0.06218311,-0.224748,0.0824245,-0.039572302,0.040705528,-0.20550582,0.009507007,0.07829124,0.14154403,-0.05319618,0.029702228,-0.04497792,0.079312794,0.06227849,0.00044175162,0.073758,0.12781017,0.11836491,-0.071431056,-0.10466461,-0.02206394,-0.032678403,0.18096326,-0.110389225,0.05294093,0.051836867,-0.09556668,0.10984468,0.13297532}, 
{-0.037114933,0.035759065,-0.020969989,0.04761884,-0.09817485,0.0077231773,-0.013986027,0.124450706,-0.16458912,-0.053987913,0.18739244,-0.031025482,-0.19199857,0.008513683,-0.015330619,0.012664007,0.07460155,-0.033269517,0.011607503,0.26278734,0.22653446,-0.11109832,-0.03996934,-0.19405465,-0.039197285,0.1448251,-0.11780397,0.21498385,0.0397481,-0.34749347,-0.039571304,0.04017746}, 
{-0.051311307,0.027483981,-0.14491336,0.14913526,-0.037253127,0.011714616,-0.072517775,-0.06929889,-0.24868129,0.01602402,0.05302598,0.0063931555,-0.10648847,-0.093278036,-0.025561744,-0.03686345,0.037468255,-0.027590679,0.08251035,0.11312933,0.20261428,-0.04837572,0.057703257,-0.004303399,0.05861831,0.035700157,0.012546063,0.07715217,0.1163759,-0.25313815,-0.067076765,0.07425087}, 
{0.07350191,0.064076506,-0.18346122,0.123828456,0.041045517,0.01625625,0.05943119,-0.07712071,-0.16551028,0.03046361,0.10058295,-4.3461285e-05,-0.0064282767,-0.029881997,-0.025594179,-0.02843333,-0.06857687,-0.03923466,0.015173579,0.016717996,0.17434122,-0.020627942,-0.031283922,0.016143184,-0.065850675,0.069134384,-0.013520787,-0.10319082,0.031003091,-0.17519614,-0.018792113,0.064011075}, 
{0.016068468,0.044292524,-0.10999852,0.009421131,0.025540091,-0.13903636,-0.10212834,-0.1278674,-0.17525771,0.0931867,0.11930265,0.023147922,-0.1125932,0.045419887,0.16277951,-0.056694247,-0.10976357,-0.07237736,0.18504108,0.009274176,0.0660164,-0.08368094,0.0049214233,-0.032743037,0.19770762,0.07060946,0.07324951,-0.14947571,0.17190957,-0.057101175,-0.056741573,0.0007416042}, 
{0.12355818,-0.06647156,-0.12133128,0.06556313,0.12949607,-0.051388532,-0.019502651,-0.11768898,-0.10701915,0.043809544,0.088633075,-0.05951383,-0.027390968,0.038497448,0.020394605,0.022178536,-0.012640537,-0.08424724,0.11739931,-0.056951236,0.049449183,-0.15478243,0.03420784,0.043666147,0.19812474,0.0910144,0.035313603,-0.1016609,0.014851806,-0.12015204,0.06935502,-0.035727482}, 
{0.101462275,-0.019915314,-0.03930048,0.0067398995,0.08110525,0.09028451,0.022159569,-0.067242645,0.092249766,0.074812606,0.065537535,0.008220318,-0.0045175124,0.058888998,0.062140305,-0.024309384,-0.1069414,-0.115626626,0.07105199,-0.042589337,0.118794195,-0.07110996,-0.05538159,-0.047862723,0.12716573,0.12197663,-0.022769028,-0.14703338,0.09153815,0.01707927,0.0790715,0.010282782}, 
{0.1700089,0.040830027,-0.039443854,0.027144644,0.10625302,0.25211218,-0.167307,-0.17017241,0.04390279,-0.03129316,0.05148436,-0.03358338,0.077474274,0.042738605,0.039241664,-0.028750781,-0.08779009,0.023531197,0.05152489,-0.0031839262,0.11936647,-0.048230004,-0.07597826,0.039979897,0.119301885,-0.12503642,0.03473229,-0.031780213,0.02154387,-0.08316745,0.108385794,-0.021153398}, 
{0.088491745,-0.017442249,-0.16379596,-0.03015862,0.10546484,0.11926003,-0.20451972,-0.07851819,0.019949578,0.06371494,0.019696182,0.115234114,-0.009132481,0.036315236,0.007085006,0.09037262,-0.13104022,-0.010032009,0.03630474,-0.13522002,0.13904259,-0.11134518,0.014482222,-0.02730486,0.15610395,-0.03305749,0.06677607,0.02038566,0.051986072,-0.10758066,0.15055816,-0.0127631705}, 
{0.0883486,0.039880004,0.028737314,-0.07978851,0.10518512,0.19333868,-0.09440543,-0.06753975,0.063946806,-0.04811095,-0.066089936,-0.015349882,0.062209297,0.022362951,0.025818342,0.0014590896,-0.2036572,-0.03338528,-0.035141796,-0.15848674,0.13166687,-0.037382763,-0.0906793,0.031743325,0.06922805,-0.05201907,-0.045182526,0.054467726,-0.024602469,-0.07417553,0.15518938,0.031027654}, 
{0.09098153,-0.015882783,-0.05050095,-0.037964594,0.21631703,0.12180148,-0.07684315,0.016105317,-0.067222856,-0.0010825642,0.057322845,0.02035064,0.05521888,0.06540072,0.02199945,-0.04178203,-0.084441535,0.059473835,0.05116792,-0.02457557,0.10617164,0.03859075,-0.100113116,-0.051629335,0.025643414,0.040310375,0.0758302,0.06040761,0.01752771,0.052519582,0.08272067,0.022295978}, 
{0.0611561,0.10685692,-0.13056496,0.043172713,0.10791189,0.2081748,-0.085370235,-0.113834746,0.031683452,0.004686698,-0.022132741,0.08624514,-0.0431353,-0.094350755,-0.012860943,-0.02963511,-0.0074518407,0.21101004,-0.037365504,0.052862547,0.18073201,-0.031094272,-0.0463051,0.00053785276,0.037070774,-0.04849654,0.020163292,0.096244805,-0.022515072,0.09975116,0.09605072,0.07304225}, 
{0.11638892,0.14137353,-0.2297013,-0.04849171,0.14679365,0.18262206,0.087639585,-0.034803137,0.048345704,-0.02411802,0.020446122,-0.019691309,0.087717324,0.06508496,-0.012537108,-0.048231866,-0.08918535,0.18881522,0.05834993,0.092074946,0.10847724,0.0016224919,0.11774558,0.018517373,-0.06496075,0.065106876,0.06852309,-0.03452827,0.069189474,0.04547153,0.14164625,0.008721828}, 
{0.12808207,0.050458748,-0.23418356,-0.0019275342,0.14469987,0.08358124,0.10949603,-0.11953962,0.040821586,-0.054025754,0.0046264124,0.12108336,0.15188016,0.08154851,0.0013062977,-0.077250734,-0.058111455,0.25416812,-0.07068591,-0.023605183,0.009918853,0.12085379,0.14759421,0.09173314,-0.09983887,-0.017934076,0.13843311,-0.008573106,-0.07076173,0.032297898,0.1125901,0.037722874}, 
{0.08726377,0.09009635,-0.08686431,-0.008591157,0.047411434,0.04799373,0.17669363,-0.058947135,0.021890184,-0.16441186,0.004357429,0.059472386,0.09027487,0.06965576,-0.019082291,-0.048036963,-0.032044042,0.24356419,0.030536007,0.053916816,0.0781333,0.13702512,0.082042724,0.018215202,-0.040867932,-0.027286746,0.14020796,-0.036584068,0.034186292,0.109145366,0.11175526,0.030131893}, 
{0.037382,0.052303605,0.0037553199,-0.04636364,0.022333149,0.049229544,0.13401195,-0.028936526,-0.024048818,-0.09766463,0.13656573,0.10211579,0.14144711,-0.006897109,0.033482224,-0.10003641,-0.061067097,0.13074099,-0.09343664,0.004050665,0.015818618,0.11140603,0.068701684,-0.009973232,-0.04475831,0.118301116,0.065331995,-0.04645745,-0.078538135,0.14235061,-0.034251794,0.046056435}, 
{0.024214493,0.08309159,-0.029845476,-0.06511253,-0.015131989,-0.02272743,0.26972654,-0.089217335,-0.06249199,-0.06416485,0.07697482,0.011199215,0.11378489,0.062860586,0.00028635544,-0.11611935,-0.14313298,0.09617808,-0.15238553,-0.03293725,0.036094543,0.132582,0.0989743,0.09847385,-0.09998095,0.028439123,-0.012745515,0.0139779765,-0.19945846,0.11568578,0.041189082,0.03313647}, 
{-0.016251909,0.0729607,-0.004299297,-0.17448084,0.007891782,0.033666424,0.30099407,0.07765699,-0.04658913,-0.058493633,0.14692819,-0.052420605,0.06736142,0.05506293,-0.020165073,-0.103183106,-0.05401619,0.03455284,0.0035161888,0.015731877,0.0064465012,0.010724973,0.10265815,-0.034476794,-0.07828009,0.07605603,0.056202445,-0.03864507,-0.054273825,0.122428104,0.0019530549,-0.002068331}, 
{-0.023579149,-0.057060614,-0.076301664,-0.13556862,-0.017701842,-0.043504674,0.15891363,0.09998308,0.1015162,-0.01927802,0.14889498,0.037670434,0.06468218,0.114648744,-0.16936302,-0.10175523,0.036759526,-0.114385396,-0.028106758,-0.06179492,-0.08969666,0.037417285,0.13465214,-0.079776496,0.012532656,-0.027942523,0.006526787,0.046792235,-0.014376533,0.094969094,-0.06565124,-0.01331583}, 
{-0.07024165,-0.25370157,-0.21648699,-0.09966323,-0.11633102,-0.075858675,0.034562025,0.0586514,0.0354854,0.031537592,0.21563856,-0.06727886,0.17012767,0.11098515,-0.07741195,-0.12134021,-0.03165966,-0.071564525,0.10857301,-0.08114755,-0.11670168,-0.0648426,0.09211975,-0.0076283664,-0.056316424,0.0416857,0.11482696,0.08036296,-0.023675425,0.023651822,-0.099554546,-0.024876878}, 
{0.04050595,-0.20563458,-0.09992883,-0.12568498,-0.2355953,-0.07769255,0.009032751,-0.0875194,-0.04875123,-0.050829843,0.20978595,0.048487294,-0.007827352,0.07583545,0.021992385,-0.08754401,-0.16298237,-0.06920973,-0.0064904564,0.03338125,-0.11826974,0.0074862656,0.2015829,0.12544172,-0.15215017,0.14817838,0.020799287,-0.072769605,-0.119045354,0.082773395,-0.07411339,-0.13493264}, 
{0.0034459545,-0.070337296,-0.10205022,-0.054548405,0.071952246,0.11614277,0.017569793,-0.12771335,-0.16059427,0.028762443,0.14550367,-0.123495705,0.052177772,0.1819632,0.07447128,-0.008679052,-0.1758776,-0.11077113,-0.121363536,-0.10972254,-0.11972224,0.0150033785,0.04264454,0.04900436,-0.14594974,-0.10982479,0.1147599,-0.26173323,-0.07028004,-0.10802857,0.09055838,-0.115741625}, 
{0.08492854,-0.059600625,-0.11033206,0.0690455,-0.034475293,0.08073398,-0.18669637,-0.12481525,0.076287955,0.045251273,-0.05660229,-0.016918076,-0.05138899,0.088192746,0.16646302,0.018525021,-0.07293363,-0.0186196,-0.059970845,-0.12398189,-0.010640686,0.10004788,0.07343736,0.050541043,-0.092134684,-0.044996724,0.105626166,-0.23205385,0.0012265219,0.054229423,-0.05124762,-0.012515173}, 
{0.053978946,-0.079193704,0.02622764,0.056427427,-0.07833627,-0.086411625,0.0091975415,-0.022274146,-0.082066245,-0.07309366,-0.02312804,0.10628911,-0.006634456,0.051825862,0.039695445,-0.066973284,0.022225631,0.026963051,-0.12874517,0.016253859,-0.08070347,-0.036858454,0.10031025,0.083297774,-0.08183854,0.11034951,0.110551715,-0.038067143,0.032599438,0.014179652,-0.07494836,0.024194775}, 
{-0.08413953,0.04460696,-0.06554379,0.03943292,-0.047775738,0.07757241,-0.014980912,-0.04667596,-0.019167766,-0.08161179,-0.058440734,-0.08458555,-0.026734464,-0.051586993,-0.025093239,0.08131989,0.040858217,0.066693194,0.08477663,0.060370438,-0.0046684965,0.07509402,-0.004841171,0.009120271,0.06856882,-0.026323166,-0.03606363,-0.071355596,-0.08512192,-0.07691054,-0.0067369863,-0.06418476}, 
{0.055497214,0.11067932,0.021886462,-0.021451164,-0.071100876,-0.11865416,-0.06361717,0.03932042,-0.084333755,0.039670162,0.032130957,0.029224401,-0.0069242534,-0.05787605,-0.007206524,0.027810574,-0.014909996,-0.02621931,-0.07841881,0.078088254,0.021704515,0.069353305,-0.09477324,-0.10438631,-0.11051155,0.13403739,-0.06663514,-0.05493564,0.10227469,0.022184724,-0.13695571,-0.0012207988}, 
{0.03742252,-0.09582718,0.044884272,0.12832336,-0.0020442647,-0.042535733,0.06633095,0.023784988,-0.0016350133,-0.06672065,-0.07725472,-0.03799245,0.05421863,0.035730634,-0.062915124,0.024412276,-0.019220103,-0.14471282,0.09887885,-0.010261816,-0.021527518,0.07585628,-0.04308668,-0.12641546,0.05513432,0.06180117,0.047017705,-0.15904622,0.031399015,-0.022108201,-0.0057185926,0.058748573}, 
{0.10666892,0.08576053,-0.08103223,0.13762319,-0.10635388,0.1210173,0.066387765,-0.11127273,-0.036476053,0.0714211,-0.09447347,0.17241944,-0.027242292,-0.04980964,-0.16684848,0.06308579,4.0903145e-05,-0.20041509,0.16764084,0.108658284,0.24906121,0.00030235268,-0.010952868,-0.18598117,0.022237318,0.03742584,-0.07450088,0.043110203,0.16683756,-0.16275923,0.0664085,0.17463258}, 
{0.0151215205,-0.009395432,-0.058406558,0.060270336,-0.1798349,0.06134311,-0.0671434,0.005725675,-0.07376213,0.050829984,0.12456711,0.12287183,-0.09340235,0.16144596,0.0072120624,-0.037195127,0.063044675,-0.16380876,0.11782601,0.15625171,0.077605784,-0.091944575,-0.00075161865,0.00014835587,-0.0036849212,0.20144911,0.03772341,0.043954827,0.009099493,-0.2256325,0.17785808,0.015324882}, 
{0.079506405,-0.14238498,-0.2164117,0.102828294,0.014303786,-0.034554355,0.0018132284,0.10361306,0.022520049,0.086392246,0.20418538,-0.049388785,0.0020153811,0.0601993,-0.11809807,-0.018831039,0.045397576,-0.051570218,0.15228681,0.10890232,0.16334762,-0.119388156,0.12339902,-0.123778135,0.07684491,0.11643915,0.02827311,-0.104198195,0.19477403,-0.24749573,0.116480894,-0.033695508}, 
{0.014813303,0.0014793003,-0.2597523,0.021278197,-0.071642146,-0.06108863,0.07866503,0.1187356,-0.061832994,0.09852867,0.087587416,0.013020847,-0.13597438,0.041499052,-0.055713497,0.022657266,0.04157772,-0.11399469,0.10083375,0.17855766,0.10467654,-0.13573512,-0.08662477,-0.12543876,0.023359364,0.16088814,0.0050600427,-0.05981465,0.19861168,-0.3145873,0.072381936,0.068834364}, 
{0.0008172891,-0.06904797,-0.288962,0.11002207,0.050716627,-0.11465007,0.0056557413,-0.050775822,-0.0753499,0.09151396,0.08289698,0.068094015,-0.036320284,-0.047693238,0.02203409,-0.05337182,-0.08797878,-0.08548904,0.018736467,0.08129732,0.07893546,-0.005026158,0.00209867,-0.0381318,0.086902626,0.08884797,-0.008873026,-0.23550192,0.026335606,-0.1950489,0.1256624,-0.057162177}, 
{0.16050687,-0.05364429,-0.18429814,0.07548684,0.004353798,0.06958711,0.0028806985,-0.11020519,-0.04879547,-0.015925875,0.028666196,-0.03706065,0.0067305095,0.09888773,-0.020289136,0.012837223,-0.12306261,-0.1055269,0.19587763,0.11323463,0.047641367,-0.12408809,-0.06427324,0.009026555,0.12242316,0.019052828,0.0301594,-0.05810426,0.060197722,-0.06943602,0.09027497,-0.020370452}, 
{0.07721853,0.094162844,-0.15893166,0.15389669,-0.01642839,0.06720844,0.0032599154,-0.051547583,0.04726893,0.0950334,0.07441032,-0.08097084,-0.0659167,-0.038683575,0.02001144,0.06268515,-0.032403756,-0.20477475,0.069166906,0.044632625,0.06964505,-0.22171769,-0.012681682,-0.048079714,0.05269257,0.084073916,0.0037022496,-0.14807838,0.090985246,-0.103997655,0.13252188,-0.0946769}, 
{0.091786586,0.1256418,0.03375674,0.06422554,-0.011882696,0.16012399,-0.10417591,-0.08249971,0.01940922,0.010956542,-0.009865964,0.008497615,0.017560923,0.0113548925,0.043520954,0.013742923,-0.09277769,0.033619426,0.15412907,0.15852243,0.15505303,-0.1482553,-0.017227981,0.052204065,0.11273275,-0.06869973,0.048047148,-0.15495208,0.085935704,-0.105813496,0.01720442,0.06387293}, 
{0.17490123,0.041165933,-0.08560601,0.053504087,0.07082724,0.15410101,-0.1644241,-0.013040783,0.060647443,0.017399972,0.012147879,0.051685255,0.04623858,0.06893521,-0.062283833,0.0644282,-0.094519325,-0.011103346,0.087739855,0.031156348,0.124197975,-0.06078787,0.016195862,-0.055573102,0.19576837,-0.059930958,-0.039539617,0.0024831176,0.055655155,-0.02770323,0.046511937,-0.08585394}, 
{0.17260222,0.126944,0.044332657,0.024654051,0.021658322,0.10403337,-0.048267506,-0.021071596,0.0629353,0.0840865,-0.011682877,0.08143687,-0.020127043,0.086795524,-0.08660156,0.08434652,-0.0961499,0.0019152963,-0.008485006,-0.10660825,0.1445628,-0.047437336,-0.06400022,0.10558636,0.24954437,-0.007541141,0.019040158,-0.020204723,0.053283438,0.0481934,0.05421015,-0.0005370781}, 
{0.07613945,0.13022365,0.1298941,0.11710518,0.14236252,0.25830597,-0.10422169,0.05886928,-0.036388304,0.0022950387,-0.079179816,-0.060411714,-0.01028136,0.014791645,-0.064452425,0.104939945,-0.08783071,-0.03307216,-0.03203335,-0.09486479,0.11990068,-0.034339614,-0.050012905,0.008136978,0.16765586,0.02886004,0.026082378,-0.014995443,0.021018043,-0.01506321,0.0412994,0.09075473}, 
{0.17906964,0.10825988,0.052446015,0.10681064,0.05353271,0.13893428,-0.08621727,-0.03518616,-0.0037589488,-0.047591124,-0.09229928,0.04346028,0.07866071,0.11210324,-0.03915222,0.041690648,-0.014627623,-0.10818153,-0.0647554,-0.09110326,0.02753962,0.03674791,-0.12083643,0.024372749,0.117522284,0.01998682,-0.05059006,-0.010507289,0.024694558,0.06917473,0.14501828,-0.04555825}, 
{0.01773555,0.13932371,0.057406675,0.05962187,0.08559378,0.24265794,-0.01739769,-0.10041737,-0.0020328679,-0.03464489,-0.14358243,0.006276137,0.0729515,0.0340013,-0.0056510274,0.16304263,0.031347375,0.0038640585,-0.039079025,0.030985907,-0.001691605,0.024933074,0.04429905,0.046053607,0.038819753,-0.06034373,-0.007490861,-0.065877534,-0.0028433378,0.17444836,0.10305509,0.033666823}, 
{0.04066437,0.05777991,0.14238644,-0.022805553,0.13203363,0.27010128,-0.07251846,-0.036241043,-0.08462242,-0.11084679,-0.15022667,0.11553559,0.10474946,0.03695599,-0.010198639,0.16582315,-0.07230424,0.1420815,-0.027331613,0.12775709,-0.008461469,0.008907821,-0.08500641,-0.0096869245,0.053100638,0.021348232,-0.09909519,-0.06499622,0.10760355,0.005332726,0.10653173,-0.0861162}, 
{0.036223903,0.011665508,0.16629723,0.09353156,0.005515641,0.2144519,-0.08706637,-0.14426371,-0.14636482,-0.08348853,-0.0355953,0.0110268425,0.1994652,0.05810228,-0.029810246,0.07341499,-0.06936796,0.19177671,-0.014739061,0.10842497,-0.055592965,0.10680288,-0.044416614,-0.034258172,0.012571566,-0.14575541,-0.008399094,0.04612714,-0.04524717,0.023055926,0.11729842,-0.0059267585}, 
{0.041055292,0.09884423,0.015543372,0.11713859,0.035050787,0.17152117,0.033976417,-0.062361006,0.053543694,-0.09544428,-0.02780529,0.030418256,0.19784918,0.071669295,-0.06285738,0.0349637,-0.03513201,0.2652062,-0.0048929392,0.1488854,0.042547137,0.06788872,-0.030332651,-0.08232912,-0.085688904,-0.006506138,-0.0029216274,0.08342869,-0.032812446,0.10631163,-0.0098722465,0.10650065}, 
{-0.014085959,-0.0018268302,0.010816238,-0.014847856,0.022446832,0.20275322,0.11207935,-0.010427017,-0.03909282,-0.068260625,-8.5090134e-05,-0.106851086,0.06466219,0.047683846,0.00048234346,0.045740806,-0.027477091,0.17739367,-0.055106208,0.075371236,0.055122282,0.14010404,0.1623328,0.061435074,0.010586756,-0.11557251,-0.036250263,0.035646327,-0.09747302,0.08591926,-0.0037125396,0.0058039553}, 
{0.016204506,-0.010910842,0.063564524,-0.011660022,-0.07818858,0.037925173,0.16998434,0.06130324,0.054597627,-0.061896153,0.10391808,-0.026969962,0.24846683,0.097168505,-0.050703105,-0.0072363084,-0.026208451,0.124842934,-0.102228366,-0.0112245865,-0.03916688,0.18935941,0.03058426,-0.08696239,0.033814963,-0.053738836,-0.0031897142,0.016409826,0.010805483,-0.006070238,-0.05196673,0.06308868}, 
{-0.030460462,-0.02696141,0.05392471,-0.021306096,0.026171029,0.03028959,0.15218759,-0.03869051,-0.0096845245,-0.059955947,0.032396145,0.009227524,0.122785866,-0.0086108055,-0.15548807,-0.06620306,0.006298798,0.07685028,-0.0056090667,-0.09085021,-0.090235725,-0.016464578,0.07251428,-0.05545602,-0.016461324,0.07079338,0.06248101,0.028427001,-0.06119974,0.007185175,0.007523841,0.14246432}, 
{0.07453404,-0.00830821,0.053509522,0.024113668,0.079816744,-0.0025716189,0.20536971,0.14134675,0.04852614,-0.0005008649,-0.0055438443,0.054456152,0.12210293,0.06318208,-0.12484409,-0.1413089,-0.06720607,0.044847246,-0.019215884,-0.08453191,-0.08068671,0.06592596,0.09184474,0.059809625,-0.046242993,-0.044132635,0.045615423,0.06349123,-0.027002394,0.0113373,-0.03142734,0.1808644}, 
{0.018910982,-0.24475463,-0.21855736,-0.14203052,0.032553915,-0.068140686,0.21256408,-0.020291194,0.033657815,0.029284475,0.17302811,0.043157957,0.08095739,0.05661016,-0.15220875,-0.1158874,-0.14320385,-0.06873331,-0.064082146,-0.025787681,-0.078411125,0.07395849,0.09829205,-0.026495036,-0.22328088,0.022913143,0.101997666,-0.0154104885,-0.1270251,0.051671915,-0.10072174,-0.020727701}, 
{0.034526154,-0.2064094,-0.14280538,-0.079701744,-0.18758756,-0.06262572,0.15185137,-0.021882242,0.0677539,0.011725702,0.17641822,-0.13184148,0.1080084,0.055850487,-0.044824023,-0.22356908,-0.109895796,-0.11472538,-0.10529161,-0.016826475,-0.062816575,0.01789801,0.12084228,0.12894286,-0.17349894,0.018699339,0.09737982,-0.022068964,-0.09908567,0.03232347,-0.06087635,0.017221566}, 
{0.14432594,0.02551366,-0.070354246,-0.00096664194,-0.025694875,0.06370863,0.034580726,-0.1998518,-0.07515453,0.063763864,0.10906514,-0.060121063,0.21989731,0.062088374,0.20569499,-0.0686767,-0.13597253,-0.13771462,-0.08408329,-0.20909636,-0.20621108,0.18566085,0.17169353,0.18253125,-0.11585506,-0.091018304,0.15648448,-0.090817645,-0.08008257,-0.08286713,0.01470121,-0.20874879}, 
{0.06376921,-0.05103642,-0.041171208,0.09185773,-0.1288708,0.08885071,-0.14539577,-0.014654053,-0.06799649,0.054753922,0.15603533,-0.023785735,0.15772675,0.016754132,0.044145618,-0.10090247,0.057558384,-0.12143444,-0.054689247,-0.082017094,0.028061777,0.06637306,0.19946216,0.10879627,-0.1452995,-0.10306192,0.04424749,-0.076611735,-0.12073336,0.0333583,0.04702382,-0.15339905}, 
{0.0746277,-0.123426214,-0.059679423,-0.045353953,-0.14869389,0.022090824,-0.05794249,-0.11920365,-0.07679603,0.026189096,0.09635444,0.07805208,0.09698576,0.023975767,0.1824363,0.039984874,-0.07886121,-0.12735008,-0.10101034,-0.0120372875,-0.11905836,-0.017037366,-0.02525126,0.042540148,0.050250113,0.0011625197,-0.010914617,-0.13420117,-0.038952153,-0.033844497,0.00879206,-0.03683346}, 
{0.0065116454,-0.050984476,-0.079076886,0.008636687,0.08560117,0.009058709,-0.03627486,-0.061538663,-0.017525405,0.069265835,-0.06868956,0.0050423415,0.07403227,-0.019673312,0.07336282,-0.07303302,-0.05970623,0.009550132,0.08255915,0.08887911,-0.014481719,-0.07135441,0.07352871,-0.02560925,0.020945242,-0.039379746,0.0025885254,0.06361402,0.09137833,-0.059809253,-0.034380868,-0.0013154447}, 
{0.16499162,-0.09852175,-0.123610385,0.06383732,0.043044623,-0.08394641,0.030939288,0.046115246,0.15226233,-0.04656898,-0.001085772,0.024383456,-0.04879556,0.060033016,-0.06769812,0.108392306,0.0010129847,-0.18657194,0.16051108,0.20283237,0.17773604,-0.096412465,-0.15175188,-0.17099296,0.096622646,0.013151679,-0.036358677,0.029320579,0.20250684,-0.09833149,-0.08845224,0.18512861}, 
{-0.15792914,-0.024021354,0.026799235,0.09177433,0.016897464,0.057049543,0.029421296,0.06499514,0.015204332,0.038523886,0.05334697,-0.06408323,1.1515716e-05,0.0034723543,0.062185325,0.04477332,0.14733316,-0.13621242,0.10206928,-0.048885282,0.06667713,-0.07635142,-0.008347733,0.032736454,0.07738342,-0.08170921,0.06731371,-0.06640139,0.1781293,-0.044263624,-0.015259815,-0.10585422}, 
{0.0041426886,-0.019961847,-0.0053869523,0.0913613,-0.023023836,0.076915294,-0.062659994,-0.03830959,-0.044320427,0.015596747,0.09879878,0.0779694,-0.033641655,-0.011459598,-0.048798107,0.023339216,0.08973723,-0.12357305,0.23653072,0.18784785,0.15934072,0.12651666,-0.060352206,-0.070979394,0.08094791,0.082291394,-0.06722893,0.022304868,0.1560969,-0.07477263,-0.013578525,0.012049781}, 
{0.01763124,0.1604049,-0.20123148,-0.032009397,-0.092610754,0.0032475789,-0.05479498,-0.042083114,-0.1790818,0.07444042,0.14915085,0.21933733,-0.11860537,-0.03883141,-0.041840672,-0.038254157,-0.020556081,-0.05378411,0.15365794,0.02127436,0.25156245,-0.16700196,0.06596675,-0.042199105,0.0073869056,0.18619151,-0.06402604,-0.10434136,0.038606707,-0.13883539,0.17720127,-0.113069475}, 
{0.025957694,-0.08424352,-0.356337,0.048068408,-0.053884342,-0.05721033,-0.047655974,-0.059928972,0.012280671,0.06583659,0.15105213,0.06913431,-0.10869173,0.14978427,-0.08470333,-0.046931848,-0.06727472,-0.11617713,0.1608981,0.10882145,0.1864868,-0.0037262116,-0.05448269,-0.085869834,-0.08149614,0.16698529,0.085356236,-0.2016416,0.07521394,-0.21892571,0.058740173,-0.046766102}, 
{0.08842916,-0.06334667,-0.3298057,0.04580782,-0.017353607,-0.04544134,0.0055392897,0.09736295,-0.046093855,-0.06402244,0.15005839,0.041873302,0.011676227,0.046839356,0.044199415,-0.045276,-0.10579736,0.015997134,0.16693696,0.034975674,0.10580009,-0.11447433,-0.04052147,-0.10758552,0.10479982,-0.02600177,-0.03985037,-0.15523057,0.1634883,-0.29018185,0.11995106,0.07763243}, 
{-0.00016780358,-0.05573313,-0.23061934,0.032067116,0.065590225,-0.04763936,0.00463808,-0.03621757,0.017356928,-0.091215454,0.07641264,-0.033641186,-0.01962541,0.031639695,0.10188327,-0.036317877,-0.12532374,-0.111089766,0.12437865,0.007942991,0.085453086,-0.07262748,0.03897493,-0.08083227,0.09534603,-0.018316269,-0.0054329005,-0.23936175,0.18169111,-0.04354731,0.09276324,-0.018550422}, 
{0.07313409,-0.020200642,-0.039698243,0.05292017,0.010082153,0.05054591,-0.05422326,-0.045863234,-0.010414398,0.0007034269,0.12427222,-0.05325971,-0.018752746,-0.025031896,0.08093273,0.041036423,-0.0380865,-0.11881964,-0.035150703,0.09457131,-0.03682345,-0.092394724,-0.009475153,0.037354738,-0.020181062,0.018430196,0.0021052456,-0.1470816,0.09352671,-0.06424413,0.019866744,-0.15302514}, 
{0.1749141,0.025174815,-0.109576605,0.059155528,0.03052044,0.0849463,-0.06739842,0.014489152,0.03993829,-0.059503835,0.044175975,-0.07841325,0.018934643,0.002780107,0.057455376,0.047715783,-0.056754243,-0.04056548,0.08762798,0.08682998,0.10091127,-0.19640855,-0.025891315,0.048338998,0.16058706,-0.017204892,-0.011809537,-0.08762408,0.06904168,0.05713744,-0.030239472,0.002996697}, 
{0.075120986,0.0072424207,0.0034173091,0.07419081,0.056123007,0.108074926,-0.04536642,0.023255844,-0.0063439873,0.103785306,-0.03699802,-0.07536004,-0.07913801,-0.00035922005,-0.020104308,0.0091416305,-0.08014866,-0.06923911,-0.08146372,0.062112913,0.037479237,-0.04031007,-0.03217813,0.022002487,0.13161248,-0.09180677,0.02259605,-0.07557795,0.11869267,-0.03918189,0.030469881,-0.08285113}, 
{0.1561227,0.10766688,-0.035869583,0.041205887,0.06924239,0.14756349,0.013242676,0.00054001564,0.029280681,-0.021007298,-0.096329,0.007075445,0.022429215,-0.03643822,-0.09025539,0.010746932,-0.086454354,-0.01470877,-0.067112744,0.06300154,-0.07310571,-0.14447977,-0.10661976,0.09091,0.21193531,-0.048894048,0.010138469,-0.03407768,0.11679086,-0.0005942241,0.14999726,-0.0854074}, 
{0.07190533,0.031685002,0.09062688,0.09843833,0.015244174,0.14040482,0.05370798,0.09468613,0.12251498,0.14115636,-0.17403167,0.049633667,-0.021127935,0.037916057,-0.036178507,0.067159735,0.0061556413,-0.027840937,-0.0442198,0.03332996,-0.032324053,0.013589903,-0.085529566,0.036713287,0.09969067,-0.013626379,-0.08886323,0.03151418,0.10416258,0.05894986,0.12525503,-0.13525908}, 
{0.12354469,0.169618,0.026245493,0.15345982,0.000330011,0.18612464,-0.060495496,-0.02069177,0.10253674,0.0987052,-0.20352778,-0.038217198,0.021442236,-0.024484202,-0.09050038,0.0859356,-0.11255244,-0.059807666,-0.04338794,0.032606725,-0.028122399,-0.10912594,-0.14357989,0.0878645,0.065213256,-0.05306919,-0.09866933,-0.049719706,0.07921438,0.028547678,0.04280113,-0.04971912}, 
{0.022194525,0.1999863,0.13956816,0.09614578,-0.018513706,0.18589431,-0.17000061,-0.009403434,0.06796075,-0.06797135,-0.15318103,-0.0025266064,0.17153096,0.12832156,-0.025928507,0.11509311,0.039364487,-0.105287604,-0.007607538,-0.028611818,-0.107601896,-0.105474055,0.012031421,0.06657072,0.038236093,-0.001063067,-0.092262544,0.009136985,0.18049149,0.15081319,0.09483849,0.018771332}, 
{0.031507637,0.076873206,0.18180826,0.13519526,0.04031994,0.20944169,-0.13950433,-0.10364329,-0.044129312,-0.007256029,-0.22762866,0.0685409,0.22304909,-0.035356652,0.078253545,0.22763373,-0.017110322,-0.022870908,-0.030157903,-0.03904563,-0.02332391,0.037618306,-0.006408296,0.109773256,-0.0049625994,-0.07410926,-0.08207058,0.027692925,0.030582117,0.029339837,0.0054689967,-0.013641907}, 
{0.04344909,0.12260436,0.037703626,0.0769181,0.1356957,0.18028098,-0.1918986,-0.06054656,-0.0941028,-0.10168405,-0.21446814,0.02401572,0.1809853,0.12852204,0.10802393,0.17309776,-0.032253053,0.060363043,0.023882182,0.09199587,-0.0010759135,0.058455385,0.030919177,0.061760016,-0.02168016,-0.10033912,0.038431346,-0.0025489882,0.031543337,0.13115175,-0.038736437,-0.007176946}, 
{-0.0020528666,-0.03537524,0.14588152,0.087608606,0.06750112,0.21650575,-0.087023,-0.087941945,-0.06197904,-0.16287513,-0.055207998,-0.07569428,0.20830257,0.06807467,-0.00859862,0.055134322,0.016230313,0.17830664,0.10353972,0.16932966,-0.030594798,0.019634606,-0.006580401,0.032230712,0.09053703,-0.14069535,0.021871768,0.026368508,0.12726533,0.071245246,-0.13773604,0.093030386}, 
{-0.07733029,0.030535968,0.047653917,0.096105196,0.18030475,0.17497243,0.07091355,0.0865188,-0.066443935,-0.04918805,-0.036339518,0.0018451732,0.26338178,0.06477224,-0.037370507,0.096913494,-0.069393516,0.21467493,-0.041314613,0.04016259,0.013867038,0.06516592,0.02953055,0.052443698,-0.0025194818,-0.132824,0.059916794,-0.006372364,0.07858916,0.03605027,-0.19939949,0.0038572042}, 
{0.006173015,-0.04609729,-0.019256813,0.18243152,0.096217796,0.053289514,0.052351516,0.10322465,-0.008506945,-0.1269569,-0.013491987,0.024217648,0.18819141,0.12245796,-0.008239309,0.025798658,-0.039560094,0.2617883,-0.08025311,0.077292204,0.030005584,0.107526414,-0.04286475,-0.06807466,-0.015405447,0.0051796543,0.03822646,0.04235879,0.07636052,-0.0007486919,-0.07236027,0.06865664}, 
{0.03182728,-0.022800678,-0.031231558,0.074640654,-0.012902869,0.1337186,0.0920988,0.12737834,-0.000628631,-0.022199266,-0.023360949,-0.10670888,0.15095235,0.052148767,-0.045259997,0.055429716,0.002296482,0.075522125,-0.08518415,0.16390614,-0.06253123,0.039810788,7.854184e-05,0.015206906,0.019282445,0.054221578,-0.0069697876,0.055973627,-0.005321745,0.027364638,-0.07384755,0.011933349}, 
{0.10015629,-0.09745228,-0.020929039,0.045895237,0.06790614,-0.01461217,0.26521555,0.05594003,-0.05318507,-0.060833264,0.10897582,-0.087864615,0.16365254,-0.0037705996,-0.024151579,0.0020703536,-0.08511433,0.05733851,-0.06353981,0.05806072,-0.086956404,-0.048281435,0.16369808,-0.044405535,0.09545662,0.06981996,0.069311336,0.08881801,-0.04632769,-0.0019061812,-0.08726926,-0.0027633258}, 
{0.026013125,-0.005564109,0.024157243,0.09564623,-0.055607498,0.061120637,0.2332752,0.105373524,-0.007529923,-0.078844875,0.15877743,0.019423155,0.054437265,0.01642664,-0.19028018,-0.11764464,0.023476476,0.12914917,-0.117378674,-0.045840036,-0.10681789,0.06407936,0.16873501,0.08004287,0.032179642,0.026375355,0.08560413,-0.088279165,-0.0262492,-0.13069083,-0.09075031,-0.04944739}, 
{-0.022855068,-0.16737296,-0.06671489,0.024213769,0.068483725,-0.036028147,0.24928518,0.057746917,-0.10913546,-0.06177226,0.11561679,-0.0951946,0.004200993,-0.03594528,-0.19764355,0.028073722,-0.14958733,0.07854929,-0.034278404,-0.038612466,-0.21113117,0.18472654,0.056855343,-0.009639653,-0.09174039,0.017676853,0.04230972,-0.051094268,0.044987738,-0.16860047,-0.20077439,0.098001465}, 
{0.068617634,-0.16000436,-0.16629505,0.022152683,-0.0007142365,-0.053610012,0.14314975,-0.08346096,0.052929122,-0.12055219,0.10675487,-0.042858567,0.14861314,-0.057310224,-0.0017173745,-0.11164938,-0.16603683,-0.01576134,-0.07233224,-0.20473753,-0.162009,0.25191936,0.15700257,0.12085237,0.03561603,0.060648743,0.19300628,-0.069700815,-0.09485719,0.033982884,-0.08833738,0.059228886}, 
{0.15832408,-0.051673338,-0.20636381,0.09247632,-0.056211334,0.13742992,0.049644552,-0.15662031,-0.02434063,0.019116415,0.2505807,-0.043760005,0.06784786,0.14013104,0.031757936,-0.07177002,-0.113110155,-0.1524515,-0.04167435,-0.32473075,-0.24438907,0.15701465,0.18960992,0.16350916,-0.088024415,-0.17352238,0.14926112,-0.10130504,-0.08640353,-0.046378277,-0.11089771,-0.17508268}, 
{0.0960622,-0.11816609,-0.16427338,0.11657709,-0.22939771,0.08124124,-0.16958272,-0.09043232,-0.030023376,0.11791373,0.18808898,-0.07176274,-0.008038711,0.09187193,-0.11132207,-0.12670603,0.07815198,-0.08100927,-0.003087817,-0.025604077,-0.049025316,0.06738209,0.17728767,0.17315593,-0.09412909,-0.043402515,0.07121765,0.06901463,-0.16517667,0.033497654,-0.023285188,-0.09061964}, 
{0.03484256,-0.079954796,-0.18577202,0.031569805,-0.08900619,-0.052605502,-0.06727955,-0.07931843,-0.06424514,0.01287928,0.014694455,-0.053620283,-0.043880038,0.11936821,0.040619705,-0.033798616,-0.021112617,-0.025849173,-0.030015752,0.08986797,-0.024972688,0.08719504,0.09531062,0.07569432,-0.06431482,-0.025114952,0.16827305,-0.05179031,-0.05639661,-0.04706127,-0.108182214,-0.119734}, 
{-0.027248558,-0.12202026,0.013712823,0.067570575,-0.03036273,-0.078018665,0.07929165,0.035638418,-0.07708045,-0.022941612,-0.03165075,0.041685205,-0.03642384,-0.008431281,-0.08437193,0.108465,-0.05144027,-0.032876704,0.06317027,0.087681204,0.05022388,0.008495249,0.068645634,0.09287492,-0.029672991,0.007828787,-0.05868541,-0.019117355,0.018869549,-0.05617725,-0.023381885,0.075627945}, 
{-0.04147876,-0.084875785,0.024063375,0.1791147,0.12441739,-0.16760439,0.006619148,0.06354644,0.058367513,0.015219927,-0.05565317,-0.060726445,-0.0010378114,0.019711288,-0.12071634,0.21422656,0.0822481,-0.12192596,0.22878116,0.17507695,0.014686097,-0.13090265,-0.02679503,-0.07781569,0.18183689,-0.004309767,-0.11896625,-0.09409673,0.12498327,-0.019069443,-0.18342543,-0.042527348}, 
{-0.13094357,-0.03481234,-0.12846386,0.007265051,-0.012438433,0.08178382,-0.019677097,0.06777794,-0.045761883,0.02849197,0.08716006,0.030017644,-0.050760277,0.11959303,-0.06302765,-0.09169109,0.11406816,-0.11260693,0.16069412,0.02593329,0.07538257,-0.07146052,0.025559891,-0.08867803,0.019103179,-0.041696202,0.034412757,-0.14563034,-0.028043048,-0.05658787,0.0055039986,-0.0031567574}, 
{-0.13696341,-0.017297944,-0.0927218,0.17424765,-0.012798865,0.02142261,-0.013861441,0.032058924,-0.0707603,-0.05323343,0.26365364,0.04003116,0.048933487,-0.06702225,0.017882014,0.04631823,-0.022994075,-0.023103684,0.2025428,-0.05852102,0.10794053,-0.061350144,0.07647683,-0.012987279,0.025230901,0.14330544,-0.07367349,0.0019947332,0.08865677,-0.16491205,-0.020988686,-0.15353313}, 
{0.012276943,0.115360774,-0.18134451,0.05651503,-0.13908514,0.042304005,-0.06930192,-0.037935242,-0.030018419,-0.01978945,0.16609262,0.33184525,-0.04209516,0.02583907,0.06919522,-0.041927144,-0.058143612,-0.22595167,0.20471784,0.007127084,0.2521434,-0.09537617,-0.07416297,-0.10477738,0.017847495,0.13654336,-0.034487862,-0.12152436,0.102825955,-0.27503523,0.16668835,-0.065657355}, 
{0.11018625,0.07177527,-0.30130935,0.071605146,-0.13524014,-0.07448762,-0.08505591,0.07366,-0.113534205,0.006721663,0.16293581,0.039306212,-0.06570138,0.15370871,-0.03198652,-0.069199905,-0.039632086,-0.14235382,0.18552372,-0.04004126,0.03740691,0.05298707,-0.02075553,0.018133208,-0.026884321,-0.007328139,-0.10193613,-0.20320538,0.06976936,-0.26077583,0.023069795,-0.0796912}, 
{0.12356722,0.047525797,-0.1823171,0.0064599565,0.0658997,0.021350197,-0.054845914,-0.0385272,-0.04134223,-0.11308865,0.11581958,-0.011384667,0.017672867,-0.02309658,0.106919214,0.05540713,-0.03601405,0.006317197,0.09103917,0.11006037,-0.0011649317,0.0044059083,-0.019490018,-0.050090086,0.15422823,-0.038501926,-0.103794076,-0.20689416,0.11748576,-0.25378639,-0.0006471738,-0.10493353}, 
{0.07393166,0.05785415,-0.15789431,0.11167858,0.051713288,0.15278368,-0.045102283,-0.0018998056,0.03095603,0.040133614,0.100424536,0.08909631,-0.023052773,0.01359759,0.068722,0.015866451,-0.19560875,0.0039882194,0.06338987,0.09298855,-0.019735426,-0.2234496,0.012512786,-0.07214124,0.02821295,0.0010954427,-0.07586594,-0.20685342,0.07519874,-0.15399037,-0.025477825,-0.02191296}, 
{0.20330943,-0.048508573,-0.0897546,0.11023628,0.06460984,0.098037526,-0.051760927,0.019238528,-0.006518715,-0.0825445,0.06494169,-0.092969425,0.08814605,0.049477216,0.07053335,0.1180189,-0.03720909,-0.040881872,0.001348566,0.08537016,0.03545578,-0.074484624,0.06983902,0.03142886,0.066107385,-0.08602099,-0.10075178,-0.092309326,0.112827875,-0.091176935,0.031621564,-0.12573072}, 
{0.17856157,-0.013541206,-0.076948695,0.08872574,0.021880075,0.15957202,-0.04200015,-0.042618074,0.008465296,0.046067763,-0.0054353625,0.054304417,-0.08120849,-0.010699658,-0.021281682,0.107274316,-0.10871203,-0.01605668,0.06740576,0.15806927,-0.058874846,-0.08001036,0.05730451,0.0014408696,0.13910538,-0.09114317,0.052322097,-0.1514958,0.017744565,-0.04080174,-0.031945612,-0.10066066}, 
{0.18504222,0.0636636,-0.07786476,0.03109437,0.11087,0.11186769,-0.12297339,-0.035134178,0.057750832,-0.04371924,0.05330991,0.10522367,0.056768242,-0.0046783504,0.088306986,0.047262214,0.02271532,0.032635245,-0.025553325,0.16698097,-0.117212206,0.07280314,-0.0025815065,-0.0050882,0.12549113,-0.056474384,0.019189578,-0.029232495,0.12669949,0.034939017,0.042674188,-0.092893906}, 
{0.07710237,-0.032137994,-0.012253402,0.14928026,0.080439225,0.14375967,0.04562177,-0.019223535,0.15326463,0.1074801,-0.09503236,0.019402577,0.011341179,0.013941078,0.040843286,0.08020759,-0.020514611,-0.118138164,-0.11633979,0.084845185,-0.12461895,-0.02463238,-0.0131226815,0.02934204,0.044700835,-0.09163312,-0.03640876,-0.029771486,0.037117478,0.11145178,0.0045378995,-0.16202873}, 
{0.022218643,0.09852604,0.021875396,0.070681036,0.09646451,0.1318168,-0.13924474,0.13309489,0.1977473,0.040493973,-0.016955594,0.08799233,-0.031396486,-0.063139744,-0.00918263,0.12404113,-0.09129932,-0.05369901,-0.02016825,0.049821924,-0.18229264,-0.04170327,-0.07598036,-0.06987847,0.08992121,-0.07100424,-0.0019086944,-0.07528025,0.12788618,0.019738272,-0.10898273,-0.10679885}, 
{-0.0656387,0.027887162,0.05401858,-0.0046970937,-0.008087121,0.17824894,-0.2197869,0.14355852,0.015273256,0.05973758,-0.06719635,0.094248004,0.12139686,-0.018306812,-0.03967141,0.108241044,-0.041422572,-0.074666046,-0.025699135,-0.14207463,0.0063979654,-0.013866934,-0.07830655,0.025694987,-0.1071896,-0.039145846,-0.059454232,0.0447106,0.06520033,0.08165802,-0.011546535,-0.04271593}, 
{0.020728432,0.12504607,0.11839115,0.1122484,0.048315533,0.14009936,-0.23699573,0.11926668,0.02530422,0.094760016,-0.14689915,0.07604442,0.031412225,0.019903768,0.058191337,0.10739245,-0.087418795,-0.052010708,-0.030941479,0.047206797,-0.054959755,0.0047390736,-0.08750032,0.0047870525,-0.056850925,0.06157097,-0.11298288,0.14574344,0.18542227,0.19346374,-0.022069568,0.025691641}, 
{-0.14769053,0.017132187,0.0022233026,0.18020378,0.09608993,0.17035677,-0.1194081,0.08480997,-0.23301432,-0.09535689,-0.24086928,0.027260369,0.15157372,0.12551609,-0.014732106,0.18431339,0.1159445,0.012975064,0.02552856,-0.0027089615,0.01156876,-0.05280534,-0.018814657,0.053379934,-0.039988954,-0.070745125,-0.03782296,0.04297534,0.11220873,0.024905214,-0.0020579288,0.040910374}, 
{0.01610893,0.07072701,0.09321048,0.0915358,0.07792459,0.11190254,-0.038004976,0.02783421,-0.16286464,-0.09849106,-0.13390358,0.0108717475,0.11960513,0.15043418,0.04202606,0.06460165,-0.062897034,-0.017512234,0.06464497,0.13801152,-0.001522562,0.117857784,-0.090045825,0.048690677,0.026564462,-0.09577931,0.069632255,0.074343905,0.054034796,0.0148963,-0.110878296,0.21082817}, 
{-0.028541442,0.046959642,0.0050508846,0.038186695,0.047100596,0.18825893,-0.11531944,0.09423676,-0.16831873,-0.026143031,-0.11195307,0.02043556,0.1703671,0.0850504,-0.059152074,0.09817921,-0.105563775,0.13811217,0.07985086,0.16641149,0.041963402,0.040123735,-0.0075122416,0.07086669,-0.021614999,-0.048070196,-0.0023894496,0.04769089,0.18283859,-0.065411,-0.0800683,0.20100969}, 
{0.0050187693,0.012888407,-0.069566965,0.10913334,0.12465173,0.201596,-0.052657004,0.108010486,-0.15085055,-0.07120886,-0.08680972,-0.033557992,0.06556826,0.12523127,-0.1395101,0.0019002967,-0.02123105,0.07093305,-0.0062405937,0.028546615,-0.033564143,-0.035161532,-0.025633473,-0.0037089349,0.0017759043,-0.08089873,-0.038388137,0.05732747,0.092502736,-0.09165974,-0.12465709,0.094349585}, 
{0.053160753,-0.027298627,-0.07055789,0.18078758,0.034048297,0.07461608,-0.06684382,0.10762335,-0.076856695,-0.058493342,-0.03695959,-0.012514405,0.11004642,0.10211259,-0.0140791675,0.048183527,-0.02667672,0.19451539,-0.05569435,0.08456906,0.090906255,0.11305039,0.06891216,0.10274797,-0.014192269,-0.13078474,0.01269085,0.04487785,0.026928958,-0.18416448,-0.09611311,0.08133978}, 
{0.07188069,-0.031986874,-0.05851889,0.2257218,0.030788502,0.031206356,0.097397424,0.029464526,-0.13341953,-0.040166825,0.0950905,-0.015923342,0.09691116,0.06971922,-0.10243728,-0.1194576,-0.11044084,0.21859755,-0.16058894,0.02594496,-0.066597,0.105353415,0.07276088,0.07676897,0.08727809,0.069195725,0.124212034,-0.07628492,0.10690421,-0.1129705,-0.0730197,0.040243085}, 
{0.09301144,0.056603864,0.0049200896,0.09689755,-0.031818908,0.097102486,0.20461698,0.10126262,0.0014615869,-0.085821584,-0.017985664,-0.12119903,0.18676206,0.09806932,-0.15291671,-0.006662583,0.0019218583,0.17173146,-0.06104362,-0.008054495,-0.013970326,0.0810845,0.0080207465,0.07372159,0.05858034,-0.012464469,0.1297095,-0.006132392,0.07170441,-0.25850323,-0.13263746,0.10736428}, 
{0.1020242,0.09314495,0.0044688815,0.19674669,0.05927692,-0.046951275,0.21280147,0.07736012,-0.0730907,-0.010311771,0.08116522,-0.08269399,0.10955678,0.034594856,-0.04180172,-0.0033170895,-0.007361397,0.15467644,-0.13410883,0.0113970945,-0.053546246,0.112274736,0.009765496,0.032225363,0.045088515,0.037852973,0.029811159,-0.08152428,0.009352007,-0.13760866,-0.16011919,-0.013411335}, 
{0.04455734,-0.03628926,-0.1462514,0.08683795,0.15988545,0.022022685,0.3101007,0.17171013,-0.1142606,-0.041545995,0.13907193,-0.13275096,0.069919735,-0.02927742,-0.12329728,-0.17876904,-0.037177116,0.06678561,-0.21491817,-0.2068684,-0.16097358,0.19252582,0.115812175,0.0014853725,0.036813904,-0.056440312,0.20560819,-0.10823936,0.118371435,-0.12935811,-0.058436815,-0.024901597}, 
{0.17493188,-0.16585736,-0.08434312,0.1637546,0.10113574,0.11628299,0.13806313,0.012561791,-0.12665217,-0.07099368,0.2072966,-0.16586165,-0.016571801,0.0453345,-0.113879934,-0.1526917,-0.092676446,-0.0030480942,-0.22099794,-0.3918191,-0.45761636,0.3271238,0.23568258,0.11911296,-0.03470203,-0.30333087,0.18269078,-0.12705824,0.0618638,-0.027213797,-0.16095492,-0.13803309}, 
{0.25357378,-0.15081786,-0.23438628,0.08971709,-0.018839132,0.0759852,0.02963814,-0.055383194,-0.18273954,0.055968873,0.25064507,-0.24183057,0.062040456,0.098074384,0.0048017185,-0.14341824,-0.008644242,-0.03635781,-0.13694371,-0.22344829,-0.22586595,0.2524506,0.21094799,0.074505605,-0.01446667,-0.24040191,0.10632668,0.0030782335,-0.03334993,-0.027046965,-0.19516538,-0.21967547}, 
{0.019161211,0.06661097,-0.16332039,-0.112911254,-0.024711601,0.16501747,-0.13607325,-0.060401227,-0.11580228,0.03564024,0.28008237,0.00072873913,0.007883313,0.18064415,0.059759602,-0.067152016,-0.14065805,-0.07715846,-0.13722248,-0.10070503,-0.09435824,0.13637349,0.2504653,-0.0066601573,-0.097416766,-0.04135493,0.060636412,-0.01348416,-0.040439215,-0.11387021,-0.049609695,-0.19766085}, 
{0.03216431,-0.023915907,-0.06378311,0.017646305,0.11129919,0.026589861,0.06657226,-0.008359885,0.020617183,0.03574799,-0.022614019,-0.09957959,-0.06710657,0.06413762,0.13694519,0.020347262,-0.051682476,-0.089274816,-0.13190319,0.041885667,0.009030321,0.1927344,0.12686083,0.08812696,-0.0016468503,-0.042622644,0.106205806,-0.09142326,-0.07922446,-0.06818235,-0.052398577,-0.13929914}, 
{0.047962777,0.026224684,-0.039737333,-0.018859567,-0.071307376,0.031695385,-0.065164655,0.03618578,0.072337404,0.050533213,-0.036353916,-0.021970455,-0.022476587,0.0114183035,-0.08294345,0.04983006,0.044341553,0.026742846,-0.022656074,-0.0010337775,-0.041421123,0.007317394,-0.051213387,0.06386754,0.094878055,0.06467595,0.017883383,-0.011068173,-0.037319686,0.077553205,0.053303376,-0.0067817518}, 
{-0.019570056,-0.13592707,0.016615896,0.16389991,-0.015900455,-0.050437625,-0.0035331473,0.05347163,0.12276059,0.00724732,-0.098919645,-0.15549302,0.0019543914,0.046230365,-0.10583186,0.1578525,-0.035516344,-0.15448892,0.15004763,0.13754407,0.09396768,-0.022549463,-0.051686347,-0.10197172,0.16002057,-0.011310547,-0.059225727,-0.01565032,0.2073746,0.03968685,-0.15990755,0.04681464}, 
{0.03314773,-0.12156635,-0.08023688,0.13758643,-0.072193116,-0.0657154,0.09279532,-0.009597995,0.12129177,-0.055262864,0.045605544,0.08318566,-0.027280897,0.08832348,0.02943062,0.08535099,-0.117763326,0.033074953,0.15691933,0.06566952,0.17457788,-0.10286519,-0.059050106,-0.17479315,-0.07032587,-0.024975246,-0.007855518,-0.13273826,0.03125294,-0.066645905,-0.021997215,-0.07204613}, 
{-0.11560675,-0.045944843,-0.08418373,0.053333662,0.021811152,-0.078892514,-0.037055142,0.0031997561,-0.050599776,0.020417808,0.039069958,0.13011847,-0.07011416,0.01661473,0.049042027,0.15507044,0.088081375,-0.1750061,0.17374775,0.002152391,0.06763754,-0.107401006,-0.06895151,-0.024307938,0.07171336,0.11895289,-0.03672807,0.0011298858,0.027191082,-0.10331757,0.011312717,-0.15826112}, 
{0.044732545,0.0742657,-0.15702951,0.17156208,-0.056883477,0.043679897,-0.2005857,-0.034491323,0.060229126,-0.037647,0.005750712,0.16130948,-0.08532168,0.045355365,0.15804127,0.110248215,-0.051124033,-0.13262808,0.12599738,0.07747686,0.14500536,-0.18772441,-0.120964825,-0.13403518,0.055172563,0.23880652,-0.06460828,-0.05424905,0.20439894,-0.19037898,0.10684255,-0.098694995}, 
{0.10197331,0.040928163,-0.2534838,0.08397013,-0.08880703,0.0005200812,-0.10409209,0.15132244,-0.16618775,0.006429676,0.105460554,0.0011080028,0.035619877,-0.014611393,0.1103706,-0.041328263,-0.020185295,-0.16802321,0.084856875,-0.002875671,0.03498954,-0.10671774,-0.13350904,-0.04009317,0.004271607,0.004190092,-0.18256575,-0.20456724,0.14852223,-0.243555,0.057650097,-0.09495955}, 
{0.082566254,0.11513017,-0.06349211,0.044690922,0.052289896,0.078592435,-0.06516324,0.0026428925,-0.08468318,-0.1109651,-0.006411228,0.004158823,-0.03872501,-0.059473492,0.028292205,0.1581519,-0.10449393,0.036112707,0.012307175,0.05798873,-0.13612515,-0.16700684,-0.0468222,-0.066038184,0.040298212,-0.005314121,-0.12830609,-0.17617536,0.054652635,-0.1520609,-0.03432511,-0.02904983}, 
