float w2[32][16] = {{0.2688363,-0.0031449145,0.01928078,-0.5069673,0.4019854,0.27268744,-0.13059594,0.59472686,-0.32163373,0.06369649,-0.2672563,0.33758295,-0.0047855196,-0.22427496,0.5475908,-0.2084641}, 
{-0.10585209,0.19366488,0.15496954,-0.17320105,-0.039688338,-0.28741834,-0.36448193,0.5358023,0.13894378,0.15677652,-0.047581915,-0.29012805,-0.2583445,0.009223284,0.4882192,-0.32313776}, 
{0.27539545,0.39322212,-0.277127,-0.28278798,0.65409446,0.32163092,-0.10533926,0.08203607,-0.115660936,-0.3988163,0.24085431,-0.0024595286,0.0926812,0.47357213,-0.37832075,-0.31856427}, 
{0.19564703,0.25011638,-0.011955541,-0.024873706,0.2567387,0.341463,0.17003243,-0.04644417,-0.17049268,0.39183334,-0.090007015,-0.30766323,-0.041880228,-0.27264568,0.051388286,0.48982581}, 
{-0.17795403,0.2839014,-0.24458185,0.24934801,-0.31493554,-0.074300006,0.24737312,0.31505674,-0.28284612,0.1474877,0.22909042,0.2311249,0.45992538,-0.37080312,0.18780433,-0.12264957}, 
{0.31171525,-0.061919034,0.4391756,-0.30968377,-0.10674998,0.19043368,-0.008074026,0.13487992,-0.062182657,0.18498504,-0.09105676,-0.23632975,0.4712033,-0.061480813,0.0051688026,0.11358325}, 
{0.089993164,0.10004482,0.02795592,0.2891742,-0.36903736,-0.4260285,0.0754857,-0.054981273,-0.0125948945,0.5768334,0.18423721,-0.7106122,-0.118825704,0.10978299,-0.34714508,-0.31147057}, 
{-0.38426915,0.34823498,0.18779089,0.41689745,-0.233898,0.22416306,0.039390825,0.32325375,0.16324505,-0.28286895,0.032980718,0.28741068,-0.30842885,-0.24895486,0.51139295,-0.422621}, 
{-0.19583172,0.3862795,-0.46668175,0.05547257,0.36382657,0.14012368,-0.07693716,-0.58507144,0.11762286,-0.2659181,-0.27083632,0.49767902,-0.2613473,0.08038583,-0.15734942,0.3700788}, 
{0.13069794,-0.08693657,0.29504195,-0.22934654,0.37771448,-0.21453482,-0.25633112,-0.1266794,0.03481712,0.18403022,0.09814187,-0.4013374,-0.18092003,-0.12282501,-0.03409029,-0.15749496}, 
{0.1996483,-0.3112509,0.3107692,-0.08701583,-0.3948091,-0.26217914,0.35667962,-0.20452903,0.051454984,-0.055575527,-0.19208124,0.20802926,0.065649986,-0.0752713,0.23113173,0.18419883}, 
{0.028685005,-0.34495237,0.1304271,0.24898796,0.01919594,-0.40503582,-0.2465086,-0.1484333,-0.28816098,0.3616962,0.346716,-0.025889859,0.107667364,0.4996716,-0.10309183,-0.3494984}, 
{-0.41547096,0.25108966,-0.44441104,0.08009907,0.22306794,0.5012888,-0.20055193,0.5773791,-0.04356362,-0.102546826,0.2315387,0.083144955,-0.22771381,0.18602706,0.4610206,0.10742472}, 
{0.22330043,-0.11829094,-0.33371723,0.08164262,0.51646954,0.40177268,0.28564563,-0.064037204,-0.049881756,0.040794715,0.11848386,-0.14975263,0.07400047,-0.33091396,0.32329503,0.01187876}, 
{-0.48972365,0.20436132,0.16178471,-0.25564978,-0.19582976,0.03300553,-0.112610236,0.2952639,-0.22503991,0.048453204,0.056820605,-0.0416503,-0.05548857,0.5007941,0.13871974,0.21915556}, 
{0.3802037,0.4112455,0.54583234,0.25261393,0.0023498712,-0.06469679,-0.25666565,0.16497916,-0.26860446,0.29747242,-0.26100534,0.14727153,-0.04162917,0.11724623,-0.4154794,0.32251808}, 
{0.2507073,0.33517635,-0.28530195,-0.17309725,0.236116,-0.019524038,0.6714994,-0.22704323,-0.35025647,-0.1411183,0.0804682,-0.16986662,-0.23918329,0.16186585,0.040998816,-0.5791444}, 
{-0.12709482,0.13544239,0.3075341,0.18379344,-0.063065454,-0.09127571,-0.13648023,0.09516799,0.26005504,0.48907232,0.19117628,-0.54924476,0.59084815,0.42307886,-0.59001786,-0.4093635}, 
{0.29179084,0.13309409,-0.09134963,0.27647662,0.0693266,-0.3907579,0.597251,-0.14474663,-0.27366662,0.14449804,-0.3795473,-0.22454762,0.016826319,0.3391879,-0.14858493,0.10837708}, 
{0.21918546,-0.1921596,0.22323385,0.34954146,-0.40390447,-0.013661965,0.33405563,-0.5987953,-0.32714942,0.45606753,0.15949959,-0.112500235,-0.65475297,0.13010629,0.4964279,0.026966283}, 
{0.25802967,-0.54867,0.634515,0.02555945,-0.070388295,-0.19053435,-0.44226694,-0.0046380404,0.102995574,0.30048645,0.20221215,-0.46851724,-0.51731825,-0.1805508,0.60809267,-0.18902324}, 
{0.20803875,0.15187056,-0.42697352,-0.39301732,0.45665494,0.09993581,-0.5550924,0.28347954,-0.11344105,0.029021421,-0.47896987,0.55026376,0.3188948,-0.4446131,0.0902531,0.45103586}, 
{0.2204651,-0.17575671,0.42737192,-0.1758579,0.23429881,-0.027329164,0.3384285,0.0879351,-0.37645125,-0.3057814,-0.15154316,0.3077701,0.1859272,0.029826764,0.4183272,0.40237695}, 
{-0.06720931,-0.19443998,0.16013867,0.19687134,0.2438356,0.2931253,0.30529016,0.36997825,0.052779634,-0.23845786,0.34701085,0.34920672,0.24538012,0.3526808,-0.24555299,0.3828984}, 
{-0.18624592,0.42709213,-0.22899947,0.44233066,0.10728285,0.41402364,0.4264624,0.06729223,0.2724395,-0.29391497,-0.6133693,-0.09011893,0.024232028,0.44096404,-0.43447438,0.37306917}, 
{0.17958394,-0.2669191,0.10399616,0.17482156,0.17088504,-0.18807222,-0.1643663,-0.11600158,-0.016931385,0.4909988,0.13657345,0.43983346,-0.2532731,0.43368652,0.19705659,0.12921937}, 
{-0.19262443,-0.16967194,-0.16493061,0.20992397,0.0047087055,0.17580305,0.25493905,0.20625278,-0.19190195,-0.033919107,0.20675962,0.5197711,0.28250366,0.29348722,0.27105612,0.19115354}, 
{0.44023153,-0.11292669,0.69079787,0.4790848,0.20216605,0.14973807,-0.043930095,-0.40042633,-0.037767053,-0.63476026,-0.32841125,-0.26423556,0.16614972,0.121532574,0.070404045,0.13165972}, 
{-0.07996589,0.30205354,-0.16418914,0.18073589,-0.36506227,0.5013115,0.28556636,0.2452164,-0.12742852,0.392886,-0.086093955,0.06656693,-0.47702447,-0.06476962,0.07596932,-0.3750852}, 
{-0.18694124,-0.040600255,-0.28742743,0.42228088,0.065712854,-0.006669324,0.11412161,0.038868006,-0.31231043,-0.38509744,-0.21773231,0.5540254,-0.06211178,0.4130756,0.031930346,0.14176522}, 
{-0.0170492,-0.079497844,-0.48776707,-0.5365119,0.48321435,0.2382203,0.29741716,0.4210113,0.2941691,-0.14662145,0.2282895,-0.20666127,-0.1350597,0.32360744,-0.14581835,-0.23158091}, 
{0.14954193,0.37834743,-0.08474708,0.4324302,0.45861143,0.25021425,-0.38452032,-0.41063693,-0.10733737,0.35172236,0.010458361,0.2645314,0.18762125,0.2619705,-0.27580026,-0.40432575}
};