float w3[16][10] = {{-0.14074889,0.06517132,-0.4263713,0.40639758,0.11448395,-0.33953866,-0.669265,0.004872593,-0.15706794,0.46251822}, 
{0.5332133,0.021874852,-0.10866618,0.16149004,-0.7691153,-0.068960026,-0.20789164,0.48155788,-0.3856531,0.4570254}, 
{-0.5985039,0.5430743,0.15585656,0.12951005,0.23224291,-0.3162135,-0.27360618,0.16646433,0.4015754,0.23301996}, 
{0.46976933,0.64315504,-0.19451854,-0.28616118,0.07330988,-0.44702438,0.00085889327,0.6740548,-0.27602792,-0.38212764}, 
{0.074900225,-0.46829256,-0.0588356,0.3238903,-0.07570237,0.49839672,0.317219,-0.6088139,-0.65765375,0.4496062}, 
{-0.014467681,-0.49239266,-0.11179928,-0.03127696,-0.6448483,0.5740377,-0.45745158,0.317884,-0.42367223,-0.014279074}, 
{-0.06482247,-0.45627066,0.5265746,-0.37456822,0.60748,0.17069836,0.031586807,0.42563877,-0.50589794,-0.22030358}, 
{0.03879243,-0.19427188,0.44987145,0.13269384,-0.53090537,0.19323994,-0.032239318,-0.567084,0.6046648,0.32026324}, 
{0.019475399,-0.08047848,0.12866847,-0.42696902,0.32169,0.21937637,0.32172155,0.2871452,0.16674282,0.014711086}, 
{0.38820463,-0.7604601,0.108457744,0.4690641,-0.3938659,-0.5142678,-0.13479704,0.3670839,-0.0063784774,-0.50983906}, 
{-0.49077177,-0.38300404,0.53393275,-0.30967346,-0.0857181,-0.12760319,-0.07004012,0.27165696,-0.6498379,-0.6045089}, 
{-0.002269691,0.076168165,-0.5798456,-0.25794774,-0.30932504,0.41068843,0.2977052,-0.5220007,-0.009114947,-0.79788315}, 
{0.47683078,-0.5584848,-0.26966926,-0.49238914,0.24266347,-0.16336292,-0.15223262,-0.7628229,0.43413264,0.24482721}, 
{0.026276387,-0.006667246,0.13062148,-0.26473728,-0.3178909,-0.5945892,0.55696076,-0.32271004,-0.24226145,-0.092218116}, 
{-0.43369168,0.44191813,0.1674626,0.24811028,-0.1789461,0.29546145,-0.3963193,-0.159988,-0.15859032,-0.46868995}, 
{-0.38007358,-0.06856849,-0.63469213,0.014631106,0.46590757,0.21118467,0.4544276,0.525641,0.46069983,0.146221}
};