float w1[1024][10] = {{-0.011000739,0.054294318,0.07646956,0.06335499,0.010000892,-0.06165352,-0.17207706,0.17932329,-0.03869378,-0.22935846}, 
{0.07626348,0.040238384,-0.022537453,-0.05804461,0.0765099,0.036877546,0.06399042,-0.008497747,0.042453103,0.082152605}, 
{0.07036513,-0.08489666,0.05315665,-0.04008509,-0.051758498,0.027628645,0.071009874,0.046825938,-0.05000528,0.017301107}, 
{0.07755848,-0.14015487,0.08366646,0.08907852,-0.042641025,-0.026793633,-0.0443719,-0.15544671,-0.07980691,0.06153925}, 
{0.034759775,0.0816023,-0.06005051,0.0002553896,0.0081468085,0.021811478,-0.022798676,0.06210102,-0.04661964,-0.08251658}, 
{0.008989595,-0.046076983,0.007954375,0.05029202,0.06931944,0.034782365,0.008830388,0.027178776,0.06233942,0.02345809}, 
{0.007726502,-0.026540764,0.06727782,-0.06972095,0.056052327,0.004910878,-0.09864082,0.0015607503,0.03822386,-0.0016497078}, 
{0.034806635,-0.02636739,0.023635684,-0.13893312,-0.01387382,0.07125444,0.017955512,0.055099625,-0.045405507,-0.022194859}, 
{-0.034797292,-0.11031334,0.040874235,0.045468606,-0.06323541,0.018507997,-0.10359923,-0.006789288,0.07214755,0.10005346}, 
{0.02805516,0.06063492,-0.053031985,-0.07051076,0.02605363,-0.08126407,-0.12672396,0.057441026,-0.028393129,0.0011425058}, 
{-0.09918016,-0.08492306,-0.11407474,-0.086833894,0.03699487,-0.049093332,0.040311188,-0.012127726,0.071697,0.03458444}, 
{0.0478513,0.046125747,0.057129953,-0.15436774,-0.06869089,0.07301723,0.019924723,0.008001422,-0.007948995,0.03107798}, 
{-0.0022838172,-0.089020774,-0.027258538,0.085181236,0.003955119,0.0143918805,0.034186997,0.0729941,0.04040024,-0.07258663}, 
{-0.13006258,0.058352843,-0.020475432,-0.08939598,-0.026724432,-0.054833706,0.10010846,0.106218025,0.024080027,-0.07619763}, 
{0.050980512,0.007522748,-0.0109037375,0.032588538,0.068728924,-0.04253447,-0.1187721,0.12508768,-0.08564046,0.0038254727}, 
{-0.045906253,-0.050825845,-0.016693657,-0.044931483,0.04279752,0.038067434,-0.0819675,-0.011298099,0.015824486,0.12241052}, 
{-0.036175538,-0.00024694047,-0.085099764,-0.12712185,0.09570749,0.07699431,-0.007944087,0.05461965,0.06729413,-0.0064728134}, 
{-0.061304968,-0.11798492,0.0051528797,-0.03215643,-0.0655843,-0.042977277,0.17812036,-0.09598431,-0.0422163,-0.05553572}, 
{0.03480929,0.007418181,-0.027880369,0.026577855,0.005233923,0.0023109652,0.02392325,-0.01731812,0.0108425785,0.027915133}, 
{0.06774972,0.026615057,0.05391789,-0.0700531,-0.07000137,0.04900841,-0.029308798,-0.11209073,0.011141139,0.099399455}, 
{-0.003150392,0.023864463,-0.054968208,0.017919483,0.0013799391,0.021306105,0.014719633,-0.0441649,0.056335777,0.06554497}, 
{-0.0039654556,0.013752273,0.049584392,-0.024281641,-0.13183922,-0.037284594,0.049624577,0.050280437,0.034639638,-0.047384843}, 
{0.0032799286,0.027983876,0.031437565,0.07434761,0.0045981137,0.0067556766,0.0031887947,0.038191747,0.02664807,0.011163572}, 
{-0.030826377,-0.016999504,-0.0061952774,0.08210555,-0.064297594,-0.08221422,0.015756048,0.06768381,-0.0012703275,-0.061878543}, 
{0.012338859,-0.007627517,-0.06299277,0.05432842,-0.06708375,-0.020127526,-0.014252518,0.068821184,0.06666227,0.04908986}, 
{-0.07838925,-0.019830633,-0.009655993,-0.008099093,0.09307566,-0.039751977,0.043952372,0.01882844,-0.030799722,-0.077886485}, 
{0.024210017,0.011687674,0.005088433,-0.070854254,0.050130814,0.05131306,-0.00879097,0.07879199,-0.15883702,-0.117166735}, 
{-0.07016017,-0.020857371,0.054449763,0.021220334,-0.06526706,-0.023840467,-0.019760946,-0.04606797,-0.028899709,-0.012239929}, 
{-0.08302484,-0.00841768,0.024178635,0.010840177,0.037103236,0.036307137,-0.048228133,0.047454376,-0.041769013,-0.046847776}, 
{-0.017046576,-0.09058772,0.0138849,0.017131234,0.008944105,0.07044716,-0.06046402,-0.03649641,0.039693747,0.043153852}, 
{-0.012887921,-0.09638811,-0.001663633,-0.08102513,0.076385446,0.013008987,0.12420857,-0.13874418,0.0009081878,0.017433397}, 
{-0.06873726,0.06712147,0.07064511,0.030140799,-0.07166916,-0.058317285,-0.06707885,0.04013139,0.028849384,0.027206982}, 
{0.035754815,0.008929667,0.03969024,-0.016109133,-0.009121631,-0.060068864,0.023099998,0.0016672057,-0.012846857,0.05610846}, 
{-0.0039230348,-0.09216675,-0.13000244,-0.0920285,0.04263556,0.051807284,0.07429028,0.04320889,-0.04301811,0.0057174833}, 
{-0.042509723,0.0010968054,0.040518668,-0.085151464,0.017218648,-0.02020129,-0.061692797,0.07608808,-0.017807497,0.024414498}, 
{-0.0753525,-0.046186525,-0.04750514,0.068293005,0.061692297,-0.04136131,0.058331113,0.054719638,-0.07229313,-0.055166233}, 
{0.006808249,-0.05131827,-0.018722793,-0.14113882,0.074192956,0.052425265,0.15597937,-0.029905267,-0.07912029,0.018060088}, 
{-0.010018084,-0.037670385,0.026744563,0.006706362,-0.05373269,0.099412784,0.051465157,0.07995431,-0.022215296,-0.03287372}, 
{-0.02412083,-0.021036083,-0.070231654,-0.107830115,0.043849915,0.12863807,-0.110899605,0.042144544,0.023347903,-0.05817604}, 
{-0.0042887395,-0.11266318,0.023020705,-0.10755126,-0.02028116,-0.04032557,0.044016674,-0.09166232,0.05672847,0.08811077}, 
{-0.019324211,-0.023088625,0.07451794,0.09052503,-0.1118738,-0.044935267,-0.03399095,0.037360854,0.038838886,-0.041706946}, 
{0.06492968,0.025736205,0.058863163,0.029654546,0.06581396,-0.009201722,-0.08890863,0.14682491,0.066864006,-0.08200083}, 
{0.06927233,-0.00044522382,-0.0015350415,-0.036027096,0.09027808,0.03951576,0.079684556,-0.083806105,-0.02871144,-0.016918115}, 
{-0.082570806,0.06442007,-0.12516916,-0.009162564,0.07448779,0.060248654,0.12716362,0.11162683,-0.17017299,-0.18575984}, 
{-0.012607981,-0.07027545,0.05584911,-0.06572478,-0.013278298,0.04413265,-0.058296233,-0.011920348,0.048966985,-0.0063574426}, 
{-0.00052109506,-0.038584925,0.056222096,-0.025339382,-0.0597015,0.02925655,-0.007764199,0.071477406,0.06439081,0.026755532}, 
{0.06324343,-0.009083633,0.030312603,-0.027933788,0.03286232,-0.046484433,-0.016338803,-0.046466913,0.026520345,0.045276735}, 
{-0.023549939,0.046847954,-0.018804116,0.030684546,0.08470057,0.002540285,-0.07776797,0.13048415,0.034269586,-0.082057424}, 
{0.040923867,-0.07415847,0.026741052,-0.040760834,0.053506386,-0.056280747,0.009106587,0.03354527,-0.012648647,-0.037728928}, 
{0.042974822,0.01990969,-0.032684922,0.11274748,0.0678558,-0.09626743,0.024433794,0.0659915,-0.0062335664,-0.052449398}, 
{0.023405999,0.0775463,-0.014653414,-0.019064156,0.029947462,0.0021252346,0.02968771,0.04294606,-0.006773227,0.07262506}, 
{0.032291736,-0.025819434,-0.065149,-0.11212558,0.0875779,0.0014098759,-0.016973108,-0.043783918,0.019619683,0.092997536}, 
{0.024138823,-0.047417115,-0.044521824,-0.028649734,-0.05643108,0.015997248,-0.018388184,0.002036539,0.024955884,-0.022696266}, 
{-0.0688866,-0.004445342,0.04641886,0.042138826,0.030223837,0.0498146,-0.016056428,0.081600726,0.042485617,-0.12733056}, 
{0.039534513,-0.04368969,0.06843727,0.091928266,-0.10197638,-0.0964669,-0.029440194,0.016017573,0.017162865,0.033639885}, 
{0.016145522,0.017461505,0.009259577,0.025687005,-0.053293284,0.03976563,0.002892841,0.072983705,0.017544126,0.079485856}, 
{-0.0072568827,-0.04268399,-0.0005085007,0.09367727,0.06537442,-0.019392788,-0.04196882,0.015097849,0.062293395,-0.14384425}, 
{-0.100723706,0.033310764,0.030234035,-0.010950249,-0.0137135545,-0.034787945,-0.113625,0.050166495,-0.15219162,0.046495195}, 
{0.027327577,0.009546713,0.0075288587,0.08558585,-0.1329816,0.05290473,0.041267335,0.03889328,-0.009100402,-0.014360434}, 
{-0.045662954,-0.099439435,-0.09951259,0.06617626,-0.04871005,0.10006255,0.01887073,-0.05957218,-0.043480992,-0.100871}, 
{-0.0044777896,-0.0957077,-0.06983166,-0.068339616,0.05539127,0.12778918,0.044451147,0.019935528,0.036394153,-0.07021814}, 
{-0.12907463,0.0004522567,0.08633484,0.10786609,-0.14641137,-0.15295857,0.02558462,0.001431984,-0.04411822,-0.0755531}, 
{-0.036954712,-0.00083453703,-0.03453804,-0.034787178,-0.1098945,-0.0072115897,-0.11355892,0.056230493,0.1163285,-0.005323005}, 
{-0.07476663,-0.028986672,0.022988863,-0.021226954,0.0055332184,0.013858638,0.0640262,-0.058604896,0.064772405,0.06407008}, 
{-0.06051161,-0.05098385,0.08110346,0.03235951,-0.034226906,-0.06718428,-0.1544858,0.16228803,-0.003540919,-0.31669512}, 
{-0.06591538,0.045028172,-0.08850864,-0.070254095,0.08208359,-0.041185528,0.0593538,-0.031237943,0.045902357,-0.025746683}, 
{-0.04402426,0.011507622,0.019499324,-0.017811669,-0.08217256,0.01998912,-0.073582746,0.043933425,-0.01977091,-0.061425775}, 
{-0.006140425,0.064039774,0.05279248,0.03665291,-0.09400653,-0.05170714,0.030711435,-0.040927246,-0.02307452,0.007971195}, 
{0.09103447,0.09332592,-0.014609796,-0.03771669,0.011344562,-0.0038520559,0.025231881,0.06236211,-0.03401722,-0.14019404}, 
{-0.0179041,-0.060771022,0.04943847,-0.009273154,-0.004810187,0.024954403,-0.043451622,-0.04835579,0.070588715,-0.013337037}, 
{0.09388931,0.05615943,0.01150264,0.007871388,-0.10540224,0.06184007,-0.0044809757,0.10774861,0.013141564,-0.015703969}, 
{0.07169999,0.10274675,-0.022378556,-0.05848354,-0.057261873,0.13532056,-0.14162533,0.016533207,-0.16739699,0.03865271}, 
{0.09082832,-0.0466199,-0.024967194,-0.046786766,-0.0078628855,-0.043494027,-0.062768534,-0.065012746,0.019693883,0.09538026}, 
{0.02952596,-0.079123124,0.074930064,0.058625996,0.09108004,-0.017822314,-0.07576214,-0.0023445033,-0.058664758,-0.02135424}, 
{-0.079337925,-0.01939275,-0.0071304934,-0.15377055,0.057885416,0.11759141,0.00037783067,-0.06078831,0.07080112,0.0154413385}, 
{0.002252953,-0.00826566,-0.08422567,-0.14921276,0.0803339,0.08431863,0.109089516,0.08345674,0.027964871,-0.024376255}, 
{-0.08714372,0.028515235,0.0047203936,-0.08555807,0.017527197,-0.024005046,0.0419137,0.013049659,-0.0026117596,0.027885418}, 
{0.010173986,0.1345149,-0.0405215,-0.12395641,0.032034718,0.009968795,0.06038603,0.0075726816,-0.041768033,-0.09910303}, 
{-0.027278852,0.004953318,-0.038259283,0.014892331,-0.02870146,-0.058454994,-0.10134886,0.012162161,0.04936637,-0.021405077}, 
{-0.05763407,-0.0734627,-0.0029951935,-0.10175654,0.046348613,0.101975515,0.0005235045,-0.047726285,0.032213774,0.07770847}, 
{-0.014940672,-0.010857456,-0.08511697,-0.03322367,0.13833886,-0.0021325643,-0.033603575,0.05268439,-0.045492046,-0.06465413}, 
{-0.03431842,0.15718025,-0.05185091,0.03247414,0.039176136,0.054502226,0.048581928,0.005256339,-0.046569914,-0.10838966}, 
{0.019770194,0.005483447,0.095548466,0.064183414,-0.0109233605,0.067127794,-0.016565535,-0.052073766,0.025772998,-0.02581132}, 
{0.041481603,-0.0035360781,-0.103103116,-0.13324484,-0.023839729,-0.039180864,0.09440916,-0.0713985,-0.045233045,0.010324079}, 
{0.08537798,-0.08516802,-0.04275997,-0.014960094,-0.06531865,-0.02778917,-0.07431288,0.019413156,0.011283187,0.0275781}, 
{-0.026870398,0.08674734,0.05853322,0.0229999,-0.0005898854,0.018433351,0.063892074,0.024408717,-0.027305897,-0.03406774}, 
{0.041364267,-0.03196082,0.07512477,0.05370902,-0.038304426,0.021798493,-0.120151155,-0.03234996,-0.020784551,0.01835787}, 
{0.02946239,0.06299634,-0.06666482,-0.03406353,-0.047725976,0.06833881,-0.108808875,-0.033920802,-0.062121257,0.06677734}, 
{0.03888753,-0.079793766,-0.0072856154,0.011237649,0.043823175,-0.045318067,-0.051402517,0.06534821,-0.04461809,0.03008955}, 
{-0.08076478,0.02901273,0.07393251,0.023497015,0.012689232,-0.095312186,0.018741772,0.013964258,-0.10054946,-0.11333414}, 
{0.055661026,0.11585025,0.09462079,-0.061474904,-0.0037883592,0.0994806,0.13009599,-0.0335943,-0.10901925,-0.19155021}, 
{-0.033444006,-0.080948494,0.0019756102,0.07111449,-0.014123754,-0.023153784,-0.101688676,-0.00056207203,0.028770605,-0.034998022}, 
{0.06844995,-0.045606103,0.07025073,0.05319923,-0.06494706,-0.035851743,-0.0005744369,0.032163166,-0.013285012,0.030510772}, 
{-0.020071086,0.09292854,0.02536228,0.025981551,0.069531545,0.086397134,0.050708033,-0.07827758,0.013956354,-0.048301864}, 
{-0.046796463,-0.062910065,-0.015405657,-0.09800895,0.10706673,-0.010281164,0.07038518,-0.11943754,-0.09034763,-0.11751608}, 
{-0.05039385,-0.045641977,-0.03194569,0.06501402,0.014437809,-0.04358767,0.040419955,0.025268186,0.020773571,0.025354581}, 
{-0.06450727,-0.027339913,0.011235744,-0.00520058,-0.02034457,-0.049990896,-0.04382444,-0.0032336093,0.042780843,0.047663957}, 
{-0.014257461,-0.03561583,0.052985583,-0.018023532,0.09031461,0.02575143,-0.01943281,-0.0018083327,-0.10941149,-0.14068967}, 
{-0.019827303,-0.0138857355,-0.020630473,0.033623647,-0.08776793,0.060074933,-0.06719863,-0.0044440753,-0.08468956,0.007179534}, 
{-0.0028379494,0.061553184,0.1013221,0.07268348,-0.04609068,-0.07121654,-0.06118441,0.098406576,-0.07693521,0.04578774}, 
{0.038374774,0.042435076,0.042190816,-0.15562522,0.028572567,-0.022682728,0.16727692,-0.12877423,-0.057905536,-0.07904944}, 
{-0.0010343469,0.06899075,-0.035334654,-0.07677806,0.007953234,-0.017752407,0.0061121546,0.0012499421,0.024635281,-0.030431112}, 
{-0.058787663,0.021784315,0.081236035,-0.12201141,0.0127208335,0.037980564,-0.047640007,-0.07721344,-0.045441628,-0.05342953}, 
{0.0334085,0.079943806,0.020017635,-0.120570466,0.07809773,-0.025785549,0.02765935,-0.08323856,-0.004295441,-0.014355793}, 
{-0.045615125,0.039488558,-0.008368643,0.02407139,-0.091198884,0.016718743,-0.05983587,0.053390414,0.0067448155,-0.0013033813}, 
{0.039003186,0.043115865,0.032946978,-0.03624859,0.010395191,-0.044423133,-0.0027322462,0.029184468,-0.07075368,-0.04513337}, 
{-0.030753382,-0.010937821,0.0035635114,-0.14060499,0.17123678,0.10503098,0.05267181,-0.04008153,-0.102513835,-0.090304375}, 
{-0.0029948906,0.05793173,-0.04625934,-0.08584711,0.09434765,-0.0981386,0.142998,0.017138716,-0.07579275,-0.316615}, 
{-0.011039259,-0.03913842,-0.009891322,-0.09349324,-0.098145835,0.08071075,-0.033572916,0.070829965,0.02643206,0.027718252}, 
{0.024862016,-0.06331169,0.013741185,-0.032456413,0.088152796,-0.05173871,-0.05347004,-0.04757616,-0.033806283,-0.040048312}, 
{-0.023247832,-0.08233603,-0.060513757,-0.055368062,-0.07910261,-0.007243834,0.0126412725,0.007796968,0.035066474,0.08425173}, 
{0.05464586,0.0057519856,-0.026548732,0.0042651743,-0.053327847,-0.05331541,-0.051571384,0.11090237,0.011800245,0.031472582}, 
{0.0052079614,-0.031148601,0.108335495,-0.002663477,-0.087260544,-0.0055779987,-0.11416424,0.06284159,-0.0026557609,0.087558314}, 
{-0.07247236,-0.040541265,-0.05233281,-0.040483233,-0.04726151,-0.091595605,0.026456451,-0.043259073,-0.0019170379,0.044676237}, 
{0.001180768,0.0957647,-0.062751465,-0.13911971,0.1092077,-0.06553788,0.08700177,0.14219776,0.031714447,-0.037482727}, 
{0.04118351,0.005078509,-0.032729246,-0.1508871,-0.06588847,0.020118903,0.01450667,-0.12582447,-0.017746422,0.01576792}, 
{-0.025023624,0.0884236,-0.06123831,0.06517861,0.022935968,-0.05220499,-0.07592257,-0.02666305,-0.033758126,-0.014422347}, 
{0.0040833396,-0.05335276,0.0018087266,0.06252158,-0.12323269,-0.04407959,-0.0272606,0.097479686,-0.06233882,-0.0972228}, 
{0.00454552,-0.064901546,0.053182118,0.051496763,-0.1885383,0.05770223,-0.08810061,0.13176437,-0.057821542,0.07463854}, 
{-0.06526931,0.038966976,-0.043142017,0.034139577,-0.08111665,0.08014818,-0.04985543,-0.05803927,0.022546712,0.04384626}, 
{-0.07562222,-0.10243499,0.07114166,-0.0034860498,-0.0060394206,-0.03952205,-0.058338553,-0.027756937,-0.08887767,0.0640241}, 
{-0.07853609,0.0482931,-0.006395297,-0.0598991,-0.049093775,0.05937668,-0.092940144,-0.01884056,0.03708122,0.004100738}, 
{-0.06284365,0.05039027,0.026536174,-0.015119536,-0.117604114,0.030209737,-0.041229144,0.010809842,-0.008219821,0.013833423}, 
{-0.058701016,-0.005586391,0.057265878,0.034569107,0.0052494826,-0.055930395,0.033017006,-0.103996366,-0.025134556,-0.000589799}, 
{-0.051903263,0.06458198,0.0146547705,-0.028083524,0.06502228,-0.031180687,0.004858109,-0.0741335,0.0064234445,0.037089244}, 
{0.10343883,-0.062411487,0.11416531,-0.02792662,-0.17176762,0.015427966,-0.15143058,0.0068367315,-0.055191178,0.009812989}, 
{0.028633207,-0.016957486,0.10131297,-0.02067412,-0.12770475,-0.025673812,-0.12797707,0.019528775,0.05529111,0.062245205}, 
{0.021726973,-0.056265865,0.06850969,0.056948695,-0.03030543,-0.047293663,0.01885285,0.05377017,-0.032548755,-0.012267869}, 
{0.07611166,0.055532455,0.07179958,0.09863116,-0.21505874,-0.11201038,-0.031753186,0.1996237,-0.051118612,-0.11268066}, 
{-0.14897089,0.06680736,-0.074027464,0.06628791,0.04942008,-0.112749815,0.09673744,-0.068470635,-0.050722595,-0.14538269}, 
{-0.041363113,-0.030913614,-0.11427154,0.001919951,0.056420367,0.04772259,-0.00010697134,-0.052481312,0.044328284,-0.022411047}, 
{-0.03288752,0.109013095,-0.025318813,-0.10908029,-0.050728913,0.08944877,0.022878153,0.08781721,-0.09824087,-0.04056626}, 
{-0.05104995,0.111751564,0.012359495,0.12577617,-0.034235753,-0.06413498,-0.050828103,0.031236129,-0.08783869,-0.092689626}, 
{-0.057385713,0.07019029,-0.0547158,-0.04329045,-0.0599648,-0.0067996522,0.010349387,0.013055763,-0.045605335,0.012954309}, 
{-0.027981214,-0.051676456,0.051162954,0.0037087246,-0.027457254,0.03890174,-0.036636695,0.045847107,-0.0040545794,0.04779147}, 
{-0.03946358,0.038025312,0.004396947,0.036282405,-0.058415465,-0.016449785,-0.06029887,-0.036613937,0.008201072,-0.06122008}, 
{-0.07325778,0.037289426,-0.018331293,0.020087143,-0.074587725,0.034918416,0.08635339,0.04800205,0.015490012,-0.018508004}, 
{0.075759314,-0.028791077,-0.0070852987,0.06476066,-0.0797481,-0.012743632,-0.019255176,0.06359079,0.0655993,0.08218707}, 
{0.032177426,0.024952762,-0.029041711,-0.039263297,-0.07878383,0.045395333,0.01752165,-0.08929087,-0.051725022,-0.07913775}, 
{0.013104525,0.06438725,-0.058083348,-0.10271344,0.050358716,-0.013691837,0.16337161,0.008427164,0.009790509,-0.12236572}, 
{0.038945127,-0.03264402,0.036901027,0.063302904,-0.042799335,-0.01679469,-0.010802397,-0.024522366,-0.016381355,0.012732244}, 
{-0.040785678,-0.0006139523,-0.014687472,0.03227833,0.10204698,-0.055862065,-0.012968935,-0.015204161,0.031396404,-0.19575779}, 
{-0.06885587,0.038148586,0.0095377285,0.03752246,-0.06710283,0.035193626,-0.04072495,0.10163643,-0.0056379386,0.06654907}, 
{0.059509188,-0.048455875,-0.067111395,-0.040720988,0.0694269,0.072461694,-0.030927256,-0.011402727,0.04273513,-0.0073345182}, 
{-0.052541014,-0.00955018,0.006791034,0.09358895,-0.024214553,-0.1665222,-0.08796972,0.06585719,-0.048886467,0.029336285}, 
{0.009710389,0.08620719,0.024266133,0.036393143,-0.0025776029,-0.012903187,0.01836575,-0.013041078,-0.09940996,-0.17240846}, 
{0.041803464,0.03356135,-0.0008026088,0.061060164,-0.032509018,-0.07727405,0.04261062,0.0358758,-0.06729866,0.0023023463}, 
{-0.071269006,0.17107956,-0.25224403,-0.14283411,0.022245444,-0.014407067,0.21514389,-0.113180645,0.006373118,-0.17700478}, 
{-0.0757806,-0.004600696,-0.10123466,-0.021358838,-0.020517947,0.062012143,-0.04928627,0.084243536,-0.041045547,0.00417607}, 
{-0.023821611,0.026994146,-0.098387994,-0.10102876,-0.05033833,0.03918555,-0.003695812,-0.003043918,-0.031786017,-0.002257607}, 
{0.028949719,-0.074418955,0.022011671,0.034028776,-0.06779617,0.06851782,0.043968234,0.06892928,-0.07447908,0.02693022}, 
{0.056088638,-0.09424649,-0.07652825,0.029819047,-0.101824865,-0.053985756,-0.017303612,0.055736512,0.003727828,0.053312726}, 
{0.08373633,-0.07562294,0.068897076,0.05456217,-0.09461534,0.022513315,-0.0151817,-0.07281719,0.0475258,0.052881017}, 
{-0.017741863,0.16236581,0.015109188,-0.01785284,-0.08575014,-0.0083779935,0.014525387,0.031243727,-0.09915298,-0.061990865}, 
{0.049451042,-0.0042538657,0.049595565,0.037249725,-0.000993263,0.029186355,0.089951046,-0.007917184,0.015389987,-0.18072689}, 
{-0.040923316,-0.103747256,-0.041474104,0.02802606,-0.04235439,0.08603495,-0.04745969,-0.013883643,0.05644163,-0.033078983}, 
{-0.12297564,-0.07085354,0.019022463,0.03502635,-0.1260404,-0.027881177,-0.030137615,0.065961756,0.024414772,-0.06015168}, 
{0.045094278,0.023506315,-0.074923344,-0.072858684,0.008966408,0.043178607,-0.057600703,-0.059305787,-0.04782795,-0.022175472}, 
{-0.05668376,0.115636975,0.03090483,-0.023271685,0.076125085,-0.020968849,0.047920562,0.062366355,-0.084269546,-0.1607042}, 
{-0.024039349,0.023168176,5.6930487e-05,0.011359858,0.044642206,-0.06628167,-0.0047268886,0.0061004264,0.054509077,-0.036522746}, 
{-0.013523563,0.0038327584,-0.016329952,0.04942978,-0.06343383,0.066265665,-0.078808285,0.030921383,0.077018574,-0.026248215}, 
{-0.06352599,0.12229433,0.034732074,0.081179805,0.03749652,-0.05667004,-0.007979299,-0.07036693,-0.014000128,-0.040216636}, 
{-0.025070041,-0.065625794,-0.046520706,0.04286053,-0.055796813,-0.083924666,-0.0846588,0.053845003,-0.007908424,-0.00899276}, 
{0.006154859,0.018462917,0.020751515,-0.014925146,-0.046565562,0.037195444,-0.09849574,0.08539221,-0.008123142,0.06921828}, 
{-0.08426643,0.14043304,-0.019870311,0.03997211,0.11000309,-0.17950551,-0.026940405,-0.06914585,0.06818536,-0.082750015}, 
{0.056772508,0.027984891,-0.011428465,0.029387824,0.056670345,-0.07917671,-0.11339874,0.056861706,-0.06452305,-0.023547105}, 
{0.047048535,0.009052803,0.094938464,-0.12065218,0.102816574,0.048437383,0.017076673,-0.1343981,0.024259673,-0.033629827}, 
{0.021019727,0.009083193,-0.12155369,-0.06612887,0.111283444,-0.07206516,0.012008137,0.008730741,-0.012563689,-0.0076421057}, 
{-0.08144292,-0.018869381,0.010077093,0.038671304,-0.16632847,0.11212211,-0.023612019,0.033799857,0.097587496,-0.07596587}, 
{0.0067948666,0.09019849,0.051614475,-0.011594351,-0.044611827,0.034811113,0.015201792,-0.032183357,0.026410764,0.062878445}, 
{-0.016520016,0.19342205,0.09888229,0.09633825,0.02039328,-0.18002118,-0.040011983,-0.061590523,0.041706223,-0.13551992}, 
{0.0423515,0.15070425,0.027297884,0.047134787,-0.054675564,-0.18800573,0.02984689,-0.03471932,-0.030784259,0.03418926}, 
{0.08129562,0.03070972,-0.03986962,-0.06289522,0.023327168,0.008344047,0.05179015,-0.010425101,-0.038443837,-0.028090114}, 
{0.005632217,0.09670054,-0.037426073,-0.043191396,-0.02322619,-0.03824709,0.08659208,-0.14391196,0.03936262,-0.06529742}, 
{0.025584452,0.049292862,0.070378445,0.049537662,-0.0885144,0.01851562,-0.072047,0.008837102,0.068880334,0.037664093}, 
{-0.018766759,-0.07146136,0.06363454,-0.008556706,0.04316329,-0.020126453,-0.09132953,0.070615,0.078470804,-0.04871728}, 
{0.03640659,-0.12482363,0.048801396,-0.018824399,-0.024367644,-0.044117,-0.053849086,0.012129864,-0.0019855292,0.005940378}, 
{-0.053857807,-0.016774725,-0.03556865,0.088029,-0.021002365,-0.090633474,-0.07398572,0.02176519,0.08415878,0.06442201}, 
{-0.022742549,0.0035058297,0.07290231,0.027939428,0.11467544,-0.029510945,-0.009464469,0.02725896,-0.07317127,-0.18409497}, 
{0.021895502,0.13625379,-0.010254352,-0.003438021,-0.005918621,0.059979204,0.12462783,-0.069420084,-0.05868837,-0.09563266}, 
{0.0059991856,-0.013604147,0.084462464,0.03977223,0.004880715,-0.020371828,-0.115236305,-0.009247441,0.05156494,0.089399315}, 
{-0.0017779899,0.08098063,-0.009496231,-0.07002367,0.0059162783,-0.050108455,-0.11736616,0.06295535,-0.06281172,0.06572448}, 
{-0.030883038,0.04981233,-0.056343794,-0.08663589,-0.25495398,0.03917854,0.10885651,0.094419435,-0.08467128,-0.098077886}, 
{-0.01403177,0.07626462,0.014158086,0.06056067,-0.11593615,0.011932032,0.030250838,0.1418915,-0.043481052,-0.104250185}, 
{0.0018018009,-0.04999506,-0.01643519,0.00030234602,-0.043510824,-0.03895357,-0.075936876,0.07562279,-0.03822342,-0.021668969}, 
{-0.08573542,-0.11865447,-0.040630545,0.044094846,-0.2146742,-0.011054604,-0.046717737,-0.03362594,0.013194871,0.0014986256}, 
{0.02198684,-0.02443439,-0.0015493915,-0.006082337,-0.113605104,0.0768238,0.06583001,0.030930953,-0.025602687,0.05719511}, 
{0.07635414,-0.028889822,-0.015980521,0.036225636,0.04183869,-0.057650797,0.006637939,-0.009794496,0.038416035,0.005032465}, 
{0.027459731,0.051004,-0.10930714,0.045090336,-0.03500277,0.047761858,0.054645196,-0.0055430243,0.02366565,0.0036678533}, 
{0.11762262,-0.113465294,-0.01739852,-0.12892725,-0.014777534,-0.0012402347,0.10382331,-0.14513874,-0.0055090818,0.105263025}, 
{-0.044402592,-0.054151498,0.06985591,0.08722225,-0.11093455,-0.042619456,0.06640439,-0.00061237084,0.08592392,0.022690656}, 
{0.03944387,-0.07472483,-0.06302322,0.011393817,0.0028022106,0.06996214,-0.0032494173,-0.051948566,0.03535392,-0.06319192}, 
{0.22811559,0.09218079,0.21010204,0.036877632,-0.27720645,-0.10213241,0.04014372,-0.05728303,-0.075613864,-0.008617941}, 
{-0.09557725,-0.010045002,-0.06997122,0.052728504,0.15803035,0.023485092,0.0032630553,0.04474308,-0.01630568,-0.0969108}, 
{-0.019074373,0.069867045,0.000285735,0.08770893,0.025032885,-0.046714842,0.016437434,0.055777412,-0.020823887,-0.07036398}, 
{-0.0009684566,0.04694523,0.008079539,-0.1079704,-0.0052449815,0.16738722,0.0010809917,0.06300592,0.039438628,-0.12843366}, 
{0.074459985,0.06323943,0.10284711,-0.022763684,0.11182182,-0.25709254,-0.11085786,-0.031195108,0.1379162,-0.0057421974}, 
{0.053161595,-0.0778888,0.023008537,-0.0791473,0.003160523,0.03265269,-0.04854822,-0.06080853,-0.023284476,0.004888239}, 
{0.054439828,0.035204165,-0.07139027,0.042849164,-0.08425469,0.030733792,-0.014357637,-0.013821837,0.014795761,0.0018157013}, 
{0.044051662,-0.0038613759,0.105062254,0.029264972,0.07295536,-0.044907823,0.043488584,-0.03920275,-0.022556439,-0.07785832}, 
{0.001028067,-0.017231211,-0.15744734,-0.046741482,0.028168414,0.16291235,-0.098465234,0.050985754,-0.07352363,-0.09979906}, 
{0.027367631,-0.007097374,-0.030330777,0.035263225,-0.1166633,-0.14939483,-0.06667269,0.094303936,0.045230623,-0.009290385}, 
{-0.054745257,0.0022635763,-0.03357709,-0.04701481,0.09161196,0.059747122,0.05237572,0.036726706,-0.060113233,-0.07133262}, 
{-0.034917768,0.0849881,-0.13289611,-0.053971525,0.010488602,0.024512533,0.024313789,-0.06434185,-0.019072205,-0.11003701}, 
{0.10601998,0.021999184,0.063907064,-0.05322136,0.027936699,0.01626636,0.016858807,-0.06997658,-0.0015921001,-0.009478609}, 
{0.019131847,0.07857488,0.07683185,-0.03659447,0.061632752,-0.010250927,-0.0025745537,0.004103991,-0.0005592866,-0.08431287}, 
{0.043958753,-0.09487025,-0.058715478,-0.029494008,-0.15422077,0.023141332,-0.011795288,0.08013376,0.013905043,0.03426779}, 
{-0.018434936,0.06915964,0.08902579,-0.016925003,0.01544654,-0.10309943,-0.04001158,0.069768615,0.063131034,-0.038383443}, 
{-0.011520133,0.039442353,0.00812209,0.1597416,0.10188622,-0.27959162,-0.10129431,0.006409203,0.084695816,0.0041960706}, 
{-0.17416468,0.044409588,0.04411841,0.101398185,0.117432736,-0.12636603,0.05337724,0.07555777,-0.059429962,-0.11505708}, 
{-0.030904643,0.025492234,-0.055185825,0.09045413,0.050486136,-0.045419358,0.029807227,-0.025628706,0.04411151,0.029184222}, 
{-0.20294161,0.080291085,-0.055537686,0.045402184,0.1326911,-0.027098075,0.05772142,0.11231223,-0.059236012,-0.14348376}, 
{0.0066466173,-0.0028867773,-0.12096149,-0.02135175,0.008794531,-0.03801962,-0.018647276,0.0679363,-0.013364846,-0.038097344}, 
{0.003995737,-0.028994106,0.06826423,0.026269265,0.09429337,0.14273363,-0.05177322,-0.061406262,0.042424068,-0.05364751}, 
{0.0042982264,-0.10443755,0.014528021,0.032186836,-0.092791244,0.078006715,-0.013943414,-0.028867524,0.06303219,0.07579389}, 
{0.060893986,0.037371386,0.012915663,-0.015490372,-0.0055012167,0.050750684,0.02684541,-0.034884218,-0.04673948,0.035125785}, 
{0.031375907,-0.0105332425,0.06119431,-0.0061045107,-0.118942276,-0.02679308,-0.0031023056,-0.063476495,-0.00017160058,0.09981625}, 
{-0.060996987,-0.13397563,0.05934216,-0.06476959,0.010191856,-0.014493218,-0.039302584,-0.16006099,-0.099880256,0.062831536}, 
{0.061126895,-0.05322532,-0.013187894,0.010610121,-0.03422372,-0.10155942,0.08168736,-0.057522535,-0.011315077,0.060325384}, 
{0.038608022,-0.0791738,-0.01004251,0.073191136,-0.07320747,0.1023384,0.076383054,-0.023815524,0.08084298,0.008103262}, 
{-0.12883265,-0.128723,0.043487202,0.041108135,-0.17423218,0.045163624,0.088434674,0.024355263,0.030528495,0.05363508}, 
{-0.05144513,0.026951361,-0.06824241,-0.0022904344,0.10359722,-0.026553603,-0.06341914,0.007938227,-0.065318696,-0.023783976}, 
{-0.04499148,-0.023784835,-0.026171973,0.02140736,0.07257537,-0.036166947,0.061784703,0.09701162,-0.02328603,-0.04485478}, 
{-0.07804384,0.059942648,-0.056865767,-0.07055378,-0.059246395,0.03297368,0.05135278,-0.00993794,-0.045077994,-0.035572}, 
{0.06475451,-0.008988442,-0.012999479,0.077116646,0.06939295,-0.056150395,0.017179316,-0.06502077,0.0011376914,0.05804384}, 
{-0.033707615,0.07366684,0.11828124,0.10918022,-0.022553341,-0.14435798,-0.014934465,-0.010082827,-0.031992245,-0.005008953}, 
{-0.016134188,-0.059877694,-0.04707301,-0.018400544,0.030910902,0.03694719,-0.10082853,0.05805335,0.009503267,0.037343975}, 
{0.07302507,-0.1122264,-0.041953903,-0.02231975,0.051211156,0.048902873,-0.099770315,-0.036116697,-0.03966885,0.0300548}, 
{-0.010775017,0.086217575,-9.780602e-05,0.034034148,-0.013854717,0.0035807819,-0.028760139,0.05035696,0.014368983,0.01385137}, 
{0.07553503,-0.05349066,0.07519276,0.040510166,0.054718267,-0.012685879,0.04737315,-0.12218172,-0.033802353,-0.06854967}, 
{0.086527646,0.07348641,0.008801617,-0.04580266,0.02523109,-0.10471198,0.015651543,-0.041786227,-0.06628187,-0.091014534}, 
{-0.00038923032,0.11943339,0.012554835,-0.03176823,0.09323638,-0.09129237,-0.09405462,0.09614376,-0.08080322,-0.17320988}, 
{0.0038586934,-0.058532346,-0.0886119,-0.09980242,-0.09982124,0.19275701,0.16518344,-0.016894106,0.06805874,0.046014648}, 
{-0.00901009,-0.04645245,0.0093568005,-0.00377725,-0.02427516,-0.09216244,-0.06582815,0.04679426,0.039457925,-0.04780364}, 
{0.11155735,-0.019642418,-0.052260578,-0.028336555,0.086172156,-0.20839867,0.003284251,0.039535232,0.036372814,-0.18412669}, 
{0.0021750787,0.03219759,0.07075256,0.086382456,-0.021034606,-0.053220123,0.019145904,-0.06425832,-0.05193907,0.02872113}, 
{-0.014510308,0.054570865,-0.02079259,0.0048415833,0.046697468,0.092869334,0.034761693,0.03684808,-0.07991815,-0.017497621}, 
{-0.09800821,0.10618839,0.02032018,-0.012993788,-0.018651081,-0.0996254,0.008155099,-0.07252802,0.022391485,-0.09769612}, 
{0.031912956,-0.077219926,0.0046908623,-0.035912596,-0.08932407,0.047998935,-0.017463138,0.025712855,0.023002211,-0.05259168}, 
{-0.023878034,0.00787137,-0.0021162708,0.015218577,-0.07332615,-0.068255,0.11453794,0.03597173,0.047557514,-0.054277323}, 
{-0.03906706,-0.08409277,-0.077296056,0.018604701,-0.096273355,0.033659045,0.02365238,-0.07588243,0.056837555,0.051012926}, 
{-0.007888932,-0.10288285,-0.030635146,-0.02897123,0.00078299124,-0.035420574,-0.03219316,-0.06080569,0.104100406,0.0125599215}, 
{0.03597522,-0.02141794,0.060217373,0.026017893,0.005000019,-0.120313056,-0.015949363,-0.026451664,-0.04862402,0.012358698}, 
{-0.11122748,0.11104494,-0.12536202,-0.0754749,0.03962664,0.07844363,0.025999632,0.06019044,0.015024967,-0.07427946}, 
{0.0129150525,0.023555184,0.060237695,-0.06480748,-0.09992063,-0.054928932,-0.045640964,-0.0402649,-0.03392623,0.010053188}, 
{0.086204916,-0.06841499,-0.10650727,-0.23941222,-0.058639195,0.10792438,0.15361454,-0.00351788,-0.06804585,-0.017992089}, 
{-0.18274601,-0.04249217,-0.059374973,-0.113219865,-0.22372146,0.13267525,0.14084476,0.05229447,-0.12044074,-0.12170033}, 
{-0.06350905,0.043003898,-0.041840408,0.025502231,-0.06585921,0.081197225,-0.059011843,0.11089764,-0.07851373,0.07807975}, 
{-0.014016519,0.05188737,0.07902538,0.058342777,-0.021855764,-0.064667135,-0.040406037,-0.004766657,-0.0071694874,0.08560041}, 
{-0.0728418,-0.09340337,0.04700731,0.06298706,-0.18761957,0.013685426,0.084942386,-0.10190751,0.07739219,0.0049537662}, 
{0.024164373,0.014690482,-0.14229298,-0.068379395,0.06783279,0.047944915,-0.06687695,0.028799308,0.039661482,-0.072818816}, 
{0.055766884,-0.039016016,-0.020884229,-0.0021467893,0.022293514,-0.111774094,-0.06911194,0.08364801,-0.09011357,-0.08970718}, 
{0.027526302,0.11545849,-0.03451065,-0.040129624,0.048171658,-0.020735515,-0.06595581,-0.027624648,0.019615538,0.059172615}, 
{-0.11149689,-0.04876297,-0.0068586264,-0.121196955,0.00513185,0.0056102835,0.057842076,-0.12532756,-0.030748548,-0.13058218}, 
{-0.043479506,-0.11220372,-0.067385755,-0.03126179,-0.102914624,0.115207635,0.040478297,-0.06997968,0.05592142,0.00698805}, 
{-0.06704901,-0.07249394,-0.0043399595,-0.059859805,-0.015092034,0.007028791,-0.032087367,0.039036427,0.00052663573,0.04637533}, 
{-0.22846279,0.018289188,0.05665783,0.053635266,-0.013557551,0.011923095,-0.14232017,0.064863086,0.116105646,-0.05368595}, 
{-0.022706935,-0.04369651,0.023944572,-0.053619873,-0.023315415,-0.037456807,-0.059630845,0.027502168,-0.045649353,0.043286882}, 
{0.08714271,-0.004212887,-0.006261682,0.018081397,0.09246513,0.030065665,0.060452245,-0.023803353,-0.020349052,-0.034515806}, 
{0.03669668,-0.019755961,0.091532625,0.055833474,-0.015409266,-0.042181686,0.033766553,0.070517324,-0.07359089,-0.059851807}, 
{-0.07869885,0.0102602625,-0.0852397,-0.08335878,0.043033954,0.10313265,-0.040339857,-0.0259406,0.109191254,0.046408307}, 
{0.060537823,-0.015500507,-0.0056887767,-0.043512996,0.0860875,-0.011435483,0.0143019045,0.010382449,0.04841544,-0.064918816}, 
{0.0400135,-0.104150064,0.031933613,0.015348031,0.045376413,-0.030355243,0.022566715,-0.022332422,0.09224444,0.0629106}, 
{0.07306892,-0.0027748193,-0.052745752,0.0127628725,-0.04608548,0.07238719,-0.080880776,0.08887018,0.029203242,0.05649929}, 
{0.021451373,-0.020299679,0.022615252,0.04594942,0.06727625,-0.09423063,0.029443031,-0.06988209,0.0358578,0.06515078}, 
{-0.029863141,-0.033358924,0.0894417,-0.06839604,-0.016763916,-0.046614893,-0.050724216,-0.029219009,-0.09559036,-0.14872104}, 
{0.07115006,-0.050808135,-0.04426109,-0.08596938,-0.06819323,-0.03764865,0.044052325,-0.13454378,0.014050409,0.15144469}, 
{-0.033854734,-0.16269255,0.10842533,-0.02775136,-0.0061239065,-0.045495275,0.037926868,-0.09690413,0.05924879,-0.074882075}, 
{0.056929186,-0.10812245,0.02526479,-0.07105236,0.005594097,-0.009289434,-0.008661351,0.020066338,0.081490494,0.03349147}, 
{0.039252724,0.008388031,-0.042796284,-0.12370091,-0.010263434,0.045655884,0.028223878,-0.027886607,0.10884757,0.14646491}, 
{0.05680692,-0.0586351,0.04273692,-0.064419955,-0.05688791,-0.07222545,-0.03401553,0.097778864,0.10949698,-0.0760576}, 
{0.07247737,-0.10043212,0.0048687407,0.0015692364,0.023416383,-0.07360217,-0.005782351,-0.10817622,0.0153488,0.010580167}, 
{0.11726529,-0.045821022,-0.11297634,-0.18258105,0.03170326,0.0427706,0.06045332,0.01803229,0.0148002,-0.07533162}, 
{-0.021057116,-0.011576527,0.04189793,-0.12918504,-0.029480098,-0.02201742,-0.00025238705,0.075940594,-0.12779534,-0.05813052}, 
{0.0750435,-0.10666672,-0.09277271,-0.041729696,0.066622004,-0.031661827,-0.03294037,0.13216116,0.002961617,-0.019240603}, 
{0.078248225,0.02176607,0.022079552,-0.10091567,0.012874378,-0.023737568,0.0431443,-0.13870844,-0.10366125,-0.0015852815}, 
{-0.023387434,-0.038535673,0.0708789,0.0046513253,0.100681186,-0.01049125,0.029026343,0.022313546,0.021185255,-0.10207076}, 
{0.00504534,-0.043120094,-0.06362077,0.11403852,0.042015564,0.054809116,0.029230768,0.08836888,-0.017194875,-0.11269424}, 
{-0.07521158,-0.048619356,-0.05316642,-0.016655335,0.07873819,0.061104573,-0.05942702,0.02692187,0.09265677,0.024192259}, 
{-0.01444761,-0.02143698,0.08289069,-0.09377431,0.05865193,0.06741767,0.02287832,0.07367522,-0.04818519,-0.14279468}, 
{-0.034405794,-0.060884662,-0.025079958,-0.035660863,-0.0067397095,0.04825758,-0.013627453,-0.007830023,0.0024266227,-0.05197989}, 
{-0.017753348,0.077078946,0.017870119,0.03229404,0.102940254,-0.038955197,-0.15322965,-0.09033249,0.07403377,-0.048395175}, 
{-0.0035530091,-0.028851844,-0.031410906,-0.07545644,-0.09256173,-0.051562704,0.10261182,0.06502083,-0.009500299,0.07241226}, 
{-0.09020492,-0.021339055,-0.008210168,-0.017735383,0.0058617285,-0.007809293,-0.006220579,0.018368246,0.07813274,0.029063044}, 
{0.03934314,0.017708346,0.0859218,0.078883305,-0.009649237,0.0009936605,-0.046460625,0.06538501,-0.048000645,-0.13071491}, 
{0.051931996,0.023772791,0.062467176,-0.02878017,0.034849137,0.043428384,0.07786973,0.0036767086,-0.045006398,0.0479007}, 
{-0.023229262,-0.094699495,-0.028602833,-0.021063838,-0.035087015,-0.17812644,0.052856497,0.09694258,-0.062428832,0.059182607}, 
{-0.008567239,0.052981865,0.007935746,-0.044771906,-0.052914232,0.0125057055,0.0034171785,-0.010453714,-0.01994224,-0.048706025}, 
{-0.037062332,-0.010884884,-0.031778067,-0.046633694,0.06857254,0.070880346,-0.06812862,-0.03566433,0.03830368,0.009770922}, 
{0.06046754,-0.06407062,-0.2201341,-0.046339735,0.056187056,-0.051566564,0.029965889,0.12130748,0.049129892,0.002192648}, 
{0.008007056,-0.09931371,-0.00080534193,-0.11259762,0.09608389,-0.07203189,0.048933446,-0.086859904,-0.011952511,0.014019229}, 
{0.035078123,-0.036886223,-0.079499245,0.039696798,0.021696081,0.08416558,0.00393326,0.034396768,-0.039988298,0.042517282}, 
{0.10549371,0.050527625,-0.14533706,-0.1672581,-0.021020284,0.060804848,0.12121771,-0.09628932,-0.017303793,0.040062044}, 
{-0.058875374,0.05178204,-0.0751944,-0.017998386,0.007605521,0.032327067,0.07323923,0.0067374785,0.000925226,-0.019636946}, 
{-0.13473536,-0.051223267,-0.15626888,0.020595502,0.06944394,0.060907457,-0.05075259,-0.11746616,0.041365802,0.02279301}, 
{0.06713209,0.0044402382,-0.0015755736,-0.07362736,-0.0051501025,0.049175378,0.066409595,-0.027777864,-0.0510753,-0.07552076}, 
{-0.10491158,0.0839639,0.02785191,0.1091673,-0.076379746,-0.052035388,-0.040423308,0.06705711,-0.04970266,-0.05331013}, 
{-0.06074434,-0.014452047,-0.12508129,-0.074665025,0.05987427,-0.029580925,0.00026796403,-0.13203931,0.08182871,0.0029655297}, 
{0.016078528,0.012293624,-0.078273624,-0.11846652,-0.018694825,-0.024475556,0.028551085,0.0032005955,0.040739655,-0.060026854}, 
{-0.056721747,0.007994567,-0.14643951,0.062014047,0.115651585,-0.0665119,0.20042966,-0.12602946,-0.057163563,-0.022013431}, 
{0.025553428,-0.025516087,-0.040612914,-0.14359182,0.084021755,-0.08197663,0.002592865,-0.010720266,0.026053019,-0.059376605}, 
{-0.03676027,-0.051940363,-0.08194829,-0.025459422,0.04433209,-0.015939025,-0.087022334,-0.0638868,0.09953548,-0.07392656}, 
{0.050748367,-0.018965526,0.06110241,-0.04823711,0.07196347,-0.008828884,0.05187985,-0.031001242,0.030043064,0.030379988}, 
{-0.042887166,-0.0015226257,0.07309198,-0.11665285,-0.065800436,0.010236649,0.05295302,0.030598758,0.033753637,-0.059984207}, 
{-0.010929191,-0.080983795,-0.06666531,0.07937476,0.042622916,-0.006943844,-0.09326708,0.057802975,0.04115291,0.06490256}, 
{-0.026437799,-0.07315623,-0.010936289,-0.054595247,0.009168737,0.033492185,0.0019724215,0.036515336,0.036889434,-0.064044975}, 
{-0.05892426,-0.031017436,0.013864862,0.09148404,-0.06791387,0.110243514,-0.03191341,-0.042858787,0.08479129,-0.07195666}, 
{-0.06350017,-0.048099965,-0.031457506,-0.07755523,0.011008807,-0.033052746,0.08341805,-0.13665725,-0.02002998,0.085935965}, 
{0.012676014,-0.07068469,-0.04348121,-0.0839752,0.053920954,0.0041010017,0.045523167,-0.05568536,-0.0045449305,0.08636522}, 
{0.00655104,0.052282773,0.07376609,-0.019318953,0.011884514,0.009836754,-0.10347016,0.035828874,0.027624782,0.04639065}, 
{-0.08267198,0.049287114,0.045667015,0.10940361,-0.1640276,0.024757752,-0.11251985,0.07101626,-0.09890656,-0.14521979}, 
{-0.023439167,-0.036775544,-0.020396363,0.06720491,0.03147575,-0.052227505,0.10612867,0.041571233,-0.07354889,-0.10403929}, 
{0.079009816,-0.016730657,0.048000142,-0.08293408,0.08847515,0.016084174,-0.047287676,0.056273438,0.08724146,0.00422941}, 
{-0.02160237,0.0523332,0.05946783,-0.049053736,-0.068702064,0.08533828,-0.092309415,0.10788553,-0.02701957,-0.108242504}, 
{0.039671615,0.07985792,0.0507347,-0.043335933,0.08723395,-0.028908059,0.023498507,0.07098017,-0.044280272,0.061174367}, 
{-0.03743865,-0.051464543,-0.04973841,-0.08883121,0.026932044,-0.033891767,-0.008312344,-0.05095655,-0.04164099,0.0035852995}, 
{0.07481075,-0.12926143,-0.08938082,-0.02044122,0.022165444,-0.060781635,0.0031054048,-0.07722548,0.0385707,0.023940753}, 
{-0.0012257162,-0.023333829,-0.01677076,-0.025923155,-0.10149799,0.047539886,-0.1090211,0.017454874,0.011010627,-0.048132446}, 
{-0.10413112,0.001732678,0.06141706,0.013805795,-0.070132405,-0.014651231,-0.11655865,-0.030566523,0.064963214,0.048713207}, 
{-9.031561e-05,0.028053742,0.071104415,0.008521289,-0.0025225407,-0.078776136,-0.06985902,-0.0019910308,-0.007875006,-0.08711271}, 
{-0.03333446,-0.08727201,0.014185762,-0.045506172,-0.016281633,0.04059297,-0.20650962,-0.030652156,0.061231438,0.052472733}, 
{0.0030046217,0.052959867,0.00047270907,0.05059821,-0.052753538,0.029077996,0.04305482,-0.031946972,0.008551258,-0.11885683}, 
{-0.0073509053,0.0845913,-0.069945045,-0.056722637,0.015614249,0.021853888,-0.06510471,0.033484057,-0.002703228,0.037039675}, 
{-0.12933476,-0.0030927854,0.020164311,0.07909135,-0.11411136,-0.050708115,0.04055223,0.1112127,0.015532611,-0.08378673}, 
{-0.09297362,0.05585633,-0.024086809,-0.09199511,0.104773164,0.050372478,-0.027478619,-0.11397877,-0.0145354485,0.04247952}, 
{-0.04912348,0.0140606575,0.03335884,0.033896007,-0.054834366,0.013405303,0.015021129,-0.051581107,0.074713446,-0.018177724}, 
{-0.09532589,0.00247515,-0.025527019,0.03913231,0.095052876,-0.045152817,0.06144038,-0.092241846,0.04467095,0.04921624}, 
{0.017912976,0.020022,0.044888366,-0.01109931,-0.16747776,0.06667637,-0.083415985,0.07440797,0.029919172,-0.015201612}, 
{0.04171346,0.06564327,-0.07678801,0.05796311,-0.07005594,0.07516076,-0.053218335,0.054395378,0.031145113,-0.063464396}, 
{-0.0022627208,-0.00171891,0.10723672,-0.09742266,0.057899006,-0.011722752,-0.054123748,-0.03932559,-0.0032146224,0.0023154826}, 
{0.021836026,-0.07184361,-0.07585088,-0.08426686,0.08706537,0.03921761,0.08310713,-0.027250731,0.092525825,0.077340655}, 
{-0.11105152,-0.1432439,0.10144663,-0.091939956,0.10852233,-0.029680856,0.04594937,-0.11591235,-0.024234647,-0.02062117}, 
{-0.054868985,-0.100114495,-0.03895172,-0.073632725,-0.010089224,0.062265124,0.019685935,0.027975312,0.070574254,0.057363138}, 
{-0.07054613,-0.06501409,-0.0016618656,-0.063019656,-0.04948816,-0.03179029,0.037433352,-0.03705307,0.05045802,-0.023561694}, 
{-0.067530096,-0.04679823,0.0586562,-0.033899333,-0.007413201,-0.022479085,0.004788125,0.007023599,-0.00908435,0.064781524}, 
{-0.037449595,-0.039592206,-0.06911129,-0.12264542,0.0807838,-0.05765526,-0.01441938,-0.035190944,0.0072794175,-0.051872797}, 
{0.043087017,0.008114157,-0.019220622,-0.08535319,-0.016369186,0.06941522,0.08641629,0.011520811,-0.007067024,-0.038361356}, 
{-0.05759708,0.025509425,0.083258055,0.005260343,-0.06149126,0.11195603,0.03995619,0.13520858,-0.12209498,-0.057441305}, 
{0.05350404,0.046085782,-0.07427123,-0.086190335,0.01704209,0.052111853,0.027391275,0.07985742,0.02140091,-0.010700393}, 
{-0.015380616,0.09673145,-0.038782742,-0.025899837,-0.13731441,0.06414734,0.20397367,-0.03510224,-0.06475707,0.0053629447}, 
{0.07637744,-0.015074934,0.05217199,0.06523315,0.021069288,0.014361229,0.057176054,-0.04525805,-0.025752965,0.014507509}, 
{-0.007957598,-0.010968751,-0.05559353,0.07658656,0.07427419,-0.0327737,0.04824514,0.09187145,0.03533195,0.10113529}, 
{-0.05789705,0.024389803,-0.08717446,-0.038006235,-0.032512233,0.0571908,-0.05002271,-0.030583424,0.034085914,0.004859763}, 
{0.02625321,-0.071580686,0.034735497,-0.06536834,0.030004429,0.005408484,-0.0464939,0.012931744,0.012350116,0.008948276}, 
{0.010776077,0.034037136,-0.035194278,-0.08476323,0.04704643,0.02601816,0.03702523,-0.032211885,0.002916108,-0.078187734}, 
{-0.065733224,0.04241703,0.12812592,0.124608286,-0.09528447,0.017957652,-0.06204781,0.094309516,-0.07803221,-0.17415036}, 
{-0.037298888,0.08903233,-0.0046191285,-0.12072021,0.012782007,-0.024645675,0.081344604,-0.016177986,0.069845766,-0.05680024}, 
{-0.01447988,-0.09921558,0.07902952,0.034174476,-0.02928726,-0.023993872,-0.09977329,0.06451016,0.0026347556,-0.022917207}, 
{-0.02224905,0.08257035,-0.02546775,0.024623316,-0.024006907,0.04983061,-0.062725656,0.05516907,-0.023288239,-0.014936939}, 
{0.018542334,0.0688688,-0.026347058,0.031922866,-0.019512054,-0.03683832,0.053415667,-0.010328505,0.0749323,-0.09350833}, 
{-0.05552381,-0.13216248,-0.06061593,-0.06807857,-0.032574713,0.102039486,-0.016516136,0.06136671,-0.08460186,-0.015917571}, 
{0.016921965,-0.05675918,0.0699878,-0.06444088,0.034864638,0.026175048,0.039734665,-0.06984678,-0.08035634,-0.018512053}, 
{0.045138936,-0.08552134,-0.088971026,0.03901956,-0.053883243,0.025836388,-0.03522072,-0.09422569,0.056571495,0.0014379437}, 
{0.027808052,0.049241252,-0.019918345,0.0709039,-0.058553826,-0.044626024,-0.051388636,0.11054064,0.018944206,-0.15717079}, 
{-0.03519245,0.0584959,-0.059877098,0.028074153,0.023033023,-0.022937952,0.02395553,-0.029314864,0.029927373,0.058404554}, 
{-0.076137215,0.0047324914,-0.01675444,0.044364322,-0.056243528,0.058684487,-0.04935572,-0.08949181,-0.012746037,-0.05109467}, 
{-0.057470165,0.05313561,0.036902264,-0.009060571,-0.009277037,-0.07559502,0.024618946,0.09209382,0.024612118,-0.117524326}, 
{-0.051988974,0.052687943,-0.0079816375,-0.056464996,0.04882278,0.0124906255,-0.12899998,0.02170878,-0.01991257,0.020948568}, 
{0.079079226,-0.15661989,-0.12600239,0.011799669,0.016063986,0.03967765,0.00091093744,-0.02044481,0.016494408,0.01685743}, 
{-0.012885234,-0.06349853,0.036324747,0.0424043,-0.012843266,0.055672776,0.012613434,0.016220361,0.08714343,-0.050077166}, 
{-0.07747645,0.03478664,0.050979044,0.097061746,-0.011993576,-0.037768222,-0.070235424,0.054082166,0.020114092,0.072110236}, 
{-0.096916296,-0.042577233,-0.047334354,-0.11522752,0.055755634,0.08365917,-0.034668285,-0.11566342,0.007876999,-0.043761402}, 
{-0.06547722,0.02971746,0.026343012,-0.08368916,-0.10719009,-0.0031845479,0.015557223,-0.031787295,0.001479138,-0.09231377}, 
{0.08671874,-0.037729535,-0.07484253,0.01616091,0.036434107,-0.05474141,0.0020432395,0.13581538,-0.08382956,-0.014999413}, 
{0.053318463,0.046669632,0.030845415,-0.037356682,0.033435438,-0.08800078,0.07977851,0.070624314,0.04621531,-0.027431246}, 
{-0.0019072064,0.050839446,0.008329079,0.04718207,-0.045145947,-0.09056863,-0.033083677,-0.061601367,-0.045008685,-0.044681754}, 
{-0.04814679,0.06632984,0.07990063,0.09200333,0.02764634,0.017843217,-0.052876443,-0.0462266,0.08337333,0.059234418}, 
{-0.09752841,-0.036263935,-0.05129964,-0.13293006,0.06514817,0.06387415,-0.0008058339,-0.02584102,0.13280058,0.036284592}, 
{0.061064877,0.032519333,0.055298217,-0.019683506,-0.07338005,-0.010623739,-0.07169848,-0.0044568996,-0.02902889,-0.04593951}, 
{0.020798018,0.008680347,0.069807835,0.045673855,-0.0487175,-0.07127567,-0.048422378,-0.013853554,0.013796692,0.07051073}, 
{0.053533476,-0.051774614,-0.012405454,0.06400573,0.042832837,0.002041815,0.060593054,-0.0005326277,0.032651007,0.06197181}, 
{-0.03134691,-0.07264125,0.062348783,0.11574958,0.006097142,-0.03931059,0.13927607,-0.05521184,0.024990512,-0.091151394}, 
{-0.090468094,0.010443258,0.0044924,0.08596909,-0.06276484,-0.053625055,-0.015551034,0.04268812,-0.038120236,-0.073933095}, 
{0.013663069,0.0031079412,0.09875098,0.06856007,-0.0052398834,-0.07413951,-0.05942251,0.006800117,0.025966877,0.07078872}, 
{-0.017608851,0.06762667,0.094478704,0.07398038,-0.122085854,0.02800527,-0.10147574,0.100955166,-0.06127318,-0.06605332}, 
{0.045866974,-0.036886375,0.0042546173,0.017291522,0.025137179,0.05188326,5.6751276e-05,-0.011125384,-0.05463072,0.040885188}, 
{0.042332184,-0.038106848,0.060011625,-0.0780057,0.011539824,0.0015773571,0.023012502,-0.09229552,0.082392655,-0.019547747}, 
{0.081243776,0.055373996,0.061803162,0.031641856,-0.09850591,0.020417744,-0.046684287,-0.0046470785,-0.021483527,0.05462049}, 
{0.0076407054,0.045910303,-0.09997899,-0.025477512,-0.061785974,-0.02109838,-0.029692257,-0.06729864,0.06979883,-0.032598164}, 
{-0.04561003,-0.012304437,0.06748016,-0.08651038,-0.00179324,-0.072121985,-0.025529917,0.053554922,-0.04263851,0.0067416755}, 
{-0.0053236624,0.054402515,-0.00074616494,-0.0044385227,-0.08156151,0.080762,0.010235682,-0.0025584688,0.017596105,0.08406641}, 
{0.043982204,0.061825648,-0.047852486,-0.0007246738,-0.024482494,0.00015245719,-0.027120091,0.034412134,-0.11280274,-0.057812802}, 
{-0.00029277347,-0.11220819,-0.023123592,-0.0007238997,0.035551585,0.041368835,-0.13282096,0.04121736,0.01514512,0.054729577}, 
{0.044933736,0.06891387,0.033225775,-0.047914512,-0.022749908,0.05893668,-0.027844634,-0.0046054823,-0.011484196,-0.017062258}, 
{0.022180626,0.0143412175,-0.018443553,-0.057347063,0.021093443,0.05678888,0.023508677,-0.040003356,-0.030801646,0.018942248}, 
{0.044772867,0.0969755,0.10992503,0.009307733,0.07465465,-0.09306238,-0.0069623454,0.07242647,-0.07780565,-0.13917519}, 
{0.005148865,0.025054565,-0.08469895,-0.008195625,-0.054806292,0.0123672495,-0.05970074,-0.086252406,0.013535147,0.04533223}, 
{-0.019400472,0.081823274,-0.0030378115,-0.10943313,-0.060654424,-0.027905958,0.013226095,-0.053292077,-0.07294013,0.057509687}, 
{-0.0057234555,0.089749135,0.06768145,-0.04397747,0.13687186,-0.076474644,-0.13001588,-0.0936692,-0.08206863,0.054893643}, 
{0.04934476,0.012034589,-0.032142527,0.00015934487,0.045079973,-0.0072268,-0.101338476,-0.0074323383,-0.013712531,-0.036433816}, 
{0.022165282,-0.10378179,-0.04714221,-0.006129962,0.0555088,0.06443476,-0.03094622,0.07256632,0.0063120844,0.026405461}, 
{0.008747929,-0.014869019,-0.07880877,0.062050644,-0.022042079,0.09124588,-0.059314925,0.05644636,0.06470849,-0.009619412}, 
{-0.020328678,0.02337856,-0.054237086,0.083570786,0.036290593,-0.0049199574,0.05392439,-0.07481137,-0.02613363,0.054449897}, 
{-0.024694832,0.039113857,0.10651353,0.08409375,-0.07124021,-0.02429409,0.0769981,0.031704478,-0.04478604,0.029568216}, 
{0.03930365,-0.08748427,-0.0070094177,0.07763602,-0.016473478,-0.04419145,-0.0013229575,-0.061532248,-0.0066104936,-0.048436757}, 
{-0.041772123,0.0022565369,0.091990784,-0.04377053,-0.034318965,-0.034768872,0.09905273,0.0460891,-0.07727793,-0.13704571}, 
{0.03403598,0.00672516,-0.004253483,0.050939243,-0.06502055,-0.02938871,-0.06479268,-0.07094993,-0.054564,0.023838136}, 
{0.07466033,0.027123135,-0.07522512,-0.0702404,-0.12710087,0.04139548,0.01126114,-0.014362485,0.078565344,-0.009775683}, 
{-0.06775981,-0.010079284,0.038762927,0.011910394,-0.09221168,0.0337421,0.12130722,-0.071607955,0.012006592,0.041734982}, 
{-0.063549966,0.08100796,-0.017114045,-0.072972625,-0.047238193,-0.039470024,0.027229592,-0.06869796,-0.02983524,-0.04576786}, 
{0.0534935,-0.0069833626,0.025573602,-0.002031533,0.055332612,-0.009123323,-0.07005344,-0.025786482,-0.06587782,-0.0061439658}, 
{0.027860977,-0.04473165,-0.03620985,0.004165344,-0.11756774,-0.050064594,-0.0387188,0.026918618,-0.025943832,-0.004909778}, 
{0.008103159,-0.013376345,0.020569127,-0.004976757,0.0056795883,-0.023618905,-0.018169746,-0.05278695,0.04635721,0.07794286}, 
{-0.094025,0.08775035,-0.10309151,0.06671622,-0.07463218,-0.12196402,0.09510876,0.0040040053,-0.033004764,-0.001146589}, 
{-0.1329345,-0.010996358,-0.022030978,0.007641311,-0.0879525,0.0079540135,-0.026768152,0.019689085,0.11063363,0.04130474}, 
{-0.054856297,0.003974254,-0.06821438,0.025735619,-0.007262298,0.048879065,-0.015037148,-0.036548544,0.108277425,0.03131413}, 
{0.023641763,0.014478013,0.018043255,0.08589636,0.013289945,-0.07230343,0.035734773,-0.061255038,-0.034733754,0.040214214}, 
{0.02538085,-0.06676695,0.013014737,0.056316096,0.052892882,0.026451644,0.07245327,0.047983635,0.032394033,0.0023982944}, 
{-0.061787367,-0.101763256,-0.012368175,-0.01737634,0.052372504,0.008056323,-0.01024414,0.06275664,-0.02598192,0.018171359}, 
{-0.014049244,0.061873935,0.041757077,-0.049586076,0.0048182714,-0.05283312,-0.03492096,0.14623028,-0.08707429,-0.03713548}, 
{-0.07067589,-0.011363381,-0.028323645,-0.038288843,-0.0015563039,0.11772675,-0.02359505,0.009063,0.021041723,0.05071212}, 
{-0.04629012,-0.03703242,-0.0031466843,0.018965397,0.034343757,-0.037137583,-0.00044029823,0.07868292,0.03361249,-0.03352681}, 
{0.0012004997,-0.063463464,0.04499813,0.07892344,-0.010934627,0.02326517,0.0055890717,0.11684979,-0.1132916,0.040775992}, 
{-0.03558203,0.1008981,0.0478229,0.025670553,0.059055854,0.018785909,-0.053251434,0.009955322,0.0686658,0.08408848}, 
{0.017607747,0.06589016,0.04328997,0.0057804934,-0.075879335,-0.037978012,0.046471544,0.008465477,-0.059755985,-0.038121358}, 
{0.05511581,-0.059884533,0.05444044,0.021194968,0.03705507,-0.078225054,-0.071501434,-0.008330101,0.010714488,-0.039523065}, 
{0.0494317,-0.04114755,-0.02011912,0.003588526,0.071888395,-0.08213498,0.011643413,-0.0009092994,0.011839078,-0.047115106}, 
{0.033831764,-0.026156845,-0.061488677,0.06336019,-0.058502536,0.021404078,-0.08221169,0.08567744,-0.010279732,0.07189149}, 
{-0.004489132,0.012100957,-0.06296978,-0.041298576,0.10205763,-0.050044276,-0.05332779,-0.0009672277,0.017647613,-0.056276053}, 
{0.018686807,-0.014627763,0.06834256,-0.012408345,0.07026556,-0.015498264,-0.03439959,0.041095786,-0.057207275,-0.010086092}, 
{0.044255927,0.031733796,-0.021174915,-0.046415713,0.0049312348,0.0074071754,-0.008528379,0.06385963,-0.09818778,-0.10295819}, 
{0.079214536,0.038475294,-0.009923881,-0.05510781,0.0074407235,-0.067842364,-0.12608351,0.103451155,-0.08394087,-0.021250555}, 
{0.07332249,-0.029265331,-0.009133185,-0.07919352,0.057769917,0.083958805,0.041519295,0.03368369,-0.035256494,-0.14290313}, 
{0.01763368,0.10589518,-0.011553842,0.057559703,0.010166277,-0.17936918,-0.030237887,0.04796737,-0.060341828,-0.0620077}, 
{-0.07213518,-0.14542364,0.047950596,0.013835241,-0.044719797,-0.015380221,-0.033886496,0.05967412,-0.025686702,-0.065723896}, 
{-0.036130466,0.0026759538,-0.032856397,-0.040996775,-0.0052423687,0.006680188,0.017569313,0.08326709,0.02401763,-0.09021267}, 
{0.12720071,0.08559414,0.09751106,-0.18683109,-0.03223864,-0.04860758,-0.08462297,0.022206206,-0.019409332,0.04405209}, 
{-0.07624498,0.050268065,0.026586609,0.00010052377,-0.1517961,-0.023995366,0.054068103,0.036639888,-0.10594513,0.0400911}, 
{-0.1034028,-0.03277035,-0.042043775,0.05657491,0.018153816,0.013620583,-0.0037379586,-0.027254255,0.027875347,0.056847397}, 
{-0.014925532,0.01598327,-0.0067212093,-0.020538231,-0.007437756,-0.07751481,-0.0014987745,0.023856679,0.043417726,0.038344167}, 
{0.025043897,-0.07562923,-0.066830926,-0.014656433,0.056370012,-0.008850149,0.07887407,0.060525496,-0.074712604,0.013799438}, 
{0.0035258047,-0.13156472,0.10952498,-0.058121514,0.061102223,0.064544216,0.08784005,-0.1076622,-0.019353408,0.06586395}, 
{0.040594414,-0.07496131,0.0038769066,0.06451521,-0.056677092,0.0052157347,-0.05352151,0.06108541,0.05598953,0.045690477}, 
{-0.059915703,-0.0538062,0.06269171,0.01994681,-0.013812168,-0.092687786,0.029175818,0.05990274,0.095462486,-0.028636372}, 
{0.003824578,-0.031369805,0.07761961,-0.10594105,0.0075842077,0.018827025,0.019733818,-0.057329375,0.011332505,0.026853984}, 
{0.036526296,-0.02540772,0.043337308,0.026602726,0.050536886,-0.10973847,-0.08682317,0.07534782,0.07942198,0.065530114}, 
{-0.014129993,0.040636983,-0.012557006,-0.07688136,0.046901755,-0.019272061,-0.096292116,0.0042167585,-0.061059188,0.06800092}, 
{0.07145412,0.09442432,0.04670924,-0.08069173,0.05619308,0.022651877,-0.0036838509,0.1003955,-0.08279142,0.01675111}, 
{0.02848761,-0.18940264,-0.015816629,-0.0122072315,-0.026200386,0.033867158,0.07766419,0.021020694,0.018557392,0.034152653}, 
{-0.056016326,0.004909966,-0.047324996,-0.0492955,0.06444685,-0.08390359,-0.04140996,0.013752056,-0.032353662,0.08401977}, 
{0.028923238,-0.02311281,-0.01844101,0.09339199,-0.05595024,0.06768685,-0.017463882,-0.09211507,0.04854066,0.04094732}, 
{0.08849076,-0.03396747,-0.058273643,-0.0010002557,-0.13561213,0.074296966,-0.06829471,0.088077515,0.033232,0.05054857}, 
{-0.060694166,0.009453882,0.011657314,0.053020768,-0.033732526,0.052858952,-0.0038481264,0.022163788,0.05112433,0.0030990026}, 
{0.05137546,0.079862185,0.0072533917,0.046550345,-0.024781574,-0.08033902,-0.038120072,0.0050093513,0.0056719934,-0.02903813}, 
{0.005994449,0.0739028,-0.044772606,0.03293161,-0.05298663,0.050868973,0.056966614,0.040276393,0.018075228,0.070293136}, 
{-0.04143448,0.03971113,0.0007384971,-0.025587423,-0.05247784,0.06443505,0.08297194,-0.039047375,-0.06873668,-0.05089785}, 
{0.057568554,-0.0077527803,-0.01754801,0.038282536,-0.08491684,-0.007941259,0.036811814,0.080804184,0.06489465,-0.08284283}, 
{-0.01802343,-0.01096109,-0.06714912,-0.057413828,-0.02491145,0.059860963,-0.008641598,0.011704717,0.022272756,-0.08067966}, 
{-0.02908888,0.14517634,0.037235305,-0.15515615,-0.15403467,0.08874236,0.0062215417,-0.08098664,-0.26307887,0.02728835}, 
{-0.00596193,-0.10096869,0.017793924,0.04844788,0.021855908,-0.25603542,-0.08222719,-0.028131504,0.07799855,0.06930576}, 
{-0.04425136,-0.03572532,0.02376215,-0.044377584,-0.06471092,-0.06691216,0.076298445,0.06695722,-0.03093296,-0.05631873}, 
{-0.08407966,-0.06284171,-0.05689331,-0.15760311,-0.09214894,0.1877707,0.029413117,-0.09419589,-0.09346286,0.0844192}, 
{0.114451446,-0.066583686,-0.019284515,-0.26650602,0.0065220995,-0.037800837,-0.12078378,0.018738262,0.021272402,-0.03997097}, 
{0.06037547,-0.09620294,-0.045926493,0.07374818,-0.062656745,-0.014920655,-0.06506543,-0.024492603,0.07805091,0.028593004}, 
{0.058322147,-0.07666715,-0.02848285,0.053789556,-0.07709228,-0.059664547,0.03238422,0.11467363,0.0072341827,-0.018661464}, 
{-0.08718859,-0.022204671,-0.03009862,0.021305354,-0.10815615,0.11868244,-0.086211935,0.050044276,0.04367908,-0.050827183}, 
{-0.012100841,-0.051612753,-0.03547322,-0.03844617,0.020415653,-0.008346343,0.026236907,-0.046403486,0.036710363,0.038332798}, 
{0.033602566,-0.09585568,0.0067157783,-0.048266724,-0.0054394226,-0.0029394138,0.12839821,-0.01714103,-0.08237709,0.0207004}, 
{-0.06824519,0.032518618,-0.08785784,0.11803111,-0.024039656,-0.113030314,0.0003024876,0.096508235,0.077889524,-0.028642897}, 
{-0.037844736,0.04417624,0.06944503,0.03334315,0.112277426,-0.089997165,-0.024086373,0.068299286,0.05098119,-0.105883636}, 
{-0.03466718,0.027415147,-0.07041302,0.055120192,0.021040808,0.0011259838,-0.00017559939,-0.00077899,0.019754244,0.01953159}, 
{0.019177964,-0.02492772,0.08551083,0.06799139,-0.034803525,0.0071771103,-0.09066667,0.022200696,-0.017109197,-0.06857419}, 
{0.010995741,-0.061602276,-0.109603256,0.029023098,-0.073390655,0.1191909,0.02265659,0.051622085,-0.011753929,-0.13565414}, 
{0.010219981,0.02908459,-0.044733033,0.020976609,-0.03505157,0.07115676,0.057145108,-0.025043484,0.017831547,-0.07748072}, 
{0.07530425,0.044863403,0.040952526,-0.0030064676,-0.010702592,-0.16802235,-0.045294143,-0.0134190675,-0.07061138,-0.0015529507}, 
{-0.049315315,0.04136919,0.05689629,0.10956417,0.03579404,-0.27436373,-0.20621482,0.082628,0.07876345,-0.01158603}, 
{0.075215176,-0.051938403,-0.039330002,0.052981135,0.07005033,-0.077440545,-0.11658236,-0.02580475,-0.019788759,0.04533604}, 
{-0.1222252,0.066833615,-0.037291322,0.04058446,0.04110064,-0.028861223,-0.11269023,-0.0008738107,0.062150095,-0.000691007}, 
{-0.052388124,0.03184216,0.09690194,-0.013391026,-0.018404542,-0.09934769,-0.059782114,0.0082477685,-0.018055724,0.03984816}, 
{-0.035270676,-0.018936787,0.05889485,0.010601861,0.09535793,0.06114021,-0.08033445,0.09951148,0.10281085,-0.10317149}, 
{0.030324522,-0.062076766,-0.07770552,-0.07474659,0.02066652,-0.0074670673,0.031706244,0.09521237,-0.007718074,-0.08509483}, 
{-0.08550193,-0.05547845,-0.016130766,-0.052213863,0.017210733,-0.035284188,0.11667463,-0.09573222,-0.006882848,0.0429058}, 
{-0.054258615,0.049232244,-0.045533933,-0.06979317,-0.09385158,0.012446287,-0.015293626,0.051494606,0.004878893,-0.06067505}, 
{0.07963232,-0.16864537,0.08492249,-0.051087644,0.058816545,-0.038761254,0.011055537,-0.011601802,-0.0032095045,-0.028678786}, 
{-0.107337296,0.009174577,-0.016949637,0.044578057,-0.026153836,0.06269653,-0.015423131,0.0077686636,-0.025905292,-0.010669904}, 
{-0.040913187,-0.11210515,-0.0062064193,0.04601353,0.022363015,-0.018210929,0.029865295,-0.028417042,-0.009099759,-0.00024266102}, 
{0.041476265,-0.07776623,0.060401786,0.019199686,-0.2038416,0.017296238,0.05255982,-0.06314266,0.06546021,0.008474119}, 
{0.1162081,0.023359906,0.077537425,-0.078271784,0.04627917,-0.23334475,-0.025285037,0.0013751716,0.048809845,0.08296973}, 
{-0.062295604,0.04364098,-0.045481585,-0.01894348,0.0032910928,-0.05680023,-0.062492535,-0.017209984,-0.053189583,-0.010140222}, 
{0.032038707,-0.014520283,0.01289875,-0.012341519,-0.017285421,-0.014536663,-0.0010441757,-0.06742857,-0.015817193,-0.03639628}, 
{0.08941935,-0.079692855,0.045245327,-0.008328055,0.04849302,-0.08519047,-0.018833201,0.0028235558,0.06892434,0.041876636}, 
{-0.051406804,-0.033116743,0.098066345,-0.058392078,0.014240793,-0.06983997,-0.06102064,0.0482964,-0.08072983,0.037933644}, 
{-0.019913368,-0.078905106,-0.0067354753,-0.037774142,-0.011634209,0.061162252,0.06891841,0.06568409,0.008469182,-0.03127611}, 
{0.0010144273,-0.121510796,0.045995083,-0.07552205,-0.09558056,-0.08676585,0.019769602,-0.041311853,0.038745556,0.08455934}, 
{0.061849277,0.071967855,0.0016412527,0.08031472,0.077575274,-0.18870483,-0.13793258,-0.051989626,0.018799499,0.103787325}, 
{0.082171984,-0.015585583,-0.071625926,-0.02081485,-0.035757255,0.0387868,-0.035929132,0.00771351,0.023702178,-0.008560429}, 
{0.06399685,0.037706908,-0.013130681,-0.08942663,0.044422287,-0.02722313,-0.042331766,0.026616605,0.02652598,0.07076152}, 
{0.0842252,-0.048259117,0.01965816,-0.09102055,0.053457767,-0.19203812,-0.037276894,0.028199155,0.08507138,0.06858297}, 
{-0.1220083,-0.09423283,-0.0058107297,-0.04496962,0.013817384,0.06602153,0.067907214,-0.047347553,-0.009655515,-0.0018753386}, 
{0.08890849,0.025226152,0.002992151,0.010831406,0.09741697,-0.06709523,0.03229202,-0.017618045,0.007955631,0.024532283}, 
{0.15667619,0.058529794,0.07304149,-0.04910189,0.037663694,-0.053377815,-0.13302307,-0.07569537,-0.15823507,0.092787504}, 
{0.024462294,0.07973768,0.04216216,0.04802686,0.019641165,0.0074175764,-0.0038935393,-0.010756942,-0.035799883,0.04958408}, 
{-0.077087946,0.014035844,-0.05171559,-0.0691793,0.0022578645,-0.06293747,0.018081162,0.027559968,0.042339716,-0.10296166}, 
{-0.020933712,0.045591243,-0.0043779262,-0.018949015,-0.028376061,0.047453143,-0.117218256,-0.038215674,0.10792971,-0.027805403}, 
{0.06646611,-0.10379323,-0.07366986,0.01584708,-0.0862489,0.041072067,0.10587189,-0.018075075,0.049278937,0.019234497}, 
{0.023548298,-0.052850436,0.0072937096,-0.030859426,0.03299207,-0.029611813,0.06827559,0.0454324,-0.059608676,0.04433117}, 
{0.08622427,-0.07073626,-0.029826185,0.018508043,-0.13540368,0.035377853,0.05525244,-0.03154599,0.03832143,-0.032382075}, 
{-0.024388291,-0.10620292,-0.01677435,0.04097658,0.0073790355,-0.012914383,-0.008901592,-0.031068007,0.026764859,-0.05949218}, 
{0.032940455,0.061113525,0.08297049,-0.027001293,0.030607747,0.0565186,-0.061831426,0.07289277,-0.0040614633,-0.04482441}, 
{-0.08068424,0.045244668,-0.01510277,-0.12644511,0.014039652,-0.0012214613,0.02878126,0.021148821,-0.048598584,0.018741345}, 
{-0.024082795,-0.08881565,0.050087985,0.041147,-0.029436162,-0.06364205,0.04740394,0.059537012,-0.0421617,0.07332309}, 
{0.062322333,-0.038044397,-0.05847626,-0.20093882,-0.10242161,0.020372113,0.031627312,-0.006096769,-0.10226158,-0.096695065}, 
{-0.04957372,-0.1566702,-0.10456357,-0.06201747,-0.039613348,0.11661861,0.09755467,-0.008154595,-0.06488866,-0.11186801}, 
{-0.06348946,-0.11283496,0.01236641,0.04347673,-0.007685696,0.046562623,0.0504134,0.091181494,0.018648952,-0.042971186}, 
{-0.017002335,-0.010233704,-0.0033513808,-0.004999033,0.0069320537,-0.013142848,-0.001830468,0.07075901,0.048488475,0.03318943}, 
{0.03637346,0.046601646,-0.0533347,-0.05680833,-0.09526168,0.0601453,-0.06569449,-0.059761103,-0.03190168,-0.03394373}, 
{-0.0874205,-0.10049547,0.018404778,0.11064996,-0.054753147,-0.09768601,-0.024120979,0.026928406,0.054055136,0.085124925}, 
{0.06563759,0.0845114,0.05456104,-0.022518953,-0.015521636,-0.18092568,-0.13406888,-0.032636236,0.041259736,0.06934258}, 
{-0.04172835,0.06790865,-0.059353422,0.020686109,0.043091346,0.0073249373,0.039017368,0.057830732,-0.09006903,0.055492114}, 
{-0.026605137,-0.004193926,-0.0059669996,0.060238294,-0.0152653055,0.019717764,0.03150535,0.025576439,0.039622296,-0.13195603}, 
{-0.01763505,-0.01723889,-0.021635327,0.005568838,-0.015621879,0.13943319,0.054732047,0.0429827,-0.06578049,-0.11784444}, 
{-0.051769804,-0.0043640053,0.033012383,0.017298765,-0.052582987,0.04042102,0.008156457,-0.036957618,0.003213069,-0.07037009}, 
{-0.17166065,-0.04003281,-0.15837894,0.029593622,0.09392721,0.075156,-0.124602385,-0.0150886085,0.030519255,0.09244342}, 
{-0.054745976,-0.056659974,-0.05260642,-0.0024736493,-0.012293684,-3.772921e-05,0.07764969,-0.011115871,-0.03689547,-0.051477704}, 
{-0.073254995,0.046273705,-0.042920385,-0.07870363,-0.015966369,-0.035705302,-0.020576034,-0.05488202,0.091672055,0.03343051}, 
{-0.06624912,0.057238143,0.08786808,0.040020917,-0.009886884,-0.04611432,-0.1694756,0.094031885,-0.0039121164,-0.1584625}, 
{-0.042951215,-0.05313068,-0.060801283,-0.027524477,-0.047022175,0.064221404,0.06224983,-0.022977818,-0.0049981643,0.07658728}, 
{0.01637749,-0.08746235,0.06497403,0.010253351,-0.026674395,-0.0008031386,0.039650273,-0.06133467,0.022107745,0.006088521}, 
{-0.05636426,-0.08667146,0.0040179384,0.0478601,-0.033267286,-0.009523216,0.017693479,-0.0010494881,0.009462945,0.07723029}, 
{0.017329305,0.09642583,0.07286207,-0.09040028,0.07409308,-0.06352774,-0.0018973775,0.06784282,-0.04909141,-0.010044918}, 
{0.036843486,-0.018335002,0.14490002,-0.01791434,0.02362424,-0.0500749,-0.06369502,-0.0012530899,0.018851142,-0.123623215}, 
{-0.032685567,0.04662917,-0.049473006,0.11841565,0.038952652,0.12776838,-0.050169144,0.0010269574,-0.087921135,-0.058838625}, 
{0.13359304,0.015485806,-0.002355614,-0.13908726,0.062238373,-0.15406874,0.11807723,-0.023233434,-0.0580778,0.033692315}, 
{-0.0249137,0.046895288,-0.18136352,-0.02682526,0.045567233,-0.09697315,-0.026507085,0.10298287,0.03400114,-0.030623054}, 
{0.010770992,-0.061138686,-0.05186897,-0.060749143,-0.0020279877,0.017656684,0.08526832,0.018922234,0.064227335,0.04069533}, 
{0.1319509,-0.03681972,-0.1289516,0.04919664,0.030244967,-0.08098951,0.06059179,-0.029362425,-0.12860133,0.07337216}, 
{-0.009752917,-0.0107011665,0.042201847,0.008633354,-0.00062046887,-0.006604158,-0.11215678,0.018493379,0.0436819,-0.023436803}, 
{0.0012348872,-0.01990607,0.14427915,-0.015127083,-0.11706477,0.013685723,0.009228439,-0.0548632,-0.1017897,-0.09319775}, 
{0.12581313,-0.053451926,-0.046732314,-0.25343454,-0.06297182,-0.086780995,0.11512923,-0.0072243274,-0.007877654,0.0065088943}, 
{0.04155039,-0.096050695,-0.06579275,-0.09293444,0.10342204,0.030000629,0.05222616,0.16806766,0.04473593,-0.0635499}, 
{0.043432605,-0.06454899,0.008760768,-0.11468175,0.033289753,0.035567965,-0.02940495,0.06479534,-0.0200702,-0.017493423}, 
{0.009465067,-0.07660936,0.07097239,-0.061796922,-0.0009919134,-0.042496324,0.011024854,0.02557668,-0.017932795,-0.08654684}, 
{-0.062516674,-0.084305644,0.032911032,-0.000525558,0.04904594,0.0853763,0.06419977,-0.018231587,0.10496622,-0.11373595}, 
{0.073485784,0.0016982737,0.02569015,0.07716517,-0.0007080936,-0.07222536,0.0143778855,0.11386838,-0.015192547,-0.08698402}, 
{0.0011399433,-0.013777362,-0.08065964,-0.0020788717,0.09878341,0.054567147,0.02969807,-0.07642106,0.00727521,0.008287698}, 
{-0.10479742,0.027346294,0.01321193,-0.032148816,0.07387569,-0.04743314,-0.07085614,0.06676066,-0.025688713,0.06803228}, 
{-0.0059128623,-0.01955468,0.02921498,-0.024113573,0.055029437,0.00031811977,0.031309925,-0.07460197,0.08014716,-0.030722488}, 
{-0.14292115,0.005828803,0.046936758,-0.054097198,-0.056146897,-0.065352514,-0.06061353,0.11912226,0.119952396,-0.035967447}, 
{-0.022090418,0.025340958,-0.041365176,0.05255998,-0.0317425,0.11232724,-0.027806161,-0.014920567,-0.15364784,0.039154593}, 
{-0.044677638,0.086474106,0.054803077,-0.0775681,0.026500905,0.06751628,0.04407198,0.012808133,-0.01280122,-0.03363616}, 
{-0.05054192,-0.061771393,-0.017228281,0.03673034,-0.004744013,-0.039732184,-0.05941915,-0.02445828,0.09665668,0.040601578}, 
{0.004472362,-0.064301625,0.016533224,-0.019616373,-0.015420238,-0.052110363,0.021402465,-0.038909163,0.05918351,0.05867813}, 
{0.041310683,0.0716747,-0.06766352,-0.015930071,0.010078449,-0.13963573,0.0382374,0.025593253,0.04501455,-0.027994085}, 
{-0.027392613,-0.06023332,0.021831047,0.079205185,0.029589472,-0.03311183,0.06255526,-0.02799986,-0.08267058,-0.03119436}, 
{0.037553847,-0.09420663,0.044679083,-0.057146043,0.059165362,0.035098456,0.022272725,-0.09711637,0.035984404,0.07567365}, 
{0.065697014,-0.033648536,-0.10817731,-0.13983652,0.09347758,0.036221802,0.107422896,0.027748177,0.024649544,0.045245}, 
{0.036049895,-0.08536602,0.008515693,-0.07199314,0.034364533,-0.02156513,-0.010110938,-0.036808807,-0.054750625,0.052560005}, 
{-0.023657778,-0.09350006,-0.066827275,0.05034776,-0.050461575,0.00095723587,0.07314023,0.029864319,-0.023934921,0.08139544}, 
{0.1132507,-0.05498357,0.048145834,-0.13248375,0.05622027,-0.09388147,0.01905861,-0.20367223,-0.018126743,0.1169539}, 
{0.06483136,-0.038391568,-0.051124122,-0.024885561,-0.0050051357,-0.039056137,0.06424018,-0.07849057,-0.048306193,-0.04135632}, 
{0.035676878,0.0109208925,-0.18317516,0.068174295,0.027768977,0.014530457,-0.04084015,0.08163053,-0.07637362,0.0028675618}, 
{-0.040620826,0.05107744,0.09859878,0.004755042,-0.06957232,-0.06491356,-0.019304404,-0.0890946,-0.021733923,0.00083686784}, 
{0.0114819575,0.047403365,0.040643215,0.12524572,-0.018287541,0.03550508,-0.08580416,0.03417132,-0.10276327,-0.015562039}, 
{0.015345824,0.075908974,-0.11109034,0.074573755,-0.007265034,0.037848894,0.054748714,-0.061389495,-0.12167674,0.04901297}, 
{-0.05613776,-0.018568713,-0.045509603,-0.034487277,-0.06672054,-0.07072771,0.029122861,0.015173533,0.047067642,-0.03787865}, 
{0.04713072,-0.057539374,-0.16098222,-0.06071364,-0.03930697,-0.096905924,0.07614969,0.031086683,-0.25008056,0.15172192}, 
{-0.009035959,0.021902133,0.14787309,-0.06435103,0.03477042,-0.104659416,-0.054382313,0.043236062,0.03884448,-0.032309733}, 
{0.031824127,0.025529383,-0.06088505,-0.02824991,0.027768154,0.0049413755,0.008299107,-0.06563434,-0.0039156447,-0.006582899}, 
{-0.0084151365,0.03472456,-0.00632702,-0.014980353,0.07631763,-0.0035057385,-0.060749486,-0.0049489974,0.03990984,-0.059869446}, 
{0.07462226,-0.04813087,-0.049933806,0.0025207945,0.06463619,0.018202778,-0.061536588,-0.09815634,-0.112369016,-0.021098156}, 
{0.046412554,-0.05039036,-0.039093737,-0.028989067,0.025637241,0.062437836,-0.010607429,-0.052529376,0.07923341,-0.08733676}, 
{-0.04586429,-0.0487713,-0.014686506,-0.09908202,-0.021530354,-0.038808957,0.018427072,-0.084971815,-0.012221301,-0.03432713}, 
{-0.034098625,0.068387344,-0.08878207,-0.02844197,-0.014808931,0.080089584,-0.0337874,-0.06966825,-0.034347128,-0.060686212}, 
{0.04259431,-0.008395623,0.06446708,-0.040867742,0.007177626,-0.013585701,0.023545386,-0.022359775,0.099968374,-0.05812312}, 
{-0.0022792518,-0.10248724,0.042194173,-0.06889169,0.0057420833,-0.013060216,-0.011500083,-0.11196814,-0.02874696,-0.03938633}, 
{-0.063998535,-0.05524838,-0.071975484,-0.003987261,-0.046876073,-0.056210462,-0.08226565,0.0133005865,0.06321859,0.06224752}, 
{-0.14772584,0.018761316,0.06895644,0.022363942,0.017697461,0.043975472,-0.068039246,0.019637926,0.046167947,0.011448425}, 
{0.0332115,0.1036387,0.04386085,-0.07931222,0.015275218,-0.028322922,-0.016731972,0.10652125,-0.034821566,-0.14401011}, 
{0.057233635,0.004886427,-0.077577986,-0.07421287,-0.0059969854,0.05227044,-0.06830596,-0.09465587,-0.03387728,0.10412961}, 
{-0.0864991,0.07690603,0.049247947,-0.08539278,0.08221239,0.068172224,-0.017694065,0.040656094,-0.057926364,-0.043808434}, 
{0.060239166,0.0028010332,0.076407544,-0.07284009,0.084306546,0.054225527,-0.03334452,0.032763973,0.03348346,-0.08609729}, 
{0.075995594,-0.017556617,-0.011549502,-0.06342967,-0.05774711,0.05239044,0.0025263608,-0.02153254,-0.0031786335,-0.015482826}, 
{0.10027177,-0.14304338,0.013947452,-0.0027998963,0.107896015,-0.08615127,0.042936325,-0.019775355,-0.0013635494,-0.012031188}, 
{-0.16116369,0.07315573,-0.045871973,-0.05636219,0.08634602,0.0803174,-0.16639623,0.09497796,0.024814552,-0.02725995}, 
{-0.059730664,0.036361028,-0.09926862,0.029083857,0.01271104,0.05278294,-0.06576673,-0.039714083,0.053189863,0.08141186}, 
{-0.012212105,-0.06450996,0.0593749,0.06618401,0.034670472,-0.043475013,0.026943678,0.01355488,0.049231324,-0.051170383}, 
{-0.072910376,-0.04423797,-0.14969079,0.11165702,0.10847773,0.074590184,-0.12886028,-0.16562775,-0.09648311,0.07752342}, 
{-0.12087644,0.038679257,0.05623796,-0.11571858,0.0103426175,-0.06765159,0.021785656,0.09450748,-0.00045844377,0.032336205}, 
{-0.027931195,0.02862226,0.06470813,-0.031308424,-0.08950036,-0.09929967,0.017152334,-0.063870646,0.05202775,0.057493117}, 
{0.0052181045,0.010855067,0.07921387,-0.028876781,-0.03938298,-0.004118659,-0.011048869,-0.019948412,-0.15264018,0.017399143}, 
{0.014650049,0.033010963,-0.038425505,0.07323814,0.062363714,-0.052297313,0.023044702,0.07402929,-0.014897234,0.0878776}, 
{0.025924504,0.021450879,-0.0035403636,0.05449108,-0.009100182,-0.029292662,0.00496039,0.038379822,0.07611594,0.019658444}, 
{-0.058542762,0.034697782,0.041675836,-0.06340719,0.09293435,0.03431714,-0.009417883,-0.046798058,-0.019209987,0.020039437}, 
{-0.08797488,-0.07173565,-0.06528854,-0.06972072,0.04897222,-0.025956694,-0.03485257,-0.014606914,-0.0684792,0.12751885}, 
{-0.037466735,0.045581114,-0.0060803597,-0.052750994,-0.022642069,-0.029136028,-0.025914729,0.046629757,0.00964785,-0.06158312}, 
{-0.027477222,0.017857838,-0.044183407,0.010227773,0.050122436,0.030438513,0.087226935,-0.053118512,-0.11021893,-0.090034194}, 
{-0.035239436,-0.024362924,-0.08184157,-0.08866825,0.071581565,-0.12743747,0.09372193,-0.047212467,0.10708303,0.03375787}, 
{-0.03142089,-0.018621136,0.007724026,-0.08416896,0.061088182,0.066938065,0.011086932,-0.0129006775,0.010383835,0.03493338}, 
{-0.0026246463,-0.08147085,-0.021803064,0.070239164,0.05143731,0.026606701,-0.04173241,0.0073112627,-0.07886635,0.020310502}, 
{0.012126482,-0.06033017,-0.099437125,-0.0044140574,0.025897432,0.02543593,0.021602368,-0.011598558,0.049635574,0.012560498}, 
{-0.04504015,-0.112233534,-0.030594172,0.021547316,0.06065752,-0.030812336,-0.015675126,-0.05784952,0.039438725,-0.004398013}, 
{0.069860056,0.058065925,0.048738364,-0.045111015,-0.08451213,-0.07408375,0.022699317,-0.022268826,-0.15285078,0.06953012}, 
{0.0019278951,0.072365806,-0.051790413,-0.133094,0.010928949,-0.017848482,0.032151893,0.061443467,0.023283465,-0.037586205}, 
{-0.015482912,-0.008505141,-0.009108368,0.0117559675,-0.025915237,-0.07345729,-0.013974527,0.047090754,0.08353678,0.023731662}, 
{0.0038829353,0.06064578,-0.058259968,-0.008215148,-0.061979085,0.0029936582,0.018226847,-0.033897374,0.07574418,-0.05179221}, 
{0.0136656165,-0.021448074,-0.15412979,0.106679,0.046307996,-0.077172905,0.07599621,0.047291704,-0.08991697,-0.03795505}, 
{0.055957377,-0.02321773,0.0049412823,-0.049064733,0.008990519,-0.065674804,0.08584696,-0.015999552,-0.011095726,-0.08866903}, 
{0.08416476,-0.04076497,-0.07069009,0.057787307,0.07991871,-0.04184827,-0.055808082,-0.040997524,0.040227287,0.10652086}, 
{0.03731177,-0.0073879613,-0.06943354,-0.020950716,0.007950863,-0.086476326,-0.037151802,0.030771704,0.06781919,-0.0016737614}, 
{0.052289303,-0.024213638,-0.024714734,-0.05363152,-0.06345895,0.05724039,0.021372588,0.034876984,0.10277883,-0.06334477}, 
{0.076997794,-0.08501929,0.0830286,0.001227222,0.022778466,0.074844405,-0.0662499,-0.04886638,0.07406815,-0.07628124}, 
{-0.013766488,-0.045497794,0.06366632,0.02642832,-0.06126056,0.05411696,-0.052478295,-0.017442074,-0.023896048,0.064461164}, 
{-0.034720212,0.037255805,0.010000999,-0.046284057,-0.0052696625,-0.012618982,-0.08111554,0.010887986,-0.024237134,0.006903391}, 
{0.057750743,-0.016543336,0.021507965,0.015173705,-0.042745225,-0.0017568278,0.028997295,0.020807965,-0.057292085,-0.03081613}, 
{-0.03994109,0.024607012,0.0063053695,-0.04698437,-0.0069233156,0.068051614,-0.116445675,0.08100468,-0.0022459088,0.025469765}, 
{-0.025118733,0.073535465,-0.07147521,0.045201745,-0.0336597,-0.06425268,0.026232375,0.0003305705,-0.0047649276,-0.025955912}, 
{0.090946026,0.001934886,-0.034753364,-0.090237066,-0.065492846,0.0069564073,-0.0066119223,0.09079027,0.05250478,-0.18440732}, 
{-0.008754674,0.00333949,0.03888895,0.009416103,-0.0035365494,0.006854455,-0.049396772,0.026256947,-0.061939396,-0.05365563}, 
{-0.06799041,0.018799417,0.0110151,0.0096380375,0.0317826,-0.047726654,0.008131294,-0.071403384,0.008800247,0.062886685}, 
{0.019400831,0.06857422,0.009160572,0.0027046178,-0.09150358,0.04362823,0.06996825,-0.040851604,-0.014286968,-0.123703875}, 
{-0.044432838,0.076136634,-0.054248422,-0.0912709,0.02733984,0.03454348,-0.06309563,0.03548678,-0.025118103,0.0043233735}, 
{0.042131245,0.07332499,-0.045873165,-0.03495592,-0.04437884,0.062129006,-0.047809802,0.08831799,-0.05759148,-0.023502694}, 
{-0.0066859936,-0.046906505,-0.09796892,-0.095369145,0.118363425,-0.053994182,-0.03730147,0.09142269,0.05355837,-0.027238889}, 
{-0.008868979,0.016539501,-0.023417352,0.05871967,0.054901846,-0.067885585,-0.108827606,0.08037856,0.079831704,-0.010219903}, 
{0.018244421,0.044115156,-0.04098199,0.11899848,0.014336944,0.014917262,0.04899401,-0.06069161,0.05560068,-0.039414804}, 
{-0.032736447,0.035930585,0.02227781,0.033851568,-0.102355376,-0.048958663,0.05653735,0.050857853,0.06290857,0.008277489}, 
{-0.06433732,-0.0958279,-0.021809192,0.032849405,0.11210221,0.030992946,0.0034716483,0.08313114,-0.12956417,0.06477935}, 
{-0.0012269886,-0.042636763,-0.0008893733,-0.007780089,0.014740434,0.02053732,0.00896143,-0.14757743,-0.05842172,0.100230455}, 
{-0.000539334,0.01968147,-0.040648308,-0.026856467,-0.03969867,-0.02718469,0.020263515,-0.002024311,0.07358435,0.076263815}, 
{0.03871896,-0.15914944,-0.16452773,-0.08706825,0.08137184,-0.120431595,-0.0066944812,0.1525768,-0.023785325,-0.010662714}, 
{-0.09179834,0.06606436,0.041842684,-0.06519734,-0.12588911,0.026685249,-0.025720209,0.09592098,0.16033286,-0.015806526}, 
{-0.08454427,-0.034652553,0.055137068,0.1072379,0.037334632,-0.04458905,-0.118367136,-0.055387665,-0.058433957,-0.015492007}, 
{-0.08983679,0.06719027,-0.027066814,-0.0060728486,-0.07319418,-0.052870527,0.022332063,-0.06763329,0.044386987,-0.05799833}, 
{0.046261255,0.038015824,0.03198418,0.027100697,0.0658682,-0.005731742,-0.03168883,-0.06435567,0.08519209,0.047252335}, 
{-0.046750043,0.019881533,0.061967824,-0.07324135,0.041269105,0.07286461,0.0141615365,0.031473987,0.06722941,0.033304464}, 
{-0.037256148,-0.081014074,0.047066092,-0.07443636,-0.00062541896,0.025171587,-0.048819315,-0.050199036,-0.033800572,0.05697239}, 
{-0.029685764,-0.013334895,-0.07795052,0.024260381,0.041175302,-0.031210031,-0.017768769,-0.0055320184,-0.011790895,0.08487809}, 
{-0.043830134,-0.008332901,0.1248745,-0.027939908,-0.04096656,-0.07427328,-0.020825416,0.038661454,0.020698158,-0.12538643}, 
{-0.043819506,-0.04348569,-0.040618587,0.060318753,-0.02127362,-0.05112646,0.077110834,0.0043362267,-0.023939181,-0.10153638}, 
{-0.084967345,0.012423305,-0.071627185,0.012111898,0.11941134,-0.07824854,0.01966479,0.054306466,0.020481195,0.010717404}, 
{-0.10905822,-0.017031461,-0.07514853,0.094364904,0.0071437247,0.05911595,-0.10728565,0.0016323244,-0.13238876,0.10658361}, 
{-0.013530216,0.062116798,-0.10543206,0.029921342,-0.051181857,-0.05964377,-0.029705478,-0.020874651,-0.0021071052,0.05772703}, 
{-0.05885415,-0.06198929,0.02488318,-0.061488714,0.0063976827,-0.0048061567,-0.0048599215,-0.049612746,-0.007819045,-0.060759578}, 
{-0.04330557,0.00039540502,0.03799406,-0.06882041,0.0252386,-0.01475437,-0.06250516,-0.047124103,0.056482423,0.0020087447}, 
{-0.028044583,0.06535616,0.011610963,-0.015967242,0.049169652,-0.09878217,-0.037475653,-0.01607589,0.10426321,-0.09283354}, 
{-0.04317208,-0.02585856,-0.03534375,-0.086692736,0.027146181,0.016585592,-0.008548075,-0.050083656,0.10776321,-0.08702146}, 
{0.07286586,-0.009115036,-0.002718902,-0.0011674772,0.01958379,0.034043267,0.10021839,-0.010598412,-0.060235914,-0.05744062}, 
{-0.11820927,0.03899206,-0.10465857,-0.048282996,-0.021856364,-0.04109141,0.016597122,0.041502118,0.04308426,0.044524707}, 
{0.0167911,0.057822593,-0.0032767127,0.10125989,0.096198834,0.07873629,-0.09434643,0.086206935,-0.045243856,-0.024519298}, 
{0.05851448,0.046239834,0.064513445,-0.076829836,-0.020690778,0.02852319,0.06561381,0.03865204,0.029044282,-0.04210365}, 
{0.10135171,0.089139976,-0.15957357,0.016969917,-0.004194177,0.05902001,-0.07008539,-0.011713967,-0.0637959,0.036587812}, 
{0.12028349,-0.014373017,0.105616204,-0.10304561,0.018471776,-0.072751775,-0.12102381,0.111619666,-0.06670274,-0.104986735}, 
{-0.019111292,-0.056732215,0.11139123,0.0038688853,0.05795352,-0.048566326,0.03444295,-0.031620283,-0.10308605,-0.03368937}, 
{0.027308257,0.010749791,0.006609318,-0.011060622,-0.034787446,-0.07462554,0.018833341,-0.04261874,-0.08873639,0.027951136}, 
{-0.029251045,0.025691155,0.13043742,-0.18909794,0.048320502,0.03438147,-0.19045816,-0.011735358,-0.015993446,0.0017904097}, 
{-0.0207072,-0.04540404,-0.07177621,-0.05962695,0.07338063,-0.0529307,0.016100692,-0.048496246,-0.06344511,-0.059152137}, 
{-0.04220352,0.046957534,-0.026951306,-0.039160803,0.070097886,0.06377014,-0.009860326,-0.035149805,-0.073824674,-0.0028902653}, 
{-0.058952585,-0.018989835,-0.02395871,0.013905259,0.0025186546,-0.020387461,-0.1210545,-0.01723158,0.07072187,-0.019401262}, 
{0.041786913,0.029138334,-0.031161759,-0.044116538,0.043828543,0.013580009,-0.074645996,0.043812763,0.07019258,0.020453416}, 
{0.00987966,-0.0094660595,0.059242234,0.00071757345,-0.09282713,0.048354134,0.09718949,-0.0138205355,-0.055630427,-0.19402513}, 
{0.011699624,0.03116949,0.07380735,0.11000656,-0.09426239,0.019850658,-0.058837876,-0.04867257,0.046930335,-0.09297434}, 
{0.02574777,0.049705192,0.071426265,-0.052478377,0.0020360933,0.038491633,-0.012185378,0.10577938,0.022021275,-0.017055625}, 
{0.010436282,0.045417383,-0.042138204,0.023070304,-0.053019274,0.049471155,0.062919036,0.02857389,0.07508397,-0.007655521}, 
{-0.08303049,0.031456385,-0.05106938,0.029523006,-0.053860135,-0.03352191,-0.06582282,0.0033124895,0.04387432,0.04836247}, 
{-0.108403206,-0.015488653,-0.017671902,0.07594052,0.104468316,0.043685935,-0.034589004,-0.08445288,-0.058949664,0.058929376}, 
{0.010588918,-0.050508235,0.07498804,-0.05917523,-0.044065107,0.06772638,0.03697204,-0.085067384,0.001691828,-0.022074524}, 
{0.08237497,-0.08738543,0.009331644,-0.095239386,0.01818811,0.096676365,-0.041715197,0.06903695,-0.03277971,0.02702964}, 
{0.015001226,-0.029919246,-0.002251456,-0.019922167,0.014479689,0.011389202,-0.06112383,-0.06147753,-0.08955737,0.10729833}, 
{0.019102218,-0.038729798,-0.00291836,0.004327014,-0.05052097,-0.04551432,-0.015857026,-0.0924528,-0.054743417,-0.020680739}, 
{-0.032553423,-0.10650947,0.14540586,-0.067854814,-0.098633304,-0.02760654,-0.05298329,0.0055846223,-0.029131144,0.08449733}, 
{-0.07735142,0.07159689,-0.005384612,-0.07153382,-0.017034823,-0.044732314,0.027560182,0.08894012,-0.051429715,0.03763808}, 
{-0.048528742,0.011719883,-0.034497358,-0.05774354,-0.03268663,-0.03251828,0.057490498,0.0082794465,-0.023099815,0.034813955}, 
{-0.10961186,-0.038885567,0.022824014,0.027241027,-0.04041817,-0.050817974,0.017411392,-0.003477655,0.06287126,0.05055892}, 
{0.018363807,-0.04172075,0.07036544,-0.064947225,0.0033796765,-0.04838277,-0.032322075,0.0019446953,0.07516629,-0.11297738}, 
{-0.005903679,-0.021753607,0.035347793,0.07035421,-0.041009333,-0.0088498555,-0.004762028,-0.11378244,-0.015209303,0.0036001487}, 
{-0.08350298,0.060881868,0.05986771,-0.059609994,0.012165781,0.05616155,-0.018486803,0.07685378,-0.0011570033,0.02515832}, 
{-0.07086781,-0.017071197,-0.013733552,0.009475208,-0.07252757,0.0088590225,-0.0035194699,-0.066775694,0.008179112,0.098641545}, 
{-0.039273,0.045336235,-0.07335068,0.093500085,-0.045613676,0.036109313,-0.06521036,-0.01966027,0.008027339,0.06185744}, 
{0.027768794,-0.11948613,0.05117693,0.06312952,-0.0031273873,0.023963949,-0.029759683,-0.09564671,-0.060908496,0.07250387}, 
{0.09415968,0.012821449,0.040639978,0.010757947,0.03265594,0.048100494,-0.019202972,0.07789706,0.0130742565,0.007650076}, 
{-0.09893209,0.012811281,0.04598811,0.04149199,0.00857655,0.048969127,-0.037106548,-0.010186982,-0.039366588,0.09557264}, 
{-0.010279896,-0.013615386,-0.022210252,0.026627816,0.049795754,-0.032243073,0.023144403,-0.0031945119,-0.06846531,0.034548953}, 
{0.006299506,-0.010872597,-0.07696091,0.03415426,-0.06391154,0.03898178,-0.0154388305,0.004102625,-0.024596257,-0.016559573}, 
{-0.048583712,0.0053168293,0.03469507,-0.091018334,0.05989076,-0.060477614,-0.11891321,-0.044752605,-0.015811974,0.10377722}, 
{0.029983291,-0.11124693,-0.035338324,-0.058339138,-0.011116183,0.02119538,0.060855106,0.009912215,-0.10083397,0.00559489}, 
{-0.011725233,0.0044176606,-0.04860025,-0.07411226,0.02837005,-0.056187056,-0.036380608,-0.005776463,-0.06040121,0.05324252}, 
{0.092999384,0.017486975,0.06819798,-0.07894793,-0.05803509,0.025370935,-0.0871623,0.00829845,-0.00094755756,0.04491284}, 
{0.047090605,-0.057063542,-0.01861584,-0.013665911,-0.047850408,0.029360967,-0.07105307,0.08134519,0.022232732,0.09846887}, 
{0.03869326,0.093309216,-0.05726076,-0.041783158,-0.047073603,-0.033964954,0.024342928,-0.06454658,0.004181113,-0.073158085}, 
{-0.045288917,-0.012871781,0.10941875,0.032418,-0.030534592,0.09056854,-0.057737194,0.034074754,-0.08151652,0.049447734}, 
{-0.06563397,-0.051159784,-0.019262135,0.008586656,0.028172124,0.005764646,-0.015910674,-0.006782808,0.03321697,-0.002955472}, 
{-0.030335737,-0.017283194,0.04932694,0.03803541,-0.08120252,-0.031685516,0.06627931,-0.019874934,-0.02063256,-0.0036662193}, 
{0.016547846,0.017249973,-0.021277277,-0.086801276,-0.008152035,-0.026567424,-0.038120903,0.082082674,-0.08711503,-0.0986454}, 
{-0.14342107,0.02270845,0.082432784,0.0044929227,-0.061423548,0.02235255,-0.007875908,-0.0386369,0.031075897,0.10545085}, 
{0.0374845,-0.04795029,-0.01763606,0.00765045,-0.001252388,-0.07249085,-0.011907962,-0.014255567,0.0049827844,0.03550335}, 
{-0.050157133,0.016999178,0.10833472,0.080662474,-0.06315004,-0.019915082,0.061244905,0.04265401,-0.016110932,0.056205146}, 
{-0.030484585,0.021723652,-0.01712982,0.05056466,0.011368954,0.010725586,0.00979239,-0.07283643,-0.04666186,-0.03228158}, 
{-0.047771446,0.028102515,-0.03335243,0.0408379,-0.0053706057,0.051287517,-0.03503193,0.070063666,-0.022592248,-0.09227473}, 
{-0.08718687,-0.06958295,-0.03594341,0.014120369,-0.02500449,-0.016861595,-0.036852878,-0.098545976,0.008835995,-0.027251001}, 
{0.06263583,-0.11647433,0.06430655,-0.028120512,0.017423445,0.07504678,-0.009779267,0.010906416,0.0027682595,0.047568854}, 
{0.1260497,-0.05017049,0.14241706,-0.059613995,-0.029930882,0.059594635,0.03505648,-0.15530317,0.026943056,-0.115675114}, 
{0.057058454,-0.0018421658,0.016176412,0.026797634,0.06535448,0.07014911,-0.049205273,0.14021856,-0.026795477,0.0163047}, 
{-0.03877187,0.08142976,-0.032785,-0.08557343,0.021591334,0.0058776913,0.018643659,0.033763036,0.038037427,-0.023547145}, 
{-0.01350302,-0.0056627286,0.037694152,-0.014346706,0.043078586,-0.008329319,0.0007997704,0.09636258,-0.08430227,-0.082399614}, 
{-0.09119993,0.05097657,0.0045811473,-0.0146016395,0.12787688,0.015856298,0.006315262,-0.015520528,-0.04287711,0.09099488}, 
{0.0073534935,-0.02517146,-0.0042603123,-0.12426814,0.10105106,-0.07021308,-0.043803748,0.11251183,0.035887226,-0.029480085}, 
{-0.062466096,0.006214854,-0.07079934,-0.054632545,-0.008198364,0.01194803,0.035120223,-0.030125244,0.0012214016,-0.05860027}, 
{-0.012729126,-0.039805762,-0.0044343523,0.032115888,0.06886067,0.00058314804,0.052482814,-0.06079413,0.0085651735,0.040493056}, 
{-0.09511191,-0.038909994,0.03506824,-0.045654427,0.051637776,-0.06871343,0.023016382,0.038209878,0.072514266,0.0463008}, 
{-0.053905323,0.016796958,0.008196077,0.05033041,-0.085634775,0.054200653,-0.0005740967,-0.04232268,-0.025887256,-0.032742776}, 
{-0.07549789,0.050065428,0.05106626,-0.03928277,0.03385554,-0.10879991,-0.04999035,0.04389348,-0.059694868,-0.03762728}, 
{-0.04272532,0.07882942,-0.057000272,-0.050392393,0.067202784,0.0064536617,0.0022929332,0.06766422,-0.05107842,-0.0072531477}, 
{0.019715546,-0.08062864,-0.06938009,0.018992955,-0.0019149026,-0.0077236593,0.031325355,-0.052251462,-0.08144479,-0.04874775}, 
{-0.06917512,-0.006402932,0.052740484,-0.03236705,0.0055118278,0.0027672201,-0.057001702,0.04653345,0.01668448,-0.016140647}, 
{0.13149986,0.0975372,-0.108267285,-0.07806186,-0.0535072,0.10077249,0.05180121,-0.09441819,-0.10193315,-0.20946671}, 
{0.05869576,-0.034740385,-0.022188082,0.036644276,-0.10920544,-0.076192014,-0.06883431,-0.029649267,-0.13059022,0.08858041}, 
{0.071981125,-0.08969344,0.09721757,-0.031292334,-0.010300857,-0.010676851,0.09312818,0.031957824,-0.14310838,0.028133295}, 
{-0.041990936,-0.14062715,0.053626753,0.011597703,0.008811534,0.08877018,0.03561221,0.018966068,0.038753536,-0.10409605}, 
{0.13572967,0.01945503,-0.09539084,-0.018960277,0.11931274,-0.06847739,-0.06196066,-0.0152890375,-0.039459974,0.017460963}, 
{0.03815933,-0.06802078,-0.043918137,0.017562829,-0.017687706,-0.0919144,-0.05996184,0.058287907,0.026232399,0.017582102}, 
{-0.11032324,-0.04432583,0.094506666,-0.04989537,0.018340718,0.045546416,0.044988927,-0.042136323,0.035425324,-0.10909362}, 
{-0.023873953,0.044291984,-0.0020932453,-0.005270598,-0.0013173954,-0.021157162,0.011425214,0.048275728,-0.008522012,-0.0028757544}, 
{0.028617831,0.013385035,0.094402224,-0.019446455,-0.081228875,-0.028179744,0.017050834,-0.13241437,0.111898266,-0.00451774}, 
{-0.117028676,0.0067846663,-0.02322336,-0.013580035,-0.102307834,0.0483551,0.0045150444,0.014208929,0.06742795,-0.09886903}, 
{-0.06503764,0.0044289376,0.08064808,-0.05753977,-0.009498898,-0.066437334,-0.042839833,-0.008138682,0.085459314,0.001065406}, 
{0.035940483,0.0419397,0.101114765,-0.15575899,0.04666459,-0.0209253,-0.14363362,0.08219196,-0.03178789,0.0012871184}, 
{0.0075102025,-0.0481626,0.031255294,0.06318783,0.05596373,-0.062773384,-0.07703082,0.028747117,-0.07478399,0.07831508}, 
{-0.030378714,-0.059194386,0.013558139,-0.03565841,0.050726473,0.015833233,-0.0068051233,-0.030118017,-0.019564478,-0.029700924}, 
{0.010371265,-0.0788147,-0.043481592,0.06792691,0.014293511,0.045770455,0.008671911,0.026059948,0.057771705,-0.05458462}, 
{-0.12583196,0.040424746,0.060795043,0.021708462,0.03952256,0.06279805,0.042822067,0.055083513,0.06292462,-0.08335065}, 
{-0.08989504,0.09206233,-0.039860617,-0.052557655,0.03007459,0.052599777,0.07743208,-0.039108887,-0.0030189303,-0.015364266}, 
{0.058843832,-0.030131431,-0.0017725368,0.04104292,0.011978928,0.003195762,0.052180428,0.041748654,-0.01001642,-0.022798024}, 
{-0.053248085,-0.07342421,-0.08236314,0.05252411,-0.08106464,-0.0022039511,0.064070076,-0.05025445,0.066779755,0.09014088}, 
{0.06786882,0.045874033,0.09968563,-0.07513824,0.017309157,-0.03956413,-0.2080714,-0.06915354,0.021627953,-0.017125655}, 
{0.09225242,0.06415607,0.02735543,-0.02772268,0.07829267,-0.10318716,0.03733221,0.051194508,-0.06601446,-0.02663443}, 
{0.02069661,0.08012051,0.1151216,-0.039366998,0.037913267,-0.040043533,-0.107659966,0.0822183,-0.0041010636,-0.086846426}, 
{-0.016587475,-0.101655945,0.106329896,0.026766442,7.899318e-05,0.056983676,0.008033656,0.0054646325,-0.037830394,-0.086702645}, 
{-0.003345255,0.0032751167,0.047213107,0.024460517,0.09397846,0.05367309,0.06559387,-0.010522918,-0.014242169,0.017887574}, 
{-0.05331973,0.0013299985,-0.048563182,0.07437404,-0.0026190074,0.0700452,0.06967666,0.013687024,0.096072525,-0.05084895}, 
{0.021784438,0.11666917,-0.01969194,-0.13196898,-0.046271943,0.10018746,-0.030987194,0.036126964,0.022502126,0.09772784}, 
{-0.08812716,-0.05603054,-0.013661702,0.030548992,0.055811662,-0.089348,-0.08197573,-0.086771764,0.0260519,0.029227592}, 
{-0.07476119,-0.005230695,0.08009795,0.03329152,-0.05069358,0.054875817,-0.053046715,-0.028200312,-0.042381115,0.022105705}, 
{0.05259846,-0.004599616,-0.040302195,-0.012000302,-0.0459052,-0.06822947,0.07663393,-0.0368169,-0.009292152,0.007922454}, 
{0.080244675,7.3737116e-05,0.037675865,-0.047194883,0.043120973,0.03367875,0.054217782,-0.02731857,-0.10413762,0.0654105}, 
{0.043626957,0.024231121,0.009597024,-0.05545999,0.059215814,0.010186837,0.028579729,0.06621018,0.05886155,0.081918985}, 
{-0.05462307,0.0056344997,-0.053474866,-0.049009226,0.028319843,-0.01657475,0.05589423,0.06609812,-0.07793637,-0.033490714}, 
{0.0018183425,0.029237213,0.013359599,0.0020208547,-0.013708186,0.052037142,-0.00078543456,0.08475301,-0.0017043375,0.03063591}, 
{-0.056395132,0.0007005428,-0.024468133,-0.010388851,-0.003397412,-0.007272285,0.07982858,0.020821162,-0.060990304,0.055533726}, 
{-0.018045746,-0.035138007,0.005056146,0.08807519,-0.03195886,0.062089775,0.019562712,0.014012856,-0.010713302,-0.08626366}, 
{-0.0059892614,0.03546742,-0.107740566,-0.010978784,0.014682458,0.048945174,-0.007512945,-0.010696092,-0.077977665,0.04796458}, 
{-0.006636805,-0.041073635,0.0514719,0.041088637,-0.04010008,-0.03406058,-0.03214864,-0.05769635,0.048492014,0.051817074}, 
{0.0775669,0.05362847,-0.11437445,-0.04698837,0.04218648,-0.03136678,-0.044388317,-0.07982886,-0.053818554,-0.027811106}, 
{-0.027944999,0.06493776,0.051140178,-0.016962016,-0.040207244,-0.0029834723,-0.0014080788,-0.004395186,-0.0797899,0.0042185336}, 
{0.048948355,-0.20490807,-0.020710733,-0.016916847,0.108845614,-0.0768765,-0.06953196,0.13938528,-0.08085485,-0.038384385}, 
{0.016251916,-0.00508692,0.033976216,0.046589173,0.0030859523,-0.08265684,0.0021953846,0.011306015,-0.0055816723,-0.15586825}, 
{-0.12276773,-0.03047507,0.010130294,0.051128853,0.0016685082,0.0010399409,-0.046107955,-0.048303023,0.07528677,0.013675637}, 
{0.047738764,-0.06736559,-0.051895093,0.018264905,-0.077695206,-0.002192199,0.082385086,-0.01739027,0.031692233,0.055020723}, 
{-0.008033613,0.058112066,-0.09022921,-0.014166288,-0.026962051,-0.018445142,0.013728513,-0.01647164,-0.011593914,0.02022172}, 
{0.11165818,0.12759258,0.034078274,-0.09379142,0.07759648,-0.1294792,0.021121433,-0.04449781,-0.10695184,0.059238087}, 
{0.059930466,-0.074927524,-0.04464471,0.029115735,-0.102261044,-0.04235011,0.056390237,0.07025087,-0.038408592,0.006141747}, 
{-0.052030966,-0.024702124,-0.028363388,-0.066850096,0.024713527,-0.07583076,-0.028812587,-0.088946484,-0.00063597935,0.004330806}, 
{-0.02987206,-0.03109848,0.060696498,0.012155958,0.0077360338,0.027643504,0.010139381,0.043884978,0.018998953,0.008284081}, 
{-0.08083474,-0.026128681,-0.022574147,0.06505178,-0.004284316,0.03834088,0.06381125,-0.054699857,0.063065134,-0.11388909}, 
{-0.029004032,0.0016776986,-0.064692736,0.081752144,-0.09572063,-0.058082268,0.07233323,-0.041193195,0.06608288,-0.027961873}, 
{-0.034573477,-0.005563402,-0.016429937,-0.008100141,-0.053026795,0.07775168,0.04107585,0.00324449,0.015817698,0.027045438}, 
{0.0126034,0.03724528,-0.04811606,0.108101785,-0.017663982,-0.0036014214,0.007453092,-0.03981017,-0.13393179,0.112786025}, 
{0.07243575,0.111256,0.08378776,-0.009031213,-0.07340633,0.008494258,2.6442998e-05,0.014760453,-0.06465618,0.08995307}, 
{-0.07196722,-0.00046029352,-0.011884629,-0.039577305,0.058206294,0.07622771,-0.0033812278,-0.07263489,-0.034318987,-0.0591115}, 
{-0.049226053,0.04359798,0.050573494,0.027343815,0.1174928,0.015216362,-0.0854984,0.019899597,0.06071887,-0.08994224}, 
{-0.018615218,-0.013876654,0.086917326,0.016659103,0.03251386,0.033295598,-0.10072375,-0.101765335,-0.016367685,0.01332877}, 
{-0.06171032,0.0441819,-0.020984631,0.017006008,0.07752281,-0.038651,0.07417966,0.09015629,0.056157444,0.03758867}, 
{-0.018709527,-0.12224705,-0.039746277,0.061558787,0.047841284,0.03647965,-0.050465554,0.02871567,0.023873413,0.0405198}, 
{-0.013109266,-0.101139694,-0.021000665,0.011234348,-0.04664424,-0.034760132,0.022675691,-0.02512956,-0.040547404,0.08035575}, 
{0.09618114,-0.022993844,-0.017991247,0.053446192,-0.004718541,0.03600603,0.0002343985,0.028567597,-0.04602611,0.082022466}, 
{0.06458291,-0.003436189,-0.03562684,0.008527308,0.063940234,-0.027697017,0.038104404,0.00536049,-0.002378339,0.10624339}, 
{-0.00719803,0.0058261454,-0.06462302,-0.0003313946,-0.09806947,-0.0382798,-0.03300903,0.00488681,0.10243911,-0.04475737}, 
{0.018280232,-0.017290719,0.012531491,0.03265093,0.012703624,0.055980153,0.049054753,-0.022781119,0.05395475,0.03487648}, 
{-0.0065215,0.0048408415,0.049262542,0.01467383,0.008346267,-0.033262018,0.06471133,-0.0189849,-0.013183201,-0.059361752}, 
{0.038133528,-0.15491459,-0.12599036,0.06096361,0.0064482205,0.056759685,0.093342654,0.04626657,-0.04694319,0.061978433}, 
{0.057419885,0.0113251135,0.013523137,0.01222378,0.043680105,-0.08899893,0.08169697,-0.05852911,0.09392524,0.0027559167}, 
{0.016314076,-0.029700933,0.08614669,-0.014016686,-0.014748536,-0.017201038,0.027646769,0.051061828,-0.023837723,-0.052111294}, 
{-0.22981139,0.015882416,0.015510295,0.09051279,-0.0143570965,0.09235025,-0.26379657,0.08947176,-0.13828894,-0.0036338863}, 
{-0.0019985377,0.027220752,0.03401786,-0.005587778,0.051823497,-0.035703756,0.008772722,0.014450533,0.007822546,0.0347197}, 
{-0.03772905,0.003886876,-0.02308392,0.016069148,-0.039309278,0.024688672,0.033757627,-0.03765436,0.033299197,-0.03862761}, 
{0.001932785,-0.09110914,-0.007067199,0.08902537,0.0032154955,-0.009870717,-0.022826754,-0.19658193,-0.031684075,0.00019030535}, 
{-0.04829343,0.009005935,0.073508754,0.01658358,-0.03462867,-0.028178666,0.04023193,-0.07788668,-0.0784162,0.009581928}, 
{-0.033043683,0.09139748,-0.020815108,-0.024321359,-0.023814548,-0.017198473,0.04794191,0.073971026,0.045683302,0.0295408}, 
{-0.058859028,0.13147713,0.023784736,0.01938122,-0.07896346,0.077674575,-0.041636486,-0.0954697,-0.15359102,0.0069360645}, 
{0.036571816,0.023511468,0.17927846,-0.1577125,0.04338385,-0.060925342,-0.015797127,0.06136046,0.11660628,-0.10413791}, 
{0.04045111,-0.04126049,-0.080539756,0.061537284,-0.08467731,-0.11491944,-0.006333767,0.013900327,0.06562854,-0.058141746}, 
{0.08780456,-0.1072418,0.081871085,-0.0035053524,-0.03757431,-0.03004536,-0.007834678,-0.020922437,0.05295503,0.038658284}, 
{0.06375489,-0.059885066,0.08138354,-0.1300011,0.04767753,-0.06638873,0.017362019,0.02706678,0.12433757,-0.00059844897}, 
{-0.024204267,-0.013892311,-0.042197198,0.050447397,-0.041001163,0.11517511,-0.057047028,-0.15404518,-0.0023419824,-0.02607784}, 
{-0.0048714424,0.013514763,0.07966161,0.050558127,-0.060191363,-0.059520885,-0.10161438,0.022148568,0.047779847,-0.00751385}, 
{-0.01011447,0.05177053,-0.079305775,-0.097777896,0.082452245,-0.05557676,0.026193975,0.058165394,-0.045631967,0.100193396}, 
{0.029197916,0.0766437,0.081640035,-0.07329782,0.025080392,0.0059557874,0.088635415,-0.00579012,0.00049534556,-0.07561439}, 
{-0.036881473,0.049928382,-0.01494512,-0.038918078,-0.023436062,0.074995935,-0.053478237,-0.0091347005,-0.052519787,-0.1010333}, 
{-0.030563008,-0.028005682,0.110827684,-0.11652155,0.06919497,-0.075467385,-0.08379039,0.056430887,0.013668856,0.044776373}, 
{0.04585282,-0.06077101,-0.028456535,0.023821741,-0.037601784,0.008747984,-0.028706178,-0.07096824,-0.06809639,0.045837734}, 
{-0.0348182,0.02364577,-0.059283853,-0.033193618,0.07218429,0.08426844,-0.046290327,0.013953435,-0.07062172,0.07161485}, 
{0.06754357,-0.044837214,0.06612367,-0.083121695,-0.024678897,0.073160104,0.060876843,-0.15899593,-0.03403823,0.060958024}, 
{0.07814723,0.07900249,-0.035629094,0.12662499,-0.109791845,0.033411816,-0.012844125,-0.12189683,-0.052170746,0.0027642217}, 
{-0.07104913,0.017231977,0.0016650521,0.070387244,-0.03669515,0.055978123,0.013891469,-0.030506168,-0.10982699,-0.004935961}, 
{-0.010217572,-0.040609717,-0.08057312,-0.02877739,0.05942085,-0.054592863,0.0046331794,0.053399697,-0.023888646,-0.0239468}, 
{0.066397615,0.03839974,-0.005456386,0.027241034,0.05832704,0.038957573,-0.056070358,0.071083486,-0.046251506,-0.058039088}, 
{0.08497435,0.07914557,0.058319513,0.022800148,-0.086667635,-0.040328246,-0.07235731,-0.08463813,0.09840155,-0.064120136}, 
{-0.00933828,0.026054818,-0.07393735,-0.06345531,-0.0119114835,0.032275453,-0.0077123204,-0.012342787,0.025259493,0.04466581}, 
