float w3[8192] = {-0.015211677,-0.15393184,-0.17195715,-0.19759785,-0.066773504,-0.014362884,0.19690588,0.120845206,0.20694146,-0.02799823,0.1310495,-0.4709675,-0.06433103,0.1847459,0.16488814,0.18598685,0.12534411,-0.12368985,0.23316365,0.21481399,0.022282977,0.01777562,-0.24545643,-0.0024908667,0.28871825,-0.15191302,-0.31557146,0.15306355,0.07236933,0.12387791,-0.2229973,-0.08000355,-0.26893035,-0.27290463,-0.13564584,-0.5179755,-0.0013897393,-0.11249708,0.12704672,0.13686723,0.17001137,0.0035169004,0.22661743,-0.0566646,0.21207543,-0.24252097,-0.29146197,-0.23691793,0.0940182,-0.09338022,0.38744226,0.072593555,-0.034050826,0.37550673,0.094057426,0.3138388,0.037377983,0.3586892,0.06425789,0.06225656,0.06529987,0.1825951,0.054665077,-0.06397078,-0.27656007,0.1551153,-0.1636382,-0.104592614,0.12153811,-0.13262983,-0.09377494,-0.27842015,-0.28034067,-0.036161836,-0.19480413,0.07864679,0.13496839,-0.059720546,0.049183372,0.08114691,-0.30217662,0.015625084,0.019407768,0.008637838,-0.21540637,-0.42817158,-0.09311337,0.03058882,0.08227719,0.062490065,0.1779136,-0.0274714,0.12711032,0.07411357,0.009445066,-0.06259336,0.32937074,-0.05636668,0.0875521,0.17626058,-0.26750475,-0.27349874,0.076329134,0.18973742,-0.019620515,0.04545018,-0.0054278555,0.14738947,-0.054383077,0.14645019,-0.036260795,0.13739729,-0.19269226,0.113444686,-0.27213144,0.06204546,0.24428546,-0.16747214,-0.35020816,-0.027806178,0.102835834,-0.07770797,0.012963392,0.09016749,0.35198516,-0.038392372,-0.049698383,0.043509025,0.14129688,0.0066958484,-0.20831303,-0.082855195,0.04823359,0.22379504,-0.20741625,0.2537817,0.114941746,0.28504878,0.3203726,0.22807047,-0.18765464,-0.1581056,0.2284496,-0.0061108437,0.19593155,0.278786,0.11083456,-0.008908218,-0.30972046,0.22408754,-0.052961387,-0.17804153,0.16989483,-0.41925216,0.113895185,-0.22769113,0.2262446,-0.04918596,0.04564272,0.09123959,-0.23460954,0.12815112,-0.028901253,0.1734116,-0.062335122,0.20977102,-0.40081775,0.0897305,0.063526124,-0.26851395,-0.3517118,0.016259072,-0.09998127,0.31203,-0.09895784,-0.0621625,0.15638171,0.2190582,-0.1817962,-0.02104794,-0.12845616,-0.021895243,0.003656437,-0.10541304,0.066466264,-0.18157007,0.07429669,0.033637963,-0.268519,-0.13049085,0.13370845,-0.13973762,-0.007674906,-0.014679555,-0.10739462,0.32259035,0.19888061,-0.19533993,0.026172252,-0.23202026,-0.09836475,-0.09907763,-0.17413743,0.117611386,0.2177415,-0.18865775,-0.20422387,0.16847855,0.027909832,-0.21478178,0.07978088,0.13711289,0.1532849,0.16969623,0.20870702,0.085116886,-0.22224997,-0.08073241,0.23882869,-0.30501452,-0.0865971,0.020784223,0.090989985,0.32942107,-0.14435539,-0.33793926,0.047747217,0.021423928,0.09789033,0.010741376,0.050249185,-0.112987384,-0.057216305,0.39004433,-0.04764923,0.110588424,0.21374284,-0.11673909,0.11757781,-0.030624514,0.24526007,-0.064343005,-0.16013086,-0.090555415,-0.16750027,-0.08666923,0.027733337,-0.10106351,0.011945136,0.15241317,-0.36043236,-0.07197676,-0.2986907,0.1517735,0.28450024,-0.33243576,-0.005741121,0.005748556,-0.23258781,-0.086987145,-0.2631207,-0.05140997,-0.18063986,-0.014279618,-0.35786957,0.15131548,-0.1252193,0.23141803,0.080631204,-0.19579205,-0.06183004,0.27001837,0.2613644,0.25419283,0.12606679,-0.31005403,-0.11320244,-0.3306712,0.116978325,-0.0044205375,0.123275,-0.25556132,0.18789655,-0.19507876,0.26183054,-0.15901792,0.17681213,0.062384836,0.13870656,0.1923968,-0.03976971,-0.0012561098,-0.14039032,0.0058853617,-0.1143603,-0.11304778,0.28006724,-0.1892721,0.17662202,-0.02469356,0.18071423,0.5081048,-0.04303655,0.098658375,-0.15614785,0.38555804,-0.236501,-0.107999295,0.31715763,0.18577681,-0.258069,0.004816002,0.009822701,0.04659636,-0.10008211,-0.088540755,0.25610372,0.2643698,-0.13797314,-0.069700435,0.15096192,-0.041660238,-0.16711862,-0.023457058,0.039281208,-0.22309862,-0.03353108,-0.040355578,0.22728209,-0.31941634,-0.23235357,-0.08990064,0.16583489,-0.13312729,-0.02988505,0.107838824,-0.34397125,-0.12691896,-0.19096613,-0.14163953,-0.0592323,0.060040124,0.14537747,0.14169982,0.19003549,0.11242626,0.03371247,0.2180872,0.08640627,0.088540405,-0.033542678,-0.16763802,-0.032051068,-0.29484925,0.41673332,0.05722938,0.21374084,0.18683906,0.18713208,-0.24247558,0.026697466,0.19911407,0.079606995,0.16073278,0.112572834,-0.20954363,0.07386825,0.35719612,-0.15462485,0.090652,0.13033307,-0.0047358,0.26313075,-0.019314045,0.03552558,-0.10869381,-0.20375128,-0.048873607,-0.20289952,0.12404331,0.16196853,0.009366439,-0.34948906,0.10204403,-0.3990968,0.32088497,0.06682563,-0.1476198,0.05191642,0.13042063,-0.15391937,0.21079701,0.25489783,-0.13097088,-0.13409875,0.036843006,-0.28070274,0.35996422,0.13112989,-0.08090757,0.10015661,0.13896808,0.1853718,0.13113298,-0.20261079,0.1767203,0.25222963,0.063820176,0.15032463,0.08674275,-0.12031637,-0.18784183,-0.1512426,-0.24909748,-0.14304107,0.20874496,-0.13593942,0.0007673634,-0.28048757,0.045275997,-0.08949981,-0.4084845,-0.026936958,0.10423616,0.35960788,-0.11663611,0.063000284,0.01810359,0.3538639,0.02403031,-0.055526562,-0.24651176,-0.10117073,0.18393746,-0.17054003,-0.4946049,-0.5489621,-0.23934741,0.3395574,0.02297098,-0.3703525,0.18570568,0.19445646,0.13139884,0.12551373,0.14619362,0.2849446,-0.051232833,0.18344855,-0.16673888,-0.0668727,0.026554337,-0.16414605,-0.23116636,0.27287954,0.09958309,-0.10185894,-0.16357319,0.12677945,-0.1830359,-0.26608974,-0.017145777,-0.04372228,-0.01400108,0.06556054,-0.14124624,0.09407427,0.12054425,-0.099285334,0.08030952,0.11565304,-0.023459155,-0.0059347693,0.264244,-0.12229544,-0.026386637,0.035195984,0.15974171,-0.062344734,-0.0595247,0.10108004,0.07798745,0.03706428,-0.20355828,-0.07264575,-0.14054109,0.2711074,0.18642603,-0.2009655,-0.025948077,-0.025154063,0.20492592,0.17624925,0.12055686,-0.14768542,0.21193421,0.003939298,-0.0494764,0.019806447,0.23783499,-0.046020877,0.036766324,-0.033542193,0.1269518,0.15394191,-0.030840553,0.043176368,0.16310632,-0.0070576337,-0.22631939,-0.15400639,0.04430866,0.09698774,-0.12339501,0.07338828,-0.08240834,-0.1787256,-0.0965764,-0.46377453,0.2561291,0.21391782,-0.027751878,-0.18017335,0.06230148,-0.087188624,-0.019466639,0.25788373,0.046626028,0.09303552,-0.22621605,-0.30857137,-0.13056138,0.06671815,0.13953975,0.30417985,0.14578909,-0.09376615,-0.2085299,-0.18913382,0.11639644,0.030878074,-0.06453892,0.22735122,0.02841969,-0.067236334,-0.07955541,0.13743228,-0.24360517,0.2079955,0.019080222,-0.13298038,-0.4744733,-0.28829682,0.20245397,0.22779416,-0.15983565,-0.124954484,-0.20381917,0.119818375,0.14011396,-0.16250813,-0.07071268,0.030303314,0.20997769,0.07706994,-0.29619348,0.04270372,0.15165281,0.078069225,0.100805104,0.09929125,0.030114325,-0.014298393,-0.14007203,-0.01818522,0.056458768,-0.012971924,-0.029430244,0.23293215,0.13544783,-0.07270553,-0.15072978,0.051356837,-0.25198165,-0.020782001,-0.063395046,0.17418368,0.023218341,-0.12824723,-0.34903654,-0.29220235,-0.015890682,0.028431358,-0.047290348,-0.19765744,-0.13211732,-0.30438307,-0.092587695,0.062019873,0.09562887,0.030283114,-0.1970304,0.18024063,0.046597563,0.13705757,-0.13840307,-0.06526596,-0.17212698,0.36023536,-0.045790993,-0.04663086,-0.14353555,0.07112319,-0.22357428,0.011009421,-0.036783844,0.09272688,0.10523301,-0.067611925,-0.0485129,-0.02197807,0.030533215,0.24611247,0.18481629,0.14248675,-0.10092389,0.078311555,-0.113498285,-0.0224025,-0.19065416,-0.123711236,-0.00013442223,0.24384621,-0.1510968,0.06578165,-0.10154556,-0.04991551,-0.07786725,0.07401406,-0.19363755,-0.09624945,0.34850502,0.12047956,0.23983242,-0.0017072333,-0.04421286,0.03197266,-0.048529502,0.051349275,-0.087604634,-0.12876882,0.32570305,-0.009996283,0.09844616,-0.12937076,-0.07106053,0.2624303,-0.021239266,-0.28105074,-0.1933227,-0.15556623,0.14223184,0.28127828,0.12581429,0.07240718,0.005824817,0.02032528,-0.1516356,-0.19252911,-0.1704149,0.063783795,-0.10856269,-0.04467578,0.2465245,-0.028932078,0.19341539,-0.17736171,0.03844188,0.10013881,0.19095273,0.16970596,0.100916274,-0.27844742,0.043430116,-0.21329795,0.11089471,0.17847265,-0.026195513,0.181654,0.22891639,-0.10986718,-0.22040603,-0.055814583,-0.27642363,0.12888867,-0.16965745,-0.15129735,-0.34712377,0.09321434,0.086413264,-0.008799751,0.117613815,0.27538475,-0.20715053,-0.019555861,0.120186456,-0.19991165,-0.04165431,-0.22540899,0.064140245,0.19391656,0.25717056,-0.20541263,-0.13885933,-0.017498057,0.20056558,-0.14021382,-0.17367414,-0.07397323,-0.035493106,-0.023206897,0.2994676,0.08993649,-0.2828701,-0.18740651,0.0019915167,0.08788709,0.0112247355,0.14538486,-0.17463675,0.16101357,-0.12704504,0.11944702,-0.2891802,-0.037956238,-0.124472745,-0.1366755,0.121949516,0.15394434,0.16326903,-0.09944218,0.05985202,0.18515474,-0.0023862831,-0.21457656,0.02257883,-0.35287738,0.17784497,-0.040939115,0.2605448,0.031520113,0.27224988,0.14822367,0.10299529,0.053709693,-0.22381699,0.050345857,-0.14563616,0.09454623,-0.11732883,-0.26608014,-0.20670591,0.05041363,-0.23007448,-0.10677831,0.18585466,0.11750145,-0.16269295,-0.1693505,-0.10288989,-0.20417817,-0.102094196,-0.19953166,0.24443743,-0.15582323,0.08827389,0.28793013,-0.07901903,-0.23200111,-0.08583146,0.09967628,0.19552845,0.20834129,-0.014762239,-0.0293463,-0.11016917,0.018397909,0.046938736,0.27121356,0.1372694,-0.025747634,0.23695464,0.028027436,0.028481495,-0.36206555,0.33825818,-0.19388272,-0.15640236,-0.12668617,-0.081558235,0.121143386,-0.18947735,-0.09358197,-0.023953538,-0.05245542,-0.044613305,0.03251445,-0.32198325,-0.12608302,-0.13463213,0.2991664,0.05823805,0.027803492,-0.1869147,-0.13929948,-0.058436237,-0.099678926,-0.1587112,0.16416919,-0.04494388,0.085946344,0.15079802,0.007987367,-0.0631338,-0.11959874,0.054421302,0.11956086,-0.03371766,0.047114655,0.10718509,-0.009347499,0.08350697,-0.06246376,-0.13295217,-0.06087056,-0.23141411,-0.12496403,0.015453874,-0.2605541,-0.002491422,-0.14943972,-0.11416393,0.06069052,-0.11843995,-0.13992928,-0.015684385,-0.14881933,-0.3304587,-0.32887244,-0.20438504,-0.20487069,-0.071258925,-0.0361795,-0.108737536,0.12807015,-0.059149288,-0.1000336,0.2782156,-0.2516511,0.18937138,-0.14893296,0.1797009,0.012646954,-0.3169327,0.31785962,0.091827534,0.07750583,-0.19607674,-0.18448052,0.03792948,-0.00159718,0.14863884,0.060529124,-0.12841968,0.05433302,-0.10423767,0.17785195,0.13705115,-0.24069534,-0.12644759,-0.2841728,-0.115845405,-0.052390974,0.20204939,0.07609414,-0.053705618,-0.24278602,-0.05849181,0.1858051,0.044389006,0.2539323,0.19893008,0.20014639,-0.116553135,-0.10783496,0.45505503,-0.32598513,0.32596692,-0.060928766,-0.21880831,-0.09878761,0.17200795,-0.31684193,0.025363358,0.24844985,-0.037047207,-0.12842607,-0.03351763,-0.26601568,0.06801888,0.25236672,-0.16208202,0.19031037,0.05909171,0.09697435,-0.15845875,-0.22848207,0.09909598,0.1603606,0.066605054,0.28654394,-0.24739602,-0.326068,-0.041360434,-0.10128087,0.05554128,0.020505259,0.112464935,-0.18061085,0.081115335,-0.3458643,0.09006551,0.07792321,-0.048414737,0.0891124,0.11928096,0.4120773,-0.52011764,0.13652992,0.03976498,0.22326978,0.2790007,-0.13026083,0.011238702,0.01597116,0.0523294,-0.13772103,-0.2537589,-0.17479482,0.044758223,0.18455024,-0.07405273,-0.107997075,-0.084077306,-0.015174593,-0.07871067,0.22894791,0.4254564,0.15329672,-0.118972205,0.06270826,-0.15712203,-0.016473442,0.37213174,-0.12167318,-0.009192778,-0.017780032,-0.24405584,0.056766335,-0.04804476,0.010641949,-0.0029047732,-0.18996385,-0.13338134,0.027646033,-0.23977074,0.11127497,-0.2291907,-0.1491753,-0.06840166,-0.06585913,0.15211123,0.19117862,-0.14728428,0.032820843,0.07532504,-0.054849908,-0.2426056,0.22211389,0.047768094,0.14740007,-0.14627698,0.24287379,-0.08379273,-0.08598651,0.05308333,0.13258497,-0.085706286,-0.24972795,0.030306011,-0.023541162,0.2254379,-0.09491877,-0.29027003,-0.24711467,-0.28562224,0.011614972,-0.12570798,0.35253468,-0.07217172,-0.06584136,0.13650209,0.123396724,0.053888764,0.268928,0.172885,0.118916005,-0.1464287,0.14573777,0.18992665,-0.25549704,-0.3877271,0.20048998,-0.2116424,0.23978066,-0.09541248,0.28177023,0.030281749,0.18212742,-0.35697037,0.020176826,0.15237018,-0.1027755,-0.16571318,-0.13663377,0.26408732,-0.2960954,0.2269992,0.03355917,0.030002024,-0.030141776,-0.4873947,-0.10951403,-0.0052503715,0.2400446,0.09202813,0.47852322,-0.13568932,-0.2538737,0.012329472,-0.05282118,0.080566056,-0.052684594,0.3409969,0.14741004,-0.22961229,-0.08342332,0.060570225,-0.015587897,-0.2748614,-0.267105,-0.001706932,0.19734514,-0.16523421,-0.059418138,0.06949333,0.034451526,0.06921245,0.23387395,-0.17986636,0.23596838,-0.061902437,-0.21671723,0.11910669,-0.23359251,-0.00011003705,0.019821292,-0.29514354,0.3022259,-0.18191072,-0.2645125,-0.03426444,0.11213988,0.45154166,0.036550898,-0.15946794,-0.05399646,0.17983122,-0.15142037,-0.16566922,-0.22822905,0.046376236,-0.010075457,0.24124749,0.2304125,-0.060542602,-0.29202983,-0.022668865,-0.080262005,0.10648463,0.13597448,-0.113493204,-0.08726969,0.2283908,0.18996063,0.3375577,0.37574592,-0.06705923,0.06952293,-0.22353448,-0.14043339,-0.14352657,0.1507214,-0.08290372,0.4406075,-0.03333334,0.109705545,-0.4773208,0.019605564,0.14115225,0.023176879,-0.016596617,-0.055622656,0.34018356,-0.11291853,0.14403306,-0.3355658,0.038708717,-0.28700465,0.3410923,0.011886952,0.21981478,-0.31992087,0.051066175,0.0431317,0.11586977,-0.049749047,-0.043849956,0.05502035,-0.22484432,0.07770802,0.036716957,-0.32324374,0.18409237,-0.03681898,-0.101199135,-0.30771214,-0.37102357,0.10082666,0.1397776,0.2075065,-0.2896447,0.34730425,-0.38349825,-0.20442238,0.08091703,0.12897497,0.034844656,0.20776622,0.22714184,-0.38307017,0.536897,0.11313002,-0.024671746,0.23689498,-0.23019576,0.14102577,0.31635505,0.38219872,0.17573892,0.13766198,0.27704683,-0.15474984,0.12009697,0.018185936,-0.21728635,-0.29906183,-0.25487453,0.041263163,-0.18119039,0.1793489,-0.22600341,0.27874407,0.015850035,0.07343505,0.10311108,-0.13295561,-0.14022215,-0.33549187,0.17029348,-0.06574054,0.14557408,0.09475568,-0.14034308,0.025315141,-0.1658513,-0.037173614,0.070800275,-0.2116092,-0.42033178,0.28760225,0.18506005,0.07767508,0.12766178,-0.09584769,0.31427327,-0.12006476,0.34531584,-0.104778856,-0.05727615,0.11756172,-0.208952,-0.18358815,0.008169001,0.2830065,0.19416957,0.02157496,0.03240283,0.05798794,0.073101915,0.17001407,-0.10608476,0.31226587,0.057225417,-0.18683688,-0.18049453,0.17038114,-0.3658318,-0.017519683,-0.0007615208,-0.0035599584,0.25071335,-0.16600856,-0.22269468,0.09411599,0.33362985,-0.07105548,0.26035807,-0.25692695,0.07300018,-0.123694785,0.03112372,0.053289693,-0.024527485,0.25099194,0.3150755,-0.16867463,0.045787867,0.06512841,-0.06776225,-0.15109845,-0.17752762,0.2081573,-0.23305853,0.1874019,0.11823319,0.091639966,-0.09147824,-0.055341803,-0.1347568,0.09773441,-0.20186216,-0.17671445,-0.007946751,0.20210584,0.026200103,0.23568507,0.22185871,0.063342065,0.24581324,-0.17157249,0.008208116,0.35866433,0.22198807,0.055988107,0.10973423,0.027404862,-0.060417674,0.124924146,0.064879,-0.31905854,0.30190173,0.075773895,-0.037818655,0.073632576,0.27256468,-0.182155,-0.05639207,0.10623997,-0.14777127,-0.080456205,0.17114104,0.114234224,0.049379386,-0.08870305,-0.1472041,0.21872747,0.031097278,0.048268188,-0.33114895,0.06616754,-0.2480672,-0.12269374,0.29438084,0.11894299,-0.27934396,-0.21870098,0.20243223,0.021913528,-0.124060005,0.061456356,0.1499721,0.19863097,-0.070335954,0.19547966,0.03037723,0.026882537,-0.09333733,-0.26521772,-0.33664948,0.049841397,0.045726757,0.26148328,-0.0030413573,-0.18918318,0.14323649,-0.101387605,-0.2229469,0.0006588909,0.06306212,-0.15150097,0.05052085,0.013741982,0.039686218,-0.03786004,-0.3669988,0.11880481,0.1112142,-0.053793203,0.04097143,0.028874937,-0.0070523694,0.18384904,0.06399536,0.24962209,-0.15249498,-0.03657778,0.09532804,0.04102028,0.2801252,-0.17115788,0.18573487,-0.17158471,0.19239892,0.14847216,-0.063324384,-0.2193202,0.06618728,-0.026304178,-0.13255706,0.2724927,0.16248615,-0.09322528,0.121952266,0.10241019,0.27752265,-0.18208422,-0.041693307,0.06471567,-0.1060839,-0.14925371,0.12604888,0.06221652,-0.1105755,0.052631028,0.07591471,-0.04511928,0.08742309,-0.03950897,-0.17431793,-0.034343727,0.06325329,-0.2098792,0.0010504748,-0.09042732,-0.16427474,-0.090504944,-0.14099684,-0.09324019,0.051159695,-0.0021999597,-0.15841906,0.22474302,0.14745905,0.18145189,-0.12658398,-0.0072192894,0.2516036,0.072263844,0.21745057,-0.052168388,0.053178303,-0.16143435,-0.102845594,-0.09437802,-0.14784473,0.3124698,0.06252862,0.041464325,-0.014358812,-0.04000676,0.15681042,-0.14656563,-0.24590476,0.08107929,0.012045826,-0.16019806,-0.13332635,0.12338375,-0.36756968,0.052893765,0.151694,-0.020862143,0.27217305,0.0530855,-0.2184497,-0.09983385,0.29633647,0.13942125,-0.005558547,0.010063339,-0.12662745,-0.011971132,-0.017390741,-0.031866305,0.16451284,-0.01424822,0.2229644,-0.09275668,0.14518337,-0.12707724,-0.34163946,-0.19136949,-0.37906724,0.15044647,-0.08235284,0.17710347,-0.033349104,-0.043296743,-0.06357947,0.23428458,0.06851547,0.04869052,0.029835729,-0.027544862,-0.032402363,0.11388125,-0.012508348,0.20726128,-0.014854552,-0.023063451,0.07750561,-0.09686911,0.26179284,-0.02342212,0.0024629673,0.1055141,0.16446862,0.040500816,0.055491623,-0.018749071,-0.04299747,0.002051213,-0.24536416,0.061615255,-0.09369211,0.08588972,0.27370888,-0.057354607,0.14110994,0.20991898,-0.16552258,0.18371166,-0.07133397,0.08167923,0.14744428,-0.06343931,0.11992043,-0.18028446,-0.06257031,0.16233161,0.17634566,0.3369135,0.043417737,-0.0017928989,0.20313236,0.034043916,0.066604815,-0.1491503,-0.077965215,-0.18945731,0.116778344,-0.07838506,0.1390049,-0.10354089,-0.29345262,-0.15562198,-0.17499194,0.027012711,0.031735305,-0.098035686,-0.20621645,-0.12282247,0.10861264,0.029243048,-0.092078514,0.05696149,-0.14332427,-0.0683687,0.041343834,0.04174974,-0.09906054,0.17511803,-0.14699681,-0.05092945,-0.05963345,0.09752062,0.18785211,0.040274482,0.12511918,-0.031219212,-0.2364007,-0.31624335,-0.08269146,-0.029888611,-0.23586528,-0.08270049,0.08981994,0.17165998,0.077368,-0.013974144,-0.13398445,0.2526637,0.026312087,0.1043651,-0.042637754,0.18277381,-0.05770884,0.07117655,-0.063599765,0.04683697,0.08057863,-0.21799262,0.052208595,-0.17054167,-0.1072755,-0.23342782,0.1664642,0.18773557,-0.16573204,0.20256783,0.17571667,0.20953979,-0.32400382,-0.06862516,-0.20468406,0.046251286,0.0706436,0.19418284,-0.089757316,0.2594427,0.26761356,0.021351384,0.15227243,-0.02454596,0.32395485,-0.17501779,0.23763311,-0.13300288,0.26373705,-0.15623185,0.15943591,0.29873425,0.053385325,-0.009942343,-0.10071571,0.14078307,-0.093207695,0.117323525,-0.2672798,0.15494439,-0.12936057,-0.07905169,-0.34679568,-0.039026946,0.054823317,-0.13674705,-0.061061602,0.08266294,-0.026914913,0.24250801,0.006579974,-0.065979905,0.3887844,0.13434769,0.036328822,-0.030923571,0.049319588,0.13151926,0.14310293,0.038451098,-0.029440785,-0.0026101826,0.07426601,-0.053487323,0.15333657,0.20256253,-0.09851803,0.010325996,-0.22565243,-5.5322933e-05,0.24605231,0.16027537,-0.034471378,-0.18552871,-0.18395081,-0.0052164583,-0.2366159,0.11232038,-0.10680655,0.37544876,-0.020302597,-0.1011432,-0.18477038,0.20436652,0.102909684,0.18523279,0.0765448,-0.042109556,-0.07458289,-0.04769827,0.26428634,0.016428553,0.0018819713,-0.053457595,-0.31239596,0.33084857,-0.15834402,0.2820798,-0.012593997,0.007854305,0.09110898,-0.13562857,-0.03421024,0.078288116,-0.13596678,-0.24021882,-0.15635447,-0.027132016,0.057950273,-0.27847794,-0.19598703,0.30360955,-0.20640157,0.022657752,-0.28972194,-0.051290534,-0.006804784,-0.21845226,-0.16606808,0.16517541,-0.07156677,-0.124096654,0.14748946,-0.072729066,-0.21892023,-0.058063768,-0.09895976,0.17440431,0.41876253,-0.19910108,0.24733327,0.22927251,0.17826132,-0.13868746,-0.07971856,-0.22341079,-0.079765506,0.16318862,-0.12410264,0.27079466,0.03202933,0.012718025,0.0013791979,-0.07565775,0.13741313,-0.24031855,-0.1771824,-0.050133195,-0.183322,-0.072513804,-0.11068834,-0.042363517,0.04887606,0.0682447,0.14703803,-0.060576376,0.13834713,0.04015954,0.0022214027,0.06763073,0.1371767,0.040227827,-0.14171256,0.0022862565,-0.1739821,0.011587117,0.16666889,0.08115943,0.22817451,0.113032654,0.23227046,0.012584351,-0.28057414,0.02953661,0.08488287,-0.015740221,-0.27380508,-0.0009674595,0.012441755,0.113640405,0.21344769,0.33806232,-0.13782164,-0.10857564,-0.12546597,-0.18881497,0.16500665,0.11397389,0.0064054523,-0.13884197,0.11477767,-0.037928645,-0.08371774,0.21815354,-0.080046564,0.03771978,0.24036793,0.24593101,0.3127614,0.19000374,-0.18375508,-0.33993348,-0.055277202,-0.01805589,-0.24328402,0.09726328,0.24658161,0.13225344,0.15114614,0.12800959,-0.14228779,-0.08706605,-0.063522,-0.0700883,-0.27412805,0.1630778,0.058120497,0.11896017,-0.027040543,-0.2043316,-0.15509938,0.038069554,-0.0918866,0.15189336,-0.23263302,0.28809512,0.1916685,0.018360885,-0.11935548,-0.16882743,-0.027515735,-0.03375634,-0.030801153,0.15675308,0.17733422,-0.027518414,0.004658168,-0.040812448,-0.028753692,0.3126672,0.12945704,0.08425495,0.21427,0.13709052,0.2800878,-0.27374572,0.05007155,-0.08150773,-0.2535058,0.25612068,-0.09038321,0.20100296,-0.15505101,-0.22024041,-0.18517503,-0.3226814,-0.06481262,-0.09815642,-0.19471775,-0.16839565,0.07994743,-0.3290997,0.31101444,-0.18016496,-0.1605954,0.18267879,0.12741742,0.36769003,-0.1579054,0.065758854,-0.10593485,-0.3269526,0.13438858,0.19316551,-0.12690541,0.1942076,-0.22601846,0.21861036,0.03530159,0.018747156,-0.03793046,-0.04350936,0.18985829,-0.27400637,0.046153437,-0.27204937,-0.03474397,0.0029895452,0.16390963,0.352766,-0.37619796,0.36928874,0.09424478,0.0041615223,-0.2920285,0.29708168,-0.12476831,0.11726309,-0.27268746,0.24016647,-0.08264165,-0.39951807,0.07706041,0.21270253,-0.32415894,0.048347283,-0.04019311,-0.086416125,-0.023920877,-0.1768743,0.22416241,-0.10655711,0.044842005,0.25004277,-0.19111356,0.09978457,-0.095892675,-0.07412368,0.017929362,0.022252651,-0.06470577,-0.24563573,-0.19176166,-0.011530976,0.14481845,0.05158355,-0.0032036987,-0.19000787,0.21240456,0.039694026,0.019899452,-0.19220476,0.22204632,0.23966989,0.32675406,-0.23231506,-0.07449996,0.24358064,-0.009821946,0.20330572,-0.17747363,0.030811781,0.12772624,0.06347041,-0.12386172,0.03191242,-0.12558208,0.12481705,-0.21729796,-0.02049831,0.024911255,-0.019800976,0.009692329,0.03547746,-0.14221774,0.23673241,0.046009555,0.009757941,-0.09352846,0.16033733,-0.061724838,0.36855036,0.012790403,0.38196987,-0.04532293,0.20399651,-0.1071715,-0.08555174,0.1386681,0.10811852,-0.116226144,-0.11114228,0.07655422,0.032226965,0.1829983,-0.16573633,0.20620845,-0.0015644215,0.28289512,0.38257042,0.023452256,-0.10937703,-0.048471287,-0.17866188,0.0564001,0.33293724,0.3511018,0.16016853,0.31876785,0.040515948,0.08278148,-0.19886845,-0.17570004,0.019262593,-0.20096599,0.11158591,-0.0073669334,0.28491142,-0.032995284,0.15381268,0.10082917,0.073882945,0.23521641,-0.23260362,-0.017903762,0.12526456,0.022950744,-0.41094616,0.20178376,0.0035378216,-0.23057668,-0.09904172,-0.2999842,-0.2929946,-0.14601478,-0.2860811,-0.14766668,0.36952624,-0.05987725,0.12679988,0.09644232,-0.23708107,0.16950697,0.16486262,0.08710887,0.12212181,-0.2927788,0.20363584,-0.07415602,-0.0674336,-0.19518718,0.17963941,-0.27442896,-0.07947521,-0.12749158,0.09573221,0.0027409792,0.23173302,0.24233852,0.10578887,0.035913028,0.18023907,0.11256065,0.096449606,-0.09158663,-0.04735761,0.17467152,-0.06571689,-0.19669098,-0.235365,-0.012627657,0.1712983,0.19254223,0.12208645,0.045926817,-0.16815694,0.19940302,-0.0426701,0.38746056,-0.1549584,0.24657232,-0.030177439,0.20102254,-0.025517879,0.16726871,0.02680411,-0.03703703,-0.07544588,-0.18121858,-0.19390707,0.16462472,-0.17053185,0.17751884,-0.1506044,-0.07004266,0.141963,-0.040956873,-0.028279858,-0.106355555,-0.3346991,0.0054563526,-0.114164874,-0.43833455,-0.012785481,0.120027214,0.15521964,0.28126237,-0.055502146,0.26929858,0.2289048,0.16894346,0.08815415,-0.07143447,-0.08673437,-0.13022399,-0.15612504,0.23597062,0.06865473,-0.110837944,-0.053772133,-0.019329611,-0.07426544,0.030732704,-0.28752658,0.26390237,-0.0018816695,-0.23341654,-0.46763852,-0.032185752,0.110821865,-0.06454755,0.3599943,-0.0018353339,-0.17005521,-0.21015806,-0.25991407,-0.25259608,0.17877465,0.11146594,0.058745146,0.04644602,0.1437874,-0.2226127,-0.11996494,-0.11152219,0.17973149,0.17174493,0.20147847,-0.05849105,-0.2267231,-0.06402676,0.08681115,-0.21648732,0.13165008,-0.057881635,0.2744619,-0.1451306,-0.016030984,0.25349456,0.21924093,0.14784423,0.20786306,-0.13584067,0.30254063,0.06002804,-0.051938526,0.1484436,0.01835449,0.13044257,-0.26606393,-0.027365131,0.027731277,0.16273472,-0.21600537,-0.052787106,-0.004970645,0.15736857,-0.03424941,-0.1397981,-0.06860978,0.054069687,0.09225712,-0.15377195,-0.30952066,-0.11403706,-0.0267766,-0.08078551,0.0013288901,0.39949563,-0.12011801,0.09649567,-0.1524885,-0.043076374,0.15606065,0.25234428,0.25306642,0.10268808,-0.009113092,0.058560293,0.28940162,0.08870629,0.21438453,0.03464831,0.16630737,-0.1970275,0.029019779,-0.059604138,-0.19868217,0.2203583,-0.09039449,-0.19039237,-0.1684975,-0.075974554,-0.47142556,-0.11028932,-0.30927065,-0.14263454,-0.22803335,0.0029717884,0.16685106,0.08492979,0.15479566,-0.1186989,-0.056691475,-0.047283728,0.20513767,0.02196053,-0.23265938,-0.260619,0.09313112,0.14384267,0.108443856,-0.0643202,-0.2259116,0.27078196,0.07359749,0.3449355,-0.32645434,0.3324,-0.03155705,-0.20983283,-0.014617413,0.24245308,0.1662393,0.12307677,-0.29748666,0.28387985,-0.16121495,0.051688142,0.044526268,0.05105136,-0.23332459,-0.029038524,-0.013244123,-0.15779677,0.10511703,-0.013760786,0.057434805,-0.006759681,0.03037693,0.105297424,0.1423906,0.08723301,-0.12526233,-0.18122585,0.2662432,0.046319433,0.0009712583,0.18436484,0.065237634,-0.23236682,0.006270684,-0.039075837,-0.15081303,-0.1755455,0.142945,-0.024187822,-0.05483424,0.08620536,-0.23746793,0.061979126,-0.17917217,-0.089064986,-0.18611382,-0.2435482,0.09568347,-0.34314263,0.2732014,-0.33616337,0.09161888,0.15656142,-0.0184069,-0.22211617,-0.017421726,0.24138235,-0.19803457,-0.023104995,0.14031391,-0.095257,-0.20583077,-0.2837645,0.14745747,0.13410982,0.013692868,0.07142964,0.004328963,-0.016245944,0.098921314,0.04603368,0.09947365,0.14231455,0.13736619,0.10362836,-0.16542712,-0.2364044,-0.1974701,-0.16992559,0.0707994,-0.16077283,0.08858418,0.113762535,-0.067784995,-0.30356267,-0.040441986,-0.18781121,-0.029790407,-0.09842913,-0.030977352,-0.014978066,-0.36302263,-0.027283486,0.052318096,-0.14049147,0.22957936,0.0092323385,-0.078082524,-0.21087207,0.21715006,0.14706586,-0.17277575,-0.10987286,0.20338103,0.05944962,-0.008916312,-0.13551176,0.06320343,-0.08643597,0.21599557,0.09876293,-0.14404848,-0.08256965,-0.08193077,-0.014232523,0.08207346,0.23831236,0.20382546,0.18923883,0.07964056,0.09896168,0.057201464,0.01900791,-0.14874564,-0.19685978,0.09592332,0.053520292,0.06914319,-0.19108562,0.20017792,0.0019741452,-0.0611745,-0.117522806,0.113787964,-0.101903014,-0.1490085,0.038177054,-0.21433291,0.04531611,0.3079063,-0.110508375,0.12971,-0.25680482,0.0004782414,-0.025889575,-0.11538566,-0.17984505,0.3075413,0.082123026,-0.10921191,0.33077183,-0.014802181,-0.11291658,-0.010111675,0.046776313,0.28968015,0.028103631,-0.08443306,-0.0135897165,-0.021642346,-0.11797663,-0.065014996,-0.16645335,0.0047707343,-0.107043654,0.08045501,0.1490039,-0.07199399,-0.064305566,0.041056145,-0.10823521,-0.03676599,0.014303265,0.069121085,0.0013744481,-0.010162785,-0.0640742,0.1334225,-0.22995709,-0.104641855,-0.21524404,-0.09563515,-0.33690658,0.042859096,-0.052677628,-0.09957153,-0.123062,0.048212666,0.03283961,0.16045459,0.043798175,0.041854758,0.289221,-0.060478266,-0.23811945,-0.017750753,0.20468533,0.13000889,-0.2537017,-0.04045196,0.0021161337,-0.26145688,-0.11155628,0.13372968,-0.12895186,-0.109490894,0.09523403,-0.20926045,0.2623889,0.123494886,-0.06744453,0.13178363,0.013459774,-0.006502042,0.18641324,0.047000658,0.0120445145,0.011525126,-0.05099966,0.113835,-0.110451564,-0.17436779,-0.10058755,-0.010861506,-0.10722945,-0.08606556,0.2472291,0.1980528,0.19414645,0.1251683,0.027880058,0.08720167,-0.07719297,-0.26963475,0.0016517054,-0.017504191,-0.21658711,-0.13515909,0.07599894,0.1995484,-0.10802856,0.049257457,-0.031394575,0.13889082,0.1715564,-0.17112866,0.049918864,-0.082801715,0.17538717,-0.07386754,0.008968468,0.12652402,0.02952566,-0.023612104,-0.10232007,0.10309304,0.09522109,-0.17753282,-0.07392768,0.09920543,0.01619623,-0.047308624,-0.12404502,-0.0039682826,-0.186986,0.2423143,0.080117255,0.11507928,0.074177705,-0.13164221,-0.2125223,-0.02639476,0.3176584,0.17647094,0.35899362,-0.03244015,-0.26300186,-0.35044158,-0.307552,0.045844432,-0.058801573,-0.20050384,-0.24979338,-0.060370743,0.01067731,0.16203125,0.0055639017,-0.080659,0.011945982,0.0699708,-0.10254017,-0.05834831,-0.07256076,0.38230348,-0.36843374,0.15009472,0.13734333,-0.02594458,0.14350432,-0.33192357,0.48841292,-0.3954799,-0.12284532,-0.1082465,-0.044616748,-0.0072726216,0.09215684,-0.3512926,0.2988197,-0.16710414,-0.18916138,-0.0386435,-0.2181811,-0.13287054,0.16894256,0.38193256,0.14329673,-0.0790672,-0.19737993,-0.05149694,-0.19391751,-0.19056903,-0.14487658,0.0824933,-0.29527885,-0.013867309,0.3696368,-0.20663989,0.14716733,0.025110826,-0.069478214,-0.0057667554,-0.2692798,0.13628575,-0.21850939,-0.14996606,0.19738697,0.12542634,-0.030222682,0.1041735,0.01504552,-0.14119685,0.100906625,-0.027413229,-0.18301107,0.12742986,0.19808397,-0.25782844,-0.15564151,-0.11259049,-0.3284817,0.033539567,-0.104051836,0.00035016774,-0.04075694,0.2423724,0.1676788,0.003346892,-0.20477615,-0.055276264,-0.16896486,-0.13346131,0.14004025,-0.18073304,-0.26471213,-0.07658995,0.28512675,0.35074395,-0.18016893,-0.18987623,-0.23841654,0.20142643,0.0124211,-0.020536134,-0.10659056,-0.0628012,-0.019384414,0.012078886,-0.17560974,0.2489086,-0.06455553,-0.1071321,0.023528354,0.15492387,-0.08397709,0.17253765,0.043972887,0.21195285,0.20575084,0.034695957,0.08540707,0.065690055,-0.15425879,0.021559827,0.07130132,0.15376681,0.18256235,0.031311065,-0.025388034,0.0995587,0.037129734,-0.048929762,0.29244426,0.038392134,-0.005991086,0.0029793081,-0.08793399,0.11545023,-0.13997547,0.021111343,-0.13861509,0.1329331,-0.20386328,0.17935558,-0.013119085,-0.32800058,-0.08206089,0.0052888277,-0.015154832,-0.2336461,0.11873772,0.2449074,-0.18353318,0.026835827,0.24465336,-0.039546754,0.0509814,-0.32741347,0.22479692,-0.14439723,-0.0518199,-0.006672141,-0.21225429,-0.08406558,0.05116448,0.0066814413,0.1823641,-0.24036723,-0.12616268,0.07332808,0.0032518595,-0.22427963,-0.06350271,0.21471976,0.14966777,-0.11637565,0.021015137,0.15540056,-0.016065536,0.013123243,0.1269777,0.28775525,-0.1910741,-0.1330642,0.19717534,-0.11927155,0.06149681,-0.17430076,-0.20740381,-0.13387018,0.2018131,-0.43471748,0.06839065,0.04364012,-0.14190969,-0.17743146,-0.19672804,0.23139162,-0.25834185,0.17774262,0.0008831647,0.12271779,-0.11976666,-0.24412861,-0.30502185,0.051330652,-0.13830814,-0.2075901,0.21909381,-0.028322004,-0.4161157,-0.081424385,0.15947676,0.3288263,-0.11495169,0.079670124,-0.25409427,0.23660523,-0.060322143,-0.013086936,-0.2081884,0.115566686,0.08075621,-0.065865204,-0.21121234,-0.065101504,-0.22748604,0.29491788,-0.30972198,-0.22733055,-0.026788099,0.18535995,0.08848705,-0.029263476,-0.024252297,0.24359891,0.26883754,0.22768821,0.08652328,-0.09774846,-0.17701001,0.3563329,-0.16642392,0.35646012,-0.088277295,-0.14030099,0.1679125,0.0070582964,0.066536896,0.026853006,0.10811914,0.068912484,0.048647538,0.16484962,0.12922326,-0.09510943,-0.022925692,0.057777178,0.11013201,-0.24990563,0.1032555,0.1481164,0.1646138,0.037641276,0.15600738,-0.21114965,-0.24853103,0.17725192,0.07612219,0.23926014,-0.109786406,0.22868726,0.13521662,-0.12286863,0.10781552,-0.06554645,0.1803223,-0.0022629923,0.19742042,0.23587883,-0.11581927,0.11324823,-0.04777364,0.06344159,0.111837916,-0.060326993,0.08559011,0.19497214,-0.064717665,-0.17736113,0.23874621,0.045889813,0.08011045,0.13432185,-0.13207063,0.0017927499,-0.22071539,0.09612423,-0.066918865,0.00354234,0.17505203,0.008672364,0.09929937,-0.06278123,0.24642594,-0.1573701,0.109352134,-0.2585187,0.11778118,-0.014442622,-0.22926196,-0.14316799,0.13129176,-0.011953562,0.18203145,0.07010611,0.26648253,-0.01332502,-0.002621796,-0.14048652,-0.13593371,-0.16858965,-0.13439113,-0.0732976,-0.02198615,0.11472424,-0.30554092,0.022594417,0.24766612,0.010938882,-0.17125891,-0.13837986,-0.21222037,0.036470417,0.2306364,-0.1309459,0.18049967,0.066739045,-0.20649327,0.17471857,0.050094925,0.13851748,-0.17461626,0.20881896,0.15324095,0.16211046,-0.012053597,0.030192036,-0.22720355,0.27870047,-0.3667139,-0.059259873,-0.13859364,-0.13961488,-0.039776847,0.13568842,0.0017640076,0.17368278,0.060677994,-0.05185271,0.09188559,0.25139865,0.11015463,-0.06254206,-0.094722316,0.08581545,0.0668539,0.08885704,-0.077060714,0.09353899,0.15609124,-0.13470653,0.07564819,-0.2564555,-0.030746073,-0.013336592,-0.21761729,0.058590263,-0.1274742,0.32684064,0.068339385,0.2558081,-0.11797362,0.12504764,0.09859677,0.17603971,0.06366811,0.017905926,0.18061003,-0.28986934,0.11390681,-0.08940741,-0.29454812,-0.061468024,-0.14222349,0.050228138,-0.02709121,0.27350616,0.3272027,0.28362688,0.16020739,-0.09971223,0.39324614,0.0052535445,0.056546815,-0.10918845,0.27571484,0.11533437,0.11149082,-0.0698886,0.094555795,-0.019072577,0.120544806,-0.19306533,0.066376224,0.09245119,-0.06545933,-0.10660787,0.09646022,-0.043181967,0.08372168,-0.030336145,-0.3925181,0.04330498,-0.18330441,-0.15328652,-0.018178036,0.16052654,0.13675417,-0.09875891,-0.05529756,0.045164242,0.05863784,-0.042492963,0.118893005,-0.23553441,0.200112,-0.2417766,-0.007964707,0.14803837,0.1664945,0.19187641,-0.22051245,-0.12185282,0.05214412,-0.08676297,0.07945454,-0.06357856,0.15334252,0.104387544,0.22061665,-0.13236585,0.17145744,-0.14837208,0.117164426,0.116621986,0.04473483,0.27974698,-0.025231639,0.0039634104,0.18700011,0.19832426,-0.007906758,0.25458807,-0.13131507,0.0044861306,0.010886866,0.12668417,0.10853212,0.10394617,-0.12930843,0.2186147,0.07379808,-0.34800228,-0.013725965,-0.20747487,0.010481495,-0.18473552,0.07162109,-0.30601695,0.13070466,-0.11498454,-0.046316314,-0.12313999,-0.064349525,-0.17074119,0.1479555,-0.10505093,-0.31836522,-0.06820175,0.1101008,-0.10633195,0.07073848,0.094441704,0.18851648,-0.071950644,0.19551289,-0.09722487,-0.20507784,-0.16648561,-0.036864378,-0.054780114,-0.17580085,0.22036262,-0.017940318,-0.17057192,0.23363735,-0.02879932,-0.021342484,0.068789184,0.30794105,0.035145823,0.0050836043,-0.17049298,-0.015540979,0.22850406,0.115140095,-0.12397692,0.37540993,-0.22075881,-0.28045237,0.2775805,0.16521314,0.41374353,0.2192555,0.11661256,0.10195547,-0.27419314,-0.14426161,0.060508426,0.046436626,-0.0912088,-0.21130134,-0.18444437,-0.04311821,0.11339531,0.32432896,0.062568985,0.20908745,-0.4842408,0.30739188,-0.38829905,-0.106171325,-0.07136513,0.3541556,0.38060403,-0.38798514,0.12965433,0.07779441,0.06808974,0.027792133,-0.4910258,-0.24988867,0.20522729,0.1336516,-0.3406846,-0.21789302,-0.1201434,0.29127997,0.07983472,-0.22822568,-0.076727346,0.068800196,0.05353084,-0.13277422,0.17745274,0.35584065,0.23171492,-0.20729558,-0.03235082,0.10432456,0.023973651,0.08020385,0.18818675,-0.22431448,-0.13460395,0.12963687,-0.05519856,0.11170409,-0.28915915,0.28310248,0.1945182,0.16620791,-0.047484398,0.21919233,0.08016028,0.018939316,0.004244714,-0.11572951,-0.0022862337,-0.13758306,0.1934673,0.06482362,0.092438295,-0.061640017,0.022991968,-0.26781932,-0.2548995,-0.01868245,0.18711211,0.17524868,-0.22215217,-0.24148415,-0.016194543,0.18516582,0.01080325,-0.17798992,0.16775134,-0.17982829,0.0012608089,0.2425351,0.09924014,0.19028503,0.13654147,0.15370375,0.09148946,-0.022254683,-0.09848526,0.25892037,-0.28337297,-0.014003157,-0.092442594,-0.064080805,-0.11668584,-0.20822285,-0.3785598,0.22231258,-0.21172793,-0.107368425,0.08705585,-0.111422695,0.08464726,0.05240972,0.22228183,-0.114278466,-0.03447872,0.22943743,0.20730472,-0.043001242,0.004962359,0.12793599,-0.18804307,0.26325879,0.0857823,0.032174047,0.16144621,-0.09142663,0.08843354,0.17668371,0.3772692,-0.015853042,0.07177827,0.0052518533,0.22507103,0.24045178,0.087030955,0.17119889,-0.14118779,-0.004124409,0.07249622,-0.099000625,-0.09044862,-0.27253965,0.2846179,0.26282713,-0.16125457,0.10177171,-0.2378181,0.14166549,0.15777175,0.03298888,0.059004836,-0.11885093,0.019046765,0.27013862,0.12814306,-0.13742916,0.047008373,0.103257224,0.05615378,-0.22456726,0.0619115,0.17871864,-0.02766432,-0.28769538,-0.17107046,0.19962725,-0.078094445,0.14947209,-0.33308512,0.1128271,-0.393416,-0.19737199,-0.086355396,0.06907671,0.36014995,-0.13057773,-0.38101378,0.3480745,0.12897907,0.023140652,0.008861046,0.08310771,-0.3562469,0.04994006,0.24485762,-0.19737093,-0.07890597,0.23813158,-0.06672821,0.29301047,0.22715746,-0.103586495,0.3905775,-0.025873024,-0.15237221,-0.21958524,-0.24044397,0.062125083,0.30427712,0.23128068,0.08649725,-0.1261224,-0.09027126,-0.12332109,-0.22213423,-0.2596514,-0.0760345,0.07919712,-0.1126674,0.14951825,-0.038997337,0.0601839,-0.021996064,-0.15666352,0.046311766,-0.11375616,0.29683724,-0.23058805,-0.008163119,-0.14717178,0.2707588,0.13210106,0.22636604,-0.13599771,-0.022779398,0.27942273,-0.35925382,-0.29370213,-0.31647357,-0.31343466,0.37747642,-0.38998225,-0.0953745,0.118352346,0.12421523,0.23833738,0.0576643,0.16548891,0.12863292,-0.14832003,-0.24952,0.009108326,0.1590736,0.08080884,-0.046766598,0.099934556,0.049724728,-0.08415368,-0.13810587,-0.271942,-0.03969387,0.15996435,0.18089673,-0.23620656,-0.24614722,0.23016298,-0.1347254,0.007830809,0.21635862,-0.10667113,-0.049744725,-0.10027969,0.12302313,0.09118238,0.0783295,-0.00011756395,0.2997148,-0.24510784,-0.1962881,-0.073715895,0.070102036,0.12128876,0.10119573,0.09780582,0.40565085,0.22479555,0.07673784,0.03897012,0.12584974,-0.040535796,-0.3397943,0.15973994,-0.046385393,0.24528341,-0.056561176,0.02844899,0.2370738,0.3598885,-0.06762701,0.06356512,0.064410195,-0.021970022,0.0411847,-0.089664795,0.03645504,-0.021805314,0.07851834,-0.13507025,-0.2433939,0.019956183,0.12148083,0.018305391,-0.192629,-0.0723038,-0.21704437,-0.0043178406,0.20525424,-0.39790145,0.03863519,0.06554775,0.08662277,-0.035948876,-0.11724958,0.10999405,0.18398084,-0.088366166,-0.07916914,0.24747871,-0.23795982,-0.26729873,-0.23492132,0.028061828,0.17164718,0.011617049,0.22227739,-0.31831124,-0.20336488,-0.08627435,0.2169421,0.26608515,-0.19633077,0.23502913,-0.31249467,0.21569115,-0.047735818,0.15038534,0.18498398,-0.07984569,-0.007928387,0.11233762,-0.14184119,0.27047324,-0.22667696,0.019726386,0.1745935,-0.15593843,0.15548396,0.1566543,0.036861528,0.10664981,-0.3093048,0.15018119,-0.28359076,-0.29761714,-0.18653914,-0.13657846,0.028304625,0.04038095,-0.059152655,-0.13221271,0.27952135,-0.019659122,-0.0015601049,-0.17136145,0.33570877,0.07544516,-0.040382333,0.22517487,0.059471466,-0.078657426,-0.15156856,-0.04073603,0.2408202,-0.06381531,0.27129352,-0.061490685,-0.14340061,0.23045757,0.027480595,-0.014891193,0.1113268,0.077638395,0.13044302,0.28119615,0.21983546,-0.05009719,0.23903102,0.15186799,0.16042906,0.03459408,-0.20593458,-0.05960979,-0.08932827,-0.24283458,0.18622355,-0.15385665,0.2402929,0.055063736,0.21706662,0.18032174,-0.33282217,-0.13503402,-0.116107464,-0.09164876,-0.004333523,-0.007097327,0.10082426,0.00047337092,0.2324648,0.092385106,0.023086822,-0.19089805,0.16329716,0.11769746,-0.19039586,-0.2848069,0.09431883,-0.052996747,-0.12444259,-0.2623374,0.05671273,0.28868598,-0.15837501,0.15190506,-0.06431876,0.1659892,-0.17189229,-0.2258973,0.28768086,0.2686753,0.15983558,-0.14276387,-0.07133424,0.060849432,0.12698737,0.12333082,0.07630173,-0.10934989,0.05263218,0.27730405,0.19838215,-0.086740784,0.042991024,0.08380399,-0.15711138,0.11198801,0.20013672,0.009410449,-0.03779266,-0.16470793,-0.046716485,0.12084743,-0.1689308,0.23130058,0.0777642,0.087454505,0.27863124,0.025512686,-0.20343919,-0.16741675,-0.10401409,-0.13210922,-0.18454324,0.2363872,-0.24604559,-0.07566958,0.088167414,-0.02245375,0.27397507,0.06919901,0.38552225,-0.081263155,0.2609074,0.11549045,-0.027599726,0.030744083,0.2920858,-0.2856435,0.41111186,0.09912514,0.18598326,0.12251314,-0.05781738,-0.06936397,-0.47884908,-0.16606124,0.44844192,-0.16945176,-0.42022482,0.12975165,-0.13249668,0.07049287,-0.06514993,0.25983346,-0.09115146,0.009031104,-0.048545662,-0.23715115,-0.32343912,-0.23429365,-0.010946374,0.38420424,-0.016480802,0.24154407,-0.12823403,0.11499173,0.07852751,0.15270233,-0.041434303,0.0033843953,0.07227409,-0.022794565,-0.025462471,0.09456691,-0.097467706,-0.07988634,0.12699176,-0.023604127,-0.123525515,-0.131718,0.062494986,0.04648904,-0.18857595,0.30415905,0.23786034,-0.16401915,-0.074144766,0.075444914,0.10212081,0.16516429,0.06183933,0.14124212,-0.21499997,0.08155616,-0.43694606,-0.17041728,0.03347973,-0.16288897,0.21503519,-0.25137898,-0.29246607,0.0061502615,-0.3165497,-0.20677151,-0.16466516,-0.078118265,-0.024570556,0.2115641,0.23825954,0.4113297,-0.21767572,-0.0037759447,0.2774139,-0.19808003,0.13336624,-0.13632393,-0.042541806,-0.20482448,0.14624213,0.16040468,-0.050930277,-0.22906491,-0.2654627,0.12980974,-0.356999,-0.025145303,0.13518022,0.08223163,0.11605499,-0.20354278,-0.21979314,-0.32837766,0.10576209,-0.154005,0.2594798,0.21805975,-0.08917961,0.22205606,-0.08150479,0.0024948188,-0.2402035,0.1589245,-0.05774843,0.05131023,0.38532305,-0.25688538,0.19975246,0.03883308,0.12337294,-0.025142312,-0.33491263,0.029680964,0.051149026,-0.14768238,0.16795428,-0.013855273,0.3458389,-0.124218635,0.09352055,0.049836814,0.13541517,0.18733637,0.03700346,0.015740814,-0.024891356,0.15886258,0.30172926,0.28302646,0.1262915,0.06475043,0.19068186,-0.1408371,-0.1916994,0.046076465,-0.032237813,0.21494426,0.065903544,0.13058457,0.09917416,-0.11281088,0.11926633,0.31824377,-0.1768506,-0.2745989,-0.022172622,-0.18786283,-0.09674596,0.029136814,0.02567376,-0.08346243,0.042579215,-0.06366888,-0.10087572,0.0071262857,0.21955578,-0.08949643,0.14263305,-0.35054561,0.11487393,0.2247378,0.18767738,0.028305845,0.09379677,-0.0074656396,-0.04632732,0.18270382,-0.08133772,0.024907747,-0.034829684,-0.038861252,0.040724672,0.08811372,0.18983117,0.065804146,-0.017184587,-0.061177667,0.22703546,0.006589013,0.07972213,-0.08391479,-0.1164486,-0.006789234,-0.2096835,-0.07105061,-0.112495236,0.031565655,0.091558345,-0.25400898,-0.18664695,0.07211907,-0.1148685,0.0070150723,-0.055962984,-0.008809064,-0.08372389,0.20792732,0.17423967,0.24186565,-0.043269888,0.03585364,0.19820924,0.08372679,0.07377209,-0.071423605,-0.120123014,-0.18001465,-0.057538692,-0.114571474,-0.36407518,0.3487887,0.08123871,-0.07332708,0.10613379,0.13229975,-0.27127644,-0.29458204,0.020004893,-0.06088786,0.022904104,0.29504701,-0.30899554,0.082059726,-0.38104773,-0.20885372,0.02283366,-0.118394986,-0.25055432,-0.12902074,0.008609696,0.030510094,0.061557073,0.14007208,-0.17384844,-0.06306896,-0.06774792,-0.096510045,-0.10435777,0.11912016,0.1013557,0.06980724,0.37200633,-0.041542776,0.14575197,0.053176504,-0.03121912,-0.21097024,-0.03227207,0.24494928,0.07706691,-0.3744982,-0.25700963,-0.30696467,-0.115128174,0.1477556,0.26085553,0.108427145,-0.03979865,0.15066579,-0.38124487,-0.18042514,-0.019775834,-0.36429313,0.061323848,-0.5204455,0.05796964,-0.35150787,0.4262938,0.04660978,0.2624293,-0.03167525,-0.020310076,0.034777462,-0.084102996,0.0036916544,-0.18126547,0.05122666,0.096878834,0.15258424,0.27166882,-0.3245022,-0.25427252,0.060195137,-0.18326658,-0.19537751,0.25509828,0.026530217,0.059664354,0.2489796,-0.19908673,0.07240557,0.28639498,-0.13480428,-0.010920959,-0.102177985,-0.3543918,-0.0914278,-0.13909595,0.07619637,0.053487487,-0.07621645,0.021822752,-0.11366386,-0.1282926,0.20536293,0.018715827,-0.2830959,0.103789784,0.14513472,0.1513408,-0.10079058,0.1658731,0.17714803,0.051066242,0.21893863,0.09273544,-0.026591504,0.18806614,-0.032174997,0.064260066,0.025176717,-0.014375823,0.0144625865,-0.03332687,-0.2815982,0.22958861,0.109929375,-0.26809102,-0.012837706,0.22328402,0.0334912,-0.042278722,-0.28518438,0.048949294,0.31804228,0.15543982,-0.18188299,0.12333019,-0.071180165,0.3084589,0.115622796,-0.15880103,-0.0026191021,-0.21454944,0.20934407,-0.011168693,-0.0009880945,0.1158691,0.022819905,-0.39741606,0.114687875,0.19016264,-0.11474024,0.1618023,-0.10156557,-0.03792984,0.172074,0.039768536,0.3910002,0.3358746,-0.00881852,0.096719235,0.029926468,0.016769346,-0.06070284,-0.21676101,0.22322388,0.2981926,-0.3149349,-0.0101009635,0.09662971,0.015518864,-0.053173788,0.09199144,0.062576786,-0.22252943,0.042027827,-0.29348502,-0.16431428,-0.105505176,0.12586282,-0.21924731,-0.044897415,0.15959656,0.06446001,0.15262008,-0.027548041,-0.18744941,0.21676405,-0.0979395,-0.21457335,0.4153303,0.052833177,-0.1962641,-0.09589267,-0.030474372,0.19265124,-0.26964036,-0.23042518,-0.14764035,0.10516035,-0.059858266,0.15458363,-0.07816576,-0.139559,-0.073851176,0.3610034,-0.23102112,0.03280824,0.11724183,-0.11267225,0.07688432,0.03496053,-0.10499827,0.13804886,-0.014830297,-0.100848354,-0.022172663,0.2719847,0.0855594,-0.24336238,-0.056547094,-0.086280376,0.028937371,0.3020848,-0.01653884,0.018440515,0.1527285,0.00038497028,-0.23950706,-0.20248199,0.03328883,0.013151903,0.01664695,0.13979073,0.14467135,0.14185598,0.2297814,0.24911572,-0.22290206,-0.27221912,-0.3031828,0.1877388,-0.08068758,0.16393276,-0.37814352,0.057252347,-0.14496894,-0.039637614,-0.064242706,0.009905538,-0.046325695,-0.19441696,0.074034646,-0.14453554,0.14556763,-0.17973563,-0.19942544,0.07108163,-0.21697377,-0.022813372,-0.14294834,-0.09975317,-0.10914109,-0.13237813,0.16894707,-0.16078053,-0.11384827,-0.1488026,-0.040967446,-0.31769624,-0.15257646,0.14987479,-0.21167113,0.19111851,-0.11017883,-0.0440219,0.15430559,-0.046110127,0.17964521,0.070117794,-0.24057327,-0.14203924,-0.21384253,0.21093802,-0.18505676,-0.26089358,0.25154763,-0.11548702,-0.10379609,0.11440407,-0.08483096,0.18036294,0.18111593,0.3673206,0.08218195,-0.24591845,-0.2453702,0.15694223,-0.032417357,-0.13879055,-0.37156576,-0.14209881,0.1239349,0.123934865,0.2733233,0.0030956473,-0.01996384,-0.008611976,0.33561173,-0.0005100711,0.20116413,0.10994184,-0.26339576,0.17493154,-0.26718426,0.045549072,-0.039002176,0.017874781,-0.22883676,0.2712909,-0.27384704,-0.051953293,0.07491877,0.22770113,0.2362666,0.10104162,-0.21425611,0.35288528,0.03242725,-0.042809647,0.049703885,-0.29585576,-0.06402318,-0.035888102,-0.11351848,0.07406604,0.08871228,-0.01526806,-0.10749272,-0.16519879,-0.26674515,0.32798573,-0.02276188,0.05277342,-0.01788345,0.1545436,0.27971575,0.2650715,0.0771338,-0.12189936,-0.15153393,0.06605456,-0.006414939,0.17834759,-0.23394689,0.16989622,-0.22240886,-0.010268998,-0.20483273,0.12647615,-0.26009274,0.028162373,-0.042843297,-0.019805213,-0.07152981,0.3092071,0.041248247,0.15689576,-0.18129277,-0.09686275,0.010232762,0.08097147,-0.107953735,-0.19324122,-0.07381544,-0.14704098,-0.23056024,-0.19986796,0.20522082,-0.17345051,-0.25756177,0.29367504,0.08005446,0.18052523,0.12531896,0.08601013,-0.07528469,-0.19138058,0.056545366,-0.12022875,-0.21069245,-0.15766142,-0.08606094,0.077384055,0.34488228,0.05118345,-0.052435085,0.1378234,-0.20924267,-0.34117854,0.11948287,0.14519496,0.312011,0.09369158,0.20207815,0.0049508815,-0.40371263,-0.061744384,-0.030002771,-0.044318456,-0.074987665,-0.023737686,0.11528411,0.016590472,0.0549256,0.19282873,0.010609929,0.271579,-0.045941062,-0.014626376,-0.13489917,0.06538459,0.2688946,-0.1006391,0.33518144,0.24531552,0.20801997,0.02168405,-0.05055545,-0.009722227,-0.209902,-0.11613759,-0.15727195,-0.08106871,-0.02637256,-0.13584694,-0.23396192,-0.027396908,-0.040112108,-0.20525186,-0.021406343,-0.22438584,-0.06856724,0.093402095,0.12084078,0.04192969,-0.21247387,-0.026756924,0.34047166,0.111033015,0.124581695,-0.00677663,-0.035099838,-0.34794715,0.14215344,0.085860275,0.09645489,-0.16704032,0.18799986,0.03205546,0.19275782,0.100190744,0.3367107,0.19266075,-0.28543216,0.14110202,-0.077856764,0.22494501,-0.007041248,0.069686584,-0.13353004,-0.12686017,-0.00038311598,0.1877158,0.1430528,0.16461362,-0.14009413,0.06758434,0.18230024,-0.04837158,-0.23333412,-0.049537733,0.27440134,-0.22860636,-0.11550359,-0.19099149,0.04207712,-0.027125325,0.11755101,0.083671585,-0.12434152,0.26064572,-0.31164697,0.1782995,0.027251204,0.020785293,-0.009941478,-0.025878863,-0.07624706,0.16479358,-0.14444064,0.07222552,-0.0151710445,-0.19068855,0.03193772,-0.21540079,-0.24558012,-0.2522613,-0.07555107,0.22973229,0.033117376,-0.06884199,-0.32505968,0.19489002,-0.37189302,-0.17701705,-0.10117378,0.12326471,0.06786624,0.14089546,0.0894273,-0.27796173,-0.08224797,-0.022084793,-0.2079728,-0.07093421,-0.09970342,0.061144546,0.28927568,-0.06495154,-0.13661031,-0.054524593,-0.061268736,-0.064249374,-0.039634194,-0.04062312,-0.25981802,0.19802307,0.14131333,0.018752774,-0.035706587,-0.07776836,-0.14072035,0.1460811,0.06169288,0.07883525,-0.06543823,0.043380667,0.08086539,0.18265334,-0.14477786,-0.217851,0.22776252,-0.029347658,-0.0457316,0.11602453,0.082219966,0.16496205,-0.16909046,-0.012161311,-0.05093996,0.14804143,0.23031092,-0.038541507,-0.16056213,-0.16352175,-0.101304255,0.28148985,-0.0670007,-0.05431286,0.19541904,0.1587719,-0.022402456,0.16154866,0.15576652,0.2432963,0.18033183,0.010113874,-0.009010626,-0.015325092,0.1786077,-0.048462577,-0.30616558,-0.07673718,-0.24744706,0.17281446,-0.13051471,-0.19325824,-0.0030419999,0.19558176,0.008935541,0.14845565,0.19540545,0.033958204,0.3606094,0.07761743,-0.039079398,0.044568952,-0.023238951,-0.21853001,0.28576207,0.20897819,0.14917114,0.1302629,0.011236598,0.21494982,0.0077631185,-0.12574512,0.18156703,-0.25613868,-0.1444609,-0.09573646,-0.004268107,-0.14386424,-0.15346038,0.28598624,-0.034941684,0.03587181,-0.16095413,-0.04065828,-0.03437307,-0.07667375,-0.31153715,0.22739673,0.13447085,-0.413318,-0.044580903,-0.09326108,-0.010195131,0.018319754,-0.04597732,0.01677899,0.21691413,0.14287788,0.13354313,-0.20418704,-0.34840316,-0.0014676822,0.16796646,0.1524451,-0.04048872,-0.17637923,0.29880938,-0.2630201,-0.15096346,0.090404116,0.30464882,-0.17104164,0.16256535,-0.27957156,-0.26830706,0.20445041,-0.42299664,0.040721916,-0.38811246,0.2276188,-0.003222748,0.27125543,0.24676137,-0.02056368,-0.14365631,-0.365216,-0.034769285,0.1127415,0.31193468,0.357289,-0.25175738,0.009805227,-0.091448076,-0.07045623,0.031691995,-0.19897518,0.07356477,-0.33065724,0.11839591,-0.17563958,0.48765102,0.021819072,0.06942678,-0.07475691,0.04191905,0.058469556,0.051625967,-0.20422441,0.124294296,0.11134636,-0.47283897,0.025400234,-0.13384922,-0.03273829,-0.13013476,-0.09086904,-0.13740483,0.34826386,0.22245486,-0.07168904,0.27342746,0.3337355,0.20748176,0.3351997,0.056807533,0.061410032,-0.12806746,0.25199434,0.19646792,-0.36770514,0.21615669,-0.25205877,-0.1561643,-0.27841178,0.27374718,0.14102176,0.1728473,0.20199814,-0.16156054,-0.14922863,-0.13703918,-0.044972766,-0.13519043,-0.036923777,-0.3000894,0.26002342,-0.15946871,0.08032305,0.27837387,-0.06150695,-0.034216966,-0.059404407,0.034774058,0.06582491,-0.13655053,-0.17052816,-0.10565276,-0.2662745,-0.02370948,-0.34557632,-0.019424533,-0.27778047,0.05287234,-0.009918935,0.073814936,0.14319754,-0.082240544,-0.29851013,0.029960329,0.2233591,-0.23818858,-0.091148786,-0.051718537,-0.09813336,-0.08392825,-0.014444884,-0.025866125,-0.075605355,-0.21660823,-0.08129196,0.17721508,0.38943687,0.14325845,-0.032081112,-0.10456359,0.3658951,-0.2655508,-0.094509766,0.26530197,0.11148473,-0.34003943,-0.08539919,-0.112378374,-0.21337225,-0.15855397,0.00796664,0.21482559,0.041204847,-0.08628648,0.19905287,0.2171475,0.09245495,0.11915417,0.28795353,0.015351243,-0.23206033,0.14278476,-0.06119837,-0.31271347,0.106451996,0.029131426,0.06268806,0.05440871,-0.17747809,-0.029384457,0.066902556,-0.08744674,0.053901788,0.116703995,-0.018986546,-0.2325912,0.18978757,-0.076902814,-0.22836477,-0.086153604,0.1937498,0.4386366,-0.0681719,0.10355726,-0.027963059,0.040094003,-0.23435874,0.0995317,-0.17238976,0.058614474,-0.15531184,0.111199416,0.13952364,-0.12747052,-0.04103974,-0.057023026,0.109955736,-0.30746138,0.19716597,-0.06872287,-0.099948384,0.046195794,0.16935419,0.1944703,0.029616922,0.1301798,0.17820467,0.25076005,-0.25438312,-0.11671869,-0.13758662,-0.13747291,-0.24600102,-0.038639892,0.1000329,0.067020565,-0.16663986,-0.03162431,-0.12743062,-0.2576857,0.17333336,-0.121869564,-0.010021498,-0.1874698,0.24179679,-0.26327577,-0.07347236,0.040079053,-0.15307748,0.05750452,-0.1971348,0.13556756,-0.08884102,0.25736108,0.09215789,0.20996653,0.3364775,0.24028517,0.005760375,0.18223993,-0.02503874,-0.2687203,0.26497114,0.18791871,-0.39579272,0.0031316425,-0.16757146,-0.0040975288,-0.09492307,-0.05756976,0.14148672,-0.100094095,-0.1913643,0.2000124,0.09313728,0.28164157,-0.09047465,-0.100916624,-0.29516956,-0.04469007,-0.030403769,0.34836283,-0.052831437,0.112847604,0.095112614,0.15808673,-0.17607176,0.17144863,0.2690585,0.15358779,-0.28728896,0.01168789,0.13160655,0.1335261,-0.21768281,-0.13641316,0.345063,-0.22350913,-0.33123854,-0.18386772,0.14373249,0.27216324,0.008905088,-0.20851183,0.22402321,0.029319717,-0.023926793,-0.09575083,-0.14417388,0.068575576,-0.022145756,-0.1815012,0.14055434,-0.14030284,0.2563936,-0.0064249965,-0.06550078,-0.17528452,-0.06963018,0.20196138,0.0072389096,-0.26490894,0.07859682,-0.28087756,-0.10218296,-0.1601765,-0.13590859,0.15807985,-0.05127488,0.13257474,-0.068521395,-0.008773813,-0.13938397,-0.06076013,-0.071620956,0.119822785,0.20152234,-0.19773777,0.0063092937,0.14761189,-0.031202154,-0.053555652,0.0846543,0.25234643,-0.05475993,-0.18149233,-0.023735108,-0.031968493,0.27137396,0.09688291,0.0012217732,0.08132943,0.072884,-0.12802994,-0.12201906,-0.102307215,0.07266262,-0.012244772,0.052399226,0.2133314,-0.13642198,0.07981775,0.10963321,-0.006962401,0.16235003,-0.05672103,-0.11196399,-0.15884684,0.24494775,0.34819016,0.15979803,0.16491999,0.15744115,0.08509565,-0.07571977,-0.010843286,-0.077809826,0.08752236,0.06563182,0.08180859,-0.088339046,-0.33495623,-0.21616003,0.27306384,0.08742402,-0.113468714,-0.10440222,0.058946762,-0.0015251054,0.19539249,0.10182938,-0.25359386,-0.0385745,0.07560569,0.037213765,-0.13618729,-0.08697507,0.17067276,0.22315265,0.16371283,0.204369,-0.009832083,0.100672096,-0.22279586,-0.12222053,-0.23096529,0.1795013,-0.026405467,0.1938304,0.08000285,0.040661685,-0.106603295,-0.14985906,0.07176482,-0.34933522,0.114552155,-0.09003444,-0.26089418,0.112142116,-0.13344899,-0.034721628,-0.18958586,-0.2664253,-0.17181556,-0.028155362,-0.17733613,0.023966204,-0.05099997,-0.0936559,0.3066365,-0.17308041,-0.42821097,0.2348464,-0.113907814,-0.17425102,0.20320122,-0.08281187,0.012417687,-0.052380927,0.031185005,-0.20226455,-0.32743934,-0.050088815,0.44063658,0.2698372,0.14447555,0.2722973,-0.11040975,-0.10512702,-0.06722525,-0.04946995,0.15425673,-0.4636168,0.15597004,-0.06491007,-0.20841388,0.007826833,-0.18163542,0.14939597,-0.22728898,0.024187408,0.070882976,0.09169621,-0.097201996,-0.22132917,0.0031523474,0.16442472,-0.23313296,-0.115877114,0.220657,0.14077364,0.17060031,-0.15399988,0.22677012,0.15776682,0.14811154,0.15352765,-0.22650942,-0.15072614,-0.3524339,0.28575984,-0.11894048,-0.29784802,0.27782187,0.08149445,-0.07872197,-0.28154534,0.049350876,0.30140606,-0.19369514,0.10122689,0.34612742,0.23501985,-0.29626277,-0.013793884,0.08093553,0.16477881,0.2846912,0.19927847,0.12841356,0.16055293,0.043438893,-0.05211287,-0.10459108,0.06293738,-0.09472855,-0.03168724,0.06694309,0.16459045,-0.23766449,-0.24953495,-0.024099665,0.1617049,0.03258381,0.081932254,0.019848624,0.01043303,0.26504,0.15975285,0.04769951,0.093587376,0.043106947,-0.1312645,-0.25203285,0.13204756,0.029329736,-0.027927345,0.06490668,0.28590876,-0.01546798,0.33286688,-0.2138954,0.24543278,-0.24029377,0.23681399,-0.043814987,0.108617045,-0.22169042,0.2225997,0.031571936,-0.054981444,0.05591603,0.1372041,0.12029425,-0.07852375,-0.14147049,0.089214,0.06547259,0.10646334,0.06517001,-0.11055388,0.002794519,-0.05405772,-0.09552345,-0.20127921,0.006004098,-0.20176911,0.020508135,-0.025794417,0.10780735,-0.0007549393,-0.28295404,-0.19897605,-0.41227305,0.088903755,-0.05669017,0.17648402,-0.15581328,-0.2235555,0.13916855,-0.26065946,-0.06762712,-0.23952255,0.18732794,0.117847584,-0.16658564,0.039660327,0.12098838,-0.035837043,-0.105899505,-0.01607458,-0.21439616,-0.15552023,0.3725747,0.08514299,0.21018165,0.09315952,0.009168735,-0.090709955,-0.1671209,-0.11984477,-0.09988681,-0.09468187,-0.108364135,-0.18019645,0.16924505,-0.05411788,0.0073293434,0.16140324,-0.16416451,-0.07620729,0.028458035,0.23890597,-0.15930566,0.16130807,0.176527,0.41286466,-0.19869776,-0.07654529,0.20169264,-0.05535442,0.06474358,0.21004744,-0.16051142,0.28948125,0.17304258,0.11940682,-0.0839459,-0.11860542,-0.09477787,-0.0012899702,-0.25141433,-0.17685321,-0.2557086,0.14837028,0.1009644,0.11817246,-0.024610037,0.26180944,-0.04109655,-0.09077353,0.01335744,-0.10163108,-0.14351077,0.15290977,0.14397372,-0.048139922,0.040189356,0.11874386,0.01640511,0.30019736,0.24008602,-0.009718442,-0.09602664,0.103277124,0.13511528,0.20506836,0.03957159,-0.07982379,0.03629716,-0.14230481,0.026417078,-0.20618996,-0.018304558,0.21652254,-0.016362222,-0.04827503,0.06862449,0.05936502,0.16078642,0.23504138,-0.20611106,-0.3256625,-0.04451969,0.23916344,-0.05881895,0.13081238,-0.14229552,-0.016429415,-0.10737907,-0.00897902,0.20978136,0.09027943,0.19291292,-0.03748891,-0.11955581,-0.12788467,0.08582978,-0.18204013,-0.11495425,0.17727435,-0.29542488,-0.17107248,-0.040411603,0.031493127,-0.05349683,-0.19586807,-0.16062535,0.15702523,0.07776653,-0.09600845,0.026281834,0.299843,-0.31661403,-0.038873166,0.35315314,-0.20778736,-0.17131959,-0.20976591,0.09975328,0.2616359,-0.021132529,-0.19339253,0.026958328,-0.13660201,0.08108631,0.062868185,0.2666265,0.21490161,-0.22173096,0.4200153,0.26964504,0.042519614,-0.23469919,0.12658818,0.072040334,0.1095212,-0.23619258,0.16466993,0.048835903,-0.18200918,0.079598434,-0.07498648,0.24970116,-0.029356278,0.20580256,-0.25949728,-0.11907948,0.045217384,0.3882947,-0.24372612,0.1666534,-0.19929318,-0.23746762,0.09453543,0.07781977,-0.038884424,0.13982068,0.076419406,-0.14244506,0.10868064,0.21887977,-0.18118437,0.24039546,-0.037298772,0.10559908,0.010798873,-0.093014754,0.054754328,-0.19502415,-0.112038665,0.0015947879,0.0491462,-0.31218806,-0.253705,-0.25038967,-0.1510276,-0.19368613,0.18633854,0.023963861,-0.17430948,-0.091125004,0.084346145,0.16630363,0.31123543,0.30846614,0.14734821,0.08295841,-0.0543328,-0.085570715,-0.17304935,0.26967415,-0.18530755,-0.03631756,0.35130137,0.10062441,-0.21090838,-0.3147576,0.33180636,-0.10359137,-0.17453066,0.14730997,-0.07905956,-0.26198575,-0.2541728,0.1847951,-0.07951959,0.19284277,-0.017168494,-0.05818008,-0.2855164,0.07564655,0.06120071,0.3841368,-0.19129461,0.09418288,0.078490004,0.15193526,-0.042000055,-0.2906772,0.017927231,-0.023951823,-0.016163643,-0.10685101,-0.19182944,0.15930204,-0.0012722324,0.14347231,0.08334461,0.117816836,0.1311426,0.0058928104,0.16905105,-0.27946666,0.24065815,-0.12559044,0.36271453,0.21317996,-0.035239313,0.18469279,0.012983687,-0.1684183,-0.13039726,0.08985492,-0.18191361,-0.16261145,0.08442146,0.016248645,0.21399544,-0.03722451,0.017045029,0.19858786,0.011662061,0.088205785,-0.089071445,-0.0038192843,-0.29513144,0.13825148,0.0031278005,0.03391087,0.057871327,0.16504966,0.017516112,-0.29569808,0.053953648,0.009170247,0.20048174,-0.08607675,0.27062672,-0.14204568,0.29672414,0.025239065,0.19498579,-0.016609352,0.118787326,0.1735782,-0.0137671605,-0.075679794,0.071139924,0.14782125,0.08684031,-0.11416128,0.03545024,-0.069287114,0.032011464,-0.09752552,-0.12265606,0.061525907,-0.26342678,0.2054799,-0.0689915,-0.16000682,-0.07532574,-0.019266985,0.101367824,0.25235242,0.007036774,0.020394975,-0.137781,0.16791427,-0.06848027,-0.34539253,-0.0364543,0.046748087,0.05284872,0.054257974,0.20920818,-0.34071186,0.27551132,-0.18166555,-0.13914905,0.16400576,0.05078464,0.261151,0.043004207,0.08727073,0.2750226,0.21004272,0.18647125,-0.08476698,-0.14750396,-0.2826138,-0.251686,-0.104271606,0.0048450776,0.09018164,-0.017006535,0.050997533,-0.22811857,0.05712364,0.12136211,-0.24420314,-0.09406321,-0.15627423,-0.1583034,-0.12956566,-0.07354643,0.01164919,0.16965578,-0.011610869,-0.18519588,-0.0330896,-0.043684863,0.13518955,0.15384457,-0.051998556,0.019996207,0.17232117,0.01019383,0.15763609,-0.2504287,0.18722087,0.18440266,-0.24429981,0.27636844,0.08583598,-0.08938814,0.070156574,-0.15529804,0.060863804,0.12043494,0.22030807,-0.027620863,-0.053326853,-0.103226274,0.10548551,-0.20738733,-0.10367256,-0.15338975,0.11808291,0.059320405,0.1673887,-0.060575265,0.12623842,-0.28977388,-0.20615105,0.043040615,-0.1876442,0.080004565,-0.21951614,0.03485023,-0.014119149,0.062552586,0.055682003,0.023646913,0.018966626,0.0067020245,0.3062284,0.014557445,0.1466968,-0.13460155,0.25567243,0.030541252,-0.45059562,-0.06016493,-0.071486704,-0.26817083,0.012248492,-0.016004818,0.060475413,-0.06499576,0.16927885,0.16027077,-0.051607296,-0.05419388,0.038116172,-0.1259581,0.07817239,0.06665408,0.087471604,0.22568388,0.10644094,0.03427567,0.26274154,0.14433639,-0.14686102,0.17686136,0.00062507344,0.11674798,0.13543217,-0.12656064,-0.04822435,-0.13617489,-0.16728406,-0.0627977,-0.15291779,-0.17557265,0.031430647,0.121363804,-0.22448207,-0.14171034,0.16622452,0.117596,0.16678585,-0.27259743,-0.09066335,-0.035684038,0.116223596,-0.08515925,0.22159217,0.01811197,-0.087570734,0.38155007,0.21870488,-0.066920325,0.20641115,-0.003931641,-0.012273127,-0.09715155,-0.14318898,0.00095870264,-0.21849674,-0.2351233,-0.022722563,-0.21845931,0.17314865,-0.30903852,-0.19338705,0.39392254,0.051972125,-0.29210192,-0.20469429,-0.033387896,0.22515441,-0.11327941,0.105284095,0.10899537,0.22356223,-0.17076139,0.22815143,-0.18209565,0.15048878,-0.05281064,-0.069178686,-0.30655918,0.20717637,0.056633037,0.13651475,-0.2246126,0.060636006,0.17613733,-0.30349988,0.11736884,0.032581236,0.47758576,-0.07096465,-0.23970145,0.10897212,0.41535974,0.11923172,-0.22164343,-0.24005985,0.2381282,0.21701238,-0.026883293,-0.056158017,0.1342668,-0.029704431,0.00895905,-0.077322066,-0.032973826,-0.009895577,0.07647017,0.028113773,0.16166998,-0.26436812,-0.2187742,0.21451426,0.08274761,-0.090492725,-0.06446768,-0.0853946,-0.031644374,0.0034424595,0.22380188,-0.15330009,0.104026236,0.016888976,-0.0051917154,-0.2524096,-0.12015756,-0.1720262,0.041535527,0.16344686,0.309923,0.06214161,0.17377648,0.09864417,0.091675594,-0.18685023,-0.02548592,0.119982064,0.103458025,-0.036233928,0.20013475,-0.28482187,0.16793543,-0.2168076,0.13185012,0.106410764,-0.089934364,-0.091056705,-0.2626184,0.030834619,-0.046848975,-4.3929642e-05,-0.10982795,-0.1026022,-0.09763133,0.06203556,-0.09811472,0.23021813,0.0917709,0.26309484,0.061457094,0.26463932,-0.34015444,-0.04177641,-0.19001666,0.19592284,-0.032693204,0.27348346,0.13056755,-0.0928995,-0.04517918,0.21801803,-0.036044713,-0.18989119,0.1445516,-0.26854134,-0.31066757,-0.09545556,-0.0013858681,0.24397106,0.2008511,0.34787536,0.08252728,-0.034127828,0.032964382,-0.10583104,0.091638274,-0.19624238,0.2262301,-0.04632674,0.101073116,-0.11754861,0.05979027,-0.13186401,-0.18823232,-0.04053613,-0.17750108,-0.024103,0.04802317,0.0469443,0.07303358,-0.12388228,0.11838773,0.11037758,0.17742167,-0.016267478,-0.3575851,-0.3708284,-0.15807667,-0.011672456,-0.38220632,0.05646509,0.06418707,-0.076242186,0.15329453,0.09617266,0.12493421,0.17694247,-0.06203439,0.041119978,-0.14502892,-0.0925061,-0.06674487,0.051742416,0.034204185,-0.1265987,0.21014611,0.35157982,0.123743095,0.26258343,0.16654345,-0.107854165,0.09126007,-0.080718994,-0.07090406,-0.08031553,0.29532754,-0.116228916,-0.18644887,-0.121518366,-0.3540642,-0.06108005,-0.04187555,0.0018798197,-0.19123672,-0.24836868,-0.08425524,-0.019151185,0.04354986,-0.18410893,0.32570434,0.229405,-0.22916979,-0.08773495,-0.04205742,-0.058086302,0.003630539,0.06387648,0.15313654,-0.123349994,0.19140206,-0.19185084,-0.062492914,-0.23577124,0.32515794,-0.15711735,-0.08408636,-0.32115683,0.10169221,-0.069702365,0.18329611,0.112296954,-0.09716822,-0.10855022,0.019478459,-0.30565962,-0.19600968,0.100233905,-0.09234272,-0.02313543,-0.009355963,0.03694155,-0.2756316,0.19368991,-0.057220116,0.19428606,-0.020828506,-0.09306283,0.1955442,-0.017831977,-0.15370585,-0.061305303,0.06858056,-0.21958543,-0.17170474,-0.23722507,0.3410488,0.012731766,-0.015734043,-0.15141727,0.027222516,-0.2779003,0.13203168,0.30649695,0.12919016,0.15819603,0.14670467,0.16205727,-0.06894354,-0.09658465,0.18866877,0.0130990995,0.16866018,0.17110999,0.11445246,-0.15134004,-0.176764,0.1401471,-0.32112202,0.14482653,0.1476957,-0.34893242,0.20959775,0.1464213,-0.10406784,0.09417995,0.11596497,-0.06941606,0.12453955,-0.01630558,0.18358982,0.043489467,0.27662477,-0.06819168,-0.058634967,-0.0050890907,0.2599011,0.15801759,0.024412813,0.17212489,-0.12755981,-0.11871774,-0.16972147,0.14331508,0.05316858,-0.14640953,0.051376346,0.025406603,-0.15122117,-0.05552034,-0.22228064,-0.071030796,-0.12656786,0.028883036,0.14351055,-0.27401158,-0.20385467,-0.26307017,-0.13319373,-0.05403958,-0.121950574,0.16615422,0.099745885,0.020188566,-0.260808,0.18021934,-0.056234516,0.22703159,-0.050445866,-0.17976168,-0.056325026,-0.17512278,0.18418777,-0.25038815,-0.057872888,-0.13551223,0.07447116,0.17905624,-0.16318934,0.05443365,0.28023282,0.16695236,0.21003985,-0.15897861,0.08241165,0.03664217,-0.18308891,-0.13433589,-0.010675379,-0.012253822,0.114812784,0.07597696,-0.005525491,0.0035506133,-0.12925503,-0.027655812,-0.20603943,-0.03810616,0.24708001,-0.12510368,0.12327619,-0.0999578,0.16543552,-0.10888394,0.14288475,0.24883078,-0.024035914,-0.26665926,0.0038382688,0.16019674,-0.23238316,0.17749126,-0.09399636,0.22776449,0.19524844,-0.20755008,0.014404545,-0.21355417,0.21276127,0.23777063,0.14004259,-0.12883748,-0.012739043,-0.25407678,-0.0964836,-0.03599718,-0.16964045,0.03534712,0.20436384,-0.21330261,-0.27512506,-0.038508568,0.039044686,-0.20301424,-0.042139962,-0.13495567,-0.17486343,-0.1660479,-0.16646194,0.17559183,0.052873183,-0.15399097,0.013090721,-0.009056577,-0.32129365,0.06319709,-0.023872524,0.1761357,-0.10204318,0.05960771,-0.11413517,0.24718937,0.053376455,-0.03576476,0.017886734,-0.038504712,-0.10590278,-0.19805883,0.044197477,-0.056582358,0.093614474,0.089313276,0.024810398,0.35848722,0.26544163,0.16741756,0.026542041,-0.12910298,0.15858674,-0.041215178,-0.29667565,0.028301075,-0.3459987,-0.14472884,-0.0848709,0.120597176,0.0728949,0.08119449,-0.10879725,-0.15875863,-0.09765008,0.06317854,0.15860438,0.17591429,0.29841727,0.08449782,0.020065313,0.05493327,-0.23125137,0.063895345,0.121947244,0.03161695,-0.121605776,-0.1186015,0.083420195,-0.33145788,-0.24693553,0.24441497,-0.17527916,-0.079833984,-0.09183036,0.012521164,0.060399838,-0.10240893,0.085019924,-0.14116332,-0.122595154,-0.10764397,-0.18366152,-0.20051718,0.086655855,0.29798466,0.034961186,0.06740751,-0.17189224,-0.13329242,-0.12587708,0.11351538,-0.08569274,0.121122904,-0.17563054,-0.1211384,0.14960824,-0.036972396,-0.088168025,-0.070821166,-0.06094534,0.14049296,-0.2849782,0.30502576,-0.041037627,-0.006524806,-0.028446082,-0.14524604,-0.08304914,0.2441374,-0.06723316,0.27863535,-0.20343927,0.2861068,0.24591167,-0.23285466,-0.070237495,0.19348712,-0.27143827,0.057764854,0.09689889,0.19579118,-0.16531692,-0.019607183,0.47134677,-0.3223177,0.12288937,0.22635184,0.10084244,0.47728407,0.19305885,-0.30211985,0.04135913,-0.1598407,-0.20207609,0.11160632,-0.09699012,-0.100372985,0.20965335,0.18337613,0.12398381,0.018345319,0.30509916,0.18915644,-0.14583965,0.0012749602,0.24872673,0.18772931,0.07152096,0.0023331381,-0.09383811,0.2610957,0.19775547,-0.074927256,-0.14775224,-0.13723156,0.1349931,-0.5346155,-0.23116282,0.08101792,-0.3330095,0.07968058,-0.28790173,-0.36251587,-0.11224766,-0.13820504,-0.24648558,0.12747823,-0.108574905,-0.051892146,0.300864,-0.18552522,-0.11079658,0.013949421,-0.28226635,0.31380466,0.025241211,0.21193136,-0.11292069,-0.21478307,-0.13926092,0.31844878,0.22479856,0.2771984,-0.1419695,0.057261746,0.2577121,-0.20893013,-0.055689856,-0.099580675,0.25404713,-0.089203164,0.28388843,0.172074,0.19915898,-0.0918177,-0.18145387,0.04889496,-0.22498387,0.20627064,-0.060134497,-0.023249427,-0.14037643,0.06490877,0.15325956,0.17646152,-0.2183515,-0.16224198,-0.1453436,0.023599368,-0.08593903,0.16067396,-0.12002757,0.1365083,-0.28611347,-0.06442283,0.3246137,-0.22019115,0.124237336,-0.30810067,0.120429285,-0.28014,-0.1171337,0.066302136,-0.15549116,-0.1509345,-0.021031829,-0.35349095,-0.12041843,-0.0880938,-0.01631861,0.095088206,0.0004454067,-0.14864591,0.30204305,0.05632433,0.1495932,0.0053398274,0.0034808533,-0.11262692,-0.36004004,0.21069686,0.18205424,-0.2196127,-0.4259762,0.30233446,0.074116,-0.20244971,0.08248983,0.036164407,0.040300224,0.07071461,0.07326695,-0.14094952,0.23278762,-0.022661233,-0.15331997,0.029093303,0.18891387,0.15328331,0.17605668,0.15357964,0.14829047,0.03399445,0.3161682,-0.066319235,-0.1520172,-0.030463293,-0.09656675,0.116590865,0.12400535,0.16546987,0.029948601,0.032239296,-0.098767415,-0.050985914,-0.35779527,0.06977542,-0.052958068,-0.02503765,0.31134313,0.1814616,0.16127911,0.08593321,0.19278727,-0.27353495,-0.017046308,-0.13361485,0.051482752,-0.09763602,0.1638656,-0.34371436,0.08441515,-0.13278592,0.09169836,-0.22620155,0.1148958,-0.042044308,-0.13762587,-0.20884754,0.1569258,0.019570481,0.10716017,-0.22659735,0.0151685905,-0.053553518,-0.12406333,0.12376954,0.12633869,0.035878923,-0.018936394,0.0025954247,-0.21807636,0.07318502,0.14485529,0.25233644,0.03712895,0.16107841,-0.17657386,0.015592188,0.12701339,0.1003934,0.12300928,0.2807748,0.2192198,0.12534815,0.27022198,-0.09119479,-0.10851109,-0.119364865,-0.06350188,0.11498503,0.19068976,0.12118242,0.18234673,-0.34867555,-0.13300756,-0.03147118,0.040147748,-0.10814505,-0.007707758,0.26826456,0.0014063971,-0.13477637,-0.16573547,-0.05005095,-0.13674407,0.020624004,-0.08345903,-0.063491926,-0.22371374,0.20773788,-0.12742433,0.17477188,-0.23988421,0.15495835,0.11786067,-0.073515415,-0.15559918,-0.08970487,0.061185636,-0.094254196,0.10922535,0.09500381,0.12820458,-0.21138255,0.087448396,0.20193028,0.22614585,-0.1586291,-0.17016755,-0.11608389,-0.13100035,0.1802362,-0.10034001,-0.25242627,0.13163877,-0.028637055,-0.26828873,0.10948109,-0.027733477,-0.14220466,-0.18723367,0.1441042,-0.25215682,-0.11440876,0.10800899,0.35316327,-0.1328754,0.006463112,0.26020098,-0.20909162,0.16160265,0.21969305,-0.41354737,-0.13721213,-0.24747181,-0.15217765,0.16368768,-0.109616086,-0.15672128,-0.060067214,-0.19203815,-0.14312924,-0.15959646,-0.20766439,-0.019647775,0.085126355,0.09928153,0.225015,0.39062828,0.16439265,-0.09362762,-0.067572534,-0.12363561,0.10541433,0.043795563,0.1395307,0.11507278,0.12847428,0.09848805,0.0890185,0.056394454,-0.091596216,0.2368144,0.096834905,-0.27210554,0.078330696,0.02331552,-0.12818204,-0.3771001,0.15841645,0.20333143,-0.17034546,0.042688757,0.13028106,0.19640212,-0.22043744,-0.06376218,0.17824696,0.11231389,0.1433746,0.17909175,0.30707636,-0.10943076,-0.03230416,-0.33605972,-0.020343116,0.28489995,-0.16857857,0.14044566,0.4072244,-0.27060428,-0.09916313,0.16439418,0.17352565,-0.25520584,-0.22362852,-0.22065446,0.16210593,0.19957455,0.04935982,0.102271825,-0.5224651,-0.22664583,-0.19389409,-0.11307447,0.16793022,-0.19765301,0.38688642,0.106660366,0.2906438,-0.23132807,0.12024744,0.047635265,0.021335373,-0.22654164,-0.20267247,-0.39389133,0.060161576,0.0048003597,0.2027561,-0.17787388,-0.094690666,-0.15397675,0.010462924,-0.40118912,0.1729799,0.16205943,-0.15364523,0.12609579,0.14368519,-0.25510773,-0.16422065,-0.38338917,0.15925936,0.18677136,-0.22269852,0.16288571,0.16413955,-0.1252838,0.27033556,0.24759153,0.08597246,-0.10937429,-0.12397192,0.057346597,0.12470578,-0.081161,0.06113992,0.06362591,-0.45112652,0.27996382,-0.10771679,0.027497387,0.024138786,-0.13333648,0.091103666,0.06897516,0.24082303,0.1568694,-0.08078688,0.09847691,-0.107388645,0.07287447,0.117277674,-0.39710894,-0.29313678,-0.08592878,0.31406277,-0.012133599,0.23139489,-0.1516474,0.17213356,0.046402592,-0.08348594,0.08730798,-0.09793753,-0.056234006,-0.16329724,-0.06874686,-0.097414866,0.15007257,0.055850133,-0.047172904,-0.13558878,0.11330728,0.037851464,0.1292064,0.14060335,0.06606421,0.1507124,0.15832749,-0.047812223,0.031535394,-0.036155943,0.11921457,-0.11722096,-0.10256475,-0.034594215,-0.16013227,-0.087202504,-0.15400642,0.091825105,-0.21920867,0.25287896,0.021537658,0.26338795,-0.11196759,0.18098338,0.10884517,-0.18748425,-0.33966818,0.23177958,-0.08787599,-0.045568492,-0.2341178,0.034135677,-0.2571844,-0.17723428,-0.26410785,-0.08073673,0.029701909,-0.24532728,-0.041378412,-0.09278039,0.11568656,-0.3078652,0.10710353,-0.10522832,-0.23218559,0.33189902,-0.15861128,0.36911222,-0.30552655,0.06591973,-0.12683651,-0.3061492,0.014755769,0.09383868,-0.33626345,0.2591395,-0.1927193,0.09308763,-0.020543685,0.080272675,0.08152253,-0.03692384,0.12992656,-0.14934765,0.23346479,-0.10518802,-0.05688671,0.3381775,0.3293094,0.03158599,-0.0138810435,0.14405344,-0.050697323,0.07819397,-0.08868839,0.1558728,-0.09419423,0.01924829,0.037148573,-0.13059902,-0.16415785,-0.18172246,0.19971257,0.019266227,-0.2871863,-0.024642361,0.21125849,-0.054016568,-0.11499316,-0.101556,-0.18266697,0.15203221,-0.14796126,-0.0717048,-0.25068122,0.033225473,-0.061807007,-0.02027459,-0.17668408,0.10676711,-0.04870401,0.10033314,-0.1454685,-0.043369167,-0.027660277,-0.33101413,0.19559212,-0.11555034,-0.121160455,0.060327463,-0.09224517,0.096096724,-0.17275901,0.31588218,-0.06968392,-0.15439829,-0.18067029,0.18544559,-0.24446133,0.05740944,-0.21648383,0.34706095,-0.23475227,0.17144848,0.012828813,-0.18814734,-0.11196108,0.06253184,-0.07725124,0.071850546,-0.056925133,0.32333902,0.23871452,0.016674468,0.03603037,0.22360784,0.0026533902,-0.10163947,0.052230448,0.17532839,-0.24147893,0.036197126,-0.09728447,0.31324324,0.18756701,-0.013248802,0.015200597,0.095686644,-0.058250412,-0.21829674,0.17751102,-0.22094147,-0.26872596,-0.07241533,0.07901304,-0.06643521,0.108668625,-0.13034402,0.2175031,-0.20983061,0.033725083,0.07704083,0.060980592,0.06048446,-0.081175685,0.12679286,0.08845967,-0.13603006,-0.056486785,0.15626541,-0.25837335,0.11429919,-0.042584546,-0.15109533,0.03676837,-0.124924354,0.07838762,-0.039078515,-0.19228698,0.20743683,-0.18818548,-0.17051224,0.25215116,-0.06306038,0.20948255,-0.15222296,0.02966919,-0.20693189,-0.14233147,0.28500423,-0.024232877,0.14366122,0.0014883224,0.15557852,0.18855809,-0.09056544,-0.1983392,-0.07777185,-0.027584216,-0.20567465,0.03830184,0.033542957,0.20088387,-0.08564874,-0.16714966,-0.17996414,-0.042717285,-0.0522527,-0.07812468,0.10725406,0.08445224,0.030124616,0.21114956,0.04274829,0.017618518,-0.1202468,0.049529895,-0.28177133,-0.13184252,-0.05491398,0.05073886,-0.12100829,-0.08029282,0.10967371,-0.050316386,0.13986953,-0.16734642,-0.013894428,-0.053373832,-0.27165678,0.05277752,-0.06961528,-0.09529423,-0.06669342,-0.100839846,-0.14737788,-0.16958553,0.22216195,0.0456469,0.10203097,0.0014588216,0.08126739,0.16943045,-0.056486987,-0.43957102,0.2998096,0.1569911,0.18146448,-0.03288013,0.0475181,0.116836816,0.13277277,-0.0075686183,-0.2701703,-0.078500345,0.008285732,0.12904592,-0.08095501,0.17497306,0.15069553,0.24320596,-0.041525654,-0.22638313,0.1767601,0.28241378,0.14197953,-0.052312557,-0.26826444,0.13585487,0.16844796,-0.09575672,0.00013750113,-0.08554498,0.062316418,0.051972385,-0.29023767,0.2005509,0.029461905,0.02717528,-0.23980413,0.07727196,-0.07261905,0.20217876,-0.053156916,0.18154521,-0.2499272,0.2152809,0.17799813,0.054844446,-0.11805172,-0.025937887,0.19810428,0.011403751,0.35876408,0.28923377,-0.00838722,0.020117626,-0.07381956,-0.1759852,-0.14604239,-0.27578872,-0.028340565,-0.0050323345,0.1527895,-0.20141439,0.22445974,-0.10708261,-0.1159816,0.19169639,-0.18325962,0.41715717,-0.16653563,0.17772575,-0.0551786,-0.11927947,-0.19397427,0.047064316,0.264955,-0.12707448,-0.12035465,0.21504173,-0.06544587,0.23891735,-0.12418867,-0.07523196,0.2572694,0.36812875,-0.13105258,-0.1776155,-0.18173268,0.23555022,0.07876018,0.17970222,0.061393347,-0.21231766,0.008552248,-0.23693618,0.037467137,0.18440375,0.03913768,-0.15713373,0.124889165,-0.19841532,-0.025213711,0.30349922,-0.00086842035,-0.23709089,0.20307119,0.29151934,-0.21240234,0.33684754,-0.004614158,0.2864564,-0.052701943,-0.2369172,0.08503279,0.24236348,-0.12863116,0.043092016,0.1055113,0.008768983,-0.21971947,-0.1730482,0.29049385,-0.3210335,-0.06440084,-0.1329262,0.096893735,-0.23694676,0.14117889,0.12625125,0.30274108,-0.055395722,-0.24515645,-0.14094001,-0.11147007,0.111463524,-0.17860998,-0.14528005,0.1559654,0.03505241,-0.06388492,0.18680283,-0.16353026,0.06841568,0.16268575,0.08066334,0.24917637,0.11840906,-0.04387167,0.17215736,-0.019688185,0.21233459,0.0051795254,0.029647164,-0.194471,0.26542062,-0.25245634,-0.17142521,-0.12225957,0.29682803,0.032477327,-0.13874635,0.13771966,0.24856316,-0.033430208,0.20286986,-0.25617394,-0.2802612,-0.07379781,-0.17037638,-0.05253995,-0.106658995,-0.04506579,0.061172,-0.07456605,0.06684189,0.38474372,-0.11994691,-0.0821771,0.32795614,0.13237506,0.1620613,0.12922548,-0.025814343,-0.14867948,-0.31278434,-0.03384451,-0.042304136,0.14195842,-0.25403658,-0.14017814,-0.07715185,0.26705533,-0.07141627,-0.14670162,0.067084335,0.028458197,-0.058235276,0.06849545,0.06666428,-0.016710851,-0.11818141,-0.02452727,0.036473304,-0.03147571,-0.1572963,0.16491216,-0.20122696,0.09986531,0.27369174,-0.2450526,0.014672503,0.11040299,0.27161452,-0.21505447,0.10864189,0.27129504,0.04475666,-0.21327423,0.09340415,0.23943053,0.15332833,0.12637839,0.104021594,0.23526277,0.0004931052,0.021743705,0.18939786,-0.2060673,0.18396862,0.13463606,0.2324269,0.41951177,0.2345914,-0.058684923,-0.29317412,-0.004303858,0.2886715,0.19632852,0.16478793,-0.11886383,-0.052445337,-0.20951632,-0.0046565924,0.2196467,-0.28622878,-0.06515412,-0.17912789,0.15192358,-0.19624493,0.18879077,0.1430789,-0.34971333,0.21951993,0.13526921,-0.27085826,-0.15821585,0.19502114,0.13606237,-0.06699078,0.11484925,0.12416439,-0.2095319,0.14509496,-0.41745508,0.07463176,-0.26095447,0.04385828,0.20783372,-0.06395723,0.07035826,-0.19150314,0.106919736,-0.16811533,0.0062461062,-0.30299866,0.10836639,0.08754083,-0.28302455,0.14264977,0.2030361,-0.032680366,-0.20162861,-0.11840663,0.08555337,-0.037955802,-0.13845207,0.05961275,0.19504973,-0.03888823,0.058032762,-0.06911559,0.10122476,0.037986543,-0.22497773,-0.058357753,-0.28400135,-0.093894646,-0.39448154,0.261946,0.12374098,-0.0561578,-0.016558234,0.14462365,-0.26319852,0.156104,0.43117285,-0.16028084,0.11060506,-0.09929413,-0.25910744,0.06657836,-0.1857314,-0.17177801,0.21012704,0.10737727,0.34623328,0.045386165,-0.33242542,0.26498535,-0.048489936,-0.019570265,-0.015137016,-0.3895394,-0.23511924,0.18774673,0.10816865,-0.09686171,0.07137457,-0.039434534,-0.1819682,-0.19811147,-0.14629762,0.0024254418,0.07384416,0.017580105,0.1439229,0.15922399,0.2168884,0.15984264,-0.19238995,0.22778109,-0.20595932,0.26635092,0.021298975,-0.16007876,0.1420052,0.16973945,-0.21772137,-0.10547082,0.121273346,0.12551217,0.18641317,-0.15657039,-0.28094935,0.32876527,0.22259861,-0.22516717,-0.12180213,0.29594183,-0.05367169,-0.06379767,0.03179621,0.25197423,-0.028350418,-0.064321384,-0.2698704,0.12752941,-0.30392197,0.08400882,0.3082228,-0.16002862,0.062187683,0.000102866645,-0.27446494,-0.07285925,0.115554094,0.20909502,0.4498689,-0.20719032,0.050867543,-0.12510462,0.10872638,-0.1729447,-0.101566836,-0.0075387238,0.18887933,-0.2755228,-0.32646012,0.14324473,0.077806704,0.21645573,0.043621864,-0.11016278,0.009184085,-0.045957346,-0.003977776,0.23635249,-0.26191375,0.3095006,-0.07248247,-0.15444346,0.26289082,0.16847469,-0.11875459,0.1603195,-0.13332321,0.049080104,-0.24914077,-0.049155958,0.12431708,0.19383796,-0.24940036,-0.055129137,-0.0022712697,0.054294657,-0.041430518,0.012403711,0.082848266,0.106556065,0.28994823,-0.076276734,-0.07228749,0.17293474,-0.035648853,0.06515966,0.16338465,0.04489837,-0.24065128,-0.00433802,-0.08710051,-0.081237555,0.13171984,-0.1856593,-0.19983213,0.06796395,-0.19329871,0.10793929,0.0656816,-0.14658879,0.26476544,-0.11320838,0.09423193,-0.04092335,-0.14437291,-0.045070816,0.19304305,0.20883518,-0.10969371,0.059727523,0.049590867,-0.21836084,0.32695204,-0.06259134,0.1970564,-0.1773688,-0.092926495,0.21366867,-0.20173813,-0.17464499,-0.25097775,-0.02334461,0.12316647,-0.06252618,-0.2431461,-0.1298477,0.15513127,-0.042762816,-0.05499539,-0.1654936,0.06485891,0.33257544,0.26823995,0.16121347,-0.17305495,0.18871678,0.17017138,-0.011860565,0.043269668,0.09639037,-0.0011592483,-0.23067266,-0.032500472,0.27137178,0.26002008,0.052263997,-0.23165202,0.26531962,0.17324065,-0.19318451,0.03544162,-0.13905658,-0.20248766,0.15831967,-0.054037455,-0.012743827,0.013877351,-0.27801925,-0.06802689,0.3165389,0.13458182,-0.17278197,-0.21790074,0.21266295,-0.068373896,0.26360056,-0.191198,-0.09835735,-0.11818491,-0.17520864,-0.10244766,-0.13238159,0.35618806,0.00754908,0.009247176,0.12134257,-0.111948065,-0.2769352,-0.18995751,-0.28967357,0.22901367,-0.3878444,0.0039237393,0.14067951,0.23539573,0.091096915,-0.14807884,-0.26112613,0.04996325,-0.050224062,0.10497685,-0.010897347,0.29591984,0.13276148,-0.103267886,0.13917497,-0.04303081,0.044072486,-0.02958601,-0.013341669,0.20101358,0.14634354,0.20537472,0.16040275,-0.09683732,0.060348675,0.08701923,-0.006816869,0.15647912,-0.3117306,0.1712237,0.080710374,-0.061078127,-0.05221239,0.15443328,0.1343771,0.116437115,-0.12217967,0.19716072,-0.017386537,-0.3343413,0.1517174,-0.089381196,-0.1301423,0.022361262,-0.04294821,-0.10146223,0.38933858,-0.041653585,-0.011087279,0.05073363,0.021440154,0.20908491,0.28559813,0.1037801,-0.12550096,0.011185292,0.25199324,0.05567364,-0.16462843,-0.16181189,0.012157637,-0.117025636,-0.25571162,0.046331402,0.118662484,0.14164317,0.028113445,-0.14395392,0.14370403,-0.24673562,0.19971839,0.09086545,-0.0020480857,-0.13516957,0.12989032,0.083748214,-0.19864358,0.21794458,0.251606,-0.27229506,0.07392988,0.0062005357,0.23972379,-0.008504551,-0.21792874,0.07813281,0.0026084199,-0.27533236,-0.31384155,-0.046434753,0.15862812,0.12114143,-0.16108415,-0.05039264,0.043210153,0.09802792,0.076281056,-0.11686074,0.18302228,-0.15965311,0.1269216,0.23580725,-0.09295005,0.26308924,0.17891634,0.019977037,0.033357654,-0.24272513,0.08193617,0.15082774,0.17644343,0.12501009,-0.15895489,-0.23986357,-0.008463916,-0.24113168,-0.01274047,-0.1367932,0.43692183,0.07724526,0.039558556,0.15536517,0.03536899,0.25974357,0.1566443,0.1936075,-0.101434775,-0.25251883,0.37079298,-0.13000363,-0.14718565,-0.1269294,-0.14966138,0.2852825,-0.17100032,-0.1856869,0.07027988,-0.2517962,-0.016282458,-0.31687787,-0.30321312,-0.08870058,0.22484572,0.29811588,0.33730316,-0.20570347,0.11487756,0.13005976,0.07118813,0.034050126,0.14473246,0.13099381,-0.26492378,-0.10710566,0.28862256,0.19623417,-0.0003002452,-0.06699897,0.004956312,-0.25622812,-0.27935705,-0.015181437,0.24164242,0.05812594,0.06260044,-0.20007011,-0.05594895,-0.1612842,0.16084424,0.240976,-0.12691648,-0.19166405,-0.06534493,-0.18156785,-0.009041411,0.05189587,-0.014762733,0.08456138,-0.14025806,0.14728777,0.030287635,-0.026203629,-0.0883054,0.024072535,0.085202254,-0.008750103,-0.21280074,-0.017134255,0.15416412,0.017961962,0.14357895,-0.11027238,-0.1890235,-0.026181305,0.1565156,0.23355445,-0.21819438,-0.12789051,0.004852118,0.08803629,-0.0067134877,-0.020014405,-0.011742689,-0.23094156,0.15184815,-0.07471965,0.063343175,0.14626276,0.092840806,-0.10580108,0.08043414,-0.20265119,0.059880096,0.058238193,0.22161728,0.1303442,0.12430991,-0.020632485,0.1527757,0.053619325,0.18331093,0.34983793,0.07287292,0.09742805,-0.0016376252,-0.015862618,0.17485878,0.18517236,-0.08396518,0.13078792,0.10248986,-0.17689236,-0.024498008,-0.28190383,-0.16976951,0.13144965,-0.20668069,-0.06511099,-0.08741012,0.017291434,-0.105516255,-0.013460504,0.17792585,-0.045327242,-0.039704386,-0.14535496,-0.13239542,-0.23202479,0.21575405,-0.11241929,-0.08390026,0.1669897,0.18183562,0.04989993,-0.09629646,0.11990275,-0.06067674,0.013707835,0.12905383,0.023545612,0.06888393,-0.051881265,-0.05338701,0.019760786,-0.11314355,0.07651473,0.20253395,-0.037682485,-0.14999872,-0.0821675,-0.13287683,0.015059232,-0.06295221,0.010863109,-0.16819002,-0.09953302,-0.04891377,-0.07488754,-0.008884136,0.06930588,0.044262644,-0.019586617,0.00980655,-0.16745217,-0.16172959,-0.41123173,-0.31928474,-0.10631777,-0.14407134,-0.03413298,0.2715983,0.012075877,-0.11711915,-0.27388954,-0.16819482,0.018677592,-0.04671983,0.40965524,0.32454175,-0.017124219,0.07506996,0.104529686,-0.12701517,-0.057089027,-0.28230804,0.09980422,0.018681975,0.1722854,-0.3410344,-0.24326743,0.1774778,0.12644306,-0.17410807,-0.08921953,-0.036785703,-0.2717019,0.16434178,0.19967364,-0.01694811,-0.054861777,0.20698377,0.12700365,-0.11202462,-0.03278622,-0.13250665,0.26502368,0.1213555,-0.12982617,0.101753645,0.037790168,0.07201259,-0.29403397,0.3260674,0.03626696,-0.06913795,0.099319495,0.12970082,0.08749304,0.0023411657,-0.15626183,0.12444891,-0.26567364,-0.1820231,0.043937057,-0.05137151,-0.1706065,-0.08904546,0.12317655,-0.22220476,0.021187054,-0.07697431,-0.26945013,-0.20808998,-0.08382258,0.009430594,0.181615,-0.13073306,0.11360884,-0.23762113,-0.19212157,-0.2931438,0.18734117,0.047221072,-0.0038680593,0.115275845,-0.07610442,0.082803,-0.03499647,0.1910959,0.0126599595,-0.10474162,0.27469563,-0.21898055,0.083102316,-0.12254929,0.14477246,0.100253366,-0.27783534,0.02526034,0.23887049,0.09644164,-0.087354794,-0.17517905,0.14718243,-0.19490692,0.16223782,0.12941185,-0.033078298,-0.16797525,-0.12468737,0.023570506,-0.12367181,0.15582313,-0.0408336,-0.04801772,0.023888826,0.089373074,0.3420571,0.25976944,0.021682821,0.16486719,-0.06742707,0.2709068,0.23762389,0.052425325,0.29961053,-0.055559173,-0.15949333,-0.09871881,-0.019602604,-0.22907348,-0.14773048,0.050281055,-0.3076659,-0.08353448,-0.00881489,0.17116828,-0.079134114,-0.17987987,0.04639411,0.011313243,0.020774094,-0.023536354,-0.021403458,0.00356486,0.22647811,0.03534436,0.09237112,0.2683917,-0.009826283,-0.21628144,-0.07916195,-0.10648226,-0.2609159,0.0703162,0.07592588,-0.24607149,0.060304403,0.13111009,0.010931884,-0.23944168,-0.15518166,-0.007618496,-0.10313299,0.08595636,-0.19676904,0.25707963,0.093061216,0.19209778,-0.17144163,-0.076080576,0.0034329817,-0.10008215,0.20797104,-0.21200117,0.06266536,0.30345827,0.04606743,0.001956121,0.05737686,0.34207666,-0.011698674,-0.20143138,0.14998627,0.08796661,-0.09084216,-0.07258272,0.068686776,0.10252794,0.026644733,-0.23529917,0.16339472,0.17334343,0.03250905,-0.13268507,-0.08223813,0.32703748,0.34996784,0.1976437,0.080659956,-0.0038869244,-0.3695277,0.033186622,0.19247095,0.00033883008,0.025517534,0.20760843,-0.011682396,-0.0026807385,0.042657968,-0.061331507,0.18499455,-0.30579633,-0.11664299,-0.3272101,-0.20482646,0.11830863,0.28656214,-0.07443341,-0.007657227,-0.059119154,0.058760475,-0.041037552,-0.122663766,0.17342633,0.14996141,-0.2751492,0.17870656,0.26989588,0.13274528,0.16492452,-0.048510935,-0.14776349,-0.15214331,0.02459292,-0.053394474,-0.15983388,-0.18374975,-0.110721044,0.18053846,0.063354306,0.25481522,-0.20999031,0.013831699,0.15291686,-0.33257192,0.19152096,0.16214685,-0.18425228,-0.0055162795,-0.15877524,-0.15228684,-0.039734248,0.21191315,0.26368424,0.20917664,-0.1687272,-0.06531843,0.07394172,0.22600864,-0.0024464629,0.27171162,-0.19672513,-0.07189877,0.13729905,-0.08200462,0.18299335,-0.029725082,0.1306971,0.16296254,0.0066774515,-0.044231277,0.12146686,-0.18029085,-0.3684765,-0.08489372,-0.15929963,-0.14707185,-0.066200405,0.24084587,0.08186703,0.20236316,0.137217,0.15546337,0.11657802,0.11892769,0.2705162,-0.14263467,0.12038625,-0.026591897,-0.21922553,0.07610468,-0.12006854,0.21850093,-0.074776135,0.12424517,0.41768897,-0.055284273,-0.04612307,-0.20448259,0.019872632,0.059627254,0.13918866,-0.045265727,-0.220257,-0.24807805,0.1275698,-0.003449697,-0.13341361,0.15829432,0.07848287,0.038869757,-0.062408432,0.0774458,0.070995115,0.085398294,0.014212988,-0.044522606,-0.06531687,-0.1768279,-0.28874207,0.05760215,0.22866341,-0.2504969,0.4242116,0.23711744,-0.052065555,0.29475582,0.04797845,-0.2283965,-0.3216952,0.2562544,-0.28691643,-0.09950586,0.15155841,0.05278109,0.07183771,-0.08850491,-0.12780342,0.06782333,-0.3084974,0.009949789,-0.20105526,-0.086874224,0.004276253,-0.15819357,0.13346913,-0.10770983,0.23049861,-0.07843524,0.11856118,-0.01552217,0.12589665,-0.0118958615,-0.0638947,0.13879342,0.067026936,0.17733143,0.10144597,-0.045945033,-0.20623006,0.12880868,-0.12470595,0.11178392,-0.18371302,0.07778953,-0.13102555,0.21424034,0.11331238,-0.026726965,-0.00042403833,-0.15460376,-0.1420283,-0.22307394,0.04555546,-0.07430868,-0.34940624,0.085743934,-0.21298318,0.17634906,-0.039103437,0.2008228,0.20993935,0.2927378,0.06360448,0.008742806,-0.008810891,0.01780907,0.23154376,-0.19952653,-0.027447447,0.05598779,-0.42500484,0.1098197,0.19323036,-0.34703484,-0.042761024,-0.359295,0.12032132,0.19037287,0.11377621,0.14942613,0.14680858,-0.10590221,-0.21692987,-0.21412314,-0.0324037,0.18499015,-0.19925697,0.25023937,-0.091588065,-0.11955491,-0.066110685,-0.21303107,-0.054634992,-0.102678746,0.27471495,0.018359983,-0.13625535,-0.18303591,0.04782833,-0.3019804,-0.28060514,-0.27570805,-0.32373828,0.38299373,0.2495154,0.569561,-0.11777838,0.044459123,-0.19990845,0.67220455,0.022116166,-0.15544915,-0.11759726,-0.19786368,0.25045526,-0.066996895,-0.050098702,-0.16121651,0.089794464,-0.016320366,-0.120085604,-0.07699886,0.0882072,0.10950306,0.45707902,0.047717404,0.23617923,-0.051276263,0.3320366,-0.00601016,-0.057818424,0.116193,0.19190425,-0.12501487,0.14051922,-0.19758952,0.1176743,-0.0017064995,-0.16727178,-0.20789734,0.118405804,-0.14198306,0.1700314,-0.037294205,-0.0045493967,0.09859713,0.01474492,-0.0061567826,-0.21930261,-0.1631693,0.2509688,0.30782092,0.08153896,0.14036244,0.040724933,0.032020222,-0.26688668,0.11643552,-0.2962909,-0.09695411,0.0914084,-0.18580684,0.10408996,0.0056571392,0.050634928,0.00052859506,0.1235394,0.05083425,0.0037047176,-0.11692518,0.11001414,-0.061979525,0.20634396,-0.0021233917,0.07057099,0.22354731,0.20695549,-0.06841998,0.031098811,0.03708202,-0.118990004,-0.3105769,-0.2295356,0.27319923,-0.08239426,-0.12497732,-0.19420081,-0.23153356,0.038052604,-0.18467708,0.09939218,0.12545428,0.04102317,-0.05363193,-0.0151002295,-0.07027053,-0.19431262,-0.014577658,0.13019267,-0.13203083,0.17633325,0.2430916,0.054792427,0.028933425,0.13777244,-0.1291011,0.13501564,0.39967558,0.18159382,-0.15370241,-0.0332442,0.008645097,-0.043797616,0.104822464,-0.15581769,0.051892955,0.23504782,0.1352877,-0.18719302,-0.25781396,0.176744,0.0930133,-0.117934026,-0.045386463,-0.015704429,-0.26642883,-0.0766697,-0.14384563,0.06397182,0.08616423,-0.12932187,0.06458843,-0.053693622,0.240406,-0.055695157,0.27355114,0.10111651,0.03972845,-0.10245657,-0.21596786,0.03944995,-0.16639444,0.1534352,0.12508115,-0.19744733,0.05541857,0.03359193,-0.066369124,-0.14964527,-0.07014874,0.11413985,-0.178291,0.0025852448,-0.14160332,0.2337623,-0.16953976,-0.01710702,0.17189677,-0.048838306,0.24633893,0.35184112,0.27191263,-0.09866986,0.11830064,-0.020713309,0.117942475,-0.15436207,0.3291736,-0.2271814,-0.10089481,0.10932626,0.16225888,-0.013083688,0.21893366,-0.21581304,0.08189594,0.38710654,0.20365247,0.3876231,0.14133444,0.11911153,-0.0057441033,0.076676264,-0.04135583,-0.21340369,0.09819749,0.21534729,-0.02966806,-0.008986863,0.024958944,-0.10267754,-0.18845762,-0.16751443,0.013597314,-0.15241939,-0.12233212,0.13015541,-0.2436256,0.12308001,-0.13099225,-0.25107938,-0.13201948,-0.28288415,-0.02457855,-0.15833394,0.3480556,0.053918794,0.19469628,0.19311176,-0.16565067,0.1420196,0.22718377,0.13929069,0.026716229,-0.12857516,0.13111967,-0.057910547,-0.49842525,-0.22804032,0.23739232,-0.29070824,-0.049041823,-2.8579176e-05,-0.11067354,0.10471422,0.15926498,-0.023950359,0.07365396,0.227288,-0.24047552,0.30926725,-0.15343194,0.31212968,0.29602823,0.3056186,0.23394655,0.120100744,-0.0863269,-0.038124744,0.009704379,-0.16654634,0.08540623,-0.1997323,-0.0020930509,-0.1021612,-0.16015275,0.019294197,-0.053735312,0.25732747,-0.09873561,-0.0937525,0.27305084,0.21622497,-0.34498733,0.19881244,-0.1248031,0.20816134,-0.116764426,0.012439272,-0.121098496,-0.1496256,0.092279576,-0.19515923,0.29772642,-0.14895609,-0.08702119,0.020637536,-0.19141501,-0.2790148,-0.055661514,0.16116416,-0.17896445,0.0284046,0.10905914,0.14474466,-0.2709509,0.08585343,0.037109207,0.22209395,-0.26300067,-0.14628747,0.054473408,0.052887183,0.19861491,0.23985472,0.21813509,-0.19522853,-0.12084906,0.12996894,-0.13419181,-0.068567865,-0.07433065,0.07244589,-0.2686543,-0.12076688,0.0016790021,0.009526769,0.0419832,-0.28848013,0.07535566,0.058621366,-0.19563429,0.03164069,-0.22192188,0.08291764,-0.23540007,-0.090766825,-0.019114034,-0.18760505,0.06777907,-0.2246438,0.037954204,-0.114895865,0.38681197,0.0559867,0.12824358,-0.35368255,-0.049482577,-0.08401498,0.33104134,-0.18495847,0.093451746,0.0053974083,0.0014249095,-0.07934277,-0.008590734,0.28279948,-0.095069595,-0.17989112,-0.120928206,-0.024072455,0.21515535,-0.047656585,-0.08960753,-0.14026266,-0.07410062,0.44235376,0.09054561,-0.20628509,-0.23887077,0.24109626,0.1685378,-0.32030296,0.0523479,0.14448908,-0.05160871,-0.14989588,-0.21805243,0.11824954,-0.4140307,0.18572351,-0.042453013,-0.06065109,0.1389348,0.20618512,-0.0021073706,-0.20716378,0.013704625,-0.073326305,-0.23677918,0.088765614,0.18407826,-0.022638723,-0.0023282364,-0.12774661,-0.039711807,-0.02123211,0.07937718,-0.38056436,-0.14633563,-0.115644015,0.007903518,0.028710388,-0.3006102,0.08909967,-0.03409345,0.0049162135,0.03850509,-0.23988648,0.20676145,0.09194174,-0.04358527,0.15693761,-0.049090404,0.24838579,0.0657671,-0.061331213,-0.034013566,-0.14739677,0.16400148,0.15935707,0.0012203585,-0.04941567,-0.16740756,0.26415762,-0.02959903,-0.068475306,0.13553227,0.24326225,-0.10208454,-0.06006171,0.08043719,-0.069676325,-0.2931067,-0.2853594,-0.03100478,0.13963597,-0.21433383,-0.042771902,0.08285786,0.09364062,0.13456728,0.05708586,-0.26310354,0.052962165,-0.0896598,0.018117445,0.0025706054,0.045949224,-0.06233018,-0.2110846,-0.06529291,0.15376252,-0.072743975,0.3003526,0.2011842,0.14885667,0.09383432,-0.11627535,-0.042445887,0.22097503,0.109668635,-0.2924412,0.12094232,0.07325404,0.14881319,0.047080554,-0.052908875,-0.068081975,0.07682316,-0.04923222,0.024845822,-0.37121,0.013263479,0.27978346,-0.12294492,0.30728632,0.016979277,0.22964212,0.18123816,0.12454773,-0.12834719,0.04933966,-0.1677391,0.10079529,0.03516886,0.07528257,-0.13095951,0.09088733,-0.11519439,-0.111542374,-0.19637321,-0.06505388,-0.18591878,-0.048012916,-0.09460357,0.0065246555,-0.03619072,0.10976926,-0.2189677,-0.045257967,0.0269709,-0.26727197,-0.13676414,0.13516046,0.100614265,0.060431402,-0.27512673,0.1055071,0.27718428,-0.09340305,0.135635,0.34391093,-0.13732256,-0.19915739,0.25976828,-0.08012107,0.23413882,-0.1084558,-0.16825624,0.18830648,-0.16699058,-0.023765,0.21753913,0.045338638,0.07469055,0.09624987,0.06556778,0.083758384,-0.13247779,0.32498103,-0.0006648223,-0.20257592,-0.08789259,-0.13086973,0.027742136,-0.2542539,0.17425272,0.3976196,-0.08725421,0.14851652,-0.12702973,0.142027,0.1652491,0.3657436,-0.10909288,-0.31506053,-0.2522527,0.17660373,-0.016159216,0.019010004,-0.30712926,-0.2959004,-0.019340808,-0.2411509,0.092869654,0.0009989499,0.18627465,-0.12439912,-0.08586101,0.19954953,0.17502442,-0.005405808,0.026739627,-0.08380182,-0.11416878,-0.09253554,-0.14673647,-0.0015708349,0.11026127,-0.34067553};
//shape = (128, 64)