float w4[640] = {0.4011567,-0.47714394,-0.41515628,0.28753635,-0.037738506,0.16689174,-0.13039196,-0.17598923,0.19621068,0.2996072,-0.61113155,0.25936374,0.48507035,-0.36104006,0.37639517,-0.41473952,0.3423127,0.37262225,-0.20617676,0.19408539,0.22979845,-0.2553733,0.36387962,-0.0066884174,0.19285719,-0.1917972,-0.50254345,0.379392,-0.44854116,0.13209614,-0.110301614,-0.4667002,-0.18350862,0.33250082,0.14843947,-0.4609415,-0.6889458,0.124151915,-0.036606703,0.35009342,-0.30330878,0.1692372,0.4444253,0.2621201,0.13437286,-0.5741721,-0.58741087,-0.14246339,-0.31948107,0.100512326,-0.43413958,0.40843907,0.06936546,0.12396839,-0.5345338,-0.053525604,-0.51374286,0.35928544,-0.41282552,-0.39372984,-0.06447819,-0.447853,0.2835563,0.35077032,0.3881257,0.26508096,-0.3651878,-0.3422195,0.39052534,-0.11165424,0.5253853,0.3220393,-0.3945622,-0.23774254,-0.41780138,0.21713972,-0.15277267,-0.10111325,0.2839705,0.048926376,0.39997917,0.014669694,0.44179854,-0.20643309,-0.5221706,-0.14657949,0.10704901,0.44682586,-0.3450302,-0.24652578,-0.43435293,0.23226997,-0.5414461,0.27499,-0.10553968,0.36305958,-0.46285397,-0.47169986,0.12755084,0.38220644,-0.26948854,-0.1928357,0.3045571,-0.029939048,-0.5665842,0.36956277,-0.4618108,0.26803198,0.010408328,0.31824937,-0.22663286,0.4238867,-0.48710912,-0.2519508,0.31085417,-0.23399095,-0.46052772,0.29306465,-0.35356256,0.3405466,-0.43307123,0.34738272,-0.21925692,0.39144203,0.4579297,-0.14628336,0.38839287,-0.4225778,-0.08316897,-0.50931025,0.23350145,0.45500994,0.43227848,-0.37090647,-0.34296754,-0.23845011,-0.42354882,-0.28341952,-0.197462,-0.36006802,0.45926848,0.43616167,-0.41398293,-0.4133443,-0.35254353,0.056417003,0.48306942,-0.48243335,0.48602003,-0.005570389,-0.19998884,-0.1767803,-0.28111523,0.27681118,-0.06368708,-0.3213016,0.22544342,-0.4948947,0.50461996,-0.50463545,-0.49988753,0.26424673,-0.078280695,-0.015116129,-0.5205022,-0.40562487,-0.62839484,0.11918283,0.065246336,0.23710811,-0.5589399,0.36959422,-0.5247625,0.044455435,-0.17737465,0.3001367,-0.3811347,0.39846092,0.36077818,-0.3669391,-0.057517402,0.2510487,0.24211009,0.22222447,-0.0022619553,0.28753355,-0.38725293,0.053726006,0.2948635,-0.504234,0.13944288,-0.21039423,0.37933043,0.1198762,-0.41739154,0.23094793,-0.20590301,-0.41493365,0.26938465,0.04080258,0.3933794,0.377863,0.27651277,0.40277436,-0.42812115,-0.21622962,-0.3331657,-0.32775247,-0.38502362,-0.15636307,0.18054569,-0.59523374,0.19843401,0.33655834,-0.46340007,-0.4989961,-0.42506155,0.23606592,0.100805655,0.3768309,0.46231064,0.042409405,-0.4632114,-0.35291344,0.34799713,-0.53798974,-0.4752829,0.11630127,-0.15945566,0.3733739,0.3108719,0.3883266,0.35511932,0.15267321,-0.15495084,-0.33453405,0.13692963,0.4649594,-0.45951626,-0.38164186,0.3301288,-0.13259305,0.018292543,-0.46759275,-0.29938602,0.3299106,0.3246779,0.33050004,0.31843126,-0.35070372,0.3588338,-0.2707342,0.40190318,-0.14423393,0.37974063,0.32371017,-0.28875488,-0.09035707,-0.3281076,-0.030225534,-0.54064107,-0.3982319,-0.2630695,0.17347777,0.4154228,0.17292769,-0.39638674,0.34828612,0.2468397,0.015496684,0.38130328,0.35319245,0.050512865,0.027841404,-0.53290683,0.36308518,0.36720684,-0.5554928,-0.30527276,-0.24215856,-0.20162238,-0.33587646,-0.51167125,0.2775131,-0.31692594,0.22580296,0.4578281,-0.080016695,0.38022766,0.23299272,0.2113935,-0.39182362,0.27795473,-0.07166006,0.053543583,0.2736458,0.12508646,-0.5589,-0.21428064,0.2668627,-0.09402913,0.27155763,-0.55074924,0.32590953,0.10767327,-0.3884791,-0.5865848,-0.03547354,-0.33064106,0.3838599,-0.45447809,0.12600327,0.36497745,0.20820948,-0.25520247,-0.53970754,-0.49263197,0.0884351,0.21602623,-0.4200732,-0.6306442,-0.36017382,0.13977456,0.31044406,0.32239968,0.3870526,0.40165898,0.29051965,-0.67515916,0.19046424,-0.37331814,0.3791019,-0.5255548,-0.54197544,0.0739919,0.27222636,-0.50553775,0.3661259,-0.19219567,0.31769106,0.23281127,-0.27638072,-0.37686297,-0.024960201,0.3395071,-0.065267816,0.39859223,0.33535123,-0.44250125,-0.32795003,-0.67939895,0.31412196,-0.27707893,-0.2905685,0.30040482,-0.08924734,-0.45929745,0.26199406,-0.32872906,-0.19708781,0.09879178,-0.45248893,0.0022963493,-0.017793419,-0.348524,-0.559774,0.2646106,0.36303738,-0.006554353,-0.46044123,0.34847775,0.27207696,-0.3824247,0.26963097,-0.12780158,0.44086367,-0.44148368,0.3950691,-0.2657251,-0.34051496,0.30105945,-0.44436598,0.25079843,-0.29817122,0.3199005,-0.23564589,0.23059878,-0.5023828,0.21041544,-0.14826044,-0.3330581,-0.29328308,0.17119284,-0.3425451,0.25781214,0.32760382,-0.27705753,-0.148887,0.31839192,0.12243882,-0.3436021,0.3755702,0.3191574,-0.41641197,0.060512736,-0.0776049,0.1464866,-0.3862116,0.30320626,0.22390132,0.46371934,-0.35015237,-0.35121122,0.30905628,0.31480893,-0.51413476,-0.26098546,0.2694973,-0.0617099,-0.4141007,0.13206694,0.49012,0.12355401,0.1821956,-0.3951969,-0.23092142,0.39803517,-0.24705513,-0.24228553,-0.57708174,0.30419984,-0.10731487,-0.34742028,-0.451425,0.46918982,0.07237,-0.3873902,0.3328905,0.16851327,-0.31431782,0.11081974,0.049589742,0.28490257,-0.46131974,0.29698253,-0.3157957,0.3842998,-0.6257288,0.31417027,0.19723113,-0.58110857,0.2800871,-0.32933304,-0.19068812,0.3354411,0.34978333,0.36754677,0.097147614,0.24136156,0.16604298,0.16999373,-0.59198624,-0.43318483,-0.18986686,0.21143483,-0.54916346,0.23172218,0.33537096,0.056387305,0.28275555,0.29207152,-0.55753046,-0.18434079,-0.37290338,0.33200738,0.27944922,0.41767138,0.23681828,0.13784638,-0.14263542,-0.5409994,-0.37082744,0.0644688,0.23439634,-0.3722965,-0.22747095,-0.430075,0.089396864,0.17609975,0.24157745,-0.42717868,0.35851696,-0.47439858,-0.42564687,-0.0016774571,-0.49049845,0.21308033,-0.07983509,0.31089666,0.26945105,0.27739662,-0.45616627,0.11669948,0.3469624,-0.5520884,0.1421363,0.041676614,-0.010666179,0.24663231,-0.49361262,0.2645978,-0.6219835,-0.48809665,0.31076786,-0.23339634,0.3744686,0.14682436,-0.24209386,-0.6043473,0.37600994,-0.28476197,0.14795743,-0.3492998,0.33982205,0.4286942,0.50153303,0.39851582,-0.19264312,-0.36163163,-0.10429832,-0.14358167,0.3885803,0.03881037,0.37633854,-0.54618466,0.35812256,-0.1635615,-0.43041193,0.22838302,-0.27217248,0.42450163,-0.18597183,0.21630871,-0.37322193,-0.2564301,-0.42272547,-0.25510702,0.41947082,-0.06837733,-0.00470291,0.1447138,-0.28372547,-0.29368356,0.098426834,-0.4661171,0.32144207,-0.25140315,-0.43315816,0.42777714,-0.15098038,-0.5154721,-0.3539286,0.33357117,0.29032356,-0.41265604,0.39881104,0.436913,-0.23719677,-0.42879438,-0.123847805,0.23381403,0.36395591,0.24550542,0.2617085,-0.1158145,-0.27844578,0.12317915,-0.2857006,0.08952645,-0.59397894,-0.23068504,-0.50295925,0.16342705,-0.30015177,-0.32730758,0.22532715,0.25873432,-0.081391,-0.14633387,0.31275308,0.45912978,-0.30628726,-0.062069558,-0.4908795,0.33578405,-0.36852527,0.23588507,-0.31498545,-0.47903952,0.37476927,-0.20409952,0.13851473,-0.051420607,-0.49266976,0.35067835,0.022183383,0.32303315,-0.28634977,-0.19635414,-0.013401712,-0.18426219,0.14341792,0.34234598,-0.44575197,0.26363593,-0.18066214,0.33793622,-0.11629741,0.39972207,-0.2853528,-0.6532126,0.059330102,0.009150065,0.22662118,-0.25177237,-0.24384901,-0.71595716,0.20120578,0.10017933,0.23231098,0.27565494,0.3081212,-0.3470879,-0.15942772,0.12045893,0.45472497,0.2154087,-0.6594835,-0.38203457,0.24633133};
//shape = (64, 10)