float w4[640] = {-0.12174592,-0.16208497,-0.06153502,0.14213915,-0.2182361,0.063162744,-0.16780372,0.05830105,-0.2060829,-0.25862077,-0.027566994,-0.094805434,0.06182033,0.044616584,0.13782857,0.066316165,0.25782183,-0.28865835,-0.09206787,-0.20311219,-0.17663293,0.33400178,0.24774955,0.05750139,-0.25919977,0.037080273,-0.26475343,-0.04607748,-0.07485679,0.088017896,-0.09694085,-0.2092274,-0.1257657,0.2624876,-0.08440072,-0.13591048,-0.14583902,-0.11617107,0.20224677,0.18483548,-0.18914069,0.18176003,0.23909941,-0.074990466,0.045402437,-0.14009191,0.037844382,-0.008573924,-0.17092563,-0.35390714,-0.01205551,-0.40645903,-0.21604992,-0.40702522,0.29915106,-0.3115472,-0.26799363,-0.17727248,0.0213818,-0.09239898,0.3441786,-0.14509757,-0.190021,0.066289894,-0.27935565,0.16942285,-0.111230835,0.053049438,0.20496677,0.20729151,-0.10168261,-0.389516,0.1110832,0.26725188,-0.3329248,0.1579006,-0.1551771,-0.165562,0.05587985,0.155867,-0.26173005,0.15727875,-0.21871665,-0.20146412,-0.23289236,0.24192211,-0.28619248,0.064793736,-0.044191696,-0.09856746,0.2142691,-0.14514643,0.1174846,0.0173498,0.10592357,0.031287566,0.26166344,0.01926311,0.32134774,-0.08186536,-0.3366388,0.28427625,0.14610802,-0.20067976,-0.0037479508,0.20355769,-0.16058595,-0.2095797,0.013539916,0.22488582,-0.08719218,-0.19114318,0.017781453,-0.108881235,0.00093658775,0.23375666,0.016366977,0.15081848,0.23300332,0.17626244,-0.3350916,0.16926236,0.16254953,-0.23395856,-0.30297473,0.2295788,-0.03158331,-0.03997323,0.03751077,-0.13478842,-0.30757573,0.048762742,-0.20694602,-0.042902343,0.11248484,0.0020249626,-0.2695487,0.376724,-0.22859053,-0.26810592,-0.2624639,0.113452815,-0.0837698,-0.0965943,0.29192787,-0.014204462,0.016870668,-0.2541577,0.14634918,0.043588,0.04283498,-0.2911167,0.020013703,0.03254714,-0.41014427,0.04841304,0.053184412,0.12372065,-0.045963645,-0.18321562,0.038663037,-0.2945128,0.15153348,-0.2649278,0.2547518,0.09654249,0.2473818,-0.07497973,0.1680726,0.09187657,0.34770796,0.020119773,0.15081869,-0.1381827,0.13882552,-0.113349274,-0.3627947,0.03811995,0.35847786,-0.056411546,0.13018015,0.120305866,-0.35904077,0.04430326,0.10796247,-0.07727452,-0.29184636,0.08738187,-0.113638885,0.21462582,0.17176156,0.08921376,0.09655581,-0.09442704,-0.04175392,0.04043413,0.30686888,-0.014840237,-0.25172752,-0.29666507,-0.15234123,0.02334835,0.013161974,0.0007990349,-0.01548465,-0.025381658,0.17388213,-0.27053785,0.26197323,-0.22234862,-0.21976583,0.16314004,-0.10116239,0.058485553,-0.055173434,0.06225048,-0.3885999,-0.41091853,0.06583984,-0.025088983,-0.3445492,0.38713905,-0.13879728,-0.2594215,0.032550797,-0.11729681,-0.16210313,-0.3605623,-0.042945378,-0.20486332,-0.27193448,0.19194986,-0.16185383,-0.14253053,-0.259184,-0.13296229,-0.039545193,-0.2459731,-0.30391845,-0.17222531,0.31470057,-0.10956462,0.11594175,-0.2745133,0.17430592,-0.22041628,0.21680613,-0.3720096,0.23049442,-0.086563185,-0.26647365,0.0470482,-0.050376225,0.043306805,-0.19780487,-0.15505913,0.3175591,-0.12397299,0.13631284,0.21383755,-0.22433123,-0.10205068,0.27313304,-0.087432645,-0.21143015,-0.2980851,-0.3458284,0.18531223,-0.15927386,0.12219769,-0.43381652,0.3295452,-0.018489983,-0.07865247,0.1818843,-0.29754552,-0.24743906,-0.24265805,-0.18246059,0.23508725,0.10902039,0.13963296,-0.18717158,0.2701675,0.23144326,0.065308556,-0.24195032,0.107094176,-0.33678824,-0.045235626,-0.24774641,-0.14104967,-0.42574865,-0.27541173,0.0034798444,0.21158993,-0.26948538,-0.040303156,0.05090752,0.20040518,0.1459838,-0.0009160612,-0.24409467,-0.25081742,0.20557389,-0.21108712,-0.23780061,0.02812068,-0.1236642,0.3120707,-0.2471756,0.13960491,-0.120560594,-0.20795687,0.018580263,-0.18247114,-0.2714909,0.12101962,0.15095192,0.2577741,-0.13714083,0.063220166,-0.2987672,-0.23725821,-0.37975773,0.086427756,0.0015643969,-0.025014708,0.044784077,-0.1699259,-0.11521813,-0.3373789,0.11550143,0.27141497,-0.097736694,0.1326646,-0.08793078,0.25312626,0.031537317,-0.09766688,-0.43139964,-0.24770734,0.0725127,-0.022977363,0.12725024,0.16876245,-0.056769513,0.2921819,-0.32876754,-0.17220359,-0.15943202,0.18428941,0.16804637,0.09468127,-0.052575964,0.06364019,0.040138658,-0.19887519,-0.10815067,-0.262166,-0.30888462,-0.06734922,-0.11440749,0.028882196,-0.13900572,-0.15255359,0.07262295,0.17231518,-0.1402631,0.23151723,0.25955442,0.12357263,-0.12200389,-0.1556334,0.017512694,-0.23324692,0.22317956,0.024219645,0.1982934,-0.28451645,-0.28435385,-0.11446142,0.14585638,-0.023460621,-0.23769604,-0.40676853,-0.3511002,0.14037058,0.12860543,-0.07981295,0.17752022,0.36859325,-0.032798517,-0.25348914,-0.18974525,0.08931491,0.045916583,-5.7325393e-05,0.11228074,-0.3944341,-0.1831714,-0.2318453,-0.04457244,0.07933631,0.08872416,0.3309218,0.077488296,-0.23135157,-0.16054577,0.0089453105,0.10017156,0.12313917,0.2949243,-0.22082408,0.13445516,0.08887283,-0.269782,0.19805872,-0.2747751,0.042603597,-0.2783419,-0.15800306,-0.088040255,-0.17728697,0.20456576,0.104777366,0.1959364,0.044376116,-0.10255446,-0.20533186,-0.12758817,-0.15008673,0.29547212,0.14423278,-0.14314033,0.13288927,-0.19353534,-0.043574154,-0.26378295,-0.0688939,-0.28269583,-0.15237895,0.09318473,0.2656578,-0.1647384,-0.028776836,0.11535275,0.20319234,0.14539188,-0.13380328,-0.08296983,-0.34405175,0.0044597075,0.21453255,-0.15986866,0.14474882,-0.14626166,-0.05804509,-0.17147975,-0.21259269,0.32763925,-0.4516518,-0.11776429,-0.053908948,0.021166155,-0.14440198,0.26550406,0.2560709,-0.35594505,0.15760197,-0.31911317,0.25072402,-0.23944174,-0.30147067,0.11499913,0.08935574,0.02106214,-0.22220846,-0.13221382,0.118715145,0.124123074,0.035409696,-0.033784695,0.20416579,-0.009043474,0.09930926,0.08545478,-0.4669828,-0.15078697,-0.20790835,-0.027291253,0.191916,0.12985979,0.18966171,-0.22501533,0.049457632,0.0270497,-0.23124321,0.22329018,0.037009258,-0.32264695,0.38172683,-0.20167603,0.26350534,-0.21014716,-0.34550002,-0.29174152,0.27521095,0.17608172,0.1405746,0.3222843,-0.13855131,0.2712955,-0.06513864,-0.19572654,-0.15112099,-0.11513013,0.14430846,-0.20000102,-0.08686402,-0.35186526,0.39943764,0.14505728,0.03971797,0.2120357,-0.15569356,0.10425501,-0.2380899,0.13689654,-0.2811617,-0.0013099476,0.022563871,-0.2715671,-0.27445933,-0.09710213,0.3060756,0.27981293,-0.33173555,-0.13408427,0.12165433,0.19395146,0.3219516,0.13596179,-0.20830256,-0.26086792,0.18251744,-0.22895412,-0.045460496,0.21635813,0.007939863,0.21955559,-0.31283826,-0.10437831,0.27366394,0.07492305,0.1316969,-0.26587695,-0.034357928,0.24648522,0.13323659,-0.7347254,0.33883378,-0.2272585,-0.31389743,-0.12032462,-0.07085392,0.119014286,0.17628242,-0.27384835,0.2094299,-0.08638004,-0.114228226,-0.28934735,0.21262278,0.19108804,-0.33987284,-0.14914376,0.26372385,0.05070924,0.14143804,-0.19681835,0.0761088,0.018037163,-0.41136807,-0.17500678,-0.16064084,-0.28948435,0.015221799,-0.33093834,-0.17766728,0.031515058,-0.08934591,-0.2401422,-0.09905387,0.09821664,0.15281217,-0.11875428,-0.14418449,0.013841552,-0.29422924,-0.031381037,-0.06816135,0.114690445,-0.09664221,0.01233896,-0.2518495,0.2485216,0.35084367,0.009037402,-0.16496979,-0.08221632,-0.39140356,0.26291728,-0.11767333,0.32084844,-0.2725896,-0.23771167,-0.1580423,-0.23662576,0.26110473,0.24632484,-0.43316883,-0.0033300668,-0.28078738,-0.19822656,0.27217028,-0.02732359,0.23586047,-0.26939595,0.26869068,0.10350361,0.24765751,0.023106115,-0.0696271,0.018203216,-0.25451636,-0.3196039,0.12788288,0.013709958,-0.29297453};
//shape = (64, 10)