float w1[100][32] = {{-0.11080716,0.21534547,0.050114024,-0.056819104,0.039062187,-0.06701922,0.1287573,-0.2960259,-0.20263022,0.033409655,-0.16403249,0.054929055,-0.16551407,-0.10077074,-0.15088853,-0.0033855028,0.015408072,0.08166921,-0.008793355,-0.054776087,-0.014678457,0.06161012,-0.16209964,-0.16063581,-0.05661311,0.060084,-0.07681148,0.15560117,-0.123834215,-0.18832132,0.040132303,0.029937534}, 
{-0.12834547,-0.0062644198,0.11171763,-0.016738884,-0.015652541,-0.06774478,-0.14103681,-0.13647413,-0.049080078,0.19654687,-0.2041686,-0.0419252,-0.095217556,0.039341502,0.2725727,-0.027178556,-0.022074485,0.07492465,0.10030661,0.039874073,0.023419715,-0.0723738,-0.054897346,0.059392624,-0.13066258,-0.03949887,0.019413007,-0.101267055,0.05500439,0.16506538,-0.023884963,-0.07737491}, 
{-0.115201175,-0.026155846,-0.04587506,0.0111112,-0.06247832,0.051698014,-0.13666333,0.10597904,0.15604095,0.061642677,0.0030369456,-0.21442245,0.0963053,-0.12626672,-0.0915895,0.028549602,-0.07237442,-0.07426645,0.07285033,-0.10838411,0.11666862,-0.007766049,0.05640266,-0.09598268,-0.06764343,-0.13268861,-0.035021286,-0.12931879,0.15041988,0.026236659,0.0075565446,-0.09481031}, 
{0.06752613,0.08351589,-0.11046351,0.061072342,-0.084530234,0.24938737,0.12262416,0.035035755,0.058446616,0.116900034,-0.1456719,-0.08343773,0.064339824,-0.08424361,-0.12727275,0.19232479,-0.041594528,-0.098891295,0.0066725984,-0.07988025,0.0054729087,0.24039635,-0.22819579,0.004917905,-0.1716078,-0.019914743,-0.017215598,-0.06285856,-0.17766614,0.08125763,-0.06032228,-0.017297994}, 
{0.004939529,-0.08543477,-0.076932676,-0.079823606,0.10144756,-0.19267681,-0.023355365,0.1074181,-0.01555622,-0.13103755,-0.057005867,-0.116846114,-0.057080492,0.023208538,0.1061357,0.17745617,-0.14482653,0.2278431,0.0924537,0.0390894,-0.043613605,-0.19198444,0.07013173,-0.09659323,0.0075235753,-0.080313824,-0.09619483,-0.21414328,-0.108596906,-0.055165574,0.013462478,-0.12703745}, 
{-0.07672048,-0.1592654,0.17661522,-0.2932014,-0.021224055,0.035455037,-0.15459397,0.14635713,0.07447661,0.0033931418,-0.08253672,-0.06871754,-0.16077535,-0.078795955,-0.050434288,-0.020614121,-0.22452156,0.16152008,0.061527397,0.07750185,0.19919464,-0.10221976,0.18042144,0.08690034,-0.17516826,-0.1730527,0.18014656,0.029119043,0.020103145,0.072510585,-0.024013624,-0.13544865}, 
{-0.112048775,-0.030857505,-0.027316406,-0.0034356725,-0.11475224,0.17641518,0.13586408,0.05094398,0.1205763,0.070385486,0.16573529,-0.21973276,0.059213165,0.11059283,-0.049348187,0.19162405,-0.11099807,0.37908536,-0.07133938,0.14555578,0.15564778,-0.0867871,0.12337468,0.15109919,-0.06870865,-0.017431235,0.052388743,-0.06572151,-0.16914207,-0.205758,-0.15460514,-0.05518586}, 
{0.00132233,0.03985543,0.21894655,-0.09450271,0.0373615,0.02486815,0.053641945,-0.043374375,0.008808525,0.031503476,0.10952815,-0.17949162,0.111614734,-0.012050726,-0.05341124,0.046457842,0.07122727,-0.17825894,-0.014666852,0.19021577,-0.31290728,-0.057338353,0.024391575,-0.08807394,-0.13271166,-0.053438082,0.11753354,0.15959734,-0.03222372,-0.016878499,-0.037983477,0.1308961}, 
{-0.05440485,0.040926516,0.016812129,-0.049205035,-0.15056364,-0.021405462,0.007119185,-0.094508864,0.1686231,-0.0094534485,0.25182593,0.013237175,-0.07355312,0.2828837,0.10063265,-0.04566382,0.05126722,0.003547612,0.036860302,-0.051443942,-0.06971234,0.07368514,-0.03525661,-0.17365843,-0.09051524,0.09226583,-0.06524743,0.08771725,0.015469118,-0.06820862,-0.058784813,0.07451487}, 
{0.11983231,0.22654596,0.04734255,0.16211338,-0.16014068,0.11888322,0.09009353,0.031102458,-0.105530836,-0.013905097,0.10371274,-0.12395619,-0.08186749,-0.14280634,0.14325964,0.14264499,-0.045988962,-0.18419357,0.18682306,0.010321483,0.14494962,-0.094380476,-0.03744208,-0.0051174024,-0.041790195,-0.10448663,0.18344681,-0.0130557045,-0.07621993,-0.047440425,0.009552404,0.2828737}, 
{-0.060115587,0.11297126,-0.0040677898,-0.23077516,-0.11722287,0.07245558,-0.088182144,0.19713297,0.15559229,0.030631678,0.1642543,-0.30430397,0.11458191,0.15889534,0.048310116,0.1224289,-0.16831867,0.095922895,0.08202039,-0.19407766,0.25761983,0.10525394,-0.026939025,-0.10238091,-0.026276609,0.039481856,0.07623953,0.06592266,0.13159093,0.19349197,-0.041435428,0.1502254}, 
{0.04631433,0.18489192,0.024809413,-0.29027277,-0.04505943,0.06383895,0.021632304,-0.015513534,-0.062446278,0.0022101463,-0.0066511324,0.20471205,0.06089705,-0.25949052,0.091901004,-0.03881782,0.029024146,-0.07829373,0.14967854,-0.1965197,0.16778752,-0.008672882,0.15994899,-0.18843256,0.068637855,-0.19048008,0.07886166,0.16855021,-0.028071797,0.1252861,-0.22029135,0.10463902}, 
{0.015673863,-0.04332395,-0.12671937,0.026051447,-0.13198732,0.12885363,-0.007729693,-0.10591969,0.07824564,0.10049101,-0.2186952,0.09225898,0.09745533,-0.10630729,-0.039631356,-0.030097704,0.14187108,-0.06492158,0.1553605,0.20100486,-0.03403358,0.094604775,0.09670239,0.17396691,-0.10109897,0.024736075,0.09388621,-0.25268582,0.04798228,-0.22460714,0.123602405,0.036840126}, 
{-0.009419912,0.015153346,-0.07360453,0.06792607,-0.04087155,-0.040484216,-0.15467177,0.08058892,0.06795146,-0.07344659,-0.1627167,0.07223688,0.036230277,0.277159,-0.028289946,-0.14834517,0.07342245,-0.0034104218,-0.01784249,-0.043250483,0.014736411,0.06217643,-0.2001094,0.16932593,-0.13335069,-0.043057796,-0.13466088,-0.05744465,0.018521674,-0.1978503,0.1478056,-0.08297226}, 
{-0.1535988,0.06079531,-0.15726301,-0.25209153,0.07523754,0.014169395,-0.009919349,0.23083594,0.06672309,-0.085485935,0.03421255,0.09149223,-0.18592493,-0.039070815,-0.25075793,-0.19183248,-0.021955479,0.023415219,-0.031461682,-0.11369934,-0.05131897,0.17559431,-0.08577045,-0.12798744,-0.13519819,0.08225925,-0.09058693,0.06933812,-0.22373295,0.02469687,0.049040828,0.08418226}, 
{-0.14605664,-0.07357063,0.12571639,0.03209113,0.19650646,-0.04745279,-0.0060713296,-0.044262663,0.014019554,0.14765194,-0.12823056,-0.27703348,-0.08865329,0.009778654,0.012808276,0.08879449,-0.090725,0.17172906,-0.050615814,-0.067280665,0.08507103,-0.023428876,0.068162695,-0.14503975,-0.20425716,0.057112705,-0.1412279,0.1942456,-0.053965855,0.050991654,-0.04668899,-0.12857199}, 
{-0.18890779,-0.064444534,-0.056672227,0.26061335,-0.087420866,-0.009458993,0.012865285,0.16686712,-0.042743802,-0.19053541,0.12619063,0.13066971,0.16981192,0.2404936,0.04184605,-0.07871315,-0.17697325,0.050329838,0.11314481,0.11768897,-0.0126987565,-0.0984762,0.11384639,-0.04747829,0.12546319,0.102054216,-0.03824156,-0.22792707,-0.080502,0.076820455,0.076755404,-0.21051565}, 
{-0.046785913,0.17232025,0.22918302,0.10821614,0.012064341,0.11937751,0.17227638,-0.00916207,0.09096633,-0.113931276,-0.10973723,0.070917994,0.1942269,0.07998572,-0.078135505,0.08920041,-0.10437099,-0.0779202,0.056267332,-0.17727767,0.1993875,-0.005653603,0.18618691,-0.14175689,0.13041694,-0.10609114,0.061458368,0.14881057,-0.014974436,-0.14033963,0.1680329,-0.13532136}, 
{0.038364917,-0.15921012,0.01355824,0.038237646,-0.08854991,0.0037408029,-0.10114999,0.16499972,0.14779818,-0.16494092,-0.04930466,0.013980413,0.040685516,-0.22349012,-0.18029566,-0.24694493,-0.11999936,0.0016841996,-0.13845436,0.0041983793,0.14509097,-0.025786774,0.09739718,-0.2617483,-0.09782661,0.12445075,-0.12898113,-0.06280401,-0.1458459,0.14615098,-0.042319026,0.13848063}, 
{0.12930928,-0.06763788,0.29567918,-0.098525696,-0.21651252,-0.038235873,0.21241897,-0.02553777,-0.09763153,-0.089387275,-0.087109946,0.07507405,0.18873486,-0.2591436,-0.1320352,-0.1474382,-0.057777286,-0.19945689,-0.090639904,-0.16935286,0.02132634,0.04966193,-0.09389903,-0.16446956,0.023037465,-0.13958669,0.021063574,0.04740897,0.019644208,0.033138704,-0.06331035,-0.24408908}, 
{-0.16249517,0.06385471,0.083824664,-0.11094576,0.06506141,0.0707313,0.020805277,-0.02224618,0.07223922,0.0009876874,-0.23402368,-0.06718467,0.030588446,-0.18134105,0.056085642,-0.06708808,-0.2147961,0.18693829,-0.02315642,0.28785,0.015827527,-0.10232986,0.017950164,0.19578542,0.19659641,-0.16397808,0.115564235,-0.08508222,-0.017031565,-0.18276761,-0.04719942,0.073023945}, 
{0.0963519,-0.10804431,-0.039997112,-0.06337759,0.18311474,0.16108033,0.25242686,0.04936597,-0.084610194,0.132868,0.11076755,0.22682558,0.07958635,-0.038439255,0.2841611,0.0737136,-0.08499842,0.10857057,0.059529748,0.18762952,-0.015478629,-0.13009514,0.10853567,-0.03924734,-0.31612504,-0.12023492,0.08124477,0.16208836,-0.065865666,0.1124959,-0.16527516,-0.17787963}, 
{-0.10462803,0.1309687,0.0097198635,0.010260213,-0.0033882072,0.06496337,0.14452972,0.10037169,0.11265176,0.15709856,0.147983,0.032963574,0.17992303,0.17008215,0.13393494,0.018664006,0.16005205,0.05907703,0.029864714,-0.0037318028,-0.12908807,0.045918107,-0.15621832,0.091402225,0.17971219,-0.1446047,-0.083284676,0.049497526,0.056341887,0.013166347,-0.21795435,0.14821537}, 
{-0.18843317,-0.106028005,-0.009467562,0.1247471,-0.019555837,-0.2615953,-0.030736545,-0.071648434,0.10816554,0.08654928,0.046013087,-0.10073926,0.10898884,-0.2533265,-0.1186558,-0.027697796,-0.062784314,-0.025629051,-0.13295159,0.03765014,0.20649125,-0.0057521095,0.025059009,0.16062494,-0.101842895,0.043292835,-0.084108345,0.018182596,-0.12189826,0.0024434805,-0.051039446,0.010283488}, 
{-0.056602202,-0.028496781,-0.060162716,-0.16781156,0.003348329,0.01552541,-0.11393719,0.013274755,0.094411604,0.010250642,0.178192,0.17283691,-0.07032607,0.14494209,-0.02239807,0.09693638,0.065892264,0.07706962,-0.13354436,-0.197908,0.16704628,-0.14728683,-0.07021414,0.04281425,-0.13767913,0.060644533,-0.18891793,0.2236178,-0.0006199948,0.09741601,-0.102445684,-0.05860762}, 
{0.052407894,0.15381749,0.18698663,0.08376046,-0.049085535,0.11390528,-0.060984857,0.08310484,-0.026184194,-0.11544782,0.16422682,-0.15637405,0.08127976,-0.20051244,-0.20033735,-0.1452096,0.049358614,0.09980519,-0.13232972,0.16009456,0.008101253,0.027054252,0.04119775,-0.066242404,0.12504783,0.13512757,0.07565303,-0.106438935,-0.16884434,-0.04823485,-0.007584109,0.08728133}, 
{-0.18542282,0.17323862,-0.12859182,0.040434532,0.00878177,0.0945655,0.11099812,0.009203007,0.046485443,0.06943821,0.027958032,0.16059045,0.06203957,0.082998864,0.11197769,0.0013576029,-0.061023425,-0.10759106,-0.16771065,-0.22829185,-0.2533622,-0.0729472,0.0022906738,0.07273337,0.2408344,0.010647108,-0.08769756,-0.22501773,-0.17285143,-0.03003412,-0.040898167,0.10557338}, 
{-0.019551327,0.15251411,0.011664954,-0.08207437,0.1001815,0.0766051,0.11098687,0.062128663,0.1030658,0.0870679,-0.12849835,0.011586968,-0.18025526,0.007569171,0.11927933,-0.16337295,-0.03319252,-0.15992124,0.029908054,0.013169649,-0.02628682,-0.01324755,0.062537774,-0.014400476,-0.024930296,0.0454214,0.24221583,-0.10453096,0.026936473,0.09674882,0.1930104,0.081498705}, 
{-0.116614275,-0.02123433,-0.020862054,-0.09728213,-0.110342585,-0.016375156,-0.2644621,-0.13474788,0.0403145,0.22442828,-0.12565874,0.056523483,-0.14614138,0.11315212,0.18058142,0.11359735,-0.015738714,-0.1639392,0.20815429,-0.020379383,0.05044946,-0.10736568,-0.12266248,-0.0965567,-0.10394263,-0.11847988,-0.042788047,0.11444527,-0.10316317,-0.08748996,-0.0010942838,-0.13649698}, 
{-0.27848402,-0.055693105,0.10132391,0.109461784,-0.025844848,-0.19910559,-0.115218565,0.07761355,0.21646261,0.04494274,-0.069021456,0.11396422,-0.040409412,-0.24008255,0.25319496,0.05845424,0.085609324,-0.0038664294,0.10038322,-0.009045914,0.10893645,0.10689093,-0.19303887,0.023474576,-0.03159979,-0.098144494,-0.016188145,-0.164385,0.17113891,0.06335509,0.0542535,-0.09694358}, 
{-0.1310807,0.16237278,0.10320832,-0.21311224,0.11510445,0.04446645,0.012624399,0.16652755,0.079624966,-0.044580992,0.056756824,0.08459004,-0.009979952,-0.09922136,-0.06231701,0.0075852904,-0.10759288,0.02367514,-0.011323104,0.1057836,-0.0776787,-0.11687238,0.05917248,-0.099173516,0.14220497,-0.05794657,0.2217629,-0.087976635,-0.15727028,-0.08007804,0.00052922097,-0.06925411}, 
{0.2683439,-0.15381098,0.01699809,0.08082295,0.17322353,-0.05627898,-0.1932073,-0.04609585,-0.0682415,0.1649251,0.23496586,-0.18396512,0.1042618,0.36322504,-0.1503021,0.06995758,0.015067868,-0.044140995,-0.0050317035,0.10376371,-0.14685565,-0.1840148,-0.07407893,0.07597804,0.1117258,-0.12466174,-0.20545824,-0.0079307025,-0.07880209,0.16163024,-0.10724358,0.01188171}, 
{0.020711834,0.031048002,0.08417675,-0.15744996,-0.10864052,-0.0564508,-0.11123095,-0.11198387,-0.06500963,-0.116295904,0.029455239,-0.14175025,0.10119407,0.067287244,0.10692612,-0.10621435,-0.03602294,-0.016862568,0.10807798,0.14810207,0.052526634,0.0019168044,0.20336655,0.08967905,-0.024416305,0.043707978,0.0005259274,-0.012511318,-0.29148006,0.16641916,-0.10916413,0.20752451}, 
{0.14280902,0.12460247,-0.03217094,0.19042298,0.07425507,0.037709262,-0.29624748,-0.12850736,0.02197768,-0.07934556,-0.025415713,0.12926261,0.2324941,0.05585838,0.17119873,0.16458398,-0.20654799,-0.052140366,-0.055163067,-0.03980799,-0.08294103,0.104786925,-0.2269201,0.11424867,0.15167044,-0.00060976227,-0.03446156,-0.052960504,0.016926797,-0.0435876,0.04153753,-0.039418098}, 
{0.011356589,-0.05738837,-0.12109526,0.22836688,0.2355318,0.05463612,-0.021928746,-0.030636078,0.053683262,-0.18298796,0.06998017,0.26583514,0.013129403,0.20264071,-0.09225669,0.23305905,0.040575527,-0.08235031,-0.040982306,0.31351155,0.06259695,-0.11356776,-0.00019461164,0.18930739,-0.08997576,-0.098271646,-0.14025213,0.037181817,-0.080931745,0.016935114,0.13342127,0.13886353}, 
{0.05891051,-0.06335445,0.068938166,-0.1894931,-0.1107078,0.13377692,0.13300383,-0.01268652,-0.2056053,-0.18400054,-0.085778154,-0.062843695,0.28503174,0.07791243,-0.1919787,0.11558136,-0.16060653,-0.038654596,0.0014947775,0.04402227,-0.02250443,-0.059830237,-0.12768804,-0.15351585,0.02667003,-0.017036036,0.10279518,-0.12024156,-0.13477886,0.07247153,0.044531945,-0.095796786}, 
{0.17353639,-0.038411185,0.017499758,-0.048529457,0.058891512,-0.14428581,0.21200918,-0.020953309,-0.19983529,-0.27475604,-0.2999952,0.15913665,-0.04159653,-0.0041850284,5.1572526e-05,0.0036599885,-0.03443616,-0.00056213123,0.11944448,-0.112993345,0.075549,0.20585304,0.22132231,0.028758375,0.17619845,-0.17311087,0.07185333,-0.1100471,0.16338107,-0.07621626,-0.050815295,-0.13831492}, 
{-0.007843023,0.0206497,0.1519699,0.1350349,-0.19512174,0.0473668,0.19281924,0.19375223,0.034607872,-0.015335487,-0.008162461,0.2172277,0.1229967,-0.13076979,-0.15930852,0.084757045,-0.21469162,0.10296429,0.0530268,0.052158087,-0.029695418,-0.14495791,-0.043008707,-0.18458171,0.06778049,-0.08925675,0.050662313,-0.0031985021,-0.13340884,0.03939215,-0.118553765,0.081193246}, 
{0.19837502,0.13737322,0.046558388,0.061276857,-0.2717533,-0.0073950016,-0.07767677,0.12433778,0.10067894,0.123669386,0.027355114,-0.119815946,-0.08003528,-0.054360736,-0.08846504,-0.3973392,-0.1348463,-0.17564493,-0.096154906,0.012860943,0.07460608,-0.017384648,0.28844044,0.06448126,0.076641835,0.10574811,0.15871878,-0.23795263,-5.534132e-05,-0.048459563,0.331829,0.061403215}, 
{0.04220732,0.14976294,-0.090597376,0.004849872,0.09797695,-0.085937455,-0.007415457,-0.040057104,0.043819483,0.06436583,-0.0051977397,-0.1525421,-0.068998195,0.037824843,0.012949516,0.05555624,-0.24790865,0.14016333,-0.10022138,-0.00036484707,-0.17223743,0.24185856,0.12909131,0.0480977,0.006215709,0.10806238,-0.16126008,-0.0620372,-0.12774353,-0.1324929,0.004671829,-0.08923906}, 
{0.07113749,-0.18098205,-0.10639567,-0.18711823,-0.060838852,0.16383846,-0.21451692,0.070836894,0.117395945,-0.21041048,-0.009332817,-0.09531254,-0.12225076,0.004276472,-0.14667854,0.06467984,0.0057828114,-0.276598,-0.10385221,-0.10364112,0.04752787,0.037643176,0.019004017,0.038217414,-0.16195768,-0.096149504,0.02173205,0.03161936,-0.06583653,-0.023673981,0.031952705,0.013010444}, 
{0.26680332,-0.080633804,-0.046073724,-0.020475533,0.24523176,0.101896025,0.069151476,-0.01235602,0.010283619,-0.15067974,-0.008306043,0.13661104,0.13484655,-0.2091806,0.30845046,0.02271932,-0.0038408376,-0.012639602,0.0033493496,0.063957706,-0.010246562,0.20165007,0.28395575,-0.10482636,0.026071575,0.04299796,-0.04150692,0.15977286,0.014127994,-0.028271647,0.10908883,0.102919295}, 
{0.107152775,-0.14175105,-0.14321037,-0.22089724,0.22920404,0.063156396,0.10625926,-0.017400052,-0.030906007,0.089454964,-0.10653503,-0.1467042,-0.17065151,-0.021085184,0.07564266,-0.26295543,-0.110996716,0.09044608,0.05628213,0.120739326,-0.07672032,-0.1602088,-0.10502783,0.20783877,0.13572748,0.11383507,-0.0023966301,0.061691616,0.07298373,-0.09341159,-0.07895314,-0.035912737}, 
{0.022092974,-0.01828487,-0.111914575,-0.30257088,0.12136025,0.000102662336,-0.009944138,-0.08605557,0.06338773,0.08541529,-0.10625371,-0.057952493,-0.039052855,-0.15775627,-0.1555155,0.15914634,0.13962008,-0.18152323,0.077614315,-0.12198044,-0.0032384174,-0.11634077,0.0055163824,0.02660586,-0.008379738,-0.13436297,0.115643,0.08156263,-0.055020645,0.078513846,-0.22783719,0.0074225385}, 
{0.13114291,0.0023651482,-0.025259726,-0.07314166,-0.005221822,0.041410174,0.10405612,0.2413912,0.008041794,-0.04792866,-0.06345913,-0.09302732,0.10969726,0.04511104,-0.111543454,-0.14893162,-0.0068753557,0.034017507,-0.030339643,-0.19695431,-0.042703014,-0.10934856,0.15342188,-0.12596922,-0.070982195,0.043390047,0.08801952,-0.090175,0.13996163,-0.04755131,0.1829888,-0.030094607}, 
{-0.0033332966,-0.023076307,0.14729199,-0.058418762,0.0741103,-0.09495356,-0.04459951,-0.06682568,0.027496347,-0.08312339,0.17395942,0.22855577,-0.1328018,-0.021837547,0.089087695,-0.15410714,0.057984352,-0.029124703,0.05484071,-0.011293206,0.20177668,-0.018882977,0.30682915,0.18089028,0.0025679453,-0.18860716,0.01571134,0.2555596,0.09391117,-0.1855318,-0.021798104,0.10389397}, 
{0.19442481,0.016274229,-0.15807807,0.212101,0.123139806,0.15320556,-0.09566552,0.18538265,0.17149985,-0.12145907,-0.11610379,-0.112005964,0.06874221,0.0015973182,0.16435905,-0.124709725,-0.21145138,0.19322789,0.2699888,0.01897785,0.1617554,0.055083938,0.20493484,-0.038930256,0.051309463,0.0075745485,-0.1189508,-0.099450685,-0.15860172,0.11362452,0.13421988,0.012253441}, 
{-0.035546664,0.097421214,-0.14358397,0.02006619,-0.13530263,0.2858286,0.18543912,-0.009392708,-0.0758158,-0.0077940943,0.065301724,0.19295369,0.06894695,-0.10475062,0.05918712,-0.029774811,-0.016146835,-0.04702375,-0.030658808,-0.15356004,0.10189966,0.011788629,0.189726,-0.13147645,0.062447168,-0.15371947,0.09681304,-0.18804507,0.15700592,0.16470197,-0.07957552,0.054218214}, 
{0.16705976,0.01796895,0.09784318,-0.18694973,0.0041469284,0.10610947,-0.12620695,0.17064072,0.020571213,-0.020931508,0.018546993,-0.025173917,-0.24183944,0.010100869,0.1504373,-0.1350711,-0.022405922,0.05519065,-0.033456184,-0.15988813,0.13324048,0.043209665,0.20604745,0.034204904,0.15434574,-0.10228717,-0.03616562,-0.112997085,0.19779366,0.2949002,0.032959837,-0.12698206}, 
{0.15552264,0.1411067,0.18261625,0.04335897,0.0072003985,0.13637196,0.08127767,-0.053079225,0.22184105,-0.18174443,-0.08763519,-0.026047653,0.108778924,-0.026990013,0.066529445,0.08628103,-0.09421572,0.16929625,0.12899382,-0.04341883,-0.1566006,0.03711165,-0.109253615,0.16926923,0.06552341,0.063617274,-0.03148174,-0.053819135,-0.012094756,-0.16264793,-0.0429285,0.07358943}, 
{-0.08915593,0.030108701,-0.15429752,-0.080725454,-0.0072047976,-0.0899382,-0.01296133,-0.15772499,-0.03917684,-0.12222378,0.076573744,-0.09725343,-0.022553073,-0.06628116,-0.1006569,-0.23725156,0.034585796,-0.14399125,-0.10104592,-0.07688727,-0.010056151,-0.00074964477,-0.2271673,-0.10763605,0.082734056,-0.051053517,0.114964396,0.16239923,-0.1379986,0.22961389,0.067255005,-0.13974532}, 
{0.03758397,0.00425826,-0.09928889,0.052608054,-0.10558396,-0.051284436,0.0327394,0.12928785,0.1871376,-0.08098776,-0.045800842,-0.077268,-0.0023908722,0.15554033,0.045341905,0.038959727,-0.07623915,0.24112417,-0.06460775,0.15957409,0.076198936,0.19265084,-0.058273096,-0.0104021905,-0.27836007,-0.19749805,-0.10591127,0.1348753,0.089904025,-0.04291193,0.047298312,0.0067837937}, 
{0.20338131,0.012545389,0.009644412,-0.08387783,-0.23805924,-0.05090657,0.07414784,-0.012506702,-0.09483288,0.06775697,-0.04052352,-0.08796913,-0.18137567,-0.07557394,-0.123798326,0.01365667,-0.030515086,0.059308235,0.0063986126,0.08066208,-0.19848743,-0.062250685,0.039735507,-0.20192242,-0.10159199,0.1719958,0.06629312,0.05902411,0.0997666,-0.060712315,-0.067007795,0.18810864}, 
{0.0044440273,0.088806726,-0.25889322,-0.04975192,-7.449456e-05,0.031538684,0.048741378,0.13350545,-0.13819449,-0.1374682,-0.20315151,0.08694149,0.1148352,-0.088006794,0.15466048,-0.12494914,-0.20787744,-0.026801342,0.07784121,0.17592837,-0.0976129,-0.0013307452,0.1310606,-0.117998965,0.15548657,-0.06517993,-0.050759677,-0.0564561,-0.14622593,0.05964312,0.22654232,-0.0069577494}, 
{-0.0603533,-0.13970102,-0.011687448,-0.038596798,0.11889734,0.009286929,-0.034064043,-0.07269651,0.2161793,-0.106518604,-0.100793764,-0.16776447,-0.11028411,0.06299015,-0.1530119,0.12053347,0.120589964,0.014250762,-0.1894931,-0.056375254,-0.06288421,-0.12853728,0.079010755,0.071479104,-0.10786211,0.13854279,-0.1249281,-0.20991206,-0.16510202,0.12294251,-0.1842077,0.21699885}, 
{-0.14141949,-0.10187661,-0.11670647,0.23346984,0.19339052,0.17468326,-0.08167893,-0.06407745,0.23527922,0.029381298,-0.16602318,0.050954692,0.1797311,0.06902797,0.10057414,0.28301293,0.047778912,0.16408162,0.14052376,-0.21060936,-0.023471888,0.15051623,0.009300705,0.05079288,-0.059391543,0.07163284,0.111074515,-0.24901687,0.07002623,0.11555738,0.028322859,0.01901037}, 
{0.21841453,-0.0036562183,0.12486567,0.08623482,-0.07963594,0.2144029,0.04943457,-0.0052125393,0.14323583,0.14662144,-0.08751813,-0.012922637,-0.17738377,0.08711616,-0.25643355,0.089921735,-0.0674917,-0.090995364,0.0011917327,0.17635384,-0.01461436,0.016886357,-0.1119482,0.0844677,0.02158927,0.11800139,-0.08568143,0.16229379,-0.056379147,-0.12896718,0.24011688,0.017749533}, 
{0.01930599,0.11633137,0.0041360706,-0.19763699,0.001695855,-0.1757316,-0.027575608,0.2401782,0.061860554,0.19127001,-0.14189762,0.08119884,0.05335711,-0.042256948,0.11123917,0.12319894,-0.1296103,0.33751497,-0.10030913,-0.0524769,0.086116284,-0.031691585,0.09965957,0.06345879,-0.19306292,-0.05942255,-0.02155876,0.09272194,-0.066661306,0.103625976,-0.06918687,-0.27978784}, 
{0.020175792,0.01700448,-0.26561776,-0.20421006,0.10268339,0.15723571,-0.016682217,0.08826279,0.07047547,-0.034521073,-0.10271062,-0.21375251,0.084455885,-0.058289714,-0.15974663,0.29529017,0.15826277,0.095429644,0.029458473,-0.2511751,-0.06641676,0.08292319,0.13612309,0.018676614,0.06308941,0.106420055,0.079791375,-0.0050543253,-0.006725291,-0.19797896,-0.0010573302,-0.008815401}, 
{0.062442016,0.016836364,-0.011798641,0.08345389,-0.005068745,0.07584217,-0.18945423,0.092085816,-0.19933599,-0.05387333,0.04150161,0.035005398,-0.19426383,0.09494508,0.12380648,-0.15595733,-0.048733696,-0.19148739,0.020195879,0.13407566,0.12391151,-0.12917762,0.09574848,-0.020681428,0.16230042,0.073121116,0.035187345,0.12916273,-0.12276915,0.21803997,-0.04932029,-0.10662342}, 
{0.009053741,0.12234645,0.083274156,-0.07137058,0.091693416,-0.17667042,0.16852562,0.032686174,0.02756086,-0.19318683,0.019201411,0.033005822,-0.14638321,-0.008076064,0.09875344,0.049892213,-0.10244219,0.15302573,-0.061260685,-0.09064494,0.090591155,-0.26339573,0.04978435,0.028523719,-0.17800672,-0.075555034,-0.08146204,0.067118146,-0.1168519,0.045671668,-0.13098997,0.0454063}, 
{0.041864213,0.10328049,-0.11404184,-0.14747758,0.014025084,0.07132761,0.037469864,0.22093225,0.0971302,-0.107916474,0.17475873,0.21382925,0.1971847,-0.021595046,0.21415156,-0.42911366,-0.1726834,-0.123603314,0.22492906,-0.28793132,0.20406108,-0.108098455,0.17131197,-0.1620694,0.046526283,-0.20240372,0.15922433,-0.120943606,-0.011613059,0.27074435,0.08289997,0.061437998}, 
{-0.0041004703,0.033577673,-0.20540862,0.19614287,-0.1144645,-0.13920583,-0.31397265,0.061050355,0.009711173,0.09597022,0.2662047,-0.1581034,-0.017076405,0.1567605,0.089838214,-0.08434028,0.064006336,-0.2167117,-0.06932493,-0.0068507246,-0.124374166,0.18431689,0.122814536,-0.02850117,0.069309235,0.17536299,0.12952906,0.050430946,-0.33689588,0.040268816,0.039010257,-0.21149291}, 
{0.07859275,-0.1171958,-0.0055538616,0.1417091,0.049685232,0.05949403,-0.071853764,0.12566322,-0.16106127,-0.15089466,0.13962239,-0.06810123,0.19755636,0.036312006,0.20791492,-0.0011432412,0.20936796,-0.032500204,-0.1612833,-0.015048041,0.016444804,0.11452108,-0.1102815,-0.052561734,0.102814786,-0.16472682,0.10257704,0.16228507,0.24003422,0.032262016,-0.15016091,-0.022154381}, 
{-0.22916101,-0.01528887,0.15426815,-0.4102821,-0.0907248,-0.04938043,0.19194646,0.051135015,-0.030361684,-0.14186071,0.11062105,0.111261986,-0.11501226,-0.09342714,-0.14169244,-0.121649586,0.051219277,-0.18144448,0.19843207,0.030801743,0.16408248,0.00055182166,-0.0895208,-0.061134208,-0.2709247,-0.14344053,-0.024467288,0.03833517,0.15787403,-0.115020804,0.028936138,0.119057156}, 
{0.073798984,0.017936647,0.11723473,-0.12476112,0.3161779,0.25592294,-0.01648965,0.20138481,0.052415628,0.0026841084,0.24528886,-0.013274062,-0.02331251,-0.052543364,-0.23901515,0.16156954,-0.04348274,-0.052165423,-0.056843054,-0.13314158,0.06936495,0.26726758,-0.037547775,-0.17935288,-0.09828763,-0.060825728,-0.09747234,0.13806996,0.037174005,-0.027506033,-0.10470114,0.16825831}, 
{0.120878145,0.0038164975,0.09630807,-0.14664534,0.027383382,-0.13235652,-0.048403114,-0.052926928,-0.056573205,0.015487137,0.1909234,0.069060765,-0.053101033,0.10944598,0.05269334,-0.059293747,0.105211705,-0.11728521,-0.008772273,0.09953386,0.07025096,0.041484088,-0.073817275,0.028408682,0.1093088,0.12547207,-0.16185921,-0.02655833,0.047603056,-0.048688367,-0.05508224,-0.15614873}, 
{0.035321113,0.110693485,-0.080550596,0.020106807,-0.048209142,0.3905252,-0.1622456,-0.24903274,0.21037108,-0.21556515,-0.025363619,-0.048916213,0.103608236,-0.027224723,-0.17512861,-0.042772047,-0.030317442,0.03605195,-0.36376172,0.05815869,-0.031176807,-0.046437796,-0.012018578,0.16385289,0.022517271,-0.099018484,0.1117357,-0.22192405,-0.15709357,0.20834422,0.14601794,0.15786579}, 
{0.053169537,0.10110824,0.12589271,0.17962041,-0.023870543,0.0076152245,-0.1255477,-0.12875345,0.017585317,0.015917761,0.0051268707,-0.23590563,0.10289555,0.05762082,-0.05833756,0.14606592,-0.18900867,0.1738251,0.1325605,0.18269977,-0.12551384,-0.06759882,0.11762323,-0.084425524,-0.30276224,-0.17399268,0.17900102,0.105887875,0.032815777,0.26381406,0.22887681,-0.0053554876}, 
{-0.024202455,-0.1104241,-0.101356834,0.0033760506,0.112109885,0.037307676,-0.15574811,0.10295539,-0.03291731,-0.01969299,0.08555575,0.18313257,-0.13864012,-0.062465616,-0.048440255,0.07866172,0.030770563,-0.1671781,-0.070049606,0.04806064,-0.025721857,-0.0018955591,-0.15427771,-0.01811026,-0.09884682,0.052905157,-0.118877314,-0.022362988,-0.22067793,-0.1001606,-0.082361564,-0.08409137}, 
{0.10245879,0.099590674,0.005888853,0.2838434,-0.012345001,0.29673713,-0.20101099,0.010316126,0.09787641,0.03902378,-0.10124453,0.12039918,-0.06280836,0.11389018,0.04196282,0.015666412,0.06435885,-0.22947885,-0.026299518,-0.230785,0.056571722,-0.1183322,-0.20315175,0.008996398,-6.435835e-05,-0.17419676,-0.0930388,0.16004689,0.051419776,-0.084875055,-0.119260244,0.2844401}, 
{0.23430197,0.10137429,-0.0898342,0.3510782,-0.106328115,0.030561034,-0.23171848,0.027496474,0.029331274,0.11107142,0.035859898,0.109349765,-0.11892955,0.05644267,-0.21907231,0.3315568,-0.097436726,0.14438426,-0.24798858,0.22507194,-0.23309867,0.36547297,-0.003148037,0.04409035,-0.045653228,0.24384302,-0.1063181,0.19134589,-0.28338563,-0.020995215,-0.16437484,0.12860613}, 
{0.16249144,0.059745427,0.18939893,0.16130008,0.06582917,0.3259901,-0.006696261,-0.1428216,0.24589203,-0.0534128,0.028061526,-0.032803934,-0.04590605,0.33807746,0.11521428,-0.010927382,-0.122613765,-0.22276303,-0.09344851,-0.12380884,0.032629248,-0.14656612,-0.015021109,-0.09348818,0.25329795,-0.2506391,-0.20328033,0.13984495,0.19077261,-0.10805706,-0.0846445,0.14636455}, 
{-0.09856272,-0.013057971,-0.20895031,-0.18747106,0.11128007,-0.100347206,0.23945436,0.1904778,-0.21927088,0.19076884,-0.29842967,-0.1554362,-0.21239263,-0.1227928,0.21534368,-0.07459476,-0.1314458,0.08701832,0.1545919,-0.058384664,-0.082404345,0.2092531,-0.030032208,-0.069085605,-0.16182993,0.15504636,-0.120312795,-0.14805438,0.21187599,-0.15840332,0.003960556,0.22372468}, 
{-0.13330379,-0.004934149,0.18582675,-0.10610119,0.021781245,0.032157756,0.18307373,-0.09855858,0.06280862,0.010982227,0.09215877,0.039455887,-0.03520016,-0.093231045,0.027499823,0.22924495,0.0019491946,0.0037155366,0.059637558,-0.17000654,0.16483629,-0.087884,-0.06330376,-0.05194065,-0.08189953,-0.052952312,0.0036533491,0.06183773,-0.11342106,-0.36510321,-0.0763438,0.12561768}, 
{0.31580365,0.26236635,-0.05181306,-0.082268454,0.0233732,-0.04761693,-0.07546878,0.18374403,-0.09283455,-0.2893541,0.12649545,-0.0024177893,0.26458526,-0.0932227,-0.13687488,0.19438441,0.11484433,0.25766587,-0.1727389,-0.08066847,0.118562244,0.08035211,-0.33438933,0.1348727,0.016003853,-0.18081822,0.04508804,0.17778727,0.017749757,0.16940525,0.07410654,-0.092071585}, 
{-0.00046180963,-0.078177944,0.16845241,-0.17782733,-0.013068577,-0.33006027,0.08451526,-0.09079504,0.07673284,-0.002132075,-0.1719903,0.08050381,0.18906142,-0.05102393,0.05722316,0.08658824,0.002231863,0.19908977,0.105540715,0.40139204,-0.17658976,0.08004348,0.056659516,-0.22160599,0.24884222,0.07486407,-0.016276179,-0.15340541,0.07194769,0.04196889,-0.1201868,0.020240493}, 
{0.14216883,0.11067147,0.019695334,-0.26046792,0.11660563,-0.35514995,0.2685262,0.10693939,0.14684276,-0.04510933,-0.16245386,0.028218307,-0.06522141,0.104773045,0.01804088,0.09356163,-0.10188278,-0.22242446,0.19145626,0.03880159,-0.012711265,-0.155385,-0.08967773,-0.27098122,-0.03785985,-0.18101811,-0.050184734,-0.15431975,-0.05389382,0.06846616,-0.19900374,-0.0066329795}, 
{-0.065862395,-0.09529766,0.06305337,-0.064633004,0.09386368,0.12149256,-0.12871914,-0.013227677,-0.07491183,-0.05100429,0.14300592,-0.021600433,0.112400785,-0.27695605,-0.09006245,-0.05678265,0.26962608,0.17930156,-0.13853605,-0.016194876,0.017801767,-0.14115581,0.08308333,0.286583,-0.07070573,0.0050090114,-0.19031669,0.14834876,-0.3712738,-0.055426553,-0.0017157795,0.13873434}, 
{0.021154609,0.05725307,0.06487253,0.15550385,-0.26701656,-0.1909442,-0.2380295,-0.11641712,-0.044290047,0.3568347,-0.092984244,0.24511017,-0.0039626565,0.11665415,0.20877455,-0.13755895,0.16570714,-0.24616185,-0.15981899,0.2647512,0.23803838,-0.2445636,-0.11753931,0.06595522,-0.021419039,0.05945872,0.0746921,0.026698051,0.18888812,-0.14765117,0.06264568,-0.21441965}, 
{0.018598052,-0.13220188,-0.2159113,0.32071367,-0.15261787,0.077121116,0.013690574,0.009648211,0.18860166,0.20494014,-0.07302536,0.14000164,-0.11694583,0.3631494,0.2530397,-0.048847463,0.011408877,0.039551433,-0.29660657,0.07534993,-0.15636784,-0.076878645,0.21239023,-0.0046729324,0.09236209,0.027273038,0.041443557,-0.26126993,0.11947384,-0.23715378,0.024004979,0.026806507}, 
{0.0038357105,-0.053323213,0.033142287,-0.04818334,-0.1243732,-0.044073794,-0.00040440616,-0.15960723,-0.2647325,0.033634942,0.05740126,0.25150752,-0.11794946,-0.11797439,0.14244853,0.04213252,0.15354143,-0.070472665,-0.23805186,0.16867891,-0.3172158,0.19593336,0.03310476,-0.06277717,-0.17423838,-0.006861138,0.07266739,0.26149547,-0.06978456,0.029737875,0.14890799,0.20052034}, 
{0.09131777,-0.20100889,0.25345322,-0.013986285,0.28206697,-0.037251826,0.16674705,-0.15218768,-0.022695016,0.14688943,0.039407063,-0.123757355,0.21952564,-0.08983468,-0.25899237,0.09680551,-0.05667792,0.01499946,0.059648782,-0.18515776,0.079721965,0.2036854,-0.01678924,-0.24595785,-0.06868596,0.25728086,0.027506758,0.0650702,-0.1975732,0.10484818,0.025521118,-0.15201546}, 
{-0.17431627,-0.03437409,0.00716072,-0.029693278,-0.15208727,0.11826813,-0.18727916,-0.22244531,-0.15286131,-0.0020154298,-0.0845151,0.07376879,0.11318421,-0.19231212,0.1254213,-0.12885728,0.33614433,0.011471575,-0.104094155,0.03702291,-0.0316822,-0.008533862,-0.29798064,0.064769424,0.11726628,0.14166555,0.1807938,0.24904177,0.15816174,-0.07018104,0.010957994,0.2387913}, 
{-0.37298578,-0.237204,0.095538765,-0.020103857,0.114805155,0.06723764,0.26812178,-0.25014532,0.07350002,0.17211595,0.35734978,-0.12555449,0.02062376,-0.22082299,0.10562087,0.16353875,0.256446,0.14616849,0.14246692,-0.20097962,-0.2899094,0.013139479,-0.03859239,0.18966396,0.21549335,-0.20757225,-0.16245341,-0.079055354,-0.16469246,0.18913445,-0.11208975,-0.05455774}, 
{0.2587975,0.069749795,0.070246235,0.19630007,-0.013898855,0.16312747,0.04504574,-0.10886381,-0.10923139,0.23587245,-0.08330513,-0.06344279,-0.103835836,0.15310864,-0.07351868,0.08121725,-0.047284417,-0.14011694,-0.23812541,-0.12358427,0.16656919,0.012999945,0.21769421,-0.037353095,0.15935804,0.08643513,-0.040645488,0.024256973,-0.21767889,-0.336143,0.31131718,0.019298812}, 
{-0.10621253,-0.12852694,0.33230475,-0.24653761,0.059460647,-0.00013828486,0.122806504,-0.19315739,-0.19905701,-0.120321944,0.3111933,-0.060995888,0.05024548,-0.26070735,-0.22768994,-0.0727851,0.21328105,-0.33181372,0.18395858,-0.0030298033,0.027432904,0.086940065,-0.2734013,-0.16089638,-0.22598794,0.0045417477,0.36711517,0.32620502,0.23461784,0.060478013,0.14690968,0.019673731}, 
{-0.40980056,-0.18764874,0.122144915,0.003369793,0.20893764,0.23816471,-0.025814742,0.046692286,0.30493307,0.29546514,0.14555703,-0.065434285,-0.07498635,0.4360063,-0.023260172,-0.009371797,0.25530457,-0.107803605,-0.05198143,0.31619313,-0.1027833,0.10335525,-0.107012734,-0.04955301,0.13112532,0.4182735,-0.34461588,0.29604295,0.01816144,-0.024252472,-0.46376324,0.039260376}, 
{-0.030289002,-0.050513007,-0.11487835,-0.29376623,0.0726279,0.0918235,0.1319642,-0.04643626,0.004250733,0.09466684,-0.18185133,0.054420426,-0.2996891,-0.25970873,0.1486897,-0.09312202,-0.03275091,-0.2048169,0.14461555,0.106345296,0.25833398,-0.054386076,0.051887263,0.0832793,-0.0169025,0.1574353,0.15778226,-0.28936487,0.18681008,0.094964124,-0.20760687,0.17570327}, 
{-0.1928605,-0.0009333155,0.037596744,-0.23768426,-0.17490451,0.094042666,0.020451035,-0.07695342,-0.100852795,-0.049300317,0.09719495,-0.2802956,0.007417617,-0.07509217,-0.07272201,-0.013245482,0.17133431,0.11196376,0.10111059,-0.24554831,-0.08483803,0.067181855,0.20223771,-0.27746096,0.100611605,-0.07362178,0.25358754,-0.07374917,0.23294109,0.12631804,0.08750279,0.19019197}, 
{0.09086401,0.2065193,0.27609637,-0.08640293,0.19256745,-0.0027369917,0.06515688,-0.09022171,-0.014784841,-0.41212204,0.04195583,-0.0063680867,0.19603102,0.19297788,-0.40742767,0.13619879,-0.15780935,0.03618941,-0.031195292,-0.18740433,0.029175792,0.02861546,-0.0719716,-0.062805325,0.14205201,-0.14130585,0.05126734,0.11408508,0.11183176,0.24856254,0.11149965,0.16715725}, 
{0.04111251,0.27792856,0.15527712,-0.1544172,-0.09111417,-0.0146229565,0.10179383,-0.12811679,0.27624038,-0.32531726,0.14561181,-0.08892845,-0.04822181,-0.309849,-0.39427286,-0.1378666,-0.20331755,0.08178958,-0.054955944,0.24751274,-0.26697305,0.29987413,-0.10685437,0.1081376,0.16733189,0.116244815,-0.2689051,-0.4090893,0.09899142,0.07574652,-0.078731805,0.05042834}, 
{0.26506644,-0.03172816,0.26340002,0.092357524,-0.09705211,0.14111206,0.014420736,0.16316831,0.1698794,0.045314502,0.06646978,0.31441057,0.39771992,-0.03453886,0.057949044,-0.26091138,0.05240572,-0.3706475,-0.4409585,-0.048812658,-0.03366178,0.15719752,-0.12472639,-0.051158696,0.023060106,0.24397293,-0.16875881,-0.27655774,0.35150072,0.14395341,-0.3393891,-0.10205854}, 
{-0.15304612,-0.07092933,-0.024241587,0.11094264,0.15153188,0.04308628,-0.19080143,0.15059961,-0.104982845,0.107123934,-0.20303658,0.119437665,-0.18432546,0.0872861,0.22621496,0.101252474,0.2152516,-0.026167994,-0.0932271,0.081174746,-0.16492228,0.1082466,-0.10087623,-0.3224778,-0.1180788,0.24173269,-0.22671731,-0.05773447,-0.053883135,0.085084505,0.070543766,0.090556234}, 
{-0.030016413,0.31776965,0.17066945,0.1605978,0.13948447,-0.22154048,0.008670644,0.12179607,0.1868362,0.09265995,0.02301722,-0.061854538,-0.17259417,0.2777928,-0.16329984,0.005914002,-0.076653555,0.48305854,0.2802051,-0.013530541,-0.15462539,0.33015537,0.027564878,0.058051515,-0.19922844,-0.0882773,-0.007232018,-0.18100473,-0.06973598,0.18586144,-0.12202553,0.41821212}, 
{-0.07489715,-0.17095967,0.0012349883,-0.5112428,-0.2734173,0.1033824,0.034142192,-0.10514698,-0.26785448,0.20106867,0.1597956,-0.1897489,-0.34482884,0.013770512,0.16827561,-0.04554393,0.36844087,0.054257922,0.10589653,0.022024643,0.15165398,-0.14072788,0.011111817,0.11970414,0.095972806,-0.13076088,0.16639504,-0.22973803,0.2151056,-0.08345513,-0.038323022,0.05662733}, 
{0.4799121,-0.52951133,0.047124397,0.22616273,-0.09844816,-0.34602475,-0.02260543,0.47705844,0.1807202,0.013078774,0.23071386,-0.53119797,-0.23021112,0.36989924,0.11891165,0.27773714,0.10982905,-0.09578203,-0.17860958,-0.015546084,0.052717358,0.0026128406,0.030752795,0.25951153,0.19295628,0.25598592,0.09335196,-0.11396023,-0.2455015,0.51976806,0.01272777,0.01679854}, 
{-0.06677775,-0.13019635,0.37443474,0.1096306,0.24501027,-0.4230375,0.52324843,-0.13178243,-0.06477366,-0.15299703,-0.23396005,0.06507698,0.19619356,-0.3268265,0.008968839,-0.4290635,0.31801277,-0.03673669,-0.0048720767,-0.31868923,0.28203976,0.311468,0.060144335,0.20749651,0.16585036,-0.22217378,-0.31483683,-0.1905217,0.031062344,0.14037645,0.3082517,0.07262495}, 
{0.12880594,-0.032643106,0.19180599,0.14185567,-0.16111264,-0.25083306,0.17580742,-0.055292584,0.034913007,0.115697265,-0.31344914,0.05526434,0.033084624,0.011048593,0.32522184,0.13129795,-0.096050106,0.003628944,-0.25764865,0.0470858,0.07694763,-0.5337002,0.14472844,0.04747949,0.104260154,0.066546775,-0.23888068,-0.17861229,0.15757059,0.19407351,0.3845951,0.07657142}, 
{-0.35844073,0.036056336,0.2415621,-0.078755245,0.13190958,-0.018234946,-0.19214784,-0.057849824,-0.059430145,0.22046551,0.083145104,-0.023404526,0.01661909,0.12964116,-0.28629768,-0.13913347,-0.40314338,-0.2200216,0.08260086,-0.020163596,-0.1342769,-0.3684536,0.011094982,0.35157266,0.09851605,-0.2026627,0.017876387,0.092668876,-0.24059777,-0.26539612,-0.3677393,0.37394166}
};