float w2[32][16] = {{0.25603122,-0.1770351,0.37571284,0.42787564,-0.23491986,0.1406348,-0.31535852,0.25126794,-0.17928603,-0.33104086,0.16821499,-0.26406327,-0.25072402,0.13137576,0.08591857,0.49506328}, 
{0.15260455,0.41560763,0.1316679,0.00062162266,-0.1365943,0.03645433,0.4099637,0.30563012,-0.2824617,0.3926842,0.15726635,-0.2760287,0.4113677,0.0747475,0.19491822,-0.16892259}, 
{-0.3286827,0.09505554,-0.11631745,0.19266507,0.29382628,0.4374071,-0.038766745,-0.3838746,0.15966092,-0.29806796,0.3019457,-0.22532924,0.027188534,-0.09174901,0.026593987,0.34885755}, 
{-0.045594614,-0.34424305,0.32349214,0.111479186,-0.07523401,0.53826314,-0.02123742,-0.21141915,0.5088574,0.15491429,0.0068885535,-0.088381074,0.21322636,-0.15683834,0.22018762,0.07605516}, 
{-0.36738652,0.30441082,-0.1602497,-0.420626,0.0759343,0.2858824,0.20308872,-0.041898124,-0.34466782,0.17905392,0.057041522,-0.20181791,0.29605478,-0.049815662,-0.29135618,-0.13162242}, 
{0.14763306,0.24972561,-0.2776892,0.04163493,0.12314572,0.08259531,-0.08811749,0.17924745,0.050979353,0.5461421,0.12773652,0.27328846,-0.23924552,-0.062071096,0.20643072,0.2855343}, 
{-0.15294163,0.20448261,-0.22302629,0.09571995,-0.12711158,0.1973753,-0.020078052,0.03262597,-0.3641171,0.045761142,0.06481335,0.41171652,-0.18003178,-0.26506796,0.026878698,0.2165756}, 
{0.3764931,0.061551765,-0.23951057,0.019541226,0.30263594,0.048601873,0.1005574,-0.07876079,0.004829762,-0.3581961,0.2739615,0.35772377,0.0014144065,0.37560022,0.42957348,0.12348909}, 
{0.010604105,-0.370321,0.108388364,-0.27134323,0.35375822,0.14090379,-0.2474374,-0.0907558,0.013356362,0.2014528,-0.18291672,-0.2768914,-0.013139409,0.2718101,0.52859616,-0.14719965}, 
{-0.2744968,0.1604548,-0.14292239,-0.41263655,-0.43946916,0.17261837,0.08134325,-0.2483633,0.055583443,0.1988398,-0.4396846,0.19431272,0.35523143,-0.37695506,0.2406656,-0.28281194}, 
{-0.014703481,-0.088570066,0.2989536,0.068335414,0.23640738,0.27684736,-0.067759,0.2523503,0.4224708,0.06887511,0.20628726,0.24485388,0.2582524,-0.22927843,0.1378864,-0.4809632}, 
{-0.0021823284,0.05200202,-0.115337014,0.10247788,-0.046907347,-0.1604991,0.16581634,0.15954873,-0.15910056,-0.12585911,-0.08431183,0.15917546,0.5307135,0.20359172,0.20836578,-0.032325946}, 
{-0.082849786,0.4100439,-0.28838754,-0.16185164,-0.00893722,-0.56617785,0.37161618,-0.2168423,0.031865787,-0.11249943,-0.08964284,0.11656811,0.11149457,0.26761964,0.3037479,0.23113339}, 
{0.031956635,0.19401634,-0.3513622,0.1433769,-0.08436174,0.42388153,0.18760362,-0.2860541,0.098670356,0.31376052,-0.36558968,0.024039991,-0.011003578,-0.6948008,0.4033376,-0.3624527}, 
{-0.13684797,-0.3689043,0.48936653,-0.3555492,0.011145393,-0.05309161,0.09533446,0.30848914,0.3428099,0.14918052,-0.2737905,0.56823707,-0.14505681,0.11551764,-0.3363372,0.022100471}, 
{0.40837872,-0.2003326,0.5492148,-0.13677499,-0.16204719,-0.35958037,-0.36811602,-0.47511083,0.10947888,0.2591335,-0.20464157,0.010121194,-0.42049146,-0.17051181,-0.08873886,-0.15462117}, 
{-0.13361733,-0.54061484,0.42666078,-0.073711134,0.27511984,0.35661274,-0.25368702,0.105925895,0.16179,0.04724285,0.08038514,0.37462163,-0.19130377,-0.07438458,0.2631543,0.23849551}, 
{-0.10958507,0.11809335,0.476593,0.3302641,0.21588963,0.038829435,-0.080707856,-0.34253797,-0.3689574,0.30478206,-0.23360766,-0.10835273,-0.10385585,0.26504135,0.16074082,-0.084592745}, 
{0.32201272,-0.22650522,-0.25229278,-0.056548364,-0.14955808,0.31160247,0.15886994,0.15697166,0.27125624,-0.34037256,-0.18811028,-0.2008944,-0.27530158,0.0060455063,0.1298563,-0.18876417}, 
{0.10453511,-0.42313078,-0.2312948,-0.08196738,0.22418442,0.07045781,-0.16234703,0.2396405,0.15268224,0.17670652,-0.23672903,0.09495906,0.10339739,0.40023872,-0.0059714243,-0.22292086}, 
{-0.21952103,0.28718036,0.30369246,-0.054988876,0.070216425,0.3243258,0.23732987,-0.23116328,-0.3503523,0.44844213,0.2823115,-0.15079142,-0.20167401,0.012536622,-0.18776688,-0.03390717}, 
{-0.22078025,0.24299553,-0.056051955,0.28881735,0.39309385,0.09100007,-0.0456942,-0.17989658,0.3965113,-0.083465464,-0.14842993,0.09112869,0.4435939,-0.0056406967,0.46030703,0.2636145}, 
{0.3896662,-0.045770593,-0.080595635,-0.008520295,-0.13059662,-0.060112223,-0.2797727,0.08140894,0.1459488,0.21969602,-0.30531392,0.31186056,-0.10511553,-0.29756224,0.26275563,0.0056228125}, 
{0.20858935,0.22396511,-0.18183805,-0.28585866,-0.13744512,0.15738899,-0.34235525,-0.17693157,-0.030270131,-0.14548413,-0.1763594,0.37650344,0.31568864,-0.1582809,0.09503167,0.1570514}, 
{0.19164892,0.23204768,0.04915033,-0.046234,0.32176697,0.10378194,-0.061077967,-0.30982307,0.28902987,-0.04290433,0.2543563,0.2738022,-0.19470048,0.043864697,0.05314369,0.22186482}, 
{0.23541212,-0.33832005,0.23707877,-0.055603113,0.337797,-0.38015538,0.044879284,-0.14653246,0.4146422,0.15746427,-0.21424662,0.017783424,-0.2092657,0.42426506,-0.19400834,0.116459474}, 
{0.41397116,-0.14129214,0.40485102,0.29527533,0.1074817,-0.14247265,-0.1319629,0.18901776,0.101668894,-0.071082175,-0.154239,-0.05391429,-0.056161664,-0.10507856,-0.09240162,-0.36553746}, 
{0.06573329,0.5339222,-0.26580265,-0.38480592,-0.33586204,0.093864396,0.21208026,-0.2535369,0.2937024,0.093363434,-0.058284204,0.32215226,0.16094641,0.0827367,-0.25200367,0.026100324}, 
{-0.12934667,0.052290343,-0.15732548,0.069298476,0.31769696,-0.38394457,-0.2757965,0.1928716,0.24227645,0.0720849,0.23056746,-0.29424867,0.07931102,0.2114069,-0.06618583,0.040464483}, 
{0.22021832,0.0077365264,-0.0066242022,0.40956467,-0.043658424,-0.095763676,-0.2098451,-0.33920366,0.06001602,-0.19397238,0.05223697,0.027745612,-0.3921907,0.10612203,0.18445499,0.48283598}, 
{0.28924885,0.11951965,-0.011292406,0.14245199,-0.43055907,0.16074893,-0.13842815,0.1337228,-0.28830263,0.1716984,-0.07148377,0.34025925,0.30158177,-0.06746115,-0.0858271,0.35673025}, 
{0.12117779,0.4883128,0.12190894,-0.03813114,-0.091362394,0.3428703,-0.17083412,0.18342738,0.15739088,-0.25860506,-0.51532686,-0.061002515,0.42703113,-0.22112621,0.1095014,0.12189051}
};